tree
version=v4
num_class=1
num_tree_per_iteration=1
label_index=0
max_feature_idx=56
objective=regression
feature_names=week_sin week_cos city_estimated_population city_area_m2 city_area_km2 city_pop_density n_barangays_reported city_area_weighted_rainfall_lag19 city_area_weighted_rainfall_lag20 city_area_weighted_rh_lag13 city_area_weighted_rh_lag14 city_area_weighted_temp_c_lag5 city_area_weighted_temp_c_lag4 city_area_weighted_u_component_of_wind_10m_lag1 city_area_weighted_u_component_of_wind_10m_lag2 city_area_weighted_v_component_of_wind_10m_lag1 city_area_weighted_v_component_of_wind_10m_lag2 city_area_weighted_wind_speed_10m_lag5 city_area_weighted_wind_speed_10m_lag4 city_area_weighted_pop_density_lag20 city_area_weighted_pop_density_lag19 city_area_weighted_rainfall_rollmean_lag1_w4 city_area_weighted_rainfall_rollmean_lag1_w8 city_area_weighted_rh_rollmean_lag1_w4 city_area_weighted_rh_rollmean_lag1_w8 city_area_weighted_temp_c_rollmean_lag1_w4 city_area_weighted_temp_c_rollmean_lag1_w8 city_area_weighted_u_component_of_wind_10m_rollmean_lag1_w4 city_area_weighted_u_component_of_wind_10m_rollmean_lag1_w8 city_area_weighted_v_component_of_wind_10m_rollmean_lag1_w4 city_area_weighted_v_component_of_wind_10m_rollmean_lag1_w8 city_area_weighted_wind_speed_10m_rollmean_lag1_w4 city_area_weighted_wind_speed_10m_rollmean_lag1_w8 city_area_weighted_pop_density_rollmean_lag1_w4 city_area_weighted_pop_density_rollmean_lag1_w8 city_area_weighted_flood_risk_index_rollmean_lag1_w4 city_area_weighted_flood_risk_index_rollmean_lag1_w8 city_area_weighted_percent_annual_crop_rollmean_lag1_w4 city_area_weighted_percent_annual_crop_rollmean_lag1_w8 city_area_weighted_percent_brush_shrubs_rollmean_lag1_w4 city_area_weighted_percent_brush_shrubs_rollmean_lag1_w8 city_area_weighted_percent_built_up_rollmean_lag1_w4 city_area_weighted_percent_built_up_rollmean_lag1_w8 city_area_weighted_percent_inland_water_rollmean_lag1_w4 city_area_weighted_percent_inland_water_rollmean_lag1_w8 city_area_weighted_percent_open_forest_rollmean_lag1_w4 city_area_weighted_percent_open_forest_rollmean_lag1_w8 city_area_weighted_percent_perennial_crop_rollmean_lag1_w4 city_area_weighted_percent_perennial_crop_rollmean_lag1_w8 city_area_weighted_percent_open_barren_rollmean_lag1_w4 city_area_weighted_percent_open_barren_rollmean_lag1_w8 city_area_weighted_percent_fishpond_rollmean_lag1_w4 city_area_weighted_percent_fishpond_rollmean_lag1_w8 city_area_weighted_percent_grassland_rollmean_lag1_w4 city_area_weighted_percent_grassland_rollmean_lag1_w8 city_area_weighted_percent_mangrove_forest_rollmean_lag1_w4 city_area_weighted_percent_mangrove_forest_rollmean_lag1_w8
feature_infos=[-1:1] [-1:1] [914211.7095180488:964143.50380609359] none none [3142.64637869529:3314.2893043627] none [0.0025243612881299211:403.77764092016611] [0.0025243612881299211:403.77764092016611] [74.166209495041301:88.154553662835738] [74.166209495041301:88.154553662835738] [24.337778836331829:27.857639391615468] [24.337778836331829:27.857639391615468] [-4.5717681780699149:4.4965446280041954] [-4.5717681780699149:4.4965446280041954] [-6.2680500182560719:5.1247667214851038] [-6.2680500182560719:5.1247667214851038] [1.39564484944224:6.8002328204854665] [1.39564484944224:6.8002328204854665] [3125.6331669833717:3314.2893043626991] [3126.4700955675198:3314.2893043626991] [0.066242600448727776:147.57175632940832] [0.48078482996758953:119.23124797939784] [76.04244385379063:86.610761977842287] [76.761170402338564:86.082735724126366] [24.635251946080103:27.639879393457701] [24.734571822108446:27.440794559836895] [-3.4486736035175789:3.6280013469861503] [-3.0815340340364679:3.131422920161175] [-4.48361272930451:3.4734894156434146] [-3.8559405516430854:3.0795858777581708] [1.7342058228275261:5.7925001460518359] [1.9506388693011207:5.3170040362056081] [3140.4885697881891:3314.1262969917143] [3138.7712235644044:3313.8757850504171] none none none none none none none none none none none none none none none none none none none none none none
tree_sizes=646 855 753 834 852 754 747 859 844 851 821 833 767 842 850 767 848 839 846 844 778 842

Tree=0
num_leaves=6
num_cat=0
split_feature=2 2 30 29 8
split_gain=23.9146 11.1646 8.64467 5.55499 2.51966
threshold=929112.09607254609 962619.29232193122 -1.337297430090969 -2.3439999290676874 1.7465743398681837
decision_type=2 2 2 2 2
left_child=2 3 -1 -2 -4
right_child=1 -3 4 -5 -6
leaf_value=0.56947374646280824 0.56793923120449008 0.55752466988478722 0.60332179793198315 0.58241346575777952 0.59230373167334793
leaf_weight=27 79.5 63 136 373.5 90.5
leaf_count=18 51 42 24 169 30
internal_value=0.583253 0.577079 0.595802 0.579853 0.598994
internal_weight=769.5 516 253.5 453 226.5
internal_count=334 262 72 220 54
is_linear=0
shrinkage=1


Tree=1
num_leaves=8
num_cat=0
split_feature=2 30 19 34 7 28 19
split_gain=20.8965 15.8615 8.99308 10.7935 4.27854 2.32507 0.0626299
threshold=954310.80352893798 -1.417304923735603 3307.9253368134487 3309.0927249454858 8.3222599558371275 -1.8351209175064496 3307.5644684774188
decision_type=2 2 2 2 2 2 2
left_child=1 5 6 -4 -3 -1 -2
right_child=2 4 3 -5 -6 -7 -8
leaf_value=-0.013521939305961132 -0.02577999144042813 0.015558998209537206 0.007179099217262919 -0.021256966147802574 0.0050877979017718879 0.0043502572733494973 -0.016861252417931193
leaf_weight=99 78.5 197 80.5 55.5 197 21.5 11.999999999999998
leaf_count=66 53 50 31 37 77 9 8
internal_value=-6.51956e-05 0.00550194 -0.0126907 -0.00447753 0.0103559 -0.010303 -0.0248219
internal_weight=741 514.5 226.5 136 394 120.5 90.5
internal_count=331 202 129 68 127 75 61
is_linear=0
shrinkage=0.05


Tree=2
num_leaves=7
num_cat=0
split_feature=2 30 19 2 8 28
split_gain=22.3512 13.1943 6.26282 6.57925 3.7065 2.21612
threshold=954310.80352893798 -1.417304923735603 3307.8080879886775 962458.4493606576 1.7465743398681837 -1.8351209175064496
decision_type=2 2 2 2 2 2
left_child=1 5 -2 -4 -3 -1
right_child=2 4 3 -5 -6 -7
leaf_value=-0.012658138501967115 -0.024274128334862848 0.015848037048658035 0.0041809617896797135 -0.018925007270148196 0.0054748842916881833 0.005257200274084297
leaf_weight=100.5 93.5 137 63 58.5 237 20
leaf_count=67 63 33 27 39 92 8
internal_value=-0.0011706 0.00467841 -0.0145943 -0.0069874 0.00931347 -0.00964527
internal_weight=709.5 494.5 215 121.5 374 120.5
internal_count=329 200 129 66 125 75
is_linear=0
shrinkage=0.05


Tree=3
num_leaves=8
num_cat=0
split_feature=2 26 11 23 2 19 32
split_gain=16.8793 12.5565 7.65653 5.3195 3.77013 1.63112 1.56072
threshold=954310.80352893798 26.174540365488919 25.410479855130422 84.451249091813409 932073.73129023437 3307.8080879886775 3.8544011037214143
decision_type=2 2 2 2 2 2 2
left_child=1 6 3 -2 -3 -4 -1
right_child=2 4 5 -5 -6 -7 -8
leaf_value=-0.0015042004041967139 -0.01338668032884598 0.015017974564663906 -0.022672972796778934 0.017087325249145281 0.0049373238653407821 -0.011990269575939044 -0.012574524646805177
leaf_weight=55.5 24 183 75 32.5 192 79.5 76.5
leaf_count=30 15 43 51 6 74 49 51
internal_value=0.000276208 0.0052248 -0.0115712 0.00409145 0.00989019 -0.0173046 -0.00798506
internal_weight=718 507 211 56.5 375 154.5 132
internal_count=319 198 121 21 117 100 81
is_linear=0
shrinkage=0.05


Tree=4
num_leaves=8
num_cat=0
split_feature=2 30 12 23 8 28 19
split_gain=16.4758 10.1423 6.57659 4.96429 2.7483 1.50316 1.29764
threshold=954310.80352893798 -1.417304923735603 25.410479855130422 84.673052484288391 1.6110406739335958 -1.718366142962827 3307.9253368134487
decision_type=2 2 2 2 2 2 2
left_child=1 5 3 -2 -3 -1 -4
right_child=2 4 6 -5 -6 -7 -8
leaf_value=-0.011145250288993901 -0.010314638715935872 0.013850141503825422 -0.021173817811590254 0.018790056661323263 0.0052360872471630031 0.0052693161458680126 -0.011901022750665159
leaf_weight=94.5 31 142.5 81.5 26 272 15.499999999999998 84
leaf_count=63 18 33 55 4 104 6 53
internal_value=-0.000186022 0.00464704 -0.01156 0.00301316 0.00822972 -0.00878313 -0.0165821
internal_weight=747 524.5 222.5 57 414.5 110 165.5
internal_count=336 206 130 22 137 69 108
is_linear=0
shrinkage=0.05


Tree=5
num_leaves=7
num_cat=0
split_feature=2 25 19 33 7 25
split_gain=15.0919 9.36638 4.6608 6.75642 4.0368 0.994311
threshold=954310.80352893798 26.036406121287524 3307.8080879886775 3309.0891933755638 6.134234846823003 25.811182499952938
decision_type=2 2 2 2 2 2
left_child=1 5 -2 -4 -3 -1
right_child=2 4 3 -5 -6 -7
leaf_value=-0.0123655868862776 -0.02045944042546409 0.012620800481515702 0.003680509984964666 -0.019029131434180519 0.0026807913102870652 -0.0027380790873185587
leaf_weight=67.5 86.5 203 80 54 207.5 46.5
leaf_count=45 58 52 36 36 86 26
internal_value=-0.000512326 0.00409893 -0.0114613 -0.00552578 0.00762111 -0.00851827
internal_weight=745 524.5 220.5 134 410.5 114
internal_count=339 209 130 72 138 71
is_linear=0
shrinkage=0.05


Tree=6
num_leaves=7
num_cat=0
split_feature=2 29 2 19 2 2
split_gain=16.8783 5.99053 4.89734 3.26582 2.79683 1.1127
threshold=929112.09607254609 0.2907162347693813 962619.29232193122 3308.4968492937901 924676.06170196657 926258.55302196217
decision_type=2 2 2 2 2 2
left_child=1 4 3 -2 -1 -3
right_child=2 5 -4 -5 -6 -7
leaf_value=-0.0091799999006876819 -0.0060234223747401561 0.010224787095827716 -0.018417707052264181 0.0067500496783062941 0.010214786367093932 0.019004526518760848
leaf_weight=46.5 344 69 70.5 57.5 29.5 93
leaf_count=30 189 19 47 22 8 13
internal_value=-0.000868365 0.00995884 -0.00634264 -0.00417566 -0.0015844 0.015366
internal_weight=710 238 472 401.5 76 162
internal_count=328 70 258 211 38 32
is_linear=0
shrinkage=0.05


Tree=7
num_leaves=8
num_cat=0
split_feature=2 29 20 2 7 32 20
split_gain=14.3204 8.98202 4.64913 5.21899 2.57948 0.56867 0.0313486
threshold=954310.80352893798 -1.7020023716289561 3307.9253368134487 962458.4493606576 8.8378356218287255 3.7815401355956637 3306.5106535805053
decision_type=2 2 2 2 2 2 2
left_child=1 5 6 -4 -3 -1 -2
right_child=2 4 3 -5 -6 -7 -8
leaf_value=-0.0008070124918594957 -0.020022648543487363 0.011579707903207724 0.0053855615334455365 -0.01542596634114738 0.0035051418761991165 -0.011718363186607024 -0.01391731550863811
leaf_weight=14.999999999999998 80 201 63.5 55.5 198.5 73.5 16.5
leaf_count=8 54 53 25 37 80 49 11
internal_value=-0.000340155 0.00439662 -0.0110489 -0.00434749 0.0075927 -0.0099266 -0.0191578
internal_weight=703.5 488 215.5 119 399.5 88.5 96.5
internal_count=317 190 127 62 133 57 65
is_linear=0
shrinkage=0.05


Tree=8
num_leaves=8
num_cat=0
split_feature=2 29 19 2 8 28 19
split_gain=13.5113 8.71848 2.96511 4.02201 2.96435 0.930394 0.112027
threshold=954310.80352893798 -1.5443299414484011 3308.1656486580914 962458.4493606576 1.7465743398681837 -1.8351209175064496 3307.5644684774188
decision_type=2 2 2 2 2 2 2
left_child=1 5 6 -4 -3 -1 -2
right_child=2 4 3 -5 -6 -7 -8
leaf_value=-0.010024053416561082 -0.01857985676788702 0.013327528919567143 0.0049797396387904888 -0.014491750310480068 0.0041171314054800944 0.00017870578220335106 -0.012189174090943687
leaf_weight=94.5 81 141.5 49 55.5 232.5 28.5 19.5
leaf_count=63 55 30 20 37 92 13 13
internal_value=-0.00061483 0.00383734 -0.011387 -0.00537722 0.00763473 -0.00765746 -0.0174968
internal_weight=702 497 205 104.5 374 123 100.5
internal_count=323 198 125 57 122 76 68
is_linear=0
shrinkage=0.05


Tree=9
num_leaves=8
num_cat=0
split_feature=2 22 2 16 19 2 24
split_gain=10.7815 4.87619 5.43331 4.2449 2.57393 1.47365 0.393494
threshold=929112.09607254609 42.704925626447064 954849.32328886644 -1.0314015720681946 3308.4968492937901 926258.55302196217 82.989598345165305
decision_type=2 2 2 2 2 2 2
left_child=3 2 -2 6 -3 -5 -1
right_child=1 4 -4 5 -6 -7 -8
leaf_value=-0.009037683828999955 0.0051984793378306287 -0.011922972316566197 -0.014728497631409588 0.0074897622328032459 -0.00092918295217187777 0.016374334848240801 0.00080520654097199446
leaf_weight=27 174 188.5 41.5 101 75 94 14.999999999999998
leaf_count=18 67 122 28 30 36 15 7
internal_value=4.2674e-05 -0.00426823 0.00129918 0.00874725 -0.00881861 0.011847 -0.00552725
internal_weight=716 479 215.5 237 263.5 195 42
internal_count=323 253 95 70 158 45 25
is_linear=0
shrinkage=0.05


Tree=10
num_leaves=8
num_cat=0
split_feature=2 26 19 2 28 31 19
split_gain=8.94966 7.23036 5.05691 6.27566 2.58271 1.20637 0.171865
threshold=954310.80352893798 26.505611187533002 3308.319116391976 962362.10142236948 -1.8351209175064496 2.1429155241476985 3307.5644684774188
decision_type=2 2 2 2 2 2 2
left_child=1 4 6 -4 -1 -3 -2
right_child=2 5 3 -5 -6 -7 -8
leaf_value=-0.0084746804876190615 -0.017108517450116139 0 0.01070936834660627 -0.012159679082573437 0.001752146961108667 0.010346020299039664 -0.010991191886505991
leaf_weight=103.5 84 32 58 60 149.5 250 25.5
leaf_count=69 57 14 16 40 62 66 17
internal_value=0.000151628 0.00368684 -0.00813076 -0.000902418 -0.00243861 0.0091804 -0.0158189
internal_weight=762.5 535 227.5 118 253 282 109.5
internal_count=341 211 130 56 131 80 74
is_linear=0
shrinkage=0.05


Tree=11
num_leaves=8
num_cat=0
split_feature=2 8 2 20 2 25 24
split_gain=8.66551 4.34972 4.20461 3.39796 1.52992 0.963313 0.00935149
threshold=929112.09607254609 8.8378356218287255 962556.70298914018 3308.6907953399405 925462.95317175926 26.60193671306974 81.88817909269018
decision_type=2 2 2 2 2 2 2
left_child=1 5 3 -2 -3 -1 -4
right_child=2 4 6 -5 -6 -7 -8
leaf_value=0.0078340769014251764 -0.003574126612267259 -0.007847813387935082 -0.01092979383468628 0.0093981983904111183 0.0063490089209693864 0.01603701264300245 -0.015795990212397141
leaf_weight=66 347 43.5 16.5 58 32 93 54
leaf_count=18 183 28 11 18 10 13 36
internal_value=0.000198029 0.00804735 -0.0036765 -0.00169163 -0.0017936 0.0127179 -0.0148609
internal_weight=710 234.5 475.5 405 75.5 159 70.5
internal_count=317 69 248 201 38 31 47
is_linear=0
shrinkage=0.05


Tree=12
num_leaves=7
num_cat=0
split_feature=2 25 23 7 19 26
split_gain=9.68736 7.06934 3.34289 1.78591 0.879482 0.688487
threshold=954310.80352893798 26.036406121287524 84.673052484288391 8.3222599558371275 3307.8080879886775 25.83375632507126
decision_type=2 2 2 2 2 2
left_child=1 5 4 -3 -2 -1
right_child=2 3 -4 -5 -6 -7
leaf_value=-0.0099153748346226551 -0.015598781184342348 0.010255713114934152 0.0057138402409413289 0.0036106821118464952 -0.0081896502381475101 -0.0020842373014270969
leaf_weight=69 75 214.5 33 196.5 100.5 49.5
leaf_count=46 51 52 11 75 62 27
internal_value=0.000401082 0.00399884 -0.00869922 0.00710125 -0.0114405 -0.00670988
internal_weight=738 529.5 208.5 411 175.5 118.5
internal_count=324 200 124 127 113 73
is_linear=0
shrinkage=0.05


Tree=13
num_leaves=8
num_cat=0
split_feature=2 30 2 2 2 25 24
split_gain=7.31946 3.64122 3.62688 3.17215 1.93863 0.661843 0.0161239
threshold=929112.09607254609 0.82824012932310997 962619.29232193122 939255.3033865426 924676.06170196657 26.635064878833383 82.194908013749554
decision_type=2 2 2 2 2 2 2
left_child=1 4 3 -2 -1 -3 -4
right_child=2 5 6 -5 -6 -7 -8
leaf_value=-0.0077159503381699331 -0.0099056695284875668 0.0093111866294291988 -0.010342065146783505 0.00046865818490209114 0.0063737119783539896 0.016701663544303493 -0.014825143776834011
leaf_weight=45 91.5 84.5 19.5 360 51 56 51
leaf_count=29 61 19 13 165 15 7 34
internal_value=-3.8289e-06 0.007272 -0.00331264 -0.0016455 -0.000216502 0.0123717 -0.0137821
internal_weight=758.5 236.5 522 451.5 96 140.5 70.5
internal_count=343 70 273 226 44 26 47
is_linear=0
shrinkage=0.05


Tree=14
num_leaves=8
num_cat=0
split_feature=2 26 19 2 10 28 19
split_gain=7.58948 4.85602 3.50243 4.49721 1.61963 0.527378 0.0511143
threshold=954310.80352893798 26.174540365488919 3308.1656486580914 962362.10142236948 83.566995278436394 -1.8351209175064496 3307.5644684774188
decision_type=2 2 2 2 2 2 2
left_child=1 5 6 -4 -3 -1 -2
right_child=2 4 3 -5 -6 -7 -8
leaf_value=-0.0066770561290149747 -0.015100077017673156 0.0077888227149650827 0.0082699316180660388 -0.010779557281639427 -0.0015780517403210436 0.00048796305616556764 -0.010149733678596777
leaf_weight=91.5 78.5 341 59 63 52.5 34.5 19.5
leaf_count=61 53 98 19 42 24 16 13
internal_value=0.000498751 0.0037974 -0.00726118 -0.00155444 0.00653194 -0.00470713 -0.0142528
internal_weight=739.5 519.5 220 122 393.5 126 98
internal_count=326 199 127 61 122 77 66
is_linear=0
shrinkage=0.05


Tree=15
num_leaves=7
num_cat=0
split_feature=2 26 19 33 24 26
split_gain=6.88389 4.61767 2.10559 2.28933 1.66154 0.814255
threshold=954849.32328886644 26.230810001026867 3307.8080879886775 3309.0891933755638 82.69468826545625 25.83375632507126
decision_type=2 2 2 2 2 2
left_child=1 5 -2 -4 -3 -1
right_child=2 4 3 -5 -6 -7
leaf_value=-0.0082672018334843632 -0.014454399350984595 0.0076609737122401312 0.0018566170427622602 -0.011926445963864142 -0.00020777129184054792 -0.0011172795285536944
leaf_weight=72 80 277.5 70.5 51 87.5 90.5
leaf_count=48 54 81 33 34 37 46
internal_value=-0.000347639 0.00265271 -0.00818881 -0.00395859 0.00577239 -0.00433172
internal_weight=729 527.5 201.5 121.5 365 162.5
internal_count=333 212 121 67 118 94
is_linear=0
shrinkage=0.05


Tree=16
num_leaves=8
num_cat=0
split_feature=2 22 29 29 28 2 2
split_gain=5.14402 3.89891 3.57775 1.6152 0.957401 0.760359 0.443218
threshold=929112.09607254609 62.91268541663802 0.2907162347693813 -2.3439999290676874 -1.3902935643278311 924676.06170196657 926258.55302196217
decision_type=2 2 2 2 2 2 2
left_child=2 3 5 -2 -3 -1 -4
right_child=1 4 6 -5 -6 -7 -8
leaf_value=-0.0069782660529017458 -0.0074643355612000768 -0.0050282579491535834 0.0069726569647506126 0.0016791036668551548 -0.013001944740143049 0.0036406673090877356 0.012927217978336243
leaf_weight=43.5 57 74 58 287.5 83.5 26 91
leaf_count=28 36 43 15 125 56 9 14
internal_value=-4.62062e-05 -0.00283657 0.00633693 0.000141794 -0.00932671 -0.00297496 0.0106879
internal_weight=720.5 502 218.5 344.5 157.5 69.5 149
internal_count=326 260 66 161 99 37 29
is_linear=0
shrinkage=0.05


Tree=17
num_leaves=8
num_cat=0
split_feature=5 25 19 5 7 25 19
split_gain=5.18116 3.79334 2.81339 3.11709 1.413 0.441959 0.149233
threshold=3280.4889279322892 26.036406121287524 3308.319116391976 3308.1656486580919 8.3222599558371275 25.618772754177019 3305.857297158293
decision_type=2 2 2 2 2 2 2
left_child=1 5 6 -4 -3 -1 -2
right_child=2 4 3 -5 -6 -7 -8
leaf_value=-0.0086740830999895418 -0.013936013471695687 0.0076816758852783999 0.0089782160901361024 -0.0082756960673630222 0.0018005096592571376 -0.002340477950919163 -0.0085608873895502528
leaf_weight=57 76.5 201 44 61.5 211 57 27
leaf_count=38 52 52 13 41 85 33 18
internal_value=-0.000191434 0.00245173 -0.00683551 -0.00103954 0.00468743 -0.00557691 -0.0126531
internal_weight=735 526 209 105.5 412 114 103.5
internal_count=332 208 124 54 137 71 70
is_linear=0
shrinkage=0.05


Tree=18
num_leaves=8
num_cat=0
split_feature=2 22 2 22 2 30 25
split_gain=6.59958 2.80579 2.54769 2.50713 1.85353 0.691031 0.334672
threshold=929112.09607254609 56.406447518754192 954849.32328886644 45.443723763294308 925068.420448074 -0.45190827400185413 26.60193671306974
decision_type=2 2 2 2 2 2 2
left_child=3 2 -2 4 -1 -3 -5
right_child=1 5 -4 6 -6 -7 -8
leaf_value=-0.0059883347272622484 0.0020531145025062254 -0.005513791148145885 -0.0077792939519343886 0.007756397933201882 0.0083812759837342647 -0.011777577962668449 0.012836286336183549
leaf_weight=58.5 211 91 94.5 102 35 95.5 59
leaf_count=36 93 56 57 24 7 63 8
internal_value=-0.000581219 -0.00396342 -0.000995636 0.0059374 -0.000551111 -0.00878029 0.00970115
internal_weight=746.5 492 305.5 254.5 93.5 186.5 161
internal_count=344 269 150 75 43 119 32
is_linear=0
shrinkage=0.05


Tree=19
num_leaves=8
num_cat=0
split_feature=2 30 24 1 10 20 1
split_gain=4.1476 4.06903 3.30016 3.13736 1.67756 0.52704 0.275697
threshold=954849.32328886644 -1.417304923735603 84.101625039755177 0.4647231720437684 83.566995278436394 3306.5106535805053 -0.12053668025532321
decision_type=2 2 2 2 2 2 2
left_child=1 6 5 -4 -3 -2 -1
right_child=2 4 3 -5 -6 -7 -8
leaf_value=-0.0010403858277536298 -0.013647164726021267 0.0065197303014862349 0.013461548811510991 -0.0085907022016389039 -0.0026859181704728501 -0.0070881692579318886 -0.0068749292034874943
leaf_weight=28.5 49.5 355 37 27 56.5 100.5 84
leaf_count=16 34 102 7 18 27 63 56
internal_value=0.000543155 0.002941 -0.00530294 0.00413076 0.00524626 -0.00934524 -0.00544106
internal_weight=738 524 214 64 411.5 150 112.5
internal_count=323 201 122 25 129 97 72
is_linear=0
shrinkage=0.05


Tree=20
num_leaves=7
num_cat=0
split_feature=2 32 0 15 34 24
split_gain=3.72456 2.44462 1.53622 0.978072 0.0132708 0.0402797
threshold=962619.29232193122 3.7815401355956637 0.95297903005573359 -1.1152500177108708 3309.7570452119453 81.88817909269018
decision_type=2 2 2 2 2 2
left_child=1 2 -1 -3 -2 -6
right_child=4 3 -4 -5 5 -7
leaf_value=0.0022861558844341364 -0.0068057597428560256 -0.0063047494430298577 0.014590637242352524 0.0023699739744717429 -0.0074414563945361563 -0.012077857864530464
leaf_weight=465.5 11.999999999999998 122.5 26 43 16.5 46.5
leaf_count=180 8 79 4 17 11 31
internal_value=-8.61854e-06 0.00119845 0.00297043 -0.00403518 -0.0104921 -0.0110379
internal_weight=732 657 491.5 165.5 75 63
internal_count=330 280 184 96 50 42
is_linear=0
shrinkage=0.05


Tree=21
num_leaves=8
num_cat=0
split_feature=2 22 2 29 2 30 29
split_gain=3.91081 2.8465 2.48193 2.13469 1.48111 0.909558 0.441615
threshold=929112.09607254609 62.91268541663802 925068.420448074 1.0548161285080868 954310.80352893798 -0.32517788682770032 1.8440760945676826
decision_type=2 2 2 2 2 2 2
left_child=2 4 3 -1 -2 -3 -4
right_child=1 5 6 -5 -6 -7 -8
leaf_value=-0.0066687547114967303 0.0025513222409271328 -0.0039916308454491884 0.0075486290243636693 0.0077155515477880026 -0.0040777558822489204 -0.01174899828947143 0.013734757000086259
leaf_weight=58.5 243.5 81.5 96 44.5 127.5 74.5 48
leaf_count=37 101 48 21 9 70 50 6
internal_value=0.000310238 -0.00211942 0.00549188 -0.000415705 0.000261577 -0.00776343 0.00970841
internal_weight=774 527 247 103 371 156 144
internal_count=342 269 73 46 171 98 27
is_linear=0
shrinkage=0.05


end of trees

feature_importances:
city_estimated_population=44
city_area_weighted_pop_density_lag20=18
city_area_weighted_temp_c_rollmean_lag1_w4=8
city_area_weighted_v_component_of_wind_10m_rollmean_lag1_w4=8
city_area_weighted_v_component_of_wind_10m_rollmean_lag1_w8=8
city_area_weighted_u_component_of_wind_10m_rollmean_lag1_w8=7
city_area_weighted_rh_rollmean_lag1_w8=6
city_area_weighted_temp_c_rollmean_lag1_w8=6
city_area_weighted_rainfall_lag19=5
city_area_weighted_rainfall_lag20=5
city_area_weighted_rainfall_rollmean_lag1_w8=5
city_area_weighted_pop_density_lag19=4
city_area_weighted_rh_rollmean_lag1_w4=3
city_area_weighted_wind_speed_10m_rollmean_lag1_w8=3
week_cos=2
city_pop_density=2
city_area_weighted_rh_lag14=2
city_area_weighted_pop_density_rollmean_lag1_w4=2
city_area_weighted_pop_density_rollmean_lag1_w8=2
week_sin=1
city_area_weighted_temp_c_lag5=1
city_area_weighted_temp_c_lag4=1
city_area_weighted_v_component_of_wind_10m_lag1=1
city_area_weighted_v_component_of_wind_10m_lag2=1
city_area_weighted_wind_speed_10m_rollmean_lag1_w4=1

parameters:
[boosting: gbdt]
[objective: regression]
[metric: rmse]
[tree_learner: serial]
[device_type: cpu]
[data_sample_strategy: bagging]
[data: ]
[valid: ]
[num_iterations: 22]
[learning_rate: 0.05]
[num_leaves: 15]
[num_threads: 0]
[seed: 0]
[deterministic: 0]
[force_col_wise: 1]
[force_row_wise: 0]
[histogram_pool_size: -1]
[max_depth: 3]
[min_data_in_leaf: 8]
[min_sum_hessian_in_leaf: 0.001]
[bagging_fraction: 0.85]
[pos_bagging_fraction: 1]
[neg_bagging_fraction: 1]
[bagging_freq: 1]
[bagging_seed: 3]
[bagging_by_query: 0]
[feature_fraction: 0.85]
[feature_fraction_bynode: 1]
[feature_fraction_seed: 2]
[extra_trees: 0]
[extra_seed: 6]
[early_stopping_round: 0]
[early_stopping_min_delta: 0]
[first_metric_only: 0]
[max_delta_step: 0]
[lambda_l1: 0.05]
[lambda_l2: 1]
[linear_lambda: 0]
[min_gain_to_split: 0]
[drop_rate: 0.1]
[max_drop: 50]
[skip_drop: 0.5]
[xgboost_dart_mode: 0]
[uniform_drop: 0]
[drop_seed: 4]
[top_rate: 0.2]
[other_rate: 0.1]
[min_data_per_group: 100]
[max_cat_threshold: 32]
[cat_l2: 10]
[cat_smooth: 10]
[max_cat_to_onehot: 4]
[top_k: 20]
[monotone_constraints: ]
[monotone_constraints_method: basic]
[monotone_penalty: 0]
[feature_contri: ]
[forcedsplits_filename: ]
[refit_decay_rate: 0.9]
[cegb_tradeoff: 1]
[cegb_penalty_split: 0]
[cegb_penalty_feature_lazy: ]
[cegb_penalty_feature_coupled: ]
[path_smooth: 0]
[interaction_constraints: ]
[verbosity: -1]
[saved_feature_importance_type: 0]
[use_quantized_grad: 0]
[num_grad_quant_bins: 4]
[quant_train_renew_leaf: 0]
[stochastic_rounding: 1]
[linear_tree: 0]
[max_bin: 255]
[max_bin_by_feature: ]
[min_data_in_bin: 3]
[bin_construct_sample_cnt: 200000]
[data_random_seed: 1]
[is_enable_sparse: 1]
[enable_bundle: 1]
[use_missing: 1]
[zero_as_missing: 0]
[feature_pre_filter: 1]
[pre_partition: 0]
[two_round: 0]
[header: 0]
[label_column: ]
[weight_column: ]
[group_column: ]
[ignore_column: ]
[categorical_feature: ]
[forcedbins_filename: ]
[precise_float_parser: 0]
[parser_config_file: ]
[objective_seed: 5]
[num_class: 1]
[is_unbalance: 0]
[scale_pos_weight: 1]
[sigmoid: 1]
[boost_from_average: 1]
[reg_sqrt: 0]
[alpha: 0.9]
[fair_c: 1]
[poisson_max_delta_step: 0.7]
[tweedie_variance_power: 1.5]
[lambdarank_truncation_level: 30]
[lambdarank_norm: 1]
[label_gain: ]
[lambdarank_position_bias_regularization: 0]
[eval_at: ]
[multi_error_top_k: 1]
[auc_mu_weights: ]
[num_machines: 1]
[local_listen_port: 12400]
[time_out: 120]
[machine_list_filename: ]
[machines: ]
[gpu_platform_id: -1]
[gpu_device_id: -1]
[gpu_use_dp: 0]
[num_gpu: 1]

end of parameters
