tree
version=v4
num_class=1
num_tree_per_iteration=1
label_index=0
max_feature_idx=56
objective=regression
feature_names=week_sin week_cos city_estimated_population city_area_m2 city_area_km2 city_pop_density n_barangays_reported city_area_weighted_rainfall_lag19 city_area_weighted_rainfall_lag20 city_area_weighted_rh_lag20 city_area_weighted_rh_lag19 city_area_weighted_temp_c_lag14 city_area_weighted_temp_c_lag13 city_area_weighted_u_component_of_wind_10m_lag7 city_area_weighted_u_component_of_wind_10m_lag8 city_area_weighted_v_component_of_wind_10m_lag8 city_area_weighted_v_component_of_wind_10m_lag10 city_area_weighted_wind_speed_10m_lag14 city_area_weighted_wind_speed_10m_lag13 city_area_weighted_pop_density_lag20 city_area_weighted_pop_density_lag19 city_area_weighted_rainfall_rollmean_lag1_w4 city_area_weighted_rainfall_rollmean_lag1_w8 city_area_weighted_rh_rollmean_lag1_w4 city_area_weighted_rh_rollmean_lag1_w8 city_area_weighted_temp_c_rollmean_lag1_w4 city_area_weighted_temp_c_rollmean_lag1_w8 city_area_weighted_u_component_of_wind_10m_rollmean_lag1_w4 city_area_weighted_u_component_of_wind_10m_rollmean_lag1_w8 city_area_weighted_v_component_of_wind_10m_rollmean_lag1_w4 city_area_weighted_v_component_of_wind_10m_rollmean_lag1_w8 city_area_weighted_wind_speed_10m_rollmean_lag1_w4 city_area_weighted_wind_speed_10m_rollmean_lag1_w8 city_area_weighted_pop_density_rollmean_lag1_w4 city_area_weighted_pop_density_rollmean_lag1_w8 city_area_weighted_flood_risk_index_rollmean_lag1_w4 city_area_weighted_flood_risk_index_rollmean_lag1_w8 city_area_weighted_percent_annual_crop_rollmean_lag1_w4 city_area_weighted_percent_annual_crop_rollmean_lag1_w8 city_area_weighted_percent_brush_shrubs_rollmean_lag1_w4 city_area_weighted_percent_brush_shrubs_rollmean_lag1_w8 city_area_weighted_percent_built_up_rollmean_lag1_w4 city_area_weighted_percent_built_up_rollmean_lag1_w8 city_area_weighted_percent_inland_water_rollmean_lag1_w4 city_area_weighted_percent_inland_water_rollmean_lag1_w8 city_area_weighted_percent_open_forest_rollmean_lag1_w4 city_area_weighted_percent_open_forest_rollmean_lag1_w8 city_area_weighted_percent_perennial_crop_rollmean_lag1_w4 city_area_weighted_percent_perennial_crop_rollmean_lag1_w8 city_area_weighted_percent_open_barren_rollmean_lag1_w4 city_area_weighted_percent_open_barren_rollmean_lag1_w8 city_area_weighted_percent_fishpond_rollmean_lag1_w4 city_area_weighted_percent_fishpond_rollmean_lag1_w8 city_area_weighted_percent_grassland_rollmean_lag1_w4 city_area_weighted_percent_grassland_rollmean_lag1_w8 city_area_weighted_percent_mangrove_forest_rollmean_lag1_w4 city_area_weighted_percent_mangrove_forest_rollmean_lag1_w8
feature_infos=[-1:1] [-1:1] [914211.7095180488:964143.50380609359] none none [3142.64637869529:3314.2893043627] none [0.0025243612881299211:403.77764092016611] [0.0025243612881299211:403.77764092016611] [74.166209495041301:88.154553662835738] [74.166209495041301:88.154553662835738] [24.337778836331829:27.857639391615468] [24.337778836331829:27.857639391615468] [-4.5717681780699149:4.4965446280041954] [-4.5717681780699149:4.4965446280041954] [-6.2680500182560719:5.1247667214851038] [-6.2680500182560719:5.1247667214851038] [1.39564484944224:6.8002328204854665] [1.39564484944224:6.8002328204854665] [3125.6331669833717:3314.2893043626991] [3126.4700955675198:3314.2893043626991] [0.066242600448727776:147.57175632940832] [0.48078482996758953:119.23124797939784] [76.04244385379063:86.610761977842287] [76.761170402338564:86.082735724126366] [24.635251946080103:27.639879393457701] [24.734571822108446:27.440794559836895] [-3.4486736035175789:3.6280013469861503] [-3.0815340340364679:3.131422920161175] [-4.48361272930451:3.4734894156434146] [-3.8559405516430854:3.0795858777581708] [1.7342058228275261:5.7925001460518359] [1.9506388693011207:5.3170040362056081] [3140.4885697881891:3314.1262969917143] [3138.7712235644044:3313.8757850504171] none none none none none none none none none none none none none none none none none none none none none none
tree_sizes=1139 951 1065 1264 1297 1214 1287 1058 1213 953 863 931 764 1287 1058 942 1051 1334 863 1302 1305 1295 1304 1328 1404 1121 1292 953 1062 1311 1383 1366 1211 1049 1292 935 1316 1298 759 1388 978 1054 1449 1207 1388 1393 1306 1317 1203 1048 1302

Tree=0
num_leaves=12
num_cat=0
split_feature=2 28 1 19 2 2 2 1 1 26 16
split_gain=26.1614 16.7767 8.46814 6.36764 9.41214 4.4475 3.24987 2.81675 2.62598 2.22648 0.72572
threshold=955933.59743728128 -0.68539767582538247 0.74851074817110097 3307.5576184428196 962406.74596153933 933376.3754701016 941141.56092325097 -0.70581670320594803 -0.1799261722714405 25.931773042544581 -0.79289168989527992
decision_type=2 2 2 2 2 2 2 2 2 2 2
left_child=1 2 10 -2 7 8 -7 -5 -3 -4 -1
right_child=3 5 9 4 -6 6 -8 -9 -10 -11 -12
leaf_value=0.57057801944397135 0.56646718832791643 0.57991552789441769 0.5802091801717566 0.58125221078663658 0.56728690167693274 0.57335393356254261 0.58045807546502848 0.57408378569009311 0.58533995588214971 0.57378261575636558 0.57534464843284716
leaf_weight=109.5 84 55.5 86.5 42.5 57 30 140 42 126 27 16.5
leaf_count=72 57 20 27 12 38 20 44 26 20 17 10
internal_value=0.576569 0.578783 0.574712 0.570798 0.57346 0.581557 0.579177 0.577687 0.583734 0.578649 0.571167
internal_weight=816.5 591 239.5 225.5 141.5 351.5 170 84.5 181.5 113.5 126
internal_count=363 230 126 133 76 104 64 38 40 44 82
is_linear=0
shrinkage=1


Tree=1
num_leaves=9
num_cat=0
split_feature=5 14 24 5 10 1 23 30
split_gain=24.5856 15.9503 7.69376 5.68494 4.11524 3.88801 1.31122 0.593224
threshold=3308.05924738356 0.15650334939684321 80.538279034984342 3211.5495737122528 79.503962507911169 -0.51639395938746235 83.761194988343917 -2.7784642915001574
decision_type=2 2 2 2 2 2 2 2
left_child=1 2 -1 6 -4 -5 -3 -2
right_child=7 3 4 5 -6 -7 -8 -9
leaf_value=-0.0073957913473470882 -0.0039209926053881648 0.0049685873738650622 0.0031936045457267655 0.0067468351763908313 -0.001519271157209037 -3.3269185040846655e-05 0.0092127238660245324 -0.0097330060804356414
leaf_weight=65.5 11.999999999999998 56.5 109 48 223.5 105 91 88
leaf_count=44 8 17 36 9 120 49 13 59
internal_value=7.28525e-05 0.00140903 -0.00121267 0.00487676 2.71176e-05 0.00212573 0.00766681 -0.00912352
internal_weight=798.5 698.5 398 300.5 332.5 153 147.5 100
internal_count=355 288 200 88 156 58 30 67
is_linear=0
shrinkage=0.02


Tree=2
num_leaves=10
num_cat=0
split_feature=2 14 21 2 8 15 2 12 30
split_gain=22.0761 13.3796 6.52242 5.26291 3.74858 2.39745 1.52072 0.781011 0.265234
threshold=962331.14875402476 -0.85977347944507965 22.553023132613081 929947.19843037985 18.019585413373523 0.44411508109272735 926258.55302196217 25.848702099613838 -2.5937361346899155
decision_type=2 2 2 2 2 2 2 2 2
left_child=1 2 7 6 -5 -4 -3 -1 -2
right_child=8 3 5 4 -6 -7 -8 -9 -10
leaf_value=-0.0073349785584292991 -0.0047604897200578342 0.0034563454384053194 0.00056618186465978151 0.0039079512934540473 -0.0013813175579250705 -0.0060919384236137073 0.0078433573997184012 -0.0016634382724761963 -0.0094965116613051469
leaf_weight=71.5 11.999999999999998 52.5 217 124.5 91.5 22.5 108 13.499999999999998 83.5
leaf_count=48 8 18 98 38 49 14 19 8 56
internal_value=-5.88237e-05 0.00117371 -0.00179417 0.00373394 0.00166409 -8.50447e-05 0.00646599 -0.00650179 -0.00900485
internal_weight=796.5 701 324.5 376.5 216 239.5 160.5 85 95.5
internal_count=356 292 168 124 87 112 37 56 64
is_linear=0
shrinkage=0.02


Tree=3
num_leaves=13
num_cat=0
split_feature=2 0 11 2 2 2 26 1 19 2 0 21
split_gain=19.5026 15.8815 7.54952 3.61567 4.36548 3.9276 3.59505 3.20565 1.89556 3.56486 0.516994 0.0292657
threshold=955933.59743728128 0.12053668025532312 25.410479855130422 932939.92576212331 941141.56092325097 926258.55302196217 26.363835931608151 0.4647231720437684 3307.5576184428196 962406.74596153933 0.61559370248597556 26.797814376158275
decision_type=2 2 2 2 2 2 2 2 2 2 2 2
left_child=1 3 6 5 -5 -1 -2 11 -4 -10 -9 -3
right_child=2 7 8 4 -6 -7 -8 10 9 -11 -12 -13
leaf_value=0.0022855341477053506 0.0054145558043702012 -0.0062912135824324594 -0.0094547839604370975 -0.0036522890607148047 0.003736358161055154 0.0080736583397065329 -0.0048855990670448133 0.0015988415090243022 -0.0011747126352317906 -0.0085833789330941653 -0.0017931954900639643 -0.0041874866971263183
leaf_weight=75.5 35 61.5 69 39 150 135 20 36 52.5 52.5 33 25.5
leaf_count=30 9 41 47 26 50 23 11 15 29 35 18 17
internal_value=9.66354e-05 0.00212363 -0.00479353 0.00423487 0.00218446 0.00603793 0.00160338 -0.00325916 -0.00682336 -0.00496654 0 -0.00577863
internal_weight=784.5 555.5 229 399.5 189 210.5 55 156 174 105 69 87
internal_count=351 220 131 129 76 53 20 91 111 64 33 58
is_linear=0
shrinkage=0.02


Tree=4
num_leaves=13
num_cat=0
split_feature=5 28 1 19 5 5 5 21 1 10 5 29
split_gain=22.1571 14.3646 6.27931 5.59348 9.48459 4.80346 3.00039 2.05304 2.02718 1.88351 0.447076 0.264628
threshold=3286.0673594337982 -0.68539767582538247 0.4647231720437684 3307.6240951166669 3308.05924738356 3208.5258324652209 3235.2190280239406 36.027464492679435 -0.1799261722714405 81.784151756999492 3308.496849293791 0.47862359806757465
decision_type=2 2 2 2 2 2 2 2 2 2 2 2
left_child=1 2 11 -2 7 8 -7 -5 -3 -4 -6 -1
right_child=3 5 9 4 10 6 -8 -9 -10 -11 -12 -13
leaf_value=-0.0061011862957116329 -0.0093209342627689745 0.0032001677081790027 0.0034534194733863489 0.0058161956122943339 -0.0034629175530539618 -0.0033509894008674325 0.0035217889642549884 -0.00085114869628197102 0.0083768942440257364 -0.0012307866157052366 -0.0086990771472454063 -0.002539160045710477
leaf_weight=81 85.5 45 65 33.5 11.999999999999998 30 129 37.5 126 69 58.5 14.999999999999998
leaf_count=54 58 16 22 8 8 20 43 21 20 36 39 10
internal_value=-5.66978e-05 0.00207754 -0.0017467 -0.0053096 -0.00279945 0.00474479 0.00219338 0.00232237 0.00706587 0.00103972 -0.00792631 -0.00561276
internal_weight=787 560 230 227 141.5 330 159 71 171 134 70.5 96
internal_count=355 221 122 134 76 99 63 29 36 58 47 64
is_linear=0
shrinkage=0.02


Tree=5
num_leaves=12
num_cat=0
split_feature=2 0 12 2 2 22 30 1 20 2 31
split_gain=24.3402 14.0274 4.63156 3.66164 5.451 3.69078 2.51722 2.11693 1.26849 2.97774 0.441049
threshold=955933.59743728128 0.35460488704253579 25.395006314376012 932505.71217918617 941141.56092325097 40.259408466667317 -1.2409859049652527 0.4647231720437684 3307.5576184428196 962406.74596153933 4.2076082855742643
decision_type=2 2 2 2 2 2 2 2 2 2 2
left_child=1 3 6 5 -5 -1 -2 -3 -4 -10 -9
right_child=2 7 8 4 -6 -7 -8 10 9 -11 -12
leaf_value=-0.0009481482714414597 -0.0047378476384011192 -0.0057121254269282022 -0.0091498814928120571 -0.003828868207681661 0.0036733263760359144 0.0066380074800101311 0.0044920434858284749 -0.0037737865492149638 -0.0013736188770622334 -0.0082244868675867711 0.00029679178283549849
leaf_weight=28.5 20.5 73.5 71 48 176 199 24 11.999999999999998 45 61.5 46.5
leaf_count=15 12 49 48 32 57 43 6 8 26 41 21
internal_value=6.78873e-05 0.00221513 -0.00554393 0.00389175 0.00204207 0.00567893 0.000180749 -0.00348397 -0.00697979 -0.00540756 -0.000578335
internal_weight=805.5 583.5 222 451.5 224 227.5 44.5 132 177.5 106.5 58.5
internal_count=358 225 133 147 89 58 18 78 115 67 29
is_linear=0
shrinkage=0.02


Tree=6
num_leaves=13
num_cat=0
split_feature=2 16 12 2 2 1 29 31 19 2 12 10
split_gain=20.4324 15.4736 7.2103 4.43563 4.19285 3.86665 3.29665 2.40542 1.1993 1.95433 0.802414 0.45271
threshold=955933.59743728128 -1.0314015720681946 25.395006314376012 929947.19843037985 941141.56092325097 0.78574730703237883 1.0000000180025095e-35 3.6382429977868807 3307.5083383820042 962458.4493606576 25.763669001710905 82.293743100190568
decision_type=2 2 2 2 2 2 2 2 2 2 2 2
left_child=1 5 6 7 -5 10 -2 -3 -4 -10 -1 -7
right_child=2 3 8 4 -6 11 -8 -9 9 -11 -12 -13
leaf_value=-0.0059121141553674849 -0.0034420953570750723 0.007310051211887908 -0.0092328287917123712 -0.0031650597689828527 0.0036445126209331499 0.0034535663007728519 0.006300378614001804 0.0014869165389161359 -0.0026362263389207701 -0.0082432511316405405 -0.0025985274029593185 -0.00041370296096190435
leaf_weight=78 27 162 69.5 46.5 144.5 29.5 25.5 36.5 52.5 52.5 57 18
leaf_count=52 14 31 47 30 46 10 5 15 32 35 33 9
internal_value=-8.26652e-05 0.00192997 -0.00514229 0.0041787 0.00196455 -0.00285344 0.00129649 0.00626848 -0.00708536 -0.00553513 -0.00457163 0.00197946
internal_weight=799 572 227 389.5 191 182.5 52.5 198.5 174.5 105 135 47.5
internal_count=359 226 133 122 76 104 19 46 114 67 85 19
is_linear=0
shrinkage=0.02


Tree=7
num_leaves=10
num_cat=0
split_feature=2 14 24 2 1 7 32 30 2
split_gain=17.8196 14.3064 6.37444 4.54692 3.74017 3.02356 0.878794 0.45168 0.0120761
threshold=962331.14875402476 0.24020203319530409 80.538279034984342 934255.99707606074 -0.61559370248597534 15.7028356113795 3.3351305350311899 -2.7784642915001574 956479.36049106228
decision_type=2 2 2 2 2 2 2 2 2
left_child=1 2 8 6 -5 -4 -3 -2 -1
right_child=7 3 5 4 -6 -7 -8 -9 -10
leaf_value=-0.0058817311332339329 -0.0034620746109220719 0.0085561081541871472 0.0018838534069669855 0.0071499764891876571 0.00019481347909046186 -0.0018755976514022966 0.0048344806193743109 -0.0086125040257849349 -0.0086109755652291446
leaf_weight=51 11.999999999999998 86.5 165 42 109.5 174.5 51.5 80.5 15.999999999999998
leaf_count=34 8 12 64 6 51 97 14 54 11
internal_value=0.000140409 0.00124428 -0.00117139 0.00463166 0.00218724 -4.23566e-05 0.00724849 -0.00803152 -0.00673698
internal_weight=788.5 696 406.5 289.5 151.5 339.5 138 92.5 67
internal_count=351 289 206 83 57 161 26 62 45
is_linear=0
shrinkage=0.02


Tree=8
num_leaves=12
num_cat=0
split_feature=2 0 11 2 2 29 1 20 2 14 12
split_gain=17.8764 12.5741 7.03489 3.32487 4.1224 3.2118 2.43742 1.19003 2.86314 0.656395 0.0817808
threshold=955933.59743728128 0.12053668025532312 25.410479855130422 917392.88906401931 932939.92576212331 1.0000000180025095e-35 0.56806474673115548 3307.5576184428196 962406.74596153933 -2.8166979147751703 25.795743251931878
decision_type=2 2 2 2 2 2 2 2 2 2 2
left_child=1 3 5 -1 -5 -2 10 -4 -9 -8 -3
right_child=2 6 7 4 -6 -7 9 8 -10 -11 -12
leaf_value=-0.0054776455481847135 -0.0032584531178762176 -0.0055218064315391306 -0.0086537383678076153 0.0061227884945602943 0.0020807818234852941 0.006028436701805865 -0.0032320323086912845 -0.0011103152674372479 -0.0079212697937957235 0.0012091330766093498 -0.0032643372826278213
leaf_weight=13.499999999999998 27.5 64.5 70 206.5 204.5 29 16.5 45 57 49.5 22.5
leaf_count=9 15 43 47 47 80 6 10 25 38 21 15
internal_value=0.000156444 0.00203234 -0.00455824 0.00380286 0.00413135 0.00150642 -0.00285627 -0.00655773 -0.0049954 2.20623e-05 -0.0050258
internal_weight=806 577.5 228.5 424.5 411 56.5 153 172 102 66 87
internal_count=356 225 131 136 127 21 89 110 63 31 58
is_linear=0
shrinkage=0.02


Tree=9
num_leaves=9
num_cat=0
split_feature=2 14 24 2 1 0 2 30
split_gain=17.3457 12.5496 6.29838 4.23002 3.51246 2.21267 1.19209 0.435067
threshold=962331.14875402476 0.15650334939684321 80.538279034984342 934255.99707606074 -0.61559370248597534 0.70581670320594825 927468.33602127049 -2.5937361346899155
decision_type=2 2 2 2 2 2 2 2
left_child=1 2 -1 6 -5 -4 -3 -2
right_child=7 3 5 4 -6 -7 -8 -9
leaf_value=-0.0065689739653042381 -0.0037985627913113798 0.0040431585466084276 0.00086693528522728525 0.0065479702260759142 -8.3904817258114144e-05 -0.0031543763477517211 0.0080058436136979313 -0.0084257332180485579
leaf_weight=68.5 14.999999999999998 56 263 43.5 108 67.5 96 81
leaf_count=46 10 17 114 7 51 42 14 54
internal_value=0.000110684 0.00120788 -0.00111904 0.00426401 0.00185275 2.90735e-05 0.00661271 -0.00779281
internal_weight=798.5 702.5 399 303.5 151.5 330.5 152 96
internal_count=355 291 202 89 58 156 31 64
is_linear=0
shrinkage=0.02


Tree=10
num_leaves=8
num_cat=0
split_feature=2 22 2 2 15 1 2
split_gain=16.9186 12.4569 8.38975 5.99863 2.98651 0.270255 0.26603
threshold=962331.14875402476 21.050626611990193 930368.06668455049 940666.55437881628 -0.049268206811439778 1.0000000180025095e-35 962458.4493606576
decision_type=2 2 2 2 2 2 2
left_child=1 5 4 -4 -3 -1 -2
right_child=6 2 3 -5 -6 -7 -8
leaf_value=-0.0065174878191773897 -0.0037574983051529638 0.0011651473478609775 -0.0042101926917662725 0.0016762753639164871 0.0064853955659287411 -0.0032477498498227858 -0.0081348321189770121
leaf_weight=67 11.999999999999998 58 87 316 172.5 21 85
leaf_count=45 8 25 58 122 35 14 57
internal_value=9.44988e-05 0.00115612 0.00214079 0.000389655 0.00517149 -0.00582706 -0.00767908
internal_weight=818.5 721.5 633.5 403 230.5 88 97
internal_count=364 299 240 180 60 59 65
is_linear=0
shrinkage=0.02


Tree=11
num_leaves=9
num_cat=0
split_feature=28 2 24 2 2 2 7 17
split_gain=15.8079 9.75304 8.30803 5.41905 1.76471 0.774621 0.51737 0.507764
threshold=1.4418998010059079 962406.74596153933 82.779049464225253 930368.06668455049 956479.36049106228 942580.40191156161 27.674788598930785 2.1826581403627903
decision_type=2 2 2 2 2 2 2 2
left_child=1 2 4 -4 -1 6 -2 -7
right_child=5 -3 3 -5 -6 7 -8 -9
leaf_value=-0.002886247586804841 0.0044942619309334434 -0.0077992237067089397 0.0051766644867543643 -0.00039962752685735104 -0.0075882917950662329 0.0048534012938302659 0.0076335132930589753 0.00099361914992332446
leaf_weight=138.5 57.5 88 97 236 43 30 56 28.5
leaf_count=83 15 59 26 115 29 7 7 12
internal_value=-0.0001727 -0.0017033 -0.000637139 0.00123465 -0.00406423 0.0051457 0.0061399 0.00307818
internal_weight=774.5 602.5 514.5 333 181.5 172 113.5 58.5
internal_count=353 312 253 141 112 41 22 19
is_linear=0
shrinkage=0.02


Tree=12
num_leaves=7
num_cat=0
split_feature=2 22 2 2 14 11
split_gain=14.9659 10.3746 7.75191 4.81762 2.53566 0.189342
threshold=962406.74596153933 26.215136183994218 930368.06668455049 940666.55437881628 0.76874855022332189 25.43287464736451
decision_type=2 2 2 2 2 2
left_child=1 5 4 -4 -3 -1
right_child=-2 2 3 -5 -6 -7
leaf_value=-0.0067319557519606599 -0.0076544287313114511 0.0026773381044467295 -0.0039727906619960607 0.0014476643508317703 0.007101137492431563 -0.004153010173638662
leaf_weight=39 86.5 103.5 81 317.5 113 43.5
leaf_count=26 58 36 54 126 19 29
internal_value=0.000116017 0.00109688 0.00199554 0.000330124 0.00502844 -0.0054944
internal_weight=784 697.5 615 398.5 216.5 82.5
internal_count=348 290 235 180 55 55
is_linear=0
shrinkage=0.02


Tree=13
num_leaves=13
num_cat=0
split_feature=2 0 11 29 2 2 2 31 19 2 0 11
split_gain=16.3347 10.3455 6.12558 2.52223 2.38876 4.78541 3.78795 1.61257 1.5381 2.44083 0.539212 0.208765
threshold=955933.59743728128 0.35460488704253579 25.410479855130422 1.0000000180025095e-35 932505.71217918617 941141.56092325097 926258.55302196217 4.2076082855742643 3307.5083383820042 962406.74596153933 0.70581670320594825 26.000800247847071
decision_type=2 2 2 2 2 2 2 2 2 2 2 2
left_child=1 4 3 -2 6 -6 -1 11 -4 -10 -9 -3
right_child=2 7 8 -5 5 -7 -8 10 9 -11 -12 -13
leaf_value=0.0011992462175976801 -0.002932137728508177 -0.0053520689943964165 -0.008349887186686198 0.0052006274610757828 -0.0034045686971534185 0.0034254798886530534 0.0066118321953421814 0.0020083555156985918 -0.0011833728993380511 -0.0071478976544325917 -0.0020065204312403996 -0.0023429391911396614
leaf_weight=81.5 27.5 63 73.5 30.5 52.5 168.5 149 22.5 52.5 60 28.5 18
leaf_count=34 15 42 50 7 35 55 27 8 29 40 16 11
internal_value=4.08455e-05 0.00186019 -0.00428656 0.00133425 0.00330045 0.00178195 0.0047268 -0.00303289 -0.00604661 -0.00443419 -0.000190382 -0.00476237
internal_weight=827.5 583.5 244 58 451.5 221 230.5 132 186 112.5 51 81
internal_count=369 228 141 22 151 90 61 77 119 69 24 53
is_linear=0
shrinkage=0.02


Tree=14
num_leaves=10
num_cat=0
split_feature=2 14 22 2 12 1 21 32 2
split_gain=13.149 11.9127 4.36563 3.68796 2.80469 2.79874 0.944926 0.280349 0.140776
threshold=962331.14875402476 0.24020203319530409 26.215136183994218 934255.99707606074 27.287961061847913 -0.51639395938746235 34.686549571072142 4.1981892490159654 956479.36049106228
decision_type=2 2 2 2 2 2 2 2 2
left_child=1 2 8 6 -4 -5 -3 -2 -1
right_child=7 3 4 5 -6 -7 -8 -9 -10
leaf_value=-0.0048617520989342172 -0.0075177904353422274 0.0025803077805500764 -0.0010804883390398963 0.0059882340007358127 0.0045778792023658758 3.2202588096601237e-05 0.0073095514212663361 -0.003432166588306427 -0.0079688317999243741
leaf_weight=64.5 83.5 24.5 278.5 43.5 38.5 108 102.5 13.499999999999998 14.499999999999998
leaf_count=43 56 8 144 8 9 50 15 9 10
internal_value=-0.000201831 0.00079065 -0.00143346 0.00395099 -0.000368671 0.00179736 0.00645355 -0.0070304 -0.00559474
internal_weight=771.5 674.5 396 278.5 317 151.5 127 97 79
internal_count=352 287 206 81 153 58 23 65 53
is_linear=0
shrinkage=0.02


Tree=15
num_leaves=9
num_cat=0
split_feature=2 14 24 2 22 23 18 17
split_gain=14.1301 8.51777 3.14636 3.06349 3.47795 1.36127 1.35389 9.59912e-05
threshold=962406.74596153933 -1.1415303511576744 80.634828572113648 929947.19843037985 62.892617038428945 83.576274347569765 3.5024905387912235 4.074670277617642
decision_type=2 2 2 2 2 2 2 2
left_child=1 2 7 5 -5 -3 -4 -1
right_child=-2 3 6 4 -6 -7 -8 -9
leaf_value=-0.0042508539823775601 -0.0073320314529094288 0.0027754471540875451 0.0011562734920966444 0.0026802813340277717 -0.0029078086673092669 0.0065239426754616402 -0.0019269054372753225 -0.0064792691993713382
leaf_weight=22 92.5 77.5 97 179 57.5 91 132.5 36
leaf_count=15 62 26 41 63 33 14 75 24
internal_value=-5.26839e-05 0.000930512 -0.00169266 0.00279694 0.00130349 0.00485132 -0.000616071 -0.0057961
internal_weight=785 692.5 287.5 405 236.5 168.5 229.5 58
internal_count=353 291 155 136 96 40 116 39
is_linear=0
shrinkage=0.02


Tree=16
num_leaves=10
num_cat=0
split_feature=2 13 22 2 19 19 7 30 1
split_gain=12.4328 9.63602 4.48253 3.34272 2.69125 1.60788 0.851257 0.323423 0.0821159
threshold=962331.14875402476 0.092487801694334473 26.215136183994218 933815.06475229829 3226.0703759786707 3308.05924738356 27.674788598930785 -2.7784642915001574 -1.7225262015363449e-16
decision_type=2 2 2 2 2 2 2 2 2
left_child=1 2 8 6 -5 -4 -3 -2 -1
right_child=7 3 5 4 -6 -7 -8 -9 -10
leaf_value=-0.0059493058757781984 -0.0028513195470527366 0.003749672418783519 -0.00080400775937463048 -0.0042605426532250868 0.0026254354292175519 0.0031243356646913473 0.0072315630683532127 -0.0072210476398468018 -0.0034545071437245322
leaf_weight=61 11.999999999999998 59 260.5 25.5 139 48 76.5 86.5 19.5
leaf_count=41 8 17 129 17 48 17 11 58 13
internal_value=-0.000166743 0.000785495 -0.00128648 0.00347183 0.0015171 -0.000174179 0.00578772 -0.00675945 -0.00544361
internal_weight=787.5 689 389 300 164.5 308.5 135.5 98.5 80.5
internal_count=359 293 200 93 65 146 28 66 54
is_linear=0
shrinkage=0.02


Tree=17
num_leaves=13
num_cat=0
split_feature=19 0 19 34 1 27 1 19 33 29 28 28
split_gain=13.3583 8.89956 4.60981 7.57174 2.4261 2.36915 1.80885 1.53716 0.587266 0.362873 0.344516 0.0693839
threshold=3273.7718841194724 0.35460488704253579 3307.6240951166669 3308.0406062318607 -0.95297903005573326 -0.74477730315026414 0.4647231720437684 3198.6685711135592 3308.6584692202646 -2.7544649181825269 -0.9780399406029483 -2.7234287078314261
decision_type=2 2 2 2 2 2 2 2 2 2 2 2
left_child=1 4 -2 5 10 -4 11 -6 -5 -8 -1 -3
right_child=2 6 3 8 7 -7 9 -9 -10 -11 -12 -13
leaf_value=-0.0041443363211371683 -0.0078846026852906464 -0.0026772834062576295 0.0057221864287772877 -0.0024384152193864185 0.0045978475759280322 -0.0017914638430983933 0.00085307402412096651 0.0020712165924057467 -0.006835769580911707 -0.0024239716063707301 -9.8345944569224399e-05 -0.0051335932431798995
leaf_weight=14.999999999999998 81.5 14.999999999999998 43 19.5 210.5 25.5 42 192 66 18 19.5 64.5
leaf_count=10 55 10 9 13 53 16 18 74 44 11 11 43
internal_value=-6.98822e-05 0.00156735 -0.00407078 -0.00198298 0.00297167 0.00291811 -0.00280249 0.00340971 -0.00591519 -0.000132662 -0.00201241 -0.00475299
internal_weight=812 576.5 235.5 154 437 68.5 139.5 402.5 85.5 60 34.5 79.5
internal_count=367 230 137 82 148 25 82 127 57 29 21 53
is_linear=0
shrinkage=0.02


Tree=18
num_leaves=8
num_cat=0
split_feature=2 22 2 2 2 30 11
split_gain=12.1027 8.94558 6.19799 4.68018 2.43858 0.106988 0.0973368
threshold=962331.14875402476 21.050626611990193 930368.06668455049 940666.55437881628 926258.55302196217 -2.5937361346899155 25.43287464736451
decision_type=2 2 2 2 2 2 2
left_child=1 6 4 -4 -3 -2 -1
right_child=5 2 3 -5 -6 -7 -8
leaf_value=-0.0061332259405226944 -0.0036782312304885294 0.0016388954921178736 -0.0038472088338116764 0.0013882456793529142 0.0059896883391337107 -0.0071155386000686547 -0.0040013243407011033
leaf_weight=40.5 11.999999999999998 85 85.5 315.5 142 79 43
leaf_count=27 8 33 57 125 27 53 29
internal_value=5.29105e-05 0.000938285 0.00176116 0.000256812 0.00439074 -0.00675089 -0.00514888
internal_weight=802.5 711.5 628 401 227 91 83.5
internal_count=359 298 242 182 60 61 56
is_linear=0
shrinkage=0.02


Tree=19
num_leaves=13
num_cat=0
split_feature=2 28 11 1 26 2 32 26 1 20 2 2
split_gain=10.6999 9.28876 5.38391 3.9816 2.40683 1.98505 2.23203 1.86081 1.57803 1.41321 1.96244 0.580147
threshold=955933.59743728128 -0.68539767582538247 25.410479855130422 0.74851074817110097 26.363835931608151 933376.3754701016 3.1302984893836507 25.996140790618742 -0.1799261722714405 3307.5576184428196 962406.74596153933 949057.22539875016
decision_type=2 2 2 2 2 2 2 2 2 2 2 2
left_child=1 3 4 11 -2 8 -7 -5 -3 -4 -11 -1
right_child=2 5 9 7 -6 6 -8 -9 -10 10 -12 -13
leaf_value=-0.0043821681793452354 0.0046038606319772574 0.0019791838549157626 -0.0077426447439536772 0.0025686202897475317 -0.0037583179889723317 -0.0014635851840403946 0.0036344387214547313 -0.0033996342768271765 0.0065599072645845368 -0.00072891552063326036 -0.0063793200232961159 -5.4707014199459191e-05
leaf_weight=112.5 36.5 45 68 89.5 20 48 110 25.5 113 46.5 54 14.999999999999998
leaf_count=75 10 16 46 30 11 29 31 17 18 25 36 7
internal_value=-2.4959e-05 0.0014561 -0.00369541 -0.00147752 0.00158867 0.00371003 0.00207393 0.00120132 0.00529869 -0.00547738 -0.00383373 -0.00389512
internal_weight=783.5 558.5 225 242.5 56.5 316 158 115 158 168.5 100.5 127.5
internal_count=351 223 128 129 21 94 60 47 34 107 61 82
is_linear=0
shrinkage=0.02


Tree=20
num_leaves=13
num_cat=0
split_feature=2 28 11 1 17 23 10 28 19 2 0 16
split_gain=11.7387 9.12777 5.28125 3.95168 2.12329 2.08559 1.4421 1.1098 1.04786 1.50162 0.771862 0.192382
threshold=955933.59743728128 -0.68539767582538247 25.410479855130422 0.4647231720437684 4.5829713391211788 83.761194988343917 79.769700345997492 1.4418998010059079 3307.5576184428196 962458.4493606576 -0.70581670320594825 -1.1936314476195076
decision_type=2 2 2 2 2 2 2 2 2 2 2 2
left_child=1 3 4 11 -2 7 -5 -3 -4 -10 -7 -1
right_child=2 5 8 6 -6 10 -8 -9 9 -11 -12 -13
leaf_value=-0.0046960924248541551 0.0038845188545893476 0.00076760065074467192 -0.0075578501486609165 0.0043072899493618293 -0.0041041619899945389 0.0070778306146868234 -0.00037565820766698329 0.003703730174372422 -0.0013687409264966847 -0.0063054490374703691 0.0035686675925159228 -0.0016223974049091338
leaf_weight=91.5 40 98 69 33 18 72 107.5 114.5 46.5 57 51.5 13.499999999999998
leaf_count=61 11 44 47 9 11 10 52 31 27 38 15 9
internal_value=-2.98332e-05 0.00148191 -0.00383716 -0.00143894 0.0013307 0.00361887 0.000744048 0.00237387 -0.00558274 -0.00415779 0.00569088 -0.0043481
internal_weight=812 581.5 230.5 245.5 58 336 140.5 212.5 172.5 103.5 123.5 105
internal_count=365 231 134 131 22 100 61 75 112 65 25 70
is_linear=0
shrinkage=0.02


Tree=21
num_leaves=13
num_cat=0
split_feature=2 28 11 1 26 2 2 26 1 20 2 16
split_gain=12.0182 8.12043 4.94057 4.11972 2.46835 2.20822 2.37626 2.03824 1.3456 1.31679 1.48142 0.377997
threshold=955933.59743728128 -0.68539767582538247 25.410479855130422 0.74851074817110097 26.363835931608151 933376.3754701016 940666.55437881628 25.931773042544581 -0.060268340127661524 3307.5576184428196 962406.74596153933 -0.79289168989527992
decision_type=2 2 2 2 2 2 2 2 2 2 2 2
left_child=1 3 4 11 -2 8 -7 -5 -3 -4 -11 -1
right_child=2 5 9 7 -6 6 -8 -9 -10 10 -12 -13
leaf_value=-0.0040955518092598642 0.0049779881301210893 0.0024506999165342567 -0.0074314440631866457 0.0031482887201449449 -0.0036937838044277457 -0.0031664860655864079 0.0029997737506354178 -0.0030225088679999641 0.0063739073753356938 -0.0010171192456036805 -0.0059870783797016849 -0.0006308552473783494
leaf_weight=108 32 55.5 73.5 83.5 20 28.5 146.5 27 121 46.5 52.5 16.5
leaf_count=71 8 19 50 26 11 19 47 17 19 26 35 10
internal_value=0.000173507 0.00168216 -0.00374396 -0.00118543 0.00159526 0.00360189 0.00196585 0.00160235 0.00518255 -0.00536484 -0.00372263 -0.00366522
internal_weight=811 586.5 224.5 235 52 351.5 175 110.5 176.5 172.5 99 124.5
internal_count=358 228 130 124 19 104 66 43 38 111 61 81
is_linear=0
shrinkage=0.02


Tree=22
num_leaves=13
num_cat=0
split_feature=2 0 19 2 24 27 2 27 29 2 12 28
split_gain=10.3371 8.58777 4.2998 6.39058 2.21873 3.18539 2.50038 1.30342 1.15348 0.499001 0.456401 0.0158493
threshold=955933.59743728128 0.35460488704253579 3307.707630040341 962258.08521709184 83.137045787320332 1.2215757164282623 932505.71217918617 -0.74477730315026414 -2.7544649181825269 962458.4493606576 25.848702099613838 -2.7234287078314261
decision_type=2 2 2 2 2 2 2 2 2 2 2 2
left_child=1 4 -2 7 5 -1 -6 -4 10 -5 -3 -10
right_child=2 8 3 9 6 -7 -8 -9 11 -11 -12 -13
leaf_value=-0.0016257571836880275 -0.0071255176053728374 -0.0041257124458040509 0.005312635587243473 -0.0021031609049865178 0.0058206382566882717 0.0031950505375862122 0.0011424223962015121 -0.00065728267166349622 -0.003003344597639861 -0.0062106772651020275 0.00051892435337815967 -0.0046088580024061781
leaf_weight=86 86 8.9999999999999982 41 19.5 138 144.5 71 21 25.5 57 40.5 64.5
leaf_count=49 58 6 9 13 25 43 31 12 17 38 18 43
internal_value=-1.45931e-05 0.00139574 -0.00364591 -0.00141781 0.00276877 0.00138889 0.00426035 0.00329131 -0.00289929 -0.00524988 -0.000382846 -0.00423251
internal_weight=803.5 579 224.5 138.5 439.5 230.5 209 62 139.5 76.5 49.5 90
internal_count=362 232 130 72 148 92 56 21 84 51 24 60
is_linear=0
shrinkage=0.02


Tree=23
num_leaves=13
num_cat=0
split_feature=5 0 1 26 1 5 5 26 31 30 24 19
split_gain=10.9463 8.01171 4.43342 4.38591 2.52092 1.68395 1.07534 0.808252 0.694404 0.314201 0.223312 0.218773
threshold=3286.0673594337982 0.35460488704253579 -0.70581670320594803 26.493595855493027 -0.95297903005573326 3208.5258324652209 3282.3401153058217 26.347281299271721 4.847482497224302 -2.8137791293709138 81.325093373985382 3307.5576184428196
decision_type=2 2 2 2 2 2 2 2 2 2 2 2
left_child=1 4 3 7 10 -6 8 -2 -3 -4 -1 -11
right_child=2 6 9 -5 5 -7 -8 -9 -10 11 -12 -13
leaf_value=-0.0041509668863180908 0.0052482131817301768 -0.004252496023274337 -0.0022271000564098357 -0.0068087624558862657 0.0044814814455988927 0.0018420999038663475 0.0019108293923464686 0.00053215025085955861 -7.8015540327344564e-06 -0.0071305910605650681 -0.00069005934626628195 -0.0049390468421031015
leaf_weight=14.999999999999998 29 94.5 13.499999999999998 25 203.5 196.5 14.999999999999998 30.5 19.5 63.5 18 72
leaf_count=10 6 63 9 17 49 75 5 13 10 43 11 48
internal_value=-5.34883e-05 0.00145629 -0.00368191 0 0.00276063 0.00320159 -0.00288793 0.00293605 -0.00355328 -0.0057403 -0.00243325 -0.00604751
internal_weight=795.5 562 233.5 84.5 433 400 129 59.5 114 149 33 135.5
internal_count=359 223 136 36 145 124 78 19 73 100 21 91
is_linear=0
shrinkage=0.02


Tree=24
num_leaves=14
num_cat=0
split_feature=2 16 19 2 2 2 2 1 1 29 2 17 25
split_gain=12.8838 7.23038 2.84908 3.907 2.16186 4.09305 2.29087 1.20441 1.05561 0.254716 0.212551 0.128692 0.00790005
threshold=955933.59743728128 -1.6490019917868106 3307.5576184428196 962331.14875402476 930368.06668455049 941141.56092325097 926258.55302196217 -0.70581670320594803 0.4647231720437684 0.25006638251095992 962458.4493606576 2.8915261986228233 26.228574634992707
decision_type=2 2 2 2 2 2 2 2 2 2 2 2 2
left_child=1 8 12 7 6 -6 -3 -4 9 -1 -5 -10 -2
right_child=2 4 3 10 5 -7 -8 -9 11 -11 -12 -13 -14
leaf_value=-0.0043377065250277515 -0.0059215659492689631 0.0014833943426609039 0.0038612779194817826 -0.002364641750300372 -0.0032377353981137276 0.0029216778797385157 0.0057792461280630767 -0.0015517582848431572 0.001110057106384864 -0.00084572850774835662 -0.0060738909622033432 -0.00096690813799699138 -0.0081276468794520308
leaf_weight=73.5 44.5 83.5 32.5 11.999999999999998 57 162 132 30 18 11.999999999999998 58.5 28.5 39.5
leaf_count=49 30 32 10 8 38 53 23 18 7 7 39 15 27
internal_value=-0.000106727 0.00147852 -0.00423606 -0.00234909 0.00272455 0.00129835 0.0041457 0.0012563 -0.00259256 -0.00389362 -0.00553272 -0.00011169 -0.00710673
internal_weight=783.5 566.5 217 133 434.5 219 215.5 62.5 132 85.5 70.5 46.5 84
internal_count=356 224 132 75 146 91 55 28 78 56 47 22 57
is_linear=0
shrinkage=0.02


Tree=25
num_leaves=11
num_cat=0
split_feature=2 16 20 2 2 2 1 30 29 2
split_gain=10.9508 6.34788 3.51421 4.62779 1.62874 2.16245 1.50415 1.33758 0.445509 0.404703
threshold=956479.36049106228 -1.6312052039741982 3307.5576184428196 962258.08521709184 917392.88906401931 930368.06668455049 0.8542199457734333 1.1245969887229939 -2.7544649181825269 962458.4493606576
decision_type=2 2 2 2 2 2 2 2 2 2
left_child=1 6 -2 7 -3 -6 8 -4 -1 -5
right_child=2 4 3 9 5 -7 -8 -9 -10 -11
leaf_value=-0.00073757056186073697 -0.0072799222270647683 -0.0050791080111549014 0.0043142535308512246 -0.0020515747498243281 0.0043714451935539765 0.0014026154108935653 0.002048773311484944 -0.0017453364080852931 -0.0038099001326847592 -0.0059073326723362365
leaf_weight=27 76.5 8.9999999999999982 39.5 18 200 200.5 26 21 90 60
leaf_count=14 52 6 10 12 48 81 9 13 59 40
internal_value=-5.19737e-05 0.00143603 -0.00386848 -0.00191209 0.00270278 0.00290093 -0.00216806 0.00218733 -0.00313609 -0.0050982
internal_weight=767.5 552.5 215 138.5 409.5 400.5 143 60.5 117 78
internal_count=344 217 127 75 135 129 82 23 73 52
is_linear=0
shrinkage=0.02


Tree=26
num_leaves=13
num_cat=0
split_feature=2 0 19 2 1 27 2 1 2 2 27 28
split_gain=9.17149 6.49005 4.30476 5.95524 2.00147 1.34237 1.18838 1.13807 0.32017 0.313208 0.295005 0.0823274
threshold=955933.59743728128 0.35460488704253579 3307.6240951166669 962258.08521709184 -0.95297903005573326 -0.74477730315026414 933376.3754701016 0.4647231720437684 954849.32328886644 962458.4493606576 -0.30225135037544826 -2.7234287078314261
decision_type=2 2 2 2 2 2 2 2 2 2 2 2
left_child=1 4 -2 5 10 -4 -6 11 -9 -5 -1 -3
right_child=2 7 3 9 6 -7 -8 8 -10 -11 -12 -13
leaf_value=-0.0030883104964798572 -0.006748873739131812 -0.0021836070712560264 0.005028209382609318 -0.0020955012341340382 0.0040614992249159163 -0.0010580393863575798 0.0018125274573435924 -0.0012616799588386829 0.0018677649375719902 -0.0057271768068655939 0.00053256726872037956 -0.004373369077841441
leaf_weight=24 90 18 46 16.5 201 19.5 192 37.5 18 57 11.999999999999998 61.5
leaf_count=16 61 12 10 11 49 12 72 21 6 38 6 41
internal_value=-8.72371e-06 0.00135938 -0.00337379 -0.00112554 0.00256357 0.0032033 0.0029789 -0.00243873 -0.000189195 -0.00499678 -0.00185499 -0.00395188
internal_weight=793 564 229 139 429 65.5 393 135 55.5 73.5 36 79.5
internal_count=355 223 132 71 143 22 121 80 27 49 22 53
is_linear=0
shrinkage=0.02


Tree=27
num_leaves=9
num_cat=0
split_feature=2 28 24 2 24 23 17 30
split_gain=8.67716 6.24973 4.45234 1.77811 0.845263 0.835006 0.336911 0.20538
threshold=962331.14875402476 1.2078239939697959 82.674015028186346 930368.06668455049 80.634828572113648 83.824902490544801 2.0817867525935472 -2.7784642915001574
decision_type=2 2 2 2 2 2 2 2
left_child=1 2 4 -4 -1 6 -3 -2
right_child=7 5 3 -5 -6 -7 -8 -9
leaf_value=-0.004852055119913678 -0.0022885874156598689 0.0041641346095199873 0.0030349248434623438 -2.5789494430258254e-05 -0.001838081200752778 0.0063382480067591517 0.0020339684157975411 -0.0058403586162535173
leaf_weight=63 11.999999999999998 65 109 238.5 104 45 74.5 88
leaf_count=42 8 15 31 112 60 6 25 59
internal_value=-6.35646e-06 0.00078304 -0.000348266 0.000937449 -0.00302003 0.00392594 0.00307444 -0.00547397
internal_weight=799 699 514.5 347.5 167 184.5 139.5 100
internal_count=358 291 245 143 102 46 40 67
is_linear=0
shrinkage=0.02


Tree=28
num_leaves=10
num_cat=0
split_feature=2 14 24 2 1 7 32 30 27
split_gain=8.58333 6.80632 3.04984 1.57679 2.43214 1.53401 0.66883 0.139411 0.0411934
threshold=962331.14875402476 0.15650334939684321 80.538279034984342 934255.99707606074 -0.51639395938746235 18.72931402346974 3.3107384978320451 -2.733545816705226 -2.7482073190263558
decision_type=2 2 2 2 2 2 2 2 2
left_child=1 2 8 6 -5 -4 -3 -2 -1
right_child=7 3 5 4 -6 -7 -8 -9 -10
leaf_value=-0.0028837645523475874 -0.002711869380871455 0.0059662468154709058 0.0011668481836331563 0.005018241895448178 -0.00025506154693586308 -0.0014863513771292062 0.0029285265426635745 -0.0057788459801807078 -0.0052307874056009155
leaf_weight=14.999999999999998 13.499999999999998 75.5 176 53 95.5 169.5 61 88 50.5
leaf_count=10 9 11 69 10 45 94 17 59 34
internal_value=-4.42193e-05 0.000749181 -0.000893657 0.00311758 0.00164502 -0.000129829 0.00466981 -0.00543577 -0.00479975
internal_weight=797.5 696 411 285 148.5 345.5 136.5 101.5 65.5
internal_count=358 290 207 83 55 163 28 68 44
is_linear=0
shrinkage=0.02


Tree=29
num_leaves=13
num_cat=0
split_feature=2 0 11 2 26 2 29 19 2 27 11 31
split_gain=8.84643 6.5287 3.91248 1.85338 1.79879 1.76349 1.11891 0.912315 1.18851 0.280221 0.169257 0.0185576
threshold=955933.59743728128 0.35460488704253579 25.410479855130422 917392.88906401931 26.363835931608151 932505.71217918617 -2.7544649181825269 3307.6240951166669 962406.74596153933 -2.6062292850008406 26.270334476269948 2.9240682443429526
decision_type=2 2 2 2 2 2 2 2 2 2 2 2
left_child=1 3 4 -1 -2 -5 9 11 -9 -3 -8 -4
right_child=2 6 7 5 -6 -7 10 8 -10 -11 -12 -13
leaf_value=-0.0050855085154374435 0.004104977648194931 0.0013767420403541081 -0.0077554197141102392 0.0041918844139186015 -0.0031739112332809807 0.0016202147148508619 -0.0038788126357543616 -0.00058716374032554168 -0.0051067588731646537 -0.0016639498197115385 -0.00093852923093018709 -0.005405697653916749
leaf_weight=10.499999999999998 35 30 26.5 212.5 20 226 79.5 40.5 58.5 18 11.999999999999998 42.5
leaf_count=7 9 12 18 50 11 89 53 23 39 10 7 29
internal_value=0.00021184 0.0014995 -0.0031647 0.002674 0.00140872 0.00288105 -0.00225485 -0.00467297 -0.00331409 0.000180209 -0.00353606 -0.0064823
internal_weight=811.5 588.5 223 449 55 438.5 139.5 168 99 48 91.5 69
internal_count=357 228 129 146 20 139 82 109 62 22 60 47
is_linear=0
shrinkage=0.02


Tree=30
num_leaves=14
num_cat=0
split_feature=5 14 19 5 5 5 1 21 27 18 5 25 26
split_gain=9.6234 5.16121 2.61592 3.59873 1.75854 2.74472 1.76542 1.21998 0.927429 0.793164 0.285249 0.0940019 0.0520666
threshold=3286.0673594337982 -1.6590286954961271 3307.6240951166669 3307.9253368134491 3198.1846274549575 3235.2190280239406 -0.060268340127661524 60.816583895061491 -0.74477730315026414 3.5232328439884708 3308.496849293791 25.225940986145392 26.27626524948635
decision_type=2 2 2 2 2 2 2 2 2 2 2 2 2
left_child=1 7 12 8 6 -6 -3 11 -4 -9 -5 -1 -2
right_child=2 4 3 10 5 -7 -8 9 -10 -11 -12 -13 -14
leaf_value=-0.0012208201325300968 -0.0051448928796383273 0.00046236552362856657 0.0037358374881744389 -0.0019996971405214733 -0.0030949428714449625 0.0025110743663312933 0.0051035140031150403 0.0024160476278614357 -0.001282948423254614 -0.0018924000608542607 -0.0054761563081007734 -0.003373724479476611 -0.0073784453520614104
leaf_weight=14.999999999999998 40 44.5 36 16.5 43.5 153 138.5 35.5 22.5 30 57 81 43
leaf_count=9 27 18 10 11 29 52 24 12 14 17 38 53 29
internal_value=-0.00010448 0.00131568 -0.0036716 -0.00186552 0.00258911 0.0012459 0.0039987 -0.00166069 0.00178839 0.000414674 -0.004778 -0.0030818 -0.00643614
internal_weight=756 541 215 132 379.5 196.5 183 161.5 58.5 65.5 73.5 96 83
internal_count=343 214 129 73 123 81 42 91 24 29 49 62 56
is_linear=0
shrinkage=0.02


Tree=31
num_leaves=14
num_cat=0
split_feature=2 28 19 34 1 23 30 27 7 0 2 2 1
split_gain=7.5315 5.67776 3.24825 4.7576 2.6706 1.61346 1.53017 1.10449 1.036 0.591973 0.416362 0.206421 0.044046
threshold=955933.59743728128 -0.68539767582538247 3307.707630040341 3308.0406062318607 0.74851074817110097 83.761194988343917 2.0064988526208314 -0.74477730315026414 20.997420449993047 -0.70581670320594825 949057.22539875016 962458.4493606576 -1.7225262015363449e-16
decision_type=2 2 2 2 2 2 2 2 2 2 2 2 2
left_child=1 4 12 7 10 6 -3 -4 -6 -7 -1 -5 -2
right_child=2 5 3 11 8 9 -8 -9 -10 -11 -12 -13 -14
leaf_value=-0.0035287174833518965 -0.0071849389107603778 0.00023640660716032762 0.0046885975641362812 -0.0022054601495082558 0.003560929317704656 0.0063047443084716798 0.0037751750473095022 -0.00057796133598130126 -0.00046652673482894898 0.0030874178177378716 0 -0.0051991098181814214 -0.0050894382651895291
leaf_weight=109.5 36.5 107.5 41 18 42.5 61 90.5 24 58.5 50 14.999999999999998 57 50.5
leaf_count=73 25 49 9 12 12 8 22 14 28 14 7 38 34
internal_value=-4.82944e-05 0.00124526 -0.00309105 -0.00116344 -0.00115716 0.00300204 0.00188012 0.00274477 0.00123599 0.00493376 -0.00310607 -0.00456411 -0.00609806
internal_weight=761.5 534.5 227 140 225.5 309 198 65 101 111 124.5 75 87
internal_count=345 213 132 73 120 93 71 23 40 22 80 50 59
is_linear=0
shrinkage=0.02


Tree=32
num_leaves=12
num_cat=0
split_feature=2 28 17 11 22 2 2 10 31 32 30
split_gain=8.2176 5.99022 3.14491 2.2091 2.02487 1.65413 2.1583 1.35562 0.58381 0.57262 0.253862
threshold=955933.59743728128 -0.68539767582538247 2.9760101435798734 25.564565147516671 77.742563733760008 918166.74058246089 933376.3754701016 83.334068230591171 4.5396063121841719 2.3908316662307985 -2.7784642915001574
decision_type=2 2 2 2 2 2 2 2 2 2 2
left_child=1 2 7 4 -2 -3 -7 -1 -4 -5 -11
right_child=3 5 8 9 -6 6 -8 -9 -10 10 -12
leaf_value=0.0031256107836961748 -0.0035779532584277068 -0.0032804412661176742 -0.0034033374539999793 -0.0011740430767337481 0.0040247414245417248 0.0049114755882492542 0.0016280300432375985 -0.0037997456855244104 0 -0.0020013966055379973 -0.0051281021283695319
leaf_weight=66.5 26 14.999999999999998 130.5 22.5 27 156.5 172 11.999999999999998 24 16.5 132
leaf_count=19 15 9 85 11 7 29 66 8 12 11 88
internal_value=-2.54774e-05 0.0012354 -0.00122938 -0.00326604 0.000262595 0.00291116 0.00321356 0.00199056 -0.00288163 -0.00436408 -0.00481751
internal_weight=800.5 576.5 233 224 53 343.5 328.5 78.5 154.5 171 148.5
internal_count=360 228 124 132 22 104 95 27 97 110 99
is_linear=0
shrinkage=0.02


Tree=33
num_leaves=10
num_cat=0
split_feature=5 14 11 5 19 12 32 29 30
split_gain=6.913 4.50666 1.81634 1.78412 2.11326 1.21402 0.510153 0.144475 0.120596
threshold=3308.05924738356 0.15650334939684321 25.348689605746753 3211.5495737122528 3226.0703759786707 27.287961061847913 3.3107384978320451 0.25006638251095992 -2.5937361346899155
decision_type=2 2 2 2 2 2 2 2 2
left_child=1 2 7 6 -5 -4 -3 -1 -2
right_child=8 3 5 4 -6 -7 -8 -9 -10
leaf_value=-0.0043255888872375395 -0.002466224851210912 0.0057583196116611354 -0.00050018028721917338 -0.0040792525936575504 0.0021905914638814653 0.0032591317505031438 0.0029050533541110386 -0.001476257981856664 -0.0053332256169880132
leaf_weight=48 13.499999999999998 62.5 316 24 133 37 58 13.499999999999998 83.5
leaf_count=32 9 9 158 16 45 9 15 8 56
internal_value=-3.78393e-05 0.000663887 -0.000652863 0.00263081 0.00118999 -8.83799e-05 0.00445396 -0.00378191 -0.00499815
internal_weight=789 692 414.5 277.5 157 353 120.5 61.5 97
internal_count=357 292 207 85 61 167 24 40 65
is_linear=0
shrinkage=0.02


Tree=34
num_leaves=13
num_cat=0
split_feature=2 16 19 2 2 2 2 1 27 2 2 31
split_gain=7.32742 5.42495 3.79214 4.64124 1.31133 3.29747 1.97311 1.23181 1.07631 0.378264 0.29672 0.053702
threshold=955933.59743728128 -1.6490019917868106 3307.707630040341 962258.08521709184 930368.06668455049 941141.56092325097 926258.55302196217 0.8542199457734333 -0.74477730315026414 949057.22539875016 962458.4493606576 2.9240682443429526
decision_type=2 2 2 2 2 2 2 2 2 2 2 2
left_child=1 7 11 8 6 -6 -3 9 -4 -1 -5 -2
right_child=2 4 3 10 5 -7 -8 -9 -10 -11 -12 -13
leaf_value=-0.0031956623055074858 -0.0072068325351266303 0.00097015027447444645 0.0046713917606755308 -0.0015736026400222608 -0.0030539539050488248 0.0026686460470058478 0.0049337117298664098 0.0018676433899185874 -0.00053229390302052097 0.00019695388476053874 -0.0048861096537011301 -0.00509037790392056
leaf_weight=108 32.5 80.5 46 18 51 170 143 26 22.5 13.499999999999998 57 59
leaf_count=70 22 31 10 12 34 55 25 9 13 6 38 40
internal_value=0.000156665 0.00134491 -0.00281779 -0.000754528 0.00244801 0.00132737 0.00353099 -0.00195712 0.0029588 -0.00280464 -0.00416369 -0.00596774
internal_weight=827 592 235 143.5 444.5 221 223.5 147.5 68.5 121.5 75 91.5
internal_count=365 230 135 73 145 89 56 85 23 76 50 62
is_linear=0
shrinkage=0.02


Tree=35
num_leaves=9
num_cat=0
split_feature=28 2 22 0 25 21 21 1
split_gain=6.563 3.58599 3.53357 1.87031 0.530006 0.10278 0.221091 0.0853308
threshold=1.4418998010059079 962406.74596153933 26.215136183994218 -0.91023613416931226 26.659417121880839 67.721216759523514 45.776116274160238 1.0000000180025095e-35
decision_type=2 2 2 2 2 2 2 2
left_child=1 2 7 -4 5 6 -2 -1
right_child=4 -3 3 -5 -6 -7 -8 -9
leaf_value=-0.0045056057322116301 0.0045006116493461062 -0.0049008095823459743 -0.0044558040857315068 0.0007114006929394254 0.00140031486481763 0.0052143336031810353 0.0021883533405406136 -0.0023987841884295143
leaf_weight=64 47 79 28.5 412.5 43 40 40.5 21
leaf_count=43 8 53 19 178 15 5 12 14
internal_value=7.90236e-06 -0.000967451 -0.000360652 0.000358973 0.00345872 0.00411306 0.00350776 -0.00405884
internal_weight=775.5 605 526 441 170.5 127.5 87.5 85
internal_count=347 307 254 197 40 25 20 57
is_linear=0
shrinkage=0.02


Tree=36
num_leaves=13
num_cat=0
split_feature=5 22 19 5 15 18 5 27 5 15 31 11
split_gain=6.40248 5.30007 3.54174 4.38028 2.31859 1.33166 1.25765 1.02512 0.273119 0.206976 0.0934914 0.0704178
threshold=3286.0673594337982 31.83443880403728 3307.707630040341 3307.8080879886779 -0.24358819606306811 2.5354973690918992 3193.8671685398399 -0.74477730315026414 3308.496849293791 2.6011562761114284 2.9240682443429526 25.384728979568937
decision_type=2 2 2 2 2 2 2 2 2 2 2 2
left_child=1 9 10 7 5 -3 -6 -4 -5 11 -2 -1
right_child=2 4 3 8 6 -7 -8 -9 -10 -11 -12 -13
leaf_value=-0.0041372733481725059 -0.0070740595132532261 0.0026165735492062188 0.0045671355448271105 -0.0015790715576149523 0.0043643584830686455 -0.00099797884428299947 0.0017613970131728971 -0.00050981618432948989 -0.0046619585111737256 -0.00024778424323260509 -0.0048230469015959126 -0.0025361518043058892
leaf_weight=36 34 60.5 46 19.5 158.5 117 151.5 22.5 58.5 11.999999999999998 54.5 52.5
leaf_count=24 23 19 10 13 32 61 55 13 39 6 37 35
internal_value=9.08657e-05 0.00120833 -0.00268666 -0.000744423 0.00207313 0.000234453 0.00311329 0.00289576 -0.00396073 -0.00293574 -0.00581355 -0.00326778
internal_weight=823 588 235 146.5 487.5 177.5 310 68.5 78 100.5 88.5 88.5
internal_count=367 232 135 75 167 80 87 23 52 65 60 59
is_linear=0
shrinkage=0.02


Tree=37
num_leaves=13
num_cat=0
split_feature=2 0 19 34 1 2 30 31 2 30 7 31
split_gain=6.26215 5.15776 2.88226 3.24485 1.81163 1.09243 0.764111 0.674478 0.223545 0.211064 0.110252 0.0230316
threshold=955933.59743728128 0.46472317204376884 3307.707630040341 3308.0406062318607 -0.91023613416931226 918166.74058246089 1.1245969887229939 4.5396063121841719 962406.74596153933 0.63569480958263136 12.672926479793018 2.9984542208255776
decision_type=2 2 2 2 2 2 2 2 2 2 2 2
left_child=1 4 11 6 9 -6 -4 10 -5 -1 -3 -2
right_child=2 7 3 8 5 -7 -8 -9 -10 -11 -12 -13
leaf_value=-0.0027201760378148822 -0.0068592356382790268 -0.0017910197575887045 0.0037381795600240869 -0.0012520978371302288 -0.0030064731968773733 0.0027783027112221036 -0.00098474071919918069 8.0870405832926431e-05 -0.0045500302568629936 0 -0.0038380348730970315 -0.004862803807829396
leaf_weight=25.5 28 22.5 44 13.499999999999998 11.999999999999998 389 18 28.5 52.5 19.5 66 57.5
leaf_count=17 19 14 12 9 7 116 11 14 35 10 44 39
internal_value=7.02092e-05 0.00117887 -0.00283187 -0.000892652 0.00216112 0.00258966 0.00234464 -0.00252849 -0.0039479 -0.00157506 -0.00337835 -0.00564658
internal_weight=776.5 563 213.5 128 446 401 62 117 66 45 88.5 85.5
internal_count=347 222 125 67 150 123 23 72 44 27 58 58
is_linear=0
shrinkage=0.02


Tree=38
num_leaves=7
num_cat=0
split_feature=2 22 28 24 24 11
split_gain=6.19362 5.13664 3.00704 1.71927 0.5097 0.0752423
threshold=962331.14875402476 21.050626611990193 1.2078239939697959 82.779049464225253 83.137045787320332 25.43287464736451
decision_type=2 2 2 2 2 2
left_child=1 5 3 -3 -4 -1
right_child=-2 2 4 -5 -6 -7
leaf_value=-0.0045819476617707149 -0.0046257812756299969 -0.0016747021674870038 0.002803690980908065 0.0011392741549562009 0.0054929138206573861 -0.0028740109979458477
leaf_weight=43.5 98.5 115 148 337 40 44.5
leaf_count=29 66 65 40 134 5 30
internal_value=3.94673e-05 0.000681641 0.00130888 0.000415748 0.00342537 -0.00380326
internal_weight=826.5 728 640 452 188 88
internal_count=369 303 244 199 45 59
is_linear=0
shrinkage=0.02


Tree=39
num_leaves=14
num_cat=0
split_feature=5 28 22 19 34 10 5 5 1 27 5 11 31
split_gain=7.1743 4.38444 2.66381 2.27134 3.09491 1.5734 1.4936 1.8144 0.907069 0.827496 0.223223 0.138195 0.00653507
threshold=3286.0673594337982 -0.68539767582538247 43.929677098012213 3307.6240951166669 3308.0406062318607 81.784151756999492 3208.5258324652209 3233.5861703595915 -0.1799261722714405 -0.74477730315026414 3308.496849293791 26.293518839588852 2.9240682443429526
decision_type=2 2 2 2 2 2 2 2 2 2 2 2 2
left_child=1 2 11 12 9 -4 8 -8 -3 -5 -6 -1 -2
right_child=3 6 5 4 10 -7 7 -9 -10 -11 -12 -13 -14
leaf_value=-0.0032830422480901078 -0.0067069085913319748 0.0015462407502863144 0.003516804037975664 0.0042107509196694223 -0.0016824781341212135 -0.00095861605441931522 -0.0029979022680358459 0.0022298536866114998 0.0047953766388051646 -0.00064324437066291774 -0.0045303791742014694 -0.00099491775182024072 -0.0048302036606747171
leaf_weight=103.5 29.5 52.5 58 32 19.5 64.5 31.5 132 126 22.5 60 16.5 56
leaf_count=69 20 18 15 7 13 33 21 44 20 13 40 10 38
internal_value=-3.67909e-06 0.0011519 -0.000896093 -0.00307683 -0.00140464 0.00116114 0.00260746 0.00119245 0.00387171 0.00220754 -0.00390062 -0.00300105 -0.00560518
internal_weight=804 584.5 242.5 219.5 134 122.5 342 163.5 178.5 54.5 79.5 120 85.5
internal_count=361 230 127 131 73 48 103 65 38 20 53 79 58
is_linear=0
shrinkage=0.02


Tree=40
num_leaves=9
num_cat=0
split_feature=2 22 14 32 7 11 30 32
split_gain=5.14186 3.60149 2.20554 1.34185 1.00787 0.0511588 0.0457394 0.0280211
threshold=962331.14875402476 26.215136183994218 0.24020203319530409 2.7030974063513802 20.997420449993047 25.43287464736451 -2.733545816705226 3.0083154965320147
decision_type=2 2 2 2 2 2 2 2
left_child=1 5 4 -4 -3 -1 -2 -8
right_child=6 2 3 -5 -6 -7 7 -9
leaf_value=-0.0042364189275105801 -0.0023842934091885884 0.00094858345151662305 -0.0038164547852895876 0.0026416777676049291 -0.0012759270047449467 -0.0026570194059092069 -0.0032651154818358246 -0.0050643326383296074
leaf_weight=36 13.499999999999998 170.5 11.999999999999998 261.5 153 44.5 25.5 60
leaf_count=24 9 67 8 74 86 30 17 40
internal_value=-0.000148076 0.000474486 0.00101464 0.00233178 -9.83827e-05 -0.0034523 -0.00437193 -0.00461626
internal_weight=776.5 677.5 597 273.5 323.5 80.5 99 85.5
internal_count=355 289 235 82 153 54 66 57
is_linear=0
shrinkage=0.02


Tree=41
num_leaves=10
num_cat=0
split_feature=28 2 24 2 27 25 11 30 32
split_gain=5.44795 3.21297 3.47606 2.1592 0.702505 0.438471 0.0879083 0.082165 0.00175801
threshold=1.4418998010059079 962331.14875402476 82.674015028186346 930368.06668455049 1.2215757164282623 26.619711036918218 27.06587186562292 -2.733545816705226 3.0175264948703822
decision_type=2 2 2 2 2 2 2 2 2
left_child=1 2 4 -4 -1 6 -2 -3 -9
right_child=5 7 3 -5 -6 -7 -8 8 -10
leaf_value=-0.0030526582317135366 0.0040800766090067419 -0.0020374252518018084 0.0031365842312073506 -0.00015711832218325114 0.00051029344705434947 0.0012567024425174415 0.0024559807785683209 -0.0033170161707359452 -0.0049104029893875124
leaf_weight=145.5 101 13.499999999999998 117.5 237 24.5 43 34.5 27 53.5
leaf_count=93 18 9 30 112 11 15 9 18 36
internal_value=8.22612e-05 -0.000804614 -0.000185727 0.000937587 -0.00252754 0.00314748 0.00371258 -0.00417977 -0.00447082
internal_weight=797 618.5 524.5 354.5 170 178.5 135.5 94 80.5
internal_count=351 309 246 142 104 42 27 63 54
is_linear=0
shrinkage=0.02


Tree=42
num_leaves=14
num_cat=0
split_feature=5 0 20 34 24 28 5 28 31 22 5 29 28
split_gain=6.79703 4.25567 1.74244 2.28282 1.22614 2.16132 1.41952 0.69778 0.67408 0.258008 0.165683 0.0819259 0.0426914
threshold=3286.0673594337982 0.35460488704253579 3307.6240951166669 3308.0406062318607 83.137045787320332 1.4418998010059079 3205.5328858536527 -0.10234034039193367 4.2076082855742643 44.604571331312279 3308.496849293791 -1.9840607440304763 -2.7234287078314261
decision_type=2 2 2 2 2 2 2 2 2 2 2 2 2
left_child=1 4 11 7 5 -1 -6 -4 12 -10 -5 -2 -3
right_child=2 8 3 10 6 -7 -8 -9 9 -11 -12 -13 -14
leaf_value=-0.0011122153429862331 -0.0028194736187104824 -0.0016673782877624033 0.0029069295041728766 -0.001463697319680994 0.004300777758182577 0.0026065953515626334 0.00072438699878017666 -0.0019580954040654681 -0.0020965811989524146 0.0010129648705323538 -0.0042454637862516173 -0.0057377698918183642 -0.0034136328819311329
leaf_weight=109 11.999999999999998 16.5 38.5 14.999999999999998 133 141.5 69.5 14.999999999999998 14.999999999999998 28.5 64.5 70.5 70.5
leaf_count=58 8 11 12 10 25 38 31 10 9 12 43 48 47
internal_value=-9.72329e-05 0.00102176 -0.00312242 -0.00165341 0.00194 0.000983505 0.00309748 0.00149034 -0.00213636 -4.89921e-05 -0.00378212 -0.00539503 -0.00313892
internal_weight=799 583.5 215.5 133 453 250.5 202.5 53.5 130.5 43.5 79.5 82.5 87
internal_count=362 231 131 75 152 96 56 22 79 21 53 56 58
is_linear=0
shrinkage=0.02


Tree=43
num_leaves=12
num_cat=0
split_feature=28 2 26 0 19 7 2 12 21 30 32
split_gain=5.49002 2.59289 2.19113 3.00912 1.71579 0.4129 0.284581 0.171442 0.134932 0.0303213 0.00721711
threshold=1.4418998010059079 962331.14875402476 26.246120748180299 0.70581670320594825 3308.05924738356 6.134234846823003 942098.48089571309 26.572562691078328 43.395705130395406 -2.733545816705226 3.0083154965320147
decision_type=2 2 2 2 2 2 2 2 2 2 2
left_child=1 2 3 -1 -4 7 -7 -2 -9 -3 -11
right_child=5 9 4 -5 -6 6 -8 8 -10 10 -12
leaf_value=0.0021086127126359773 0.0029501044115294579 -0.0022174631577950936 -0.0025789126192543779 -0.0022474047946023572 0.0031615513900051947 0.004606011932373047 0.0022000014069436615 0.0016262211662072402 -0.00053249601523081458 -0.0032030134723897569 -0.0047840253625597278
leaf_weight=181 21.5 11.999999999999998 212.5 95.5 21.5 61 42 24.5 18 27 58
leaf_count=59 5 8 127 60 6 8 12 8 8 18 39
internal_value=-0.00030012 -0.00118591 -0.000606149 0.00059289 -0.00202621 0.00289214 0.00368972 0.00152291 0.000679502 -0.00416113 -0.0043692
internal_weight=774.5 607.5 510.5 276.5 234 167 103 64 42.5 97 85
internal_count=358 317 252 119 133 41 20 21 16 65 57
is_linear=0
shrinkage=0.02


Tree=44
num_leaves=14
num_cat=0
split_feature=2 28 19 34 17 23 27 28 10 31 0 2 31
split_gain=5.0721 4.19494 2.26475 2.5469 2.0035 1.40424 0.795556 0.734039 0.568236 0.48046 0.299243 0.137048 0.0520374
threshold=955933.59743728128 -0.68539767582538247 3307.6240951166669 3308.0406062318607 2.7921699914070808 83.761194988343917 -0.74477730315026414 1.3660473355459113 81.784151756999492 4.2076082855742643 -0.70581670320594825 962458.4493606576 2.9240682443429526
decision_type=2 2 2 2 2 2 2 2 2 2 2 2 2
left_child=1 4 12 6 8 7 -4 -3 -1 -6 -7 -5 -2
right_child=2 5 3 11 9 10 -8 -9 -10 -11 -12 -13 -14
leaf_value=0.0030690548807382582 -0.0064322990239676784 8.7389280156154812e-05 0.0036775970655151566 -0.0015476568039411154 -0.0028681621502086789 0.0051325953554933077 -0.00069107335998693062 0.0024279357781777015 -0.00044732671267673621 -0.0001566556696205923 0.0027165209603931834 -0.0039650490065415702 -0.0043755413123152476
leaf_weight=43.5 28 94.5 38 18 127.5 67 27 128.5 29 35 45.5 58.5 53.5
leaf_count=12 19 44 9 12 84 9 16 36 13 17 13 39 36
internal_value=-2.87886e-05 0.00096859 -0.00257871 -0.00101058 -0.00107081 0.00240143 0.00185819 0.00145221 0.00165492 -0.00230311 0.00422157 -0.00346259 -0.00520973
internal_weight=793.5 570.5 223 141.5 235 335.5 65 223 72.5 162.5 112.5 76.5 81.5
internal_count=359 228 131 76 126 102 25 80 25 101 22 51 55
is_linear=0
shrinkage=0.02


Tree=45
num_leaves=14
num_cat=0
split_feature=5 16 11 5 17 5 5 22 23 19 5 22 26
split_gain=4.71318 3.63692 2.63265 1.71303 1.29454 1.14916 2.19881 1.14852 0.839614 0.623406 0.703207 0.451332 0.0372754
threshold=3286.0673594337982 -0.28925884511594069 25.410479855130422 3233.5861703595915 4.5829713391211788 3207.0255157661663 3236.859795599325 31.83443880403728 83.576274347569765 3307.6240951166669 3308.3191163919764 57.417590095234154 25.53179326444042
decision_type=2 2 2 2 2 2 2 2 2 2 2 2 2
left_child=1 3 4 11 -2 8 -7 -5 -3 12 -11 -1 -4
right_child=2 5 9 7 -6 6 -8 -9 -10 10 -12 -13 -14
leaf_value=-0.0031345675925576622 0.0034291585169732575 0.0018414391027047087 -0.0028314562715865948 -0.0023692711910657718 -0.0028395708882942411 -0.0034683567130881733 0.0023084188168363056 0.0023011530452655467 0.0047365999506480657 -0.00044336361007557974 -0.0038239371804963981 -0.00054384256642440272 -0.0053939015315129218
leaf_weight=90 38.5 76.5 11.999999999999998 27 18 31.5 127.5 77.5 99 43.5 61.5 42 57
leaf_count=60 10 23 8 18 11 21 40 26 14 24 41 22 39
internal_value=7.96451e-05 0.0010564 -0.00232255 -0.000832787 0.00137577 0.00239581 0.00112978 0.00105912 0.00351221 -0.00353634 -0.00246816 -0.0023406 -0.00504635
internal_weight=801.5 571 230.5 236.5 56.5 334.5 159 104.5 175.5 174 105 132 69
internal_count=357 224 133 126 21 98 61 44 37 112 65 82 47
is_linear=0
shrinkage=0.02


Tree=46
num_leaves=13
num_cat=0
split_feature=2 0 19 34 2 2 1 30 29 28 2 19
split_gain=5.07491 3.47159 2.10899 2.80647 1.57925 0.965714 0.608121 0.606713 0.22211 0.174643 0.155484 0.0232387
threshold=956479.36049106228 0.35460488704253579 3307.707630040341 3308.0406062318607 917392.88906401931 932505.71217918617 0.4647231720437684 1.1245969887229939 -2.7544649181825269 -2.7234287078314261 962458.4493606576 3296.1696018948301
decision_type=2 2 2 2 2 2 2 2 2 2 2 2
left_child=1 4 11 7 -1 -6 9 -4 -8 -3 -5 -2
right_child=2 6 3 10 5 -7 8 -9 -10 -11 -12 -13
leaf_value=-0.0048358152000992386 -0.0058163672867943264 -0.00086727745440744219 0.003715967051616711 -0.0014757065081170626 0.0030624217283781443 0.0011413923624831325 0.00075640682526576658 -0.00067971049300912358 -0.0018375930004777053 -0.0032689093015523573 -0.0039012019256266153 -0.0040523876741875055
leaf_weight=11.999999999999998 41 19.5 39.5 19.5 212.5 219.5 39 16.5 18 64.5 60 41.5
leaf_count=8 28 13 10 13 50 87 17 10 11 43 40 28
internal_value=4.83789e-05 0.00102159 -0.00254324 -0.000969299 0.00189074 0.00209828 -0.00169235 0.00240208 -5.46767e-05 -0.00275978 -0.00336931 -0.00504105
internal_weight=803 585 218 135.5 444 432 141 56 57 84 79.5 82.5
internal_count=358 229 129 73 145 137 84 20 28 56 53 56
is_linear=0
shrinkage=0.02


Tree=47
num_leaves=13
num_cat=0
split_feature=2 22 20 2 14 11 2 30 2 12 31 2
split_gain=5.2561 3.40922 1.94397 2.36894 1.63479 1.04042 0.892968 0.782284 0.203832 0.155508 0.10155 0.0875129
threshold=955933.59743728128 31.83443880403728 3307.6240951166669 962258.08521709184 -1.6590286954961271 26.897867124443611 918944.67882054311 1.1245969887229939 962458.4493606576 26.314999269584103 2.9240682443429526 923511.9984549646
decision_type=2 2 2 2 2 2 2 2 2 2 2 2
left_child=1 9 10 7 5 -3 -6 -4 -5 11 -2 -1
right_child=2 4 3 8 6 -7 -8 -9 -10 -11 -12 -13
leaf_value=-0.004511377724011739 -0.0060911903276162993 -0.0012345425335612769 0.0035066496715313051 -0.0013550196133553982 -0.0012044970759978661 0.0038248707942473582 0.0026339482208069961 -0.0011178491675191454 -0.0039668218758371144 -0.00038738299680478653 -0.0039738202659147124 -0.0023329141122657203
leaf_weight=13.499999999999998 32.5 94.5 39.5 21 24.5 18 342 21 57 14.999999999999998 54.5 63
leaf_count=9 22 51 10 14 12 4 95 13 38 7 37 42
internal_value=1.93321e-05 0.00104367 -0.00255313 -0.00104233 0.00172219 -0.000367817 0.00236806 0.00188098 -0.00332764 -0.00245737 -0.00487722 -0.00282235
internal_weight=796 570.5 225.5 138.5 479 112.5 366.5 60.5 78 91.5 87 76.5
internal_count=354 220 134 75 162 55 107 23 52 58 59 51
is_linear=0
shrinkage=0.02


Tree=48
num_leaves=12
num_cat=0
split_feature=2 0 2 20 20 22 30 2 31 2 25
split_gain=4.57767 3.29428 1.93401 1.74313 2.25291 1.16133 0.99009 0.675655 0.58054 0.200065 0.0761378
threshold=955933.59743728128 0.35460488704253579 918166.74058246089 3307.5576184428196 3308.6907953399405 40.259408466667317 1.1245969887229939 954849.32328886644 4.5689249139296608 962458.4493606576 25.712240848727465
decision_type=2 2 2 2 2 2 2 2 2 2 2
left_child=1 2 -1 10 6 -4 -5 8 -3 -6 -2
right_child=3 7 5 4 9 -7 -8 -9 -10 -11 -12
leaf_value=-0.0039082514392005073 -0.0024226558396109829 -0.0028800299629436997 0.0003117401521439594 0.0037496864237362825 -0.0013481033619415635 0.0026966850301236595 -0.0012905582099714699 0.0017763855151641062 0.00048773941572974712 -0.0038572185367345812 -0.0051463290489081178
leaf_weight=21 11.999999999999998 99 112 38 22.5 326 24 18 24 58.5 64.5
leaf_count=13 8 66 48 9 15 91 15 6 11 39 44
internal_value=7.46617e-05 0.000981289 0.00180372 -0.00238438 -0.00104211 0.00209453 0.00178273 -0.00167274 -0.00220888 -0.00322167 -0.00479953
internal_weight=819.5 600 459 219.5 143 438 62 141 123 81 76.5
internal_count=365 235 152 130 78 139 24 83 77 54 52
is_linear=0
shrinkage=0.02


Tree=49
num_leaves=10
num_cat=0
split_feature=2 22 14 2 10 22 0 32 32
split_gain=3.8029 3.13547 1.79891 1.24461 0.922181 0.0888836 0.0264286 0.00899314 0.00521999
threshold=962331.14875402476 26.215136183994218 0.24020203319530409 929112.09607254609 79.503962507911169 19.269712445882885 0.8542199457734333 3.0175264948703822 4.2346172637099562
decision_type=2 2 2 2 2 2 2 2 2
left_child=1 5 4 -4 -3 6 -1 -2 -9
right_child=7 2 3 -5 -6 -7 -8 8 -10
leaf_value=-0.00388368190470196 -0.0026604971770654647 0.0015114267813828258 0.003843640292315504 0.0010924937672645389 -0.00072116153976875704 -0.0014269446986062185 -0.0023347959691392521 -0.004308040350939321 -0.0023474682834413317
leaf_weight=40.5 27 111 113 165.5 214.5 19.5 26.5 55 11.999999999999998
leaf_count=27 18 37 21 61 113 12 18 37 8
internal_value=2.21805e-05 0.000540973 0.00105501 0.00223051 3.75065e-05 -0.00298244 -0.0033648 -0.00371643 -0.00404518
internal_weight=784.5 690.5 604 278.5 325.5 86.5 67 94 67
internal_count=352 289 232 82 150 57 45 63 45
is_linear=0
shrinkage=0.02


Tree=50
num_leaves=13
num_cat=0
split_feature=2 16 20 2 2 2 27 21 2 2 17 26
split_gain=4.81363 3.35292 1.74384 2.55071 1.11856 1.2419 0.659563 0.359197 0.23449 0.151057 0.131102 0.0876677
threshold=955933.59743728128 -1.6490019917868106 3307.6240951166669 962258.08521709184 918166.74058246089 930368.06668455049 -0.74477730315026414 35.11597406660335 940193.84510220983 962458.4493606576 3.9789604599771073 26.27626524948635
decision_type=2 2 2 2 2 2 2 2 2 2 2 2
left_child=1 7 11 6 -3 -6 -4 10 -9 -5 -1 -2
right_child=2 4 3 9 5 -7 -8 8 -10 -11 -12 -13
leaf_value=-0.0011290980547520458 -0.003510055290696062 -0.0032209827972180917 0.0037831212488810225 -0.0011043996833490603 0.0031208705394919494 0.00093222641045056696 -0.00053506367123789264 -0.001589462342952925 0.00097043951031039737 -0.0036944458930580704 -0.0031664885713441953 -0.0054992094129644419
leaf_weight=24 39 14.999999999999998 36 14.999999999999998 219 205.5 21 30 24 66 54 45
leaf_count=15 26 9 8 10 51 83 12 17 10 44 36 30
internal_value=6.35001e-05 0.00103686 -0.00242345 -0.00100193 0.0018775 0.00207306 0.0021851 -0.00173673 -0.000420214 -0.00326785 -0.00259789 -0.00467685
internal_weight=793.5 571.5 222 138 439.5 424.5 57 132 54 81 78 84
internal_count=351 221 130 74 143 134 20 78 27 54 51 56
is_linear=0
shrinkage=0.02


end of trees

feature_importances:
city_estimated_population=141
week_cos=38
city_pop_density=33
city_area_weighted_pop_density_lag20=28
city_area_weighted_u_component_of_wind_10m_rollmean_lag1_w8=25
week_sin=22
city_area_weighted_v_component_of_wind_10m_rollmean_lag1_w8=22
city_area_weighted_temp_c_lag14=20
city_area_weighted_rainfall_rollmean_lag1_w8=20
city_area_weighted_wind_speed_10m_rollmean_lag1_w4=16
city_area_weighted_u_component_of_wind_10m_rollmean_lag1_w4=15
city_area_weighted_u_component_of_wind_10m_lag8=14
city_area_weighted_rh_rollmean_lag1_w8=14
city_area_weighted_temp_c_rollmean_lag1_w8=13
city_area_weighted_v_component_of_wind_10m_rollmean_lag1_w4=12
city_area_weighted_wind_speed_10m_rollmean_lag1_w8=12
city_area_weighted_temp_c_lag13=10
city_area_weighted_pop_density_lag19=10
city_area_weighted_v_component_of_wind_10m_lag10=9
city_area_weighted_wind_speed_10m_lag14=9
city_area_weighted_rainfall_rollmean_lag1_w4=9
city_area_weighted_rainfall_lag19=8
city_area_weighted_rh_lag19=8
city_area_weighted_rh_rollmean_lag1_w4=7
city_area_weighted_pop_density_rollmean_lag1_w8=7
city_area_weighted_temp_c_rollmean_lag1_w4=5
city_area_weighted_v_component_of_wind_10m_lag8=4
city_area_weighted_wind_speed_10m_lag13=3
city_area_weighted_rainfall_lag20=1
city_area_weighted_u_component_of_wind_10m_lag7=1
city_area_weighted_pop_density_rollmean_lag1_w4=1

parameters:
[boosting: gbdt]
[objective: regression]
[metric: rmse]
[tree_learner: serial]
[device_type: cpu]
[data_sample_strategy: bagging]
[data: ]
[valid: ]
[num_iterations: 51]
[learning_rate: 0.02]
[num_leaves: 31]
[num_threads: 0]
[seed: 0]
[deterministic: 0]
[force_col_wise: 1]
[force_row_wise: 0]
[histogram_pool_size: -1]
[max_depth: 4]
[min_data_in_leaf: 8]
[min_sum_hessian_in_leaf: 0.001]
[bagging_fraction: 0.9]
[pos_bagging_fraction: 1]
[neg_bagging_fraction: 1]
[bagging_freq: 1]
[bagging_seed: 3]
[bagging_by_query: 0]
[feature_fraction: 0.8]
[feature_fraction_bynode: 1]
[feature_fraction_seed: 2]
[extra_trees: 0]
[extra_seed: 6]
[early_stopping_round: 0]
[early_stopping_min_delta: 0]
[first_metric_only: 0]
[max_delta_step: 0]
[lambda_l1: 0.1]
[lambda_l2: 1.5]
[linear_lambda: 0]
[min_gain_to_split: 0]
[drop_rate: 0.1]
[max_drop: 50]
[skip_drop: 0.5]
[xgboost_dart_mode: 0]
[uniform_drop: 0]
[drop_seed: 4]
[top_rate: 0.2]
[other_rate: 0.1]
[min_data_per_group: 100]
[max_cat_threshold: 32]
[cat_l2: 10]
[cat_smooth: 10]
[max_cat_to_onehot: 4]
[top_k: 20]
[monotone_constraints: ]
[monotone_constraints_method: basic]
[monotone_penalty: 0]
[feature_contri: ]
[forcedsplits_filename: ]
[refit_decay_rate: 0.9]
[cegb_tradeoff: 1]
[cegb_penalty_split: 0]
[cegb_penalty_feature_lazy: ]
[cegb_penalty_feature_coupled: ]
[path_smooth: 0]
[interaction_constraints: ]
[verbosity: -1]
[saved_feature_importance_type: 0]
[use_quantized_grad: 0]
[num_grad_quant_bins: 4]
[quant_train_renew_leaf: 0]
[stochastic_rounding: 1]
[linear_tree: 0]
[max_bin: 255]
[max_bin_by_feature: ]
[min_data_in_bin: 3]
[bin_construct_sample_cnt: 200000]
[data_random_seed: 1]
[is_enable_sparse: 1]
[enable_bundle: 1]
[use_missing: 1]
[zero_as_missing: 0]
[feature_pre_filter: 1]
[pre_partition: 0]
[two_round: 0]
[header: 0]
[label_column: ]
[weight_column: ]
[group_column: ]
[ignore_column: ]
[categorical_feature: ]
[forcedbins_filename: ]
[precise_float_parser: 0]
[parser_config_file: ]
[objective_seed: 5]
[num_class: 1]
[is_unbalance: 0]
[scale_pos_weight: 1]
[sigmoid: 1]
[boost_from_average: 1]
[reg_sqrt: 0]
[alpha: 0.9]
[fair_c: 1]
[poisson_max_delta_step: 0.7]
[tweedie_variance_power: 1.5]
[lambdarank_truncation_level: 30]
[lambdarank_norm: 1]
[label_gain: ]
[lambdarank_position_bias_regularization: 0]
[eval_at: ]
[multi_error_top_k: 1]
[auc_mu_weights: ]
[num_machines: 1]
[local_listen_port: 12400]
[time_out: 120]
[machine_list_filename: ]
[machines: ]
[gpu_platform_id: -1]
[gpu_device_id: -1]
[gpu_use_dp: 0]
[num_gpu: 1]

end of parameters
