tree
version=v4
num_class=1
num_tree_per_iteration=1
label_index=0
max_feature_idx=56
objective=regression
feature_names=week_sin week_cos city_estimated_population city_area_m2 city_area_km2 city_pop_density n_barangays_reported city_area_weighted_rainfall_lag18 city_area_weighted_rainfall_lag19 city_area_weighted_rh_lag20 city_area_weighted_rh_lag19 city_area_weighted_temp_c_lag13 city_area_weighted_temp_c_lag12 city_area_weighted_u_component_of_wind_10m_lag6 city_area_weighted_u_component_of_wind_10m_lag7 city_area_weighted_v_component_of_wind_10m_lag7 city_area_weighted_v_component_of_wind_10m_lag9 city_area_weighted_wind_speed_10m_lag13 city_area_weighted_wind_speed_10m_lag12 city_area_weighted_pop_density_lag20 city_area_weighted_pop_density_lag19 city_area_weighted_rainfall_rollmean_lag1_w4 city_area_weighted_rainfall_rollmean_lag1_w8 city_area_weighted_rh_rollmean_lag1_w4 city_area_weighted_rh_rollmean_lag1_w8 city_area_weighted_temp_c_rollmean_lag1_w4 city_area_weighted_temp_c_rollmean_lag1_w8 city_area_weighted_u_component_of_wind_10m_rollmean_lag1_w4 city_area_weighted_u_component_of_wind_10m_rollmean_lag1_w8 city_area_weighted_v_component_of_wind_10m_rollmean_lag1_w4 city_area_weighted_v_component_of_wind_10m_rollmean_lag1_w8 city_area_weighted_wind_speed_10m_rollmean_lag1_w4 city_area_weighted_wind_speed_10m_rollmean_lag1_w8 city_area_weighted_pop_density_rollmean_lag1_w4 city_area_weighted_pop_density_rollmean_lag1_w8 city_area_weighted_flood_risk_index_rollmean_lag1_w4 city_area_weighted_flood_risk_index_rollmean_lag1_w8 city_area_weighted_percent_annual_crop_rollmean_lag1_w4 city_area_weighted_percent_annual_crop_rollmean_lag1_w8 city_area_weighted_percent_brush_shrubs_rollmean_lag1_w4 city_area_weighted_percent_brush_shrubs_rollmean_lag1_w8 city_area_weighted_percent_built_up_rollmean_lag1_w4 city_area_weighted_percent_built_up_rollmean_lag1_w8 city_area_weighted_percent_inland_water_rollmean_lag1_w4 city_area_weighted_percent_inland_water_rollmean_lag1_w8 city_area_weighted_percent_open_forest_rollmean_lag1_w4 city_area_weighted_percent_open_forest_rollmean_lag1_w8 city_area_weighted_percent_perennial_crop_rollmean_lag1_w4 city_area_weighted_percent_perennial_crop_rollmean_lag1_w8 city_area_weighted_percent_open_barren_rollmean_lag1_w4 city_area_weighted_percent_open_barren_rollmean_lag1_w8 city_area_weighted_percent_fishpond_rollmean_lag1_w4 city_area_weighted_percent_fishpond_rollmean_lag1_w8 city_area_weighted_percent_grassland_rollmean_lag1_w4 city_area_weighted_percent_grassland_rollmean_lag1_w8 city_area_weighted_percent_mangrove_forest_rollmean_lag1_w4 city_area_weighted_percent_mangrove_forest_rollmean_lag1_w8
feature_infos=[-1:1] [-1:1] [914211.7095180488:964143.50380609359] none none [3142.64637869529:3314.2893043627] none [0.0025243612881299211:403.77764092016611] [0.0025243612881299211:403.77764092016611] [74.166209495041301:88.154553662835738] [74.166209495041301:88.154553662835738] [24.337778836331829:27.857639391615468] [24.337778836331829:27.857639391615468] [-4.5717681780699149:4.4965446280041954] [-4.5717681780699149:4.4965446280041954] [-6.2680500182560719:5.1247667214851038] [-6.2680500182560719:5.1247667214851038] [1.39564484944224:6.8002328204854665] [1.39564484944224:6.8002328204854665] [3125.6331669833717:3314.2893043626991] [3126.4700955675198:3314.2893043626991] [0.066242600448727776:147.57175632940832] [0.48078482996758953:119.23124797939784] [76.04244385379063:86.610761977842287] [76.761170402338564:86.082735724126366] [24.635251946080103:27.639879393457701] [24.734571822108446:27.440794559836895] [-3.4486736035175789:3.6280013469861503] [-3.0815340340364679:3.131422920161175] [-4.48361272930451:3.4734894156434146] [-3.8559405516430854:3.0795858777581708] [1.7342058228275261:5.7925001460518359] [1.9506388693011207:5.3170040362056081] [3140.4885697881891:3314.1262969917143] [3138.7712235644044:3313.8757850504171] none none none none none none none none none none none none none none none none none none none none none none
tree_sizes=1227 1036 1321 1277 939 1304 1293 1052 1108 974 1521 1197 945 932 1389 1315 1130 1389 1250 1241 1158 1229 944 1228 950 1027 1046 1208 1419 1309 1279 1204 1213 1142 1313 1218 1042 1308

Tree=0
num_leaves=13
num_cat=0
split_feature=2 28 19 2 1 2 2 7 21 29 28 24
split_gain=23.7967 17.7756 7.04665 8.93459 6.32971 4.69283 3.47837 2.20993 2.12253 2.07682 0.57934 0.358506
threshold=955752.21413812169 -0.68539767582538247 3307.6240951166669 962331.14875402476 0.61559370248597578 933230.64356323204 940982.9699244271 17.296728200311026 40.639784998699234 -1.4544993669864881 -2.3684267159272134 79.012072916168847
decision_type=2 2 2 2 2 2 2 2 2 2 2 2
left_child=1 4 -2 8 11 7 -7 -3 -4 -6 -5 -1
right_child=2 5 3 10 9 6 -8 -9 -10 -11 -12 -13
leaf_value=0.56609430984658093 0.56217714477131442 0.58414159201656901 0.58517345422193745 0.57151274384446216 0.57694609957978182 0.57161335220917686 0.58325557836086817 0.59110189288334747 0.57514148495780326 0.58688141034878905 0.56318022352598129 0.57030605091955922
leaf_weight=33 81.5 73.5 38 11.999999999999998 82 27 132 108.5 36 23.5 46.5 73.5
leaf_count=22 55 23 10 8 40 18 42 16 21 5 31 49
internal_value=0.577543 0.580832 0.569074 0.573407 0.574025 0.585066 0.581247 0.588353 0.580312 0.579216 0.564741 0.568897
internal_weight=767 553 214 132.5 212 341 159 182 74 105.5 58.5 106.5
internal_count=340 215 125 70 116 99 60 39 31 45 39 71
is_linear=0
shrinkage=1


Tree=1
num_leaves=10
num_cat=0
split_feature=2 28 2 31 1 1 9 30 24
split_gain=24.6297 14.3677 9.0635 5.08311 4.50167 3.22723 1.65722 0.682874 0.29703
threshold=962331.14875402476 -1.8525062594344102 932361.4706413399 2.6907342929849078 0.4647231720437684 -0.29696027566504651 82.208269237089198 -2.7892188227499224 80.598734565169721
decision_type=2 2 2 2 2 2 2 2 2
left_child=1 4 5 -4 8 -3 -6 -2 -1
right_child=7 2 3 -5 6 -7 -8 -9 -10
leaf_value=-0.011831332724202762 -0.0058789250472417245 0.0031586271187412406 -0.0043959215935215597 0.0041743580393862056 0.0041196770015884841 0.011848508596792817 -0.0044727715981471078 -0.01446978504385267 -0.0076206007646710686
leaf_weight=43 11.999999999999998 52.5 88.5 203.5 41.5 159 37.5 86.5 43.5
leaf_count=29 8 21 52 73 15 29 24 58 29
internal_value=0.000417861 0.00248755 0.00500787 0.0015656 -0.00515502 0.00972352 1.73071e-05 -0.0135079 -0.00984223
internal_weight=767.5 669 503.5 292 165.5 211.5 79 98.5 86.5
internal_count=338 272 175 125 97 50 39 66 58
is_linear=0
shrinkage=0.03


Tree=2
num_leaves=13
num_cat=0
split_feature=2 22 19 2 9 15 21 2 12 25 14 12
split_gain=20.3147 13.1816 6.5805 10.7087 5.62949 3.34483 1.81431 0.87886 0.61903 0.42694 0.116331 0.00964354
threshold=955752.21413812169 30.112132010643908 3307.6240951166669 962331.14875402476 83.325577049913207 0.19477036848292148 42.138146071410397 940982.9699244271 25.795743251931878 25.68430333757021 -0.66599859708554454 25.444883814346795
decision_type=2 2 2 2 2 2 2 2 2 2 2 2
left_child=1 8 -2 6 5 -3 -4 -6 11 -5 -10 -1
right_child=2 4 3 9 7 -7 -8 -9 10 -11 -12 -13
leaf_value=-0.010665193561245413 -0.014447905107886492 0.0028788948267768574 0.0085621797485010958 -0.0060473858288560929 -0.003768512673586607 0.008920491536326916 -0.001319366221981389 0.0041023143790662291 -0.0054781417169354179 -0.013387733319672671 -0.0014386693376761215 -0.0074888642052324799
leaf_weight=33 82.5 131.5 41 11.999999999999998 61.5 230.5 27 14.999999999999998 21 54 11.999999999999998 19.5
leaf_count=22 56 51 10 8 37 59 15 5 14 36 8 13
internal_value=-0.000112448 0.0030796 -0.00782378 -0.00365757 0.00518351 0.00674393 0.00465463 -0.00217284 -0.00762844 -0.0121857 -0.00413888 -0.00967548
internal_weight=740.5 524 216.5 134 438.5 362 68 76.5 85.5 66 33 52.5
internal_count=334 209 125 69 152 110 25 42 57 44 22 35
is_linear=0
shrinkage=0.03


Tree=3
num_leaves=13
num_cat=0
split_feature=2 0 11 22 2 2 22 1 19 34 17 11
split_gain=19.4649 15.6742 6.40896 3.86795 3.75852 4.74495 3.40763 2.15874 1.90453 3.24718 0.763539 0.158462
threshold=955752.21413812169 0.12053668025532312 25.410479855130422 82.13429884970428 932794.93961261341 940508.72955335642 41.980343727440577 0.56806474673115548 3307.6240951166669 3308.6620506675818 3.3574842822139348 25.79286252455638
decision_type=2 2 2 2 2 2 2 2 2 2 2 2
left_child=1 4 3 -2 6 -6 -1 11 -4 -10 -9 -3
right_child=2 7 8 -5 5 -7 -8 10 9 -11 -12 -13
leaf_value=-0.00059809106881065013 -0.0067056388184428212 -0.0091965302238464341 -0.013821153637412546 0.0097026504677321223 -0.00629561922497846 0.0056448298654208579 0.010763938669397051 0.0038031811091032894 -0.0013405095916045342 -0.012400086440662346 -0.0034983630411987827 -0.0054853582883134808
leaf_weight=27 23 61.5 70.5 27 36 156.5 177.5 21 46.5 49.5 30 22.5
leaf_count=14 13 41 48 6 24 51 37 7 25 33 18 15
internal_value=0.000341453 0.00342921 -0.00722001 0.00214194 0.00643025 0.00338306 0.00926091 -0.00536741 -0.0100364 -0.00712761 -0.000447678 -0.00829634
internal_weight=748.5 532 216.5 50 397 192.5 204.5 135 166.5 96 51 84
internal_count=332 207 125 19 126 75 51 81 106 58 25 56
is_linear=0
shrinkage=0.03


Tree=4
num_leaves=9
num_cat=0
split_feature=2 28 24 23 2 10 11 2
split_gain=18.0659 12.2952 8.38338 3.76915 2.90511 2.64654 1.67529 0.510167
threshold=962331.14875402476 0.73645474838583358 82.618268654997095 83.755431850349069 930227.53123000462 82.03708459470478 26.566253862809194 962458.4493606576
decision_type=2 2 2 2 2 2 2 2
left_child=1 2 6 5 -4 -3 -1 -2
right_child=7 3 4 -5 -6 -7 -8 -9
leaf_value=-0.0082337111958666991 -0.0058718703766835146 0.0069879556341816583 0.0067276081280617768 0.01344225991824094 9.847913060167974e-06 -0.0021599384765769985 0.0012995853633978045 -0.013088054511444701
leaf_weight=125.5 13.499999999999998 124.5 78 67 219 36 18.5 80.5
leaf_count=81 9 34 22 9 102 20 9 54
internal_value=0.000100525 0.00183954 -0.00108162 0.0074886 0.0017958 0.00492613 -0.00699809 -0.0121402
internal_weight=762.5 668.5 441 227.5 297 160.5 144 94
internal_count=340 277 214 63 124 54 90 63
is_linear=0
shrinkage=0.03


Tree=5
num_leaves=13
num_cat=0
split_feature=2 0 19 2 2 2 1 2 1 9 2 30
split_gain=20.3167 15.3221 4.88245 8.03713 4.02179 4.10539 2.61747 2.37358 2.35468 1.0303 0.500998 0.192898
threshold=955752.21413812169 0.06026834012766185 3307.6240951166669 962331.14875402476 932794.93961261341 940982.9699244271 0.56806474673115548 927332.94263704249 -0.78574730703237872 82.208269237089198 962458.4493606576 -0.49678230314050836
decision_type=2 2 2 2 2 2 2 2 2 2 2 2
left_child=1 4 -2 8 7 -6 11 -1 -4 -8 -5 -3
right_child=2 6 3 10 5 -7 9 -9 -10 -11 -12 -13
leaf_value=0.0057609668824588883 -0.013378267763993319 -0.0083569641000613929 0.0083688424422934237 -0.0047296452295894813 -0.0060753580115630599 0.0053075275615933511 0.0028049092216547145 0.012459676286152433 -0.0027000461903902199 -0.0040974136330843179 -0.012244141430151267 -0.0035717860284404683
leaf_weight=95 84 81 36 11.999999999999998 34.5 144 42 104 31.5 34.5 60 11.999999999999998
leaf_count=30 57 54 9 8 23 47 16 15 19 21 40 8
internal_value=-8.80769e-05 0.00302406 -0.00769102 -0.00418493 0.00638503 0.00307753 -0.00444605 0.00931409 0.00321746 -0.000301253 -0.0110942 -0.00780005
internal_weight=770.5 547 223.5 139.5 377.5 178.5 169.5 199 67.5 76.5 72 93
internal_count=347 214 133 76 115 70 99 45 28 37 48 62
is_linear=0
shrinkage=0.03


Tree=6
num_leaves=13
num_cat=0
split_feature=2 0 2 2 22 19 34 1 1 2 32 12
split_gain=21.2023 13.4292 3.11473 4.28616 3.75269 2.26387 4.28203 1.32403 0.64393 0.377653 0.197572 0.081853
threshold=955752.21413812169 0.35460488704253579 932794.93961261341 940508.72955335642 41.980343727440577 3307.6240951166669 3308.3523652283779 0.56806474673115548 -0.70581670320594803 954669.54912594671 4.2346172637099562 25.795743251931878
decision_type=2 2 2 2 2 2 2 2 2 2 2 2
left_child=1 2 4 -4 -1 -2 8 11 -7 -9 -8 -3
right_child=5 7 3 -5 -6 6 10 9 -10 -11 -12 -13
leaf_value=-0.00247226933496339 -0.012823439405514645 -0.008582902437541633 -0.0061532382449135175 0.0048899017724097511 0.0093504348217975358 0.0044940704464912417 -0.011843265805461189 -0.003401023756978767 -0.0023121232480875081 0.0023578505069017409 -0.0062539664185964142 -0.0054697690592570734
leaf_weight=27 77 63 39 150 191 21.5 54 27 27 14.999999999999998 11.999999999999998 21
leaf_count=15 52 42 26 51 41 7 36 16 16 5 8 14
internal_value=-0.000291345 0.00278401 0.00543335 0.00258287 0.0078747 -0.00882874 -0.00604159 -0.00573735 0.000704589 -0.0013024 -0.0109579 -0.00789577
internal_weight=724.5 533 407 189 218 191.5 114.5 126 48.5 42 66 84
internal_count=329 210 133 77 56 119 67 77 23 21 44 56
is_linear=0
shrinkage=0.03


Tree=7
num_leaves=10
num_cat=0
split_feature=2 14 24 2 1 7 2 30 2
split_gain=15.3755 11.2488 5.19676 3.75633 3.95889 2.10802 1.24888 0.370259 0.0887844
threshold=962331.14875402476 0.15650334939684321 80.598734565169721 934108.77019318251 -0.61559370248597534 19.363758809072596 927332.94263704249 -2.7548402933585909 956297.17045225413
decision_type=2 2 2 2 2 2 2 2 2
left_child=1 2 8 6 -5 -4 -3 -2 -1
right_child=7 3 5 4 -6 -7 -8 -9 -10
leaf_value=-0.0083710082503764532 -0.0053982176476946239 0.0058059863591676244 0.0026254147007908836 0.0096210662535258697 -0.00058784689948114814 -0.0023895081777029767 0.011977751103432284 -0.012035320519641705 -0.012511470033276467
leaf_weight=45 11.999999999999998 50 145.5 51.5 97 154.5 91 77.5 14.499999999999998
leaf_count=30 8 16 56 9 47 86 13 52 10
internal_value=0.000351814 0.00196633 -0.00157403 0.00635819 0.00298326 3.83878e-05 0.00985605 -0.0112315 -0.00959494
internal_weight=738.5 649 359.5 289.5 148.5 300 141 89.5 59.5
internal_count=327 267 182 85 56 142 29 60 40
is_linear=0
shrinkage=0.03


Tree=8
num_leaves=11
num_cat=0
split_feature=28 2 24 2 19 2 7 2 1 2
split_gain=14.6275 7.84418 8.54918 2.94451 2.25782 2.11124 1.54468 0.558164 0.195323 0.165198
threshold=1.1447874678523158 962331.14875402476 83.251077300590154 929389.48183021334 3308.05924738356 934551.19981329038 19.363758809072596 927332.94263704249 -0.70581670320594803 962514.86924537865
decision_type=2 2 2 2 2 2 2 2 2 2
left_child=1 2 4 -4 -1 7 8 -2 -7 -3
right_child=5 9 3 -5 -6 6 -8 -9 -10 -11
leaf_value=-0.0055023209319026633 0.007706154268461724 -0.0067296505663543942 0.008869625999168915 0.0013332995631754761 0.0042049901476129891 0.0085359179069255959 -0.0016527834469752926 0.012477375507354735 0.0046261217841016711 -0.011505151382962564
leaf_weight=219 56.5 14.999999999999998 65 163 23 28 30 53 32.5 65.5
leaf_count=133 14 10 13 70 8 5 15 7 11 44
internal_value=0.000389702 -0.00213382 -0.000639139 0.00351771 -0.00456004 0.00731922 0.00383913 0.0101211 0.00656938 -0.0107272
internal_weight=750.5 550.5 470 228 242 200 90.5 109.5 60.5 80.5
internal_count=330 278 224 83 141 52 31 21 16 54
is_linear=0
shrinkage=0.03


Tree=9
num_leaves=9
num_cat=0
split_feature=2 22 2 2 31 30 2 2
split_gain=12.403 9.52743 7.19917 4.46932 2.35301 0.78116 0.386329 0.202046
threshold=962331.14875402476 30.112132010643908 930227.53123000462 940508.72955335642 3.4873987273326263 0.049943136713883209 962514.86924537865 956844.54844074836
decision_type=2 2 2 2 2 2 2 2
left_child=1 5 4 -4 -3 7 -2 -1
right_child=6 2 3 -5 -6 -7 -8 -9
leaf_value=-0.0072370675224185787 -0.0047870726012266603 0.0092079129693911806 -0.0062827934419659717 0.0020812517556528837 0.0021074319895356894 -0.00019175736323512831 -0.01144020738697692 -0.012179087794744052
leaf_weight=73.5 11.999999999999998 157 72 269.5 59 13.499999999999998 73.5 11.999999999999998
leaf_count=49 8 32 48 107 24 8 49 8
internal_value=8.72588e-05 0.00149408 0.00302083 0.000300247 0.00729399 -0.0070327 -0.0105899 -0.00808081
internal_weight=742 656.5 557.5 341.5 216 99 85.5 85.5
internal_count=333 276 211 155 56 65 57 57
is_linear=0
shrinkage=0.03


Tree=10
num_leaves=15
num_cat=0
split_feature=2 0 19 2 13 2 26 21 1 34 29 13 27 19
split_gain=15.8365 12.0447 4.79828 6.83577 2.60154 2.24172 1.359 1.21192 0.970349 0.392045 0.292341 0.0613052 0.0174183 0.0559108
threshold=955752.21413812169 0.35460488704253579 3307.707630040341 962331.14875402476 0.56651133260465592 934108.77019318251 26.004764502554472 40.639784998699234 0.61559370248597578 3308.8693859697337 -2.7612382402007989 -1.9011180188205847 -2.7385054171943035 3307.5083383820042
decision_type=2 2 2 2 2 2 2 2 2 2 2 2 2 2
left_child=1 4 12 7 6 -6 -1 -4 11 -5 -10 -3 -2 -14
right_child=2 8 3 9 5 -7 -8 -9 10 -11 -12 -13 13 -15
leaf_value=0.0060603873358197396 -0.0081829123474084411 -0.0077748364352468223 0.0076112541651725757 -0.0042696136020380871 0.010050739189493471 0.003861728877804354 0.00096656373556217414 -0.00065442691570413952 0.00097851983627135096 -0.010667131392522291 -0.0043287634234875439 -0.0049209522939309839 -0.012880733318572495 -0.0082293410071959863
leaf_weight=72 11.999999999999998 66 36.5 13.499999999999998 127 94.5 137 27 21 54 14.999999999999998 19.5 67.5 11.999999999999998
leaf_count=19 8 44 9 9 22 33 64 15 10 36 9 13 46 8
internal_value=0.00010105 0.00282651 -0.00663621 -0.00290154 0.00518096 0.00744625 0.00274902 0.0041178 -0.00547777 -0.00949053 -0.00124953 -0.00720571 -0.0118777 -0.0123082
internal_weight=774.5 552 222.5 131 430.5 221.5 209 63.5 121.5 67.5 36 85.5 91.5 79.5
internal_count=345 214 131 69 138 55 83 24 76 45 19 57 62 54
is_linear=0
shrinkage=0.03


Tree=11
num_leaves=12
num_cat=0
split_feature=2 0 19 34 22 9 11 12 31 12 22
split_gain=9.62388 7.6808 4.20806 5.08916 1.76656 1.43986 1.36352 0.694504 0.658717 0.20443 0.0140872
threshold=955752.21413812169 0.35460488704253579 3307.6240951166669 3308.6620506675818 38.443342551187243 82.714016618688007 25.43287464736451 26.440344197870122 4.5396063121841719 25.795743251931878 65.968322580654544
decision_type=2 2 2 2 2 2 2 2 2 2 2
left_child=1 4 -2 6 7 -6 -4 -1 9 -3 -5
right_child=2 8 3 10 5 -7 -8 -9 -10 -11 -12
leaf_value=-0.0040476208661319847 -0.011701531790102583 -0.0073625364567412701 0.0066779912710189819 -0.01124171656269138 0.005860657705827917 0.00055515225827693928 -0.0013071364954761837 0.0018694722191741071 -0.00027877988310700115 -0.0040855420659965192 -0.0080280046606063839
leaf_weight=28.5 78 60 32 28.5 223.5 59 45 44 21 34.5 24
leaf_count=17 53 40 9 19 64 27 25 20 11 21 16
internal_value=-0.000865306 0.00150682 -0.00623264 -0.00286272 0.00369452 0.00476376 0.0020352 -0.000459572 -0.00517841 -0.00623719 -0.00997814
internal_weight=678 470.5 207.5 129.5 355 282.5 77 72.5 115.5 94.5 52.5
internal_count=322 200 122 69 128 91 34 37 72 61 35
is_linear=0
shrinkage=0.03


Tree=12
num_leaves=9
num_cat=0
split_feature=2 28 22 31 1 23 26 32
split_gain=9.81577 6.77587 5.76691 2.92295 2.50472 1.06214 0.462483 0.000114615
threshold=962406.74596153933 1.1447874678523158 75.231263341670385 3.3708387517675091 0.40966402954315184 83.819786168312703 26.701755312415468 2.801262336886567
decision_type=2 2 2 2 2 2 2 2
left_child=1 2 4 -4 -1 6 -3 -2
right_child=7 5 3 -5 -6 -7 -8 -9
leaf_value=-0.0047592120416962962 -0.0073563396781682966 0.0031061074379321236 0.0076541130640967328 -0.0014688861555222309 0.00045611441366631407 0.010487156867980955 0.0070348228921695618 -0.010522269478177323
leaf_weight=226 14.999999999999998 72 87 48.5 129.5 40 48 67
leaf_count=134 10 27 20 24 60 5 11 45
internal_value=-0.000338905 0.00089641 -0.000850541 0.00439086 -0.00285924 0.00623867 0.00473514 -0.0100568
internal_weight=733 651 491 135.5 355.5 160 120 82
internal_count=336 281 238 44 194 43 38 55
is_linear=0
shrinkage=0.03


Tree=13
num_leaves=9
num_cat=0
split_feature=28 2 24 2 29 19 11 31
split_gain=12.0629 5.57885 6.4512 2.40338 2.29515 1.80314 1.06812 0.468463
threshold=1.1447874678523158 962458.4493606576 83.304842363451584 950955.87060959765 0.61847772109253352 3308.05924738356 27.06587186562292 2.9479260846568929
decision_type=2 2 2 2 2 2 2 2
left_child=1 2 5 6 -4 -1 7 -2
right_child=3 -3 4 -5 -6 -7 -8 -9
leaf_value=-0.0052693340844582335 0.010963892225491798 -0.010033312091402187 0.0031972048976760116 -0.0013630221892486918 -0.009142090794084401 0.0025280251026153565 0.0027644515701006943 0.00688389019470881
leaf_weight=250 58 77.5 207.5 32 13.499999999999998 29 35 67
leaf_count=154 8 52 76 15 9 12 14 15
internal_value=-0.000425445 -0.00259347 -0.00141957 0.00606743 0.0023989 -0.00444736 0.00756208 0.00886091
internal_weight=769.5 577.5 500 192 221 279 160 125
internal_count=355 303 251 52 85 166 37 23
is_linear=0
shrinkage=0.03


Tree=14
num_leaves=14
num_cat=0
split_feature=2 28 11 18 2 2 29 1 19 34 31 22 27
split_gain=11.7204 8.0599 3.91261 2.44351 1.98077 2.66699 1.43594 1.34936 1.11727 1.4611 0.651568 0.46007 0.0243543
threshold=955752.21413812169 -0.29042322015178662 25.410479855130422 2.8415598242440447 933668.58593632688 940982.9699244271 -0.53792620357107601 -0.1799261722714405 3307.6240951166669 3308.6620506675818 4.4939633184400369 63.099155350500013 -2.7385054171943035
decision_type=2 2 2 2 2 2 2 2 2 2 2 2 2
left_child=1 3 6 11 7 -6 -2 -3 12 -10 -5 -1 -4
right_child=2 4 8 10 5 -7 -8 -9 9 -11 -12 -13 -14
leaf_value=0.0053722296806413741 -0.0029529211503617901 0.0029871686054010914 -0.0073470865006630241 -0.0052849231150178316 -0.0055893402217694049 0.0048401961723363697 0.0077021873753245285 0.010005934126327692 -0.0015260334902897825 -0.0090941693220183105 -0.00028220459530430453 -0.00063741450139454437 -0.011282811552938754
leaf_weight=32.5 24.5 35.5 11.999999999999998 120 25.5 131 19.5 95.5 42 52.5 30 16.5 67.5
leaf_count=10 13 13 8 78 17 40 4 15 24 35 16 8 46
internal_value=-0.00036352 0.00222458 -0.00612989 -0.00240455 0.00543117 0.00310659 0.00180212 0.00815231 -0.0081431 -0.00579746 -0.00430281 0.0033463 -0.010806
internal_weight=704.5 486.5 218 199 287.5 156.5 44 131 174 94.5 150 49 79.5
internal_count=327 197 130 112 85 57 17 28 113 59 94 18 54
is_linear=0
shrinkage=0.03


Tree=15
num_leaves=13
num_cat=0
split_feature=2 0 19 2 22 2 2 2 12 34 31 1
split_gain=9.85551 8.0937 3.74463 5.93111 1.73903 1.97104 1.16822 1.01893 0.936635 0.619518 0.554799 0.0286522
threshold=955752.21413812169 0.35460488704253579 3307.707630040341 962258.08521709184 40.27707752382706 932794.93961261341 962191.64742073498 954669.54912594671 26.342588863804121 3308.8693859697337 4.7666347385164327 -1.7225262015363449e-16
decision_type=2 2 2 2 2 2 2 2 2 2 2 2
left_child=1 4 11 6 8 -6 -4 10 -1 -5 -3 -2
right_child=2 7 3 9 5 -7 -8 -9 -10 -11 -12 -13
leaf_value=-0.003135080606138832 -0.011819488417018542 -0.0063658709907048455 -4.4817521535563015e-05 -0.003187793388011608 0.0074642870588887038 0.0026155919080911721 0.0082881901760896038 0.0026453848779201504 0.0029879044682459264 -0.0094140138420191685 -4.1522266343235966e-05 -0.0090071371639004107
leaf_weight=34.5 32 91.5 25.5 22.5 178.5 135 35 14.999999999999998 60 54 14.999999999999998 51
leaf_count=21 22 61 13 15 39 52 7 5 24 36 8 34
internal_value=7.91933e-05 0.00229848 -0.00524168 -0.00215215 0.0043228 0.00539606 0.00480792 -0.00446679 0.000727401 -0.00766689 -0.00549774 -0.0102371
internal_weight=749.5 529.5 220 137 408 313.5 60.5 121.5 94.5 76.5 106.5 83
internal_count=337 210 127 71 136 91 20 74 45 51 69 56
is_linear=0
shrinkage=0.03


Tree=16
num_leaves=11
num_cat=0
split_feature=2 0 11 22 2 2 19 2 2 31
split_gain=10.409 7.42228 4.50966 3.23385 2.48292 2.49791 1.07041 1.25065 0.689332 0.563408
threshold=955752.21413812169 0.35460488704253579 25.410479855130422 77.742563733760008 917135.84093104408 932794.93961261341 3307.6240951166669 962458.4493606576 954669.54912594671 4.7666347385164327
decision_type=2 2 2 2 2 2 2 2 2 2
left_child=1 4 3 -2 -1 -6 -4 -8 9 -3
right_child=2 8 6 -5 5 -7 7 -9 -10 -11
leaf_value=-0.0085821252877895642 -0.0053837372415206008 -0.0060664022352765589 -0.010457079141923824 0.009318250406729546 0.0071507118598961123 0.0024421459549430306 -0.0017188138310068651 -0.0087430185213380925 0.0023171032781784348 -0.00013005379312916806
leaf_weight=11.999999999999998 24.5 84 72 27.5 200 210.5 45 48 11.999999999999998 18
leaf_count=8 14 56 49 5 46 83 26 32 4 10
internal_value=0.000272619 0.00251674 -0.00525484 0.00239217 0.00435003 0.00475166 -0.00767374 -0.00541461 -0.00424342 -0.00504481
internal_weight=753.5 536.5 217 52 422.5 410.5 165 93 114 102
internal_count=333 207 126 19 137 129 107 58 70 66
is_linear=0
shrinkage=0.03


Tree=17
num_leaves=14
num_cat=0
split_feature=5 0 19 5 5 5 1 31 15 34 17 29 29
split_gain=9.40276 8.29013 3.5856 5.74689 1.81542 3.20175 1.8033 1.33361 1.23613 0.537449 0.531102 0.152876 0.0228817
threshold=3285.4438456871189 0.06026834012766185 3307.707630040341 3307.8080879886779 3206.5271189583218 3234.6738638973402 0.56806474673115548 3.4700192880071854 0.48051854983927228 3308.8693859697337 2.8083868674224184 1.0000000180025095e-35 -2.4330205700157115
decision_type=2 2 2 2 2 2 2 2 2 2 2 2 2
left_child=1 4 12 8 7 -6 11 -1 -4 -5 -8 -3 -2
right_child=2 6 3 9 5 -7 10 -9 -10 -11 -12 -13 -14
leaf_value=0.0079549200811842146 -0.0067160774311767176 -0.0066438416641969112 0.0075640163762228825 -0.0029702098626982081 -0.0053237832016855861 0.0045016693950402286 0.0029268190326059568 0.0019351960080829294 -0.0012422690914774483 -0.0088365226850509633 -0.0020888496156522009 -0.0031124456635627305 -0.010370339265056684
leaf_weight=148 11.999999999999998 79.5 41 21 37.5 131.5 33 44.5 21 61.5 42 18 75.5
leaf_count=29 8 53 9 14 25 42 12 16 12 41 24 12 51
internal_value=-0.000171894 0.00201695 -0.00520347 -0.00225958 0.0045968 0.00229415 -0.00337622 0.00658829 0.00458506 -0.0074147 0.00010778 -0.00604534 -0.00996768
internal_weight=766 534 232 144.5 361.5 169 172.5 192.5 62 82.5 75 97.5 87.5
internal_count=348 213 135 76 112 67 101 45 21 55 36 65 59
is_linear=0
shrinkage=0.03


Tree=18
num_leaves=12
num_cat=0
split_feature=2 0 11 32 9 2 17 2 9 19 31
split_gain=7.99584 7.9893 3.73171 1.91957 1.64407 1.87323 0.972513 0.812136 0.725059 0.405792 0.313725
threshold=955752.21413812169 0.35460488704253579 25.410479855130422 3.5150943836404944 83.531026202680792 917908.33765440912 4.317874367907355 954669.54912594671 85.80792343470533 3307.5083383820042 4.5689249139296608
decision_type=2 2 2 2 2 2 2 2 2 2 2
left_child=1 4 3 -2 5 -1 -6 10 9 -4 -3
right_child=2 7 8 -5 6 -7 -8 -9 -10 -11 -12
leaf_value=-0.0072503367895665376 0.0056836811800797787 -0.0060135562076594259 -0.010062587321609258 -0.0072368214603128105 -0.0027060157848255973 0.0050995768715132329 0.0054420982810358207 0.002532073046152408 -0.00064642324892739793 -0.0064975871692696009 -0.0013406303612249237
leaf_weight=10.499999999999998 35 103.5 61.5 13.499999999999998 48 322.5 17 11.999999999999998 13.499999999999998 82.5 16.5
leaf_count=7 9 69 42 9 27 94 5 4 7 54 10
internal_value=-0.000234624 0.00171325 -0.00523746 0.00198341 0.00383508 0.00468513 -0.000502076 -0.00465384 -0.00746898 -0.00808938 -0.00539982
internal_weight=736 530 206 48.5 398 333 65 132 157.5 144 120
internal_count=337 216 121 18 133 101 32 83 103 96 79
is_linear=0
shrinkage=0.03


Tree=19
num_leaves=12
num_cat=0
split_feature=2 0 20 34 2 2 21 1 30 12 2
split_gain=8.63866 6.44176 2.81711 3.63731 2.24555 1.93255 1.53646 0.9131 0.124505 0.117949 0.0805276
threshold=955752.21413812169 0.35460488704253579 3307.5576184428196 3308.3523652283779 917135.84093104408 932794.93961261341 40.639784998699234 0.61559370248597578 -2.4123357620483801 25.795743251931878 945852.49101088115
decision_type=2 2 2 2 2 2 2 2 2 2 2
left_child=1 4 -2 6 -1 -6 -4 9 -5 -3 -9
right_child=2 7 3 8 5 -7 -8 10 -10 -11 -12
leaf_value=-0.0082475881438988912 -0.0096945115077745666 -0.0063423944256305693 0.0065762901163101189 -0.0039223311658088972 0.0065318534611275908 0.0024001688976644235 -0.0021268003227084245 -0.0010647681690752506 -0.0081858654560951084 -0.0031800406600643954 0.0018110473165288566
leaf_weight=11.999999999999998 70.5 61.5 36.5 11.999999999999998 201.5 212 34.5 18 51 19.5 14.999999999999998
leaf_count=8 48 41 9 8 47 83 21 10 34 13 6
internal_value=0.000359288 0.00235129 -0.00487447 -0.00227441 0.00404858 0.00442807 0.00235569 -0.00395082 -0.00747118 -0.00564744 0.000213122
internal_weight=744 539.5 204.5 134 425.5 413.5 71 114 63 81 33
internal_count=328 208 120 72 138 130 30 70 42 54 16
is_linear=0
shrinkage=0.03


Tree=20
num_leaves=11
num_cat=0
split_feature=2 0 11 2 17 2 9 2 19 16
split_gain=7.98451 7.18042 4.08155 2.10917 1.80767 1.62016 0.868458 0.699125 0.414481 0.250816
threshold=955752.21413812169 0.35460488704253579 25.410479855130422 917135.84093104408 4.5829713391211788 932794.93961261341 85.271091434754524 954669.54912594671 3307.5083383820042 -1.4598019224208896
decision_type=2 2 2 2 2 2 2 2 2 2
left_child=1 3 4 -1 -2 -5 8 9 -4 -3
right_child=2 7 6 5 -6 -7 -8 -9 -10 -11
leaf_value=-0.0080191931632848882 0.0063518774525115358 -0.0056153263409343575 -0.0092897285907699231 0.0061269020919202709 -0.0052975722926003593 0.0024155888025625552 -0.00034790097798318846 0.002288523515829673 -0.0058976540172493066 -0.00079180030180857732
leaf_weight=11.999999999999998 37 96 67.5 212 16.5 218.5 18 11.999999999999998 90 11.999999999999998
leaf_count=8 9 64 46 51 10 84 9 4 58 7
internal_value=0.000212989 0.00213713 -0.00449556 0.00390305 0.00270025 0.00425667 -0.00670053 -0.00434074 -0.0074103 -0.00510532
internal_weight=791.5 562.5 229 442.5 53.5 430.5 175.5 120 157.5 108
internal_count=350 218 132 143 19 135 113 75 104 71
is_linear=0
shrinkage=0.03


Tree=21
num_leaves=12
num_cat=0
split_feature=2 22 2 2 22 2 31 28 2 26 32
split_gain=7.33825 4.91578 4.18313 3.01606 2.58653 1.06508 0.852374 0.689478 0.341323 0.169283 0.0170247
threshold=930227.53123000462 41.980343727440577 962406.74596153933 940508.72955335642 26.163377276815172 919465.59138756618 3.6089156281379711 0.45330116686241212 934108.77019318251 26.004764502554472 2.801262336886567
decision_type=2 2 2 2 2 2 2 2 2 2 2
left_child=1 7 3 8 -5 -3 -7 9 -2 -1 -4
right_child=2 5 10 4 -6 6 -8 -9 -10 -11 -12
leaf_value=-0.0022179435048448408 -0.0031391490524713423 0.00069126650347159455 -0.0055207037398448356 -0.0071359903943048753 0.0013177883459894514 0.0084152546770215695 0.0024312888564247833 0.0026193143057412112 -0.0071620863044056394 -0.0062274622047139754 -0.0086504372920788511
leaf_weight=18 34.5 25 11.999999999999998 35.5 300.5 135.5 27.5 13.499999999999998 57 30 70
leaf_count=12 23 10 8 24 126 22 9 5 38 20 47
internal_value=-5.09299e-05 0.00415263 -0.00211644 -0.000913632 0.000401631 0.00655527 0.00743582 -0.0031554 -0.00571179 -0.00483045 -0.00828253
internal_weight=759 249.5 509.5 427.5 336 188 163 61.5 91.5 48 82
internal_count=344 78 266 211 150 41 31 37 61 32 55
is_linear=0
shrinkage=0.03


Tree=22
num_leaves=9
num_cat=0
split_feature=2 14 24 23 1 7 30 2
split_gain=6.67953 5.71924 2.97099 2.10536 2.06276 1.71933 0.114949 0.105135
threshold=962331.14875402476 0.24020203319530409 80.598734565169721 83.755431850349069 -0.78574730703237872 16.345855405724389 -2.3860521680819438 956297.17045225413
decision_type=2 2 2 2 2 2 2 2
left_child=1 2 7 4 -3 -4 -2 -1
right_child=6 3 5 -5 -6 -7 -8 -9
leaf_value=-0.0057707336146612552 -0.0038955909002285731 0.0088665809380380732 0.0022053369475997114 0.0082892765228667949 0.0010026164641204016 -0.002158607375014711 -0.0079104565119151003 -0.0091417515009641643
leaf_weight=48 11.999999999999998 37 162 88 147.5 161 79.5 19
leaf_count=32 8 5 61 14 61 90 53 13
internal_value=0.00010239 0.0011571 -0.00116963 0.0044847 0.00262705 2.55418e-05 -0.00744794 -0.00686913
internal_weight=754 662.5 390 272.5 184.5 323 91.5 67
internal_count=337 276 196 80 66 151 61 45
is_linear=0
shrinkage=0.03


Tree=23
num_leaves=12
num_cat=0
split_feature=27 22 5 5 25 19 22 19 31 28 19
split_gain=7.0619 3.77452 3.22919 2.24334 1.9052 1.69259 1.50628 1.15945 0.831156 0.388626 0.0405041
threshold=1.2215757164282623 75.231263341670385 3307.8080879886779 3287.3171590228872 25.636892614410286 3257.1707810472312 26.163377276815172 3307.707630040341 3.1669796738570697 1.4418998010059079 3308.8346008304748
decision_type=2 2 2 2 2 2 2 2 2 2 2
left_child=1 3 4 6 -3 8 -1 -5 -2 -10 -4
right_child=5 2 10 7 -6 -7 -8 -9 9 -11 -12
leaf_value=-0.005151827318568343 0.007883352084713087 -0.0063229854680024655 -0.0075376227535307394 -0.0095820849098657308 0.0058468741698698553 -0.0017624200160304704 -5.2090417764418211e-05 -0.003888443930332349 0.00013642021616299947 0.0047622843841617964 -0.0042643714900527686
leaf_weight=72 89.5 11.999999999999998 15.000000000000002 56 109 30.5 184.5 83 21.5 78.5 16.5
leaf_count=48 15 8 10 38 26 15 89 50 9 21 11
internal_value=0.000181109 -0.00163994 0.00235328 -0.00318551 0.00458572 0.00471085 -0.00150387 -0.00624506 0.00576438 0.00379377 -0.00605318
internal_weight=768 548 152.5 395.5 121 220 256.5 139 189.5 100 31.5
internal_count=340 280 55 225 34 60 137 88 45 30 21
is_linear=0
shrinkage=0.03


Tree=24
num_leaves=9
num_cat=0
split_feature=28 2 22 1 25 2 7 32
split_gain=6.76375 4.05244 3.06568 1.91572 1.5849 0.699488 0.257292 0.039835
threshold=1.4631169966749498 962406.74596153933 75.231263341670385 0.95297903005573359 25.806431141047977 942419.50482393929 20.181781339728406 2.801262336886567
decision_type=2 2 2 2 2 2 2 2
left_child=1 2 3 -1 -4 6 -2 -3
right_child=5 7 4 -5 -6 -7 -8 -9
leaf_value=-0.0026985479006793214 0.0046969928487458007 -0.0048946993276476865 -0.0033463941121101379 0.003245844418869207 0.0050517528884007892 0.0020211477790165831 0.0080343566405422541 -0.0078051153632583987
leaf_weight=335 43 14.999999999999998 24 56 105.5 39.5 67 74.5
leaf_count=189 11 10 14 19 27 15 9 50
internal_value=-0.000127664 -0.00153265 -0.000509774 -0.00183724 0.00347013 0.00556718 0.00679733 -0.00739339
internal_weight=759.5 610 520.5 391 129.5 149.5 110 89.5
internal_count=344 309 249 208 41 35 20 60
is_linear=0
shrinkage=0.03


Tree=25
num_leaves=10
num_cat=0
split_feature=27 2 23 31 20 2 1 22 2
split_gain=5.33266 2.82593 3.16707 1.59238 1.41043 0.880372 0.486982 0.437833 0.0011051
threshold=1.2215757164282623 962406.74596153933 82.319354637418186 2.9913135638262802 3308.05924738356 951479.22542921815 0.29696027566504685 47.361696018854737 963196.61105270754
decision_type=2 2 2 2 2 2 2 2 2
left_child=1 2 6 -2 -4 7 -1 -5 -3
right_child=3 8 4 5 -6 -7 -8 -9 -10
leaf_value=-0.005890100583453111 0.0080048322159510382 -0.0059951156027788334 -0.00022264819437824881 0.0049913495516558304 0.0048436853989096704 -0.0035902892990810117 -0.0013063268345796454 0.00067214719116687768 -0.0078528546753682572
leaf_weight=97 64 42 268 53.5 59.5 19.5 28.5 36.5 37
leaf_count=65 10 28 124 14 19 11 17 15 25
internal_value=-0.000277944 -0.00176982 -0.00084607 0.0042719 0.000705177 0.00202383 -0.00487958 0.00328279 -0.00697123
internal_weight=705.5 532 453 173.5 327.5 109.5 125.5 90 79
internal_count=328 278 225 50 143 40 82 29 53
is_linear=0
shrinkage=0.03


Tree=26
num_leaves=10
num_cat=0
split_feature=27 2 23 2 31 28 1 23 32
split_gain=6.21316 2.4454 2.33691 1.53522 1.02243 1.24304 0.683486 0.546735 0.0242212
threshold=1.2215757164282623 962458.4493606576 82.294113217378637 931074.43944353296 2.9913135638262802 1.3660473355459113 0.29696027566504685 80.040579165471328 2.801262336886567
decision_type=2 2 2 2 2 2 2 2 2
left_child=1 2 6 -4 -2 -6 -1 -7 -3
right_child=4 8 3 -5 5 7 -8 -9 -10
leaf_value=-0.0058710968358276399 0.0073467025501387454 -0.0046859352327883247 0.0033304813362771482 -0.0012027870022579498 -0.0031912610871049595 -7.0036558711782411e-05 -0.00093759714308622719 0.0050992194856122391 -0.0073238872207128077
leaf_weight=94.5 62 14.999999999999998 97.5 210.5 25.5 22.5 36 87.5 64
leaf_count=63 10 10 32 106 14 10 20 21 43
internal_value=-0.000348235 -0.00207762 -0.00119048 0.000233537 0.00416327 0.0026525 -0.00453902 0.00403725 -0.0069066
internal_weight=715 517.5 438.5 308 197.5 135.5 130.5 110 79
internal_count=329 274 221 138 55 45 83 31 53
is_linear=0
shrinkage=0.03


Tree=27
num_leaves=12
num_cat=0
split_feature=2 2 2 2 0 24 31 1 2 18 32
split_gain=4.92463 4.20613 2.6338 2.60372 2.01488 1.75029 0.337603 0.301731 0.251266 0.0623486 0.0109508
threshold=930649.87631964788 926125.34723596147 962458.4493606576 940508.72955335642 -0.82298386589365657 79.719433032962783 3.6089156281379711 -0.70581670320594803 920250.41612525855 3.4060806826666643 2.801262336886567
decision_type=2 2 2 2 2 2 2 2 2 2 2
left_child=1 4 3 7 -1 -5 9 -2 -6 -3 -4
right_child=2 6 10 5 8 -7 -8 -9 -10 -11 -12
leaf_value=0.0047872217871686995 -0.0020189783410509911 0.0062284777349439152 -0.0047760211341083053 -0.0056653206222935723 -0.0073048828022820606 0.0011940400956464664 0.003450756807625294 -0.0065340215113326786 -0.0029425672821502772 0.0083526102728762857 -0.0072107460808207959
leaf_weight=33 19.5 57 14.999999999999998 37 16.5 279 29 64.5 55.5 58 64.5
leaf_count=7 13 10 10 24 11 119 10 43 34 8 43
internal_value=-0.00010183 0.00331101 -0.00188041 -0.000877353 -0.00123891 0.000370817 0.00662468 -0.00553962 -0.00404918 0.00737548 -0.00683503
internal_weight=728.5 249 479.5 400 105 316 144 84 72 115 79.5
internal_count=332 80 252 199 52 143 28 56 45 18 53
is_linear=0
shrinkage=0.03


Tree=28
num_leaves=14
num_cat=0
split_feature=2 22 11 32 9 2 22 19 34 22 32 2 7
split_gain=5.82255 3.50275 3.04023 1.79188 1.71907 1.40724 1.24397 0.728184 0.883941 0.169116 0.11491 0.0241707 0.0207061
threshold=955752.21413812169 30.661655734960537 25.410479855130422 3.5150943836404944 83.325577049913207 917908.33765440912 92.998474370063647 3307.6240951166669 3308.6620506675818 18.772616647758813 2.801262336886567 940036.78519925964 10.382303215778984
decision_type=2 2 2 2 2 2 2 2 2 2 2 2 2
left_child=1 9 3 -2 5 -3 -6 10 -9 12 -4 -11 -1
right_child=2 4 7 -5 6 -7 -8 8 -10 11 -12 -13 -14
leaf_value=-0.0035549161575342478 0.0058917903764338433 -0.0048024834450334309 -0.010090054239545549 -0.0056345815735203879 -0.0018361041058714573 0.0043087590525222571 0.0066934991076185897 -0.00051568490266799914 -0.0062852446346961218 -0.0027583155263411364 -0.0067285076767206178 -0.00080125606933544426 -0.0058051287137855911
leaf_weight=18 38.5 14.999999999999998 23.5 16.5 90 348.5 17.5 42 57 18.000000000000004 51.5 13.499999999999998 28.5
leaf_count=12 9 9 16 11 50 98 3 23 38 12 35 9 19
internal_value=0.000277848 0.00195545 -0.00372848 0.00236822 0.00293287 0.00391652 -0.000384846 -0.00566669 -0.00388219 -0.00389014 -0.00792043 -0.00201619 -0.00505884
internal_weight=778 549 229 55 471 363.5 107.5 174 99 78 75 31.5 46.5
internal_count=344 212 132 20 160 107 53 112 61 52 51 21 31
is_linear=0
shrinkage=0.03


Tree=29
num_leaves=13
num_cat=0
split_feature=2 0 19 2 2 2 15 1 9 2 1 28
split_gain=4.92611 4.04511 2.22441 3.56681 1.45359 1.38012 0.816599 0.494318 0.174188 0.169809 0.0880624 0.0814174
threshold=955752.21413812169 0.35460488704253579 3307.707630040341 962258.08521709184 917908.33765440912 932794.93961261341 0.48051854983927228 0.56806474673115548 83.148325258298755 962514.86924537865 -1.7225262015363449e-16 -2.7479938814400398
decision_type=2 2 2 2 2 2 2 2 2 2 2 2
left_child=1 4 10 6 -1 -6 -4 11 -9 -5 -2 -3
right_child=2 7 3 9 5 -7 -8 8 -10 -11 -12 -13
leaf_value=-0.006795763011162098 -0.0092465482796941483 -0.0021118367423478045 0.0066323636105427367 -0.003066354081711986 0.005314976302155639 0.0016827321271606576 -0.00061672063730657109 0.0014225439077073876 -0.0024079477525338895 -0.0066521202743053424 -0.0064115280686540795 -0.0049852070351923579
leaf_weight=11.999999999999998 34 14.999999999999998 38 21 180 202.5 21 21 19.5 54 46 66
leaf_count=8 23 10 8 14 40 81 12 9 12 36 31 44
internal_value=1.09897e-05 0.00160007 -0.00380327 -0.00140542 0.00307485 0.00340534 0.00405991 -0.00316217 -0.000399204 -0.0057214 -0.00773421 -0.00450364
internal_weight=730 516 214 134 394.5 382.5 59 121.5 40.5 75 80 81
internal_count=328 204 124 70 129 121 20 75 21 50 54 54
is_linear=0
shrinkage=0.03


Tree=30
num_leaves=13
num_cat=0
split_feature=2 0 19 2 2 2 0 0 9 2 31 2
split_gain=5.38448 3.76041 1.71996 2.11798 1.029 1.5173 1.43107 0.688063 0.425583 0.256901 0.0907966 0.0696221
threshold=955752.21413812169 0.46472317204376884 3307.707630040341 962258.08521709184 926125.34723596147 932361.4706413399 -0.66312265824079508 -0.060268340127661565 81.825036303743971 962458.4493606576 2.9429514053571402 937711.37344917352
decision_type=2 2 2 2 2 2 2 2 2 2 2 2
left_child=1 4 10 7 6 -6 -1 -4 -3 -5 -2 -10
right_child=2 8 3 9 5 -7 -8 -9 11 -11 -12 -13
leaf_value=0.0030914887566882441 -0.0092993445766383197 0.00039969469279777713 -0.00096192475741213926 -0.0017072695427035028 0.0059528336117832658 0.0018247016895729213 -0.0055470055715512419 0.0059973128959536545 -0.0032910335664745678 -0.0060637399063541968 -0.0064192475127546412 -0.0053757645152719318
leaf_weight=40.5 28 19.5 22.5 18 136 200 28.5 27 42 57 56 43.5
leaf_count=12 19 9 13 12 26 80 19 6 28 38 38 29
internal_value=-0.000143117 0.0015155 -0.0041952 -0.00191486 0.00282873 0.00351277 -0.000483427 0.00284791 -0.00351455 -0.00507415 -0.00749504 -0.00441891
internal_weight=718.5 510 208.5 124.5 405 336 69 49.5 105 75 84 85.5
internal_count=329 203 126 69 137 106 31 19 66 50 57 57
is_linear=0
shrinkage=0.03


Tree=31
num_leaves=12
num_cat=0
split_feature=2 0 12 2 2 19 34 1 29 31 30
split_gain=4.58115 3.12849 3.01575 1.19875 0.865118 0.859546 0.864792 0.484562 0.179551 0.122979 0.0456125
threshold=955752.21413812169 0.35460488704253579 25.395006314376012 917908.33765440912 932794.93961261341 3307.6240951166669 3308.6620506675818 0.56806474673115548 -2.7612382402007989 2.9429514053571402 -2.4123357620483801
decision_type=2 2 2 2 2 2 2 2 2 2 2
left_child=1 3 -2 -1 -5 9 -7 10 -9 -4 -3
right_child=2 7 5 4 -6 6 -8 8 -10 -11 -12
leaf_value=-0.0045588814181940895 0.0034271490033519893 -0.0054226570719480508 -0.0091958669219166025 0.0050089808465736034 0.0021251416177951172 0 -0.0057643509542587958 0.0012880814221955961 -0.0026557996720075606 -0.006080002898100725 -0.0033111004830056498
leaf_weight=16.5 46.5 24 31 178 207.5 44 49.5 28.5 14.999999999999998 47.5 42
leaf_count=10 15 16 21 41 78 23 33 13 9 32 28
internal_value=0.00034684 0.00190143 -0.00327764 0.00312635 0.00347012 -0.00510827 -0.00308553 -0.00256958 -6.72897e-05 -0.00742953 -0.0041708
internal_weight=730 511.5 218.5 402 385.5 172 93.5 109.5 43.5 78.5 66
internal_count=319 195 124 129 119 109 56 66 22 53 44
is_linear=0
shrinkage=0.03


Tree=32
num_leaves=12
num_cat=0
split_feature=27 2 2 9 26 31 7 28 23 27 28
split_gain=4.60999 2.47221 3.25304 1.43448 1.36541 1.07629 0.783939 0.748417 0.439804 0.178365 0.143782
threshold=1.2215757164282623 930649.87631964788 926125.34723596147 79.944537446385525 26.246120748180299 2.9913135638262802 12.581471606681808 1.3660473355459113 80.040579165471328 -0.63332357348810431 0.26666005048579688
decision_type=2 2 2 2 2 2 2 2 2 2 2
left_child=1 2 9 4 -3 -2 -5 -7 -9 -1 -4
right_child=5 3 10 6 -6 7 -8 8 -10 -11 -12
leaf_value=-0.0042461863553053458 0.006744693498862417 0.0040963224209845071 0.0044380234289428458 -0.00087748073440264258 -0.0056836216749889508 -0.0018280096536590939 -0.004276008729880423 -0.00023320654700411127 0.0044119239912313573 -0.0003535917392000556 0.0073406534411690448
leaf_weight=46.5 75 47 56.5 84 16.5 30.5 242 22.5 84 14.999999999999998 32
leaf_count=31 12 14 14 42 11 15 153 10 20 7 4
internal_value=0.000124423 -0.00134675 0.0019111 -0.0026069 0.0014831 0.00386407 -0.00341026 0.00223877 0.00342356 -0.00334162 0.00557461
internal_weight=751.5 539.5 150 389.5 63.5 212 326 137 106.5 61.5 88.5
internal_count=333 276 56 220 25 57 195 45 30 38 18
is_linear=0
shrinkage=0.03


Tree=33
num_leaves=11
num_cat=0
split_feature=5 0 19 5 5 5 5 5 31 31
split_gain=4.36189 3.64397 2.17464 3.29614 1.45855 0.869967 0.44643 0.242595 0.215683 0.126924
threshold=3285.4438456871189 0.46472317204376884 3307.8080879886775 3307.8080879886779 3152.6982199703521 3206.5271189583218 3281.7221330417565 3308.496849293791 4.847482497224302 2.9429514053571402
decision_type=2 2 2 2 2 2 2 2 2 2
left_child=1 4 9 -4 -1 -6 8 -5 -3 -2
right_child=2 6 3 7 5 -7 -8 -9 -10 -11
leaf_value=-0.006511019307991554 -0.0087746749546990452 -0.0046077058003067108 0.004876531976573872 -0.0018561360110444099 0.0046019600958704353 0.0018559549839097485 0.0019640686236895048 -0.0058740715020525773 -0.00068319558160645619 -0.0058141334365521147
leaf_weight=13.499999999999998 32.5 79.5 52 21 200.5 224.5 11.999999999999998 55.5 16.5 55
leaf_count=9 22 53 15 14 48 88 4 37 10 37
internal_value=0.000202034 0.00163025 -0.00339542 -0.000882346 0.00284733 0.00316271 -0.00327838 -0.00482865 -0.00396264 -0.00701744
internal_weight=762.5 546.5 216 128.5 438.5 425 108 76.5 96 87.5
internal_count=337 212 125 66 145 136 67 51 63 59
is_linear=0
shrinkage=0.03


Tree=34
num_leaves=13
num_cat=0
split_feature=2 28 19 2 1 26 2 2 27 2 2 19
split_gain=4.0738 3.37141 2.22346 2.94554 1.42855 1.39762 1.12756 1.19372 0.583461 0.335981 0.227507 0.104642
threshold=956297.17045225413 -0.68539767582538247 3307.707630040341 962258.08521709184 0.78574730703237883 26.004764502554472 917908.33765440912 933230.64356323204 -1.1870347416825597 955209.67514138867 962514.86924537865 3295.5312395321184
decision_type=2 2 2 2 2 2 2 2 2 2 2 2
left_child=1 4 11 8 9 -6 -3 -8 -4 -1 -5 -2
right_child=2 6 3 10 5 -7 7 -9 -10 -11 -12 -13
leaf_value=-0.0039333459876509285 -0.0083603982296618778 -0.0058784585595130926 0.0078654512383721092 -0.0018308780934752486 0.002825034966294685 -0.0061302193030714994 0.0055679536953259006 0.0018635242223603331 0.0016441101351821865 0.00091688818869919617 -0.0058325769518469944 -0.005615183154975667
leaf_weight=117 44.5 10.499999999999998 21 19.5 88 18 155.5 163 39.5 13.499999999999998 57 41.5
leaf_count=78 30 7 3 13 29 12 29 62 17 6 38 28
internal_value=4.46801e-05 0.00140073 -0.0033783 -0.000976059 -0.00132373 0.00124723 0.00336182 0.00368858 0.00392075 -0.00341703 -0.00486868 -0.00713268
internal_weight=788.5 565.5 223 137 236.5 106 329 318.5 60.5 130.5 76.5 86
internal_count=352 223 129 71 125 41 98 91 20 84 51 58
is_linear=0
shrinkage=0.03


Tree=35
num_leaves=12
num_cat=0
split_feature=27 23 2 20 23 16 28 1 2 2 30
split_gain=3.52976 1.92552 2.38842 1.03417 0.75556 0.646688 0.593198 0.425362 0.0851365 0.0693933 0.0683615
threshold=1.2215757164282623 82.294113217378637 962331.14875402476 3308.05924738356 83.755431850349069 -0.049268206811439778 1.3660473355459113 0.29696027566504685 956297.17045225413 952533.08888109215 -2.6004203595431292
decision_type=2 2 2 2 2 2 2 2 2 2 2
left_child=1 7 3 -3 5 -2 -7 8 -1 -9 -4
right_child=4 2 10 -5 -6 6 -8 9 -10 -11 -12
leaf_value=-0.0040717217722660171 0.0056210053926560935 0.00037458241613565294 -0.0025524527235277765 0.0048992471812856842 0.0064512521517695849 -0.0025624106361677775 0.0024518130068190212 -0.0023094320897209014 -0.0061956131676141214 0.00021233210163681133 -0.0055117351173290174
leaf_weight=70.5 40 281.5 13.499999999999998 53.5 59 27.5 81 18 38.5 18 55
leaf_count=47 8 122 9 15 8 15 26 12 26 9 37
internal_value=0.000258279 -0.00100098 6.34383e-05 0.00111407 0.003583 0.00239787 0.00115543 -0.00395342 -0.00488504 -0.00103635 -0.00499522
internal_weight=756 548.5 403.5 335 207.5 148.5 108.5 145 109 36 68.5
internal_count=334 277 183 137 57 49 41 94 73 21 46
is_linear=0
shrinkage=0.03


Tree=36
num_leaves=10
num_cat=0
split_feature=27 5 23 26 31 28 1 23 32
split_gain=3.7821 1.58518 1.93591 1.1089 0.840588 0.56707 0.525503 0.394194 0.0411302
threshold=1.2215757164282623 3308.496849293791 82.294113217378637 26.195060015624517 2.9913135638262802 1.4418998010059079 0.23931566428755774 80.227233212076627 2.7594939380947419
decision_type=2 2 2 2 2 2 2 2 2
left_child=1 2 6 -4 -2 -6 -1 -7 -3
right_child=4 8 3 -5 5 7 -8 -9 -10
leaf_value=-0.0048091547899340326 0.0063699017205439941 -0.002938084337573785 0.0020799367677795653 -0.001279383621035287 -0.0013141039056437354 -0.00016207405480932682 -0.00076324043573623289 0.004259724589978686 -0.0056733398027107359
leaf_weight=94 67 11.999999999999998 202.5 155 30.5 22.5 43.5 79.5 60
leaf_count=63 10 8 75 78 15 10 25 18 40
internal_value=9.37312e-05 -0.00115479 -0.000541634 0.000619758 0.0036377 0.00220753 -0.00355476 0.00327766 -0.0052845
internal_weight=766.5 567 495 357.5 199.5 132.5 137.5 102 72
internal_count=342 289 241 153 53 43 88 28 48
is_linear=0
shrinkage=0.03


Tree=37
num_leaves=13
num_cat=0
split_feature=2 14 2 2 19 34 9 1 17 7 25 32
split_gain=4.18299 2.50561 1.05466 1.07576 0.816566 0.960754 0.59837 0.372058 0.207332 0.0771107 0.0544017 0.0449225
threshold=955752.21413812169 -1.9011180188205847 917135.84093104408 931074.43944353296 3307.6240951166669 3308.6620506675818 81.825036303743971 -0.51639395938746235 4.002747301832736 16.345855405724389 26.268385427163128 2.9422170356239454
decision_type=2 2 2 2 2 2 2 2 2 2 2 2
left_child=1 6 -3 -4 10 7 8 -6 -1 -8 -2 -7
right_child=4 2 3 -5 5 11 9 -9 -10 -11 -12 -13
leaf_value=0.0016181367797156174 -0.0052548527936850274 -0.0060783771184774547 0.0043764348165077323 0.0011316864297495806 0.0024922335504088552 -0.0033140180428561411 -0.0020648276600986719 -0.0024715977314304798 -0.0027886202690693045 -0.0042272943719157147 -0.0077245223384637086 -0.0058152045844549151
leaf_weight=35 34 11.999999999999998 169 206 31 18 27 22.5 11.999999999999998 69 38 40.5
leaf_count=14 23 8 35 85 12 12 16 15 8 45 26 27
internal_value=-0.000288525 0.00106311 0.00231761 0.00260573 -0.00417462 -0.00251441 -0.00231406 0.000370072 0.000427101 -0.00366212 -0.0066668 -0.00513945
internal_weight=714 530 387 375 184 112 143 53.5 47 96 72 58.5
internal_count=326 211 128 120 115 66 83 27 22 61 49 39
is_linear=0
shrinkage=0.03


end of trees

feature_importances:
city_estimated_population=120
week_cos=28
city_area_weighted_pop_density_lag20=27
city_area_weighted_wind_speed_10m_rollmean_lag1_w4=21
city_area_weighted_rainfall_rollmean_lag1_w8=20
week_sin=18
city_area_weighted_u_component_of_wind_10m_rollmean_lag1_w8=18
city_pop_density=13
city_area_weighted_rh_lag20=12
city_area_weighted_rh_rollmean_lag1_w4=11
city_area_weighted_wind_speed_10m_rollmean_lag1_w8=11
city_area_weighted_pop_density_rollmean_lag1_w8=11
city_area_weighted_temp_c_lag13=10
city_area_weighted_u_component_of_wind_10m_rollmean_lag1_w4=10
city_area_weighted_rainfall_lag18=8
city_area_weighted_temp_c_lag12=8
city_area_weighted_rh_rollmean_lag1_w8=8
city_area_weighted_v_component_of_wind_10m_rollmean_lag1_w8=8
city_area_weighted_v_component_of_wind_10m_rollmean_lag1_w4=7
city_area_weighted_temp_c_rollmean_lag1_w8=6
city_area_weighted_wind_speed_10m_lag13=5
city_area_weighted_u_component_of_wind_10m_lag7=4
city_area_weighted_rainfall_rollmean_lag1_w4=4
city_area_weighted_temp_c_rollmean_lag1_w4=4
city_area_weighted_v_component_of_wind_10m_lag7=3
city_area_weighted_pop_density_lag19=3
city_area_weighted_u_component_of_wind_10m_lag6=2
city_area_weighted_v_component_of_wind_10m_lag9=2
city_area_weighted_wind_speed_10m_lag12=2
city_area_weighted_rh_lag19=1

parameters:
[boosting: gbdt]
[objective: regression]
[metric: rmse]
[tree_learner: serial]
[device_type: cpu]
[data_sample_strategy: bagging]
[data: ]
[valid: ]
[num_iterations: 38]
[learning_rate: 0.03]
[num_leaves: 31]
[num_threads: 0]
[seed: 0]
[deterministic: 0]
[force_col_wise: 1]
[force_row_wise: 0]
[histogram_pool_size: -1]
[max_depth: 4]
[min_data_in_leaf: 8]
[min_sum_hessian_in_leaf: 0.001]
[bagging_fraction: 0.85]
[pos_bagging_fraction: 1]
[neg_bagging_fraction: 1]
[bagging_freq: 1]
[bagging_seed: 3]
[bagging_by_query: 0]
[feature_fraction: 0.85]
[feature_fraction_bynode: 1]
[feature_fraction_seed: 2]
[extra_trees: 0]
[extra_seed: 6]
[early_stopping_round: 0]
[early_stopping_min_delta: 0]
[first_metric_only: 0]
[max_delta_step: 0]
[lambda_l1: 0.05]
[lambda_l2: 1]
[linear_lambda: 0]
[min_gain_to_split: 0]
[drop_rate: 0.1]
[max_drop: 50]
[skip_drop: 0.5]
[xgboost_dart_mode: 0]
[uniform_drop: 0]
[drop_seed: 4]
[top_rate: 0.2]
[other_rate: 0.1]
[min_data_per_group: 100]
[max_cat_threshold: 32]
[cat_l2: 10]
[cat_smooth: 10]
[max_cat_to_onehot: 4]
[top_k: 20]
[monotone_constraints: ]
[monotone_constraints_method: basic]
[monotone_penalty: 0]
[feature_contri: ]
[forcedsplits_filename: ]
[refit_decay_rate: 0.9]
[cegb_tradeoff: 1]
[cegb_penalty_split: 0]
[cegb_penalty_feature_lazy: ]
[cegb_penalty_feature_coupled: ]
[path_smooth: 0]
[interaction_constraints: ]
[verbosity: -1]
[saved_feature_importance_type: 0]
[use_quantized_grad: 0]
[num_grad_quant_bins: 4]
[quant_train_renew_leaf: 0]
[stochastic_rounding: 1]
[linear_tree: 0]
[max_bin: 255]
[max_bin_by_feature: ]
[min_data_in_bin: 3]
[bin_construct_sample_cnt: 200000]
[data_random_seed: 1]
[is_enable_sparse: 1]
[enable_bundle: 1]
[use_missing: 1]
[zero_as_missing: 0]
[feature_pre_filter: 1]
[pre_partition: 0]
[two_round: 0]
[header: 0]
[label_column: ]
[weight_column: ]
[group_column: ]
[ignore_column: ]
[categorical_feature: ]
[forcedbins_filename: ]
[precise_float_parser: 0]
[parser_config_file: ]
[objective_seed: 5]
[num_class: 1]
[is_unbalance: 0]
[scale_pos_weight: 1]
[sigmoid: 1]
[boost_from_average: 1]
[reg_sqrt: 0]
[alpha: 0.9]
[fair_c: 1]
[poisson_max_delta_step: 0.7]
[tweedie_variance_power: 1.5]
[lambdarank_truncation_level: 30]
[lambdarank_norm: 1]
[label_gain: ]
[lambdarank_position_bias_regularization: 0]
[eval_at: ]
[multi_error_top_k: 1]
[auc_mu_weights: ]
[num_machines: 1]
[local_listen_port: 12400]
[time_out: 120]
[machine_list_filename: ]
[machines: ]
[gpu_platform_id: -1]
[gpu_device_id: -1]
[gpu_use_dp: 0]
[num_gpu: 1]

end of parameters
