tree
version=v4
num_class=1
num_tree_per_iteration=1
label_index=0
max_feature_idx=56
objective=regression
feature_names=week_sin week_cos city_estimated_population city_area_m2 city_area_km2 city_pop_density n_barangays_reported city_area_weighted_rainfall_lag20 city_area_weighted_rainfall_lag17 city_area_weighted_rh_lag20 city_area_weighted_rh_lag19 city_area_weighted_temp_c_lag12 city_area_weighted_temp_c_lag11 city_area_weighted_u_component_of_wind_10m_lag5 city_area_weighted_u_component_of_wind_10m_lag6 city_area_weighted_v_component_of_wind_10m_lag6 city_area_weighted_v_component_of_wind_10m_lag8 city_area_weighted_wind_speed_10m_lag12 city_area_weighted_wind_speed_10m_lag11 city_area_weighted_pop_density_lag20 city_area_weighted_pop_density_lag19 city_area_weighted_rainfall_rollmean_lag1_w4 city_area_weighted_rainfall_rollmean_lag1_w8 city_area_weighted_rh_rollmean_lag1_w4 city_area_weighted_rh_rollmean_lag1_w8 city_area_weighted_temp_c_rollmean_lag1_w4 city_area_weighted_temp_c_rollmean_lag1_w8 city_area_weighted_u_component_of_wind_10m_rollmean_lag1_w4 city_area_weighted_u_component_of_wind_10m_rollmean_lag1_w8 city_area_weighted_v_component_of_wind_10m_rollmean_lag1_w4 city_area_weighted_v_component_of_wind_10m_rollmean_lag1_w8 city_area_weighted_wind_speed_10m_rollmean_lag1_w4 city_area_weighted_wind_speed_10m_rollmean_lag1_w8 city_area_weighted_pop_density_rollmean_lag1_w4 city_area_weighted_pop_density_rollmean_lag1_w8 city_area_weighted_flood_risk_index_rollmean_lag1_w4 city_area_weighted_flood_risk_index_rollmean_lag1_w8 city_area_weighted_percent_annual_crop_rollmean_lag1_w4 city_area_weighted_percent_annual_crop_rollmean_lag1_w8 city_area_weighted_percent_brush_shrubs_rollmean_lag1_w4 city_area_weighted_percent_brush_shrubs_rollmean_lag1_w8 city_area_weighted_percent_built_up_rollmean_lag1_w4 city_area_weighted_percent_built_up_rollmean_lag1_w8 city_area_weighted_percent_inland_water_rollmean_lag1_w4 city_area_weighted_percent_inland_water_rollmean_lag1_w8 city_area_weighted_percent_open_forest_rollmean_lag1_w4 city_area_weighted_percent_open_forest_rollmean_lag1_w8 city_area_weighted_percent_perennial_crop_rollmean_lag1_w4 city_area_weighted_percent_perennial_crop_rollmean_lag1_w8 city_area_weighted_percent_open_barren_rollmean_lag1_w4 city_area_weighted_percent_open_barren_rollmean_lag1_w8 city_area_weighted_percent_fishpond_rollmean_lag1_w4 city_area_weighted_percent_fishpond_rollmean_lag1_w8 city_area_weighted_percent_grassland_rollmean_lag1_w4 city_area_weighted_percent_grassland_rollmean_lag1_w8 city_area_weighted_percent_mangrove_forest_rollmean_lag1_w4 city_area_weighted_percent_mangrove_forest_rollmean_lag1_w8
feature_infos=[-1:1] [-1:1] [914211.7095180488:964143.50380609359] none none [3142.64637869529:3314.2893043627] none [0.0025243612881299211:403.77764092016611] [0.0025243612881299211:403.77764092016611] [74.166209495041301:88.154553662835738] [74.166209495041301:88.154553662835738] [24.337778836331829:27.857639391615468] [24.337778836331829:27.857639391615468] [-4.5717681780699149:4.4965446280041954] [-4.5717681780699149:4.4965446280041954] [-6.2680500182560719:5.1247667214851038] [-6.2680500182560719:5.1247667214851038] [1.39564484944224:6.8002328204854665] [1.39564484944224:6.8002328204854665] [3125.6331669833717:3314.2893043626991] [3126.4700955675198:3314.2893043626991] [0.066242600448727776:147.57175632940832] [0.48078482996758953:119.23124797939784] [76.04244385379063:86.610761977842287] [76.761170402338564:86.082735724126366] [24.635251946080103:27.639879393457701] [24.734571822108446:27.440794559836895] [-3.4486736035175789:3.6280013469861503] [-3.0815340340364679:3.131422920161175] [-4.48361272930451:3.4734894156434146] [-3.8559405516430854:3.0795858777581708] [1.7342058228275261:5.7925001460518359] [1.9506388693011207:5.3170040362056081] [3140.4885697881891:3314.1262969917143] [3138.7712235644044:3313.8757850504171] none none none none none none none none none none none none none none none none none none none none none none
tree_sizes=1227 1023 1313 1290 1039 1028 1282 1151 970 1038 929 1039 1020 1322 1318 1231 1201 1408 1208 1051 1192 1200 1285 1403 1316 929 1029 1331 1340 1133 1055 1398 1284 1335 1341 1231 1108 957 1373 1019 1377 1505 1354 956 1129 1309 1223 1226 1328 1130 1263 1240 1406 1064 1126 1293 1342

Tree=0
num_leaves=13
num_cat=0
split_feature=2 28 12 1 22 2 2 2 19 34 26 16
split_gain=25.1376 16.4691 8.41142 6.25059 6.16557 4.43298 3.79762 2.39265 1.97302 3.11438 1.62257 0.999601
threshold=955571.09942961263 -1.0081933474700451 25.395006314376012 0.8542199457734333 77.691101486862976 928835.69071090664 940824.63445610029 927197.79279134318 3307.6240951166669 3308.6620506675818 26.023716195784221 -1.0314015720681946
decision_type=2 2 2 2 2 2 2 2 2 2 2 2
left_child=1 3 4 11 -2 7 -7 -3 -4 -10 -5 -1
right_child=2 5 8 10 -6 6 -8 -9 9 -11 -12 -13
leaf_value=0.57251204597068184 0.57167933883630639 0.58278575399224419 0.56786075321165708 0.58149349648670845 0.58479732946035701 0.57472990031692583 0.58195880212234596 0.58751887424161142 0.57638364028875722 0.56904146393772304 0.57424718192302593 0.57740653615511195
leaf_weight=112.5 23.5 103 77 68 32 34.5 149.5 85 45 49.5 13.499999999999998 21
leaf_count=73 15 31 52 22 6 22 48 12 26 33 9 12
internal_value=0.578106 0.580294 0.572479 0.575903 0.57919 0.582835 0.580578 0.584996 0.570303 0.572439 0.580225 0.573253
internal_weight=814 587 227 215 55.5 372 184 188 171.5 94.5 81.5 133.5
internal_count=361 229 132 116 21 113 70 43 111 59 31 85
is_linear=0
shrinkage=1


Tree=1
num_leaves=10
num_cat=0
split_feature=5 28 22 1 28 5 30 5 0
split_gain=23.6182 17.6543 11.0686 5.28104 4.18665 2.15545 0.784565 0.581206 0.513366
threshold=3308.05924738356 1.1447874678523158 77.691101486862976 0.95297903005573359 -1.8351209175064496 3212.0565312079352 -2.5845323770597708 3187.2866596579665 -0.66312265824079508
decision_type=2 2 2 2 2 2 2 2 2
left_child=1 2 3 -1 -4 7 -2 -3 -7
right_child=6 5 4 -5 -6 8 -8 -9 -10
leaf_value=-0.0032595611323938006 -0.004071918454435137 0.0063171601063382304 -0.0036568178960255217 0.0033428813940600344 0.0061516444604721426 0.0024157681898572124 -0.009653059800925283 0.0098331298522949216 0.0060771948380903759
leaf_weight=320.5 16.5 55 19.5 55.5 105 50.5 85 61 26
leaf_count=185 11 13 12 19 24 20 57 8 5
internal_value=9.70745e-05 0.00142485 -0.000555134 -0.00227029 0.00457426 0.00654759 -0.00883771 0.00828502 0.00377875
internal_weight=794.5 693 500.5 376 124.5 192.5 101.5 116 76.5
internal_count=354 286 240 204 36 46 68 21 25
is_linear=0
shrinkage=0.02


Tree=2
num_leaves=13
num_cat=0
split_feature=2 28 19 34 9 2 2 8 24 15 15 2
split_gain=22.8005 14.3984 7.30214 12.3349 4.49585 3.88484 4.57137 2.50446 1.71652 1.61765 0.710111 0.548534
threshold=955571.09942961263 -1.5129502023494881 3307.707630040341 3308.3523652283779 82.179170112174774 932650.20179399312 940824.63445610029 18.571367637617687 83.482503409737276 0.48051854983927228 -0.93826548794177544 962514.86924537865
decision_type=2 2 2 2 2 2 2 2 2 2 2 2
left_child=1 4 -2 9 8 7 -7 -3 -1 -4 -6 -5
right_child=2 5 3 11 10 6 -8 -9 -10 -11 -12 -13
leaf_value=-0.0019369509220123291 -0.0096334049820899961 0.0037648326002416156 0.0051937278275177856 -0.0035068089623280147 -0.0054461150069267314 -0.00368808293576615 0.0039681641369507048 0.00857030618135576 0.003981127309136921 -0.0010700643757979075 -0.00034754436413447071 -0.0091850409833793972
leaf_weight=33 88.5 82.5 52 11.999999999999998 96 37.5 154 106.5 43.5 22.5 13.499999999999998 57
leaf_count=18 60 28 14 8 64 25 50 17 13 13 7 38
internal_value=0.000104599 0.00226967 -0.00515413 -0.00230679 -0.00227138 0.0044949 0.00244152 0.00652934 0.00141443 0.00329188 -0.00484873 -0.00832152
internal_weight=798.5 566.5 232 143.5 186 380.5 191.5 189 76.5 74.5 109.5 69
internal_count=355 222 133 73 102 120 75 45 31 27 71 46
is_linear=0
shrinkage=0.02


Tree=3
num_leaves=13
num_cat=0
split_feature=2 0 12 22 2 2 22 20 2 1 10 30
split_gain=21.716 18.8212 7.4508 5.58848 3.85682 5.27231 3.50211 1.64198 2.36572 1.28359 0.296459 0.0893241
threshold=955571.09942961263 0.35460488704253579 25.395006314376012 77.691101486862976 932650.20179399312 940351.15984073735 42.209771795389486 3307.5083383820042 962458.4493606576 0.56806474673115548 82.822696169825377 -1.126454258225623
decision_type=2 2 2 2 2 2 2 2 2 2 2 2
left_child=1 4 3 -2 6 -6 -1 -4 -9 11 -11 -3
right_child=2 9 7 -5 5 -7 -8 8 -10 10 -12 -13
leaf_value=-0.00062856640313801017 -0.0059359313321113594 -0.0062487473500018207 -0.0097953222513198854 0.006552423448704962 -0.0044027073001250243 0.0037242593152018695 0.0069377662100135852 -0.0023991445990967325 -0.0086158505810631641 0.00033673671881357829 -0.003049201271472833 -0.0034032597343126932
leaf_weight=27 23.5 72 63.5 32 37.5 174 202 54 48 19.5 18 14.999999999999998
leaf_count=15 15 48 43 6 25 58 43 32 32 8 12 10
internal_value=0.000216855 0.00229832 -0.00507517 0.00121242 0.00423942 0.00225306 0.0060387 -0.00718762 -0.00542645 -0.00452242 -0.001292 -0.00584674
internal_weight=786 565 221 55.5 440.5 211.5 229 165.5 102 124.5 37.5 87
internal_count=347 219 128 21 141 83 58 107 64 78 20 58
is_linear=0
shrinkage=0.02


Tree=4
num_leaves=10
num_cat=0
split_feature=5 28 5 31 1 24 10 30 24
split_gain=19.5869 12.987 7.39392 5.88693 4.17936 3.3791 0.967402 0.365573 0.350118
threshold=3308.05924738356 -1.8928373758068815 3204.5420638553137 2.6335515188583001 0.61559370248597578 81.720851510485147 82.198063680545616 -2.5845323770597708 81.236401848840657
decision_type=2 2 2 2 2 2 2 2 2
left_child=1 4 5 -4 8 -3 -6 -2 -1
right_child=7 2 3 -5 6 -7 -8 -9 -10
leaf_value=-0.0075099441766738884 -0.0043589308083057405 -0.0010300807259299538 -0.003724097916719603 0.0023660011887924547 0.0020240623502170343 0.0065784680300099508 -0.0025998047888426794 -0.0091078615802073336 -0.0046376688812460225
leaf_weight=53.5 13.499999999999998 26 87 222.5 41 173.5 30 84 51
leaf_count=36 9 13 53 82 15 38 18 56 34
internal_value=-0.000228712 0.000969257 0.00258826 0.000637947 -0.00369715 0.00557664 2.93627e-05 -0.00854653 -0.0062125
internal_weight=782 684.5 509 309.5 175.5 199.5 71 97.5 104.5
internal_count=354 289 186 135 103 51 33 65 70
is_linear=0
shrinkage=0.02


Tree=5
num_leaves=10
num_cat=0
split_feature=2 14 21 2 1 8 31 30 1
split_gain=18.6695 13.1543 7.48575 4.17098 4.19087 2.90062 1.51324 0.649253 0.531621
threshold=962331.14875402476 0.24020203319530409 25.537891332121603 933961.79279496009 -0.70581670320594803 21.501771488578445 3.4069765663147544 -2.5845323770597708 0.29696027566504685
decision_type=2 2 2 2 2 2 2 2 2
left_child=1 2 8 6 -5 -4 -3 -2 -1
right_child=7 3 5 4 -6 -7 -8 -9 -10
leaf_value=-0.0070285617309181316 -0.0037803177986707953 0.0081035954600839465 0.001846398292800014 0.0072987634704773686 -0.00017405188325102683 -0.0020650258087288502 0.0030111965665946139 -0.0088967943246654 -0.0027981977888516018
leaf_weight=74.5 16.5 99 176.5 40 106.5 130.5 35.5 85 19.5
leaf_count=50 11 15 68 6 51 74 13 57 12
internal_value=-0.000212164 0.000981813 -0.00133878 0.00429001 0.00190609 0.000175285 0.00682225 -0.00815164 -0.00622966
internal_weight=783.5 682 401 281 146.5 307 134.5 101.5 94
internal_count=357 289 204 85 57 142 28 68 62
is_linear=0
shrinkage=0.02


Tree=6
num_leaves=13
num_cat=0
split_feature=2 0 11 22 2 2 31 1 19 34 10 11
split_gain=20.4776 16.6709 8.19234 4.31201 2.71252 4.85691 2.48224 1.77778 1.133 2.00503 0.619502 0.180593
threshold=955571.09942961263 0.12053668025532312 25.410479855130422 82.13429884970428 933085.16036982159 940824.63445610029 3.4700192880071854 0.61559370248597578 3307.6240951166669 3308.8693859697337 82.198063680545616 25.384728979568937
decision_type=2 2 2 2 2 2 2 2 2 2 2 2
left_child=1 4 3 -2 6 -6 -1 11 -4 -10 -9 -3
right_child=2 7 8 -5 5 -7 -8 10 9 -11 -12 -13
leaf_value=0.0069151058427058152 -0.0043440429883924402 -0.0062039333786283214 -0.009065821472803751 0.0064467670358717448 -0.0041309525815645858 0.0038253952828498461 0.0017651633603550565 0.0017035231356527293 -0.001997005577420905 -0.0081348840372235161 -0.0026288159933907014 -0.0039420038363439779
leaf_weight=158.5 26 51 81 30.5 36 167 52 24 40.5 49.5 25.5 49.5
leaf_count=31 15 34 55 6 24 54 22 9 24 33 16 33
internal_value=-3.48436e-05 0.00200749 -0.00508231 0.00146268 0.00407837 0.00238469 0.00567384 -0.00367186 -0.00725034 -0.00547271 -0.000500749 -0.00518381
internal_weight=791 563.5 227.5 56.5 413.5 203 210.5 150 171 90 49.5 100.5
internal_count=356 223 133 21 131 78 53 92 112 57 25 67
is_linear=0
shrinkage=0.02


Tree=7
num_leaves=11
num_cat=0
split_feature=2 0 20 2 2 2 22 2 31 34
split_gain=20.0613 16.3631 6.01668 10.0553 3.05249 4.02993 2.09275 1.14362 0.615825 0.103599
threshold=955571.09942961263 0.35460488704253579 3307.6240951166669 962331.14875402476 917650.38756081497 929667.84895722091 77.691101486862976 954490.04259240883 4.5396063121841719 3309.0927249454858
decision_type=2 2 2 2 2 2 2 2 2 2
left_child=1 4 -2 6 -1 -6 -4 8 -3 -5
right_child=2 7 3 9 5 -7 -8 -9 -10 -11
leaf_value=-0.004497840255047336 -0.0089184433276625879 -0.0056412672072648998 -0.00058083188247222157 -0.0045122521365130383 0.0062951377544075392 0.0024111378170614938 0.0059310533672571192 0.0013084037127318207 -0.0014318620507561026 -0.0083692786156594218
leaf_weight=14.999999999999998 85.5 88.5 37.5 11.999999999999998 209.5 227.5 38.5 11.999999999999998 19.5 54
leaf_count=10 58 59 21 8 47 86 8 4 12 36
internal_value=0.000238908 0.00223904 -0.00476299 -0.00217994 0.00398282 0.00429287 0.00274309 -0.00428082 -0.00492953 -0.00781349
internal_weight=799.5 572 227.5 142 452 437 76 120 108 66
internal_count=349 218 131 73 143 133 29 75 71 44
is_linear=0
shrinkage=0.02


Tree=8
num_leaves=9
num_cat=0
split_feature=2 22 2 2 14 24 29 11
split_gain=15.777 11.3607 9.20132 5.18505 2.87537 0.283034 0.0639973 0.00722257
threshold=962406.74596153933 26.604971865191136 930087.24185297696 940351.15984073735 -0.85977347944507965 80.553519080446577 -2.7443872796854158 25.845213083595201
decision_type=2 2 2 2 2 2 2 2
left_child=1 5 4 -4 -3 -1 -2 -7
right_child=6 2 3 -5 -6 7 -8 -9
leaf_value=-0.0066599690174234316 -0.0048647442923651805 0.0011050559677908906 -0.0043670082894109539 0.001233705669923441 0.0064628311110413571 -0.0046446693232565211 -0.0085534829325323945 -0.0026002918466543541
leaf_weight=56.5 11.999999999999998 55 82.5 309 164.5 14.999999999999998 73 18
leaf_count=38 8 24 55 126 34 10 49 12
internal_value=-8.77089e-05 0.000902965 0.00188327 3.62262e-05 0.005146 -0.00568814 -0.00814923 -0.00374906
internal_weight=785.5 700.5 611 391.5 219.5 89.5 85 33
internal_count=356 299 239 181 58 60 57 22
is_linear=0
shrinkage=0.02


Tree=9
num_leaves=10
num_cat=0
split_feature=2 28 2 31 2 1 9 24 2
split_gain=16.2914 12.206 6.66029 4.33698 3.27002 3.02432 0.726701 0.228657 0.0563429
threshold=962406.74596153933 -1.8928373758068815 932217.47705382493 2.6335515188583001 925992.3839295794 0.61559370248597578 82.293743100190568 81.236401848840657 962556.70298914018
decision_type=2 2 2 2 2 2 2 2 2
left_child=1 5 4 -4 -3 7 -7 -1 -2
right_child=8 2 3 -5 -6 6 -8 -9 -10
leaf_value=-0.0067062620681065778 -0.0049646634380022684 0.0019212427856400611 -0.0030378438413143161 0.0022186964872336038 0.007271587096727811 0.00172446834492056 -0.0022360415144099133 -0.0042741194993660258 -0.0084072215109063479
leaf_weight=50.5 13.499999999999998 72.5 83.5 237.5 135 36.5 34.5 54 73
leaf_count=34 9 28 51 87 24 14 21 36 49
internal_value=0.000125102 0.00113946 0.0026581 0.00083737 0.00543896 -0.00340625 -0.000178865 -0.0055466 -0.00798645
internal_weight=790.5 704 528.5 321 207.5 175.5 71 104.5 86.5
internal_count=353 295 190 138 52 105 35 70 58
is_linear=0
shrinkage=0.02


Tree=10
num_leaves=9
num_cat=0
split_feature=28 2 22 2 28 31 2 7
split_gain=16.1091 10.2129 7.77341 4.33888 3.21006 1.45811 0.238725 0.00787853
threshold=1.4418998010059079 962458.4493606576 77.691101486862976 955571.09942961263 -1.8351209175064496 3.3738927481244994 942258.86453251645 6.4044328991097936
decision_type=2 2 2 2 2 2 2 2
left_child=1 2 3 -1 -4 -2 -7 -8
right_child=5 -3 4 -5 -6 6 7 -9
leaf_value=-0.00065803509907927957 0.0075893210928605973 -0.0079881034268590497 -0.0028507845729005103 -0.0053516021546845928 0.0050048505372299254 0.0047305849832646992 0.0027395718389627882 0.0014059412418267665
leaf_weight=318.5 78 82 24 104 114 41 23 18
leaf_count=160 13 55 14 66 28 10 8 8
internal_value=-4.21274e-05 -0.00146088 -0.00048363 -0.00183294 0.00360835 0.00560332 0.00358785 0.00227142
internal_weight=802.5 642.5 560.5 422.5 138 160 82 41
internal_count=362 323 268 226 42 39 26 16
is_linear=0
shrinkage=0.02


Tree=11
num_leaves=10
num_cat=0
split_feature=28 2 22 0 28 31 32 2 7
split_gain=16.3704 10.0072 6.83184 4.1017 3.07115 1.40404 0.352711 0.180933 0.0150267
threshold=1.4631169966749498 962331.14875402476 77.691101486862976 0.46472317204376884 -1.8110621321822589 3.2644369006427945 4.1981892490159654 942258.86453251645 8.9284899505678474
decision_type=2 2 2 2 2 2 2 2 2
left_child=1 2 3 -1 -4 -2 -3 -7 -9
right_child=5 6 4 -5 -6 7 -8 8 -10
leaf_value=-0.00045817254121479972 0.0073659426917163833 -0.0079967743618921793 -0.0034451367826688855 -0.0048603443940322235 0.0049732390797784173 0.004500998959399578 -0.0035520688414573671 0.0027830778088134066 0.0013641190047447497
leaf_weight=265 78 86.5 19.5 124 100 39.5 13.499999999999998 24.5 18
leaf_count=128 13 58 12 80 24 10 9 8 8
internal_value=-0.000240966 -0.00174203 -0.000591452 -0.00187984 0.00355732 0.00541854 -0.0074778 0.00344313 0.00229455
internal_weight=768.5 608.5 508.5 389 119.5 160 100 82 42.5
internal_count=350 311 244 208 36 39 67 26 16
is_linear=0
shrinkage=0.02


Tree=12
num_leaves=10
num_cat=0
split_feature=27 2 23 22 31 15 9 16 28
split_gain=13.9974 7.77315 6.84165 3.08976 2.80404 1.63557 1.16127 0.769644 0.693853
threshold=1.2215757164282623 962458.4493606576 82.304487778885161 82.13429884970428 2.9882073245042218 1.3332556336493488 79.874997409875235 0.78821736542043463 1.4418998010059079
decision_type=2 2 2 2 2 2 2 2 2
left_child=1 2 6 -4 -2 8 -1 -7 -6
right_child=4 -3 3 -5 5 7 -8 -9 -10
leaf_value=2.8137332131696296e-05 0.0076888814730360017 -0.0075408732395044111 -0.00020077025370189436 0.0040831103391487499 -0.0030232015662723117 0.006428674827922475 -0.0050739016021517196 0.0024459800117362577 0.0020792154610157015
leaf_weight=20 74 73 268.5 88 21 37 119.5 50.5 18.5
leaf_count=10 11 49 130 24 12 6 78 19 6
internal_value=8.66701e-05 -0.00151429 -0.00060323 0.000863772 0.00460626 0.00272574 -0.00433572 0.00423253 -0.000596042
internal_weight=770 569 496 356.5 201 127 139.5 87.5 39.5
internal_count=345 291 242 154 54 43 88 25 18
is_linear=0
shrinkage=0.02


Tree=13
num_leaves=13
num_cat=0
split_feature=2 0 19 34 22 10 2 2 2 0 32 27
split_gain=13.9602 11.7926 5.88358 8.16773 2.03551 1.49978 1.50109 1.30949 1.09092 0.909528 0.328841 0.0273315
threshold=955571.09942961263 0.06026834012766185 3307.6240951166669 3308.3523652283779 77.691101486862976 83.540517741617904 916879.24193357478 954490.04259240883 933085.16036982159 0.35460488704253579 4.2346172637099562 -2.7947923223850455
decision_type=2 2 2 2 2 2 2 2 2 2 2 2
left_child=1 5 11 4 -4 6 -1 9 -7 -3 -5 -2
right_child=2 7 3 10 -6 8 -8 -9 -10 -11 -12 -13
leaf_value=-0.0042514963812298251 -0.005194284575956839 -0.00067916057288646694 -0.00042379603735221333 -0.0073248521283615468 0.0058582420453831968 0.0033448643592687757 0.0040827297331716599 0.0019322005540896685 -0.0021268686570904472 -0.0044006022905371317 -0.0028462929328282672 -0.0087798185539834303
leaf_weight=7.4999999999999991 11.999999999999998 36 45 63 35.5 24.5 304.5 18 31.5 120 11.999999999999998 79.5
leaf_count=5 8 19 25 42 7 8 90 6 18 79 8 54
internal_value=-0.000503162 0.00129047 -0.00443106 -0.00201165 0.00237864 0.00331754 0.00385662 -0.002977 0.00025704 -0.00356915 -0.00670429 -0.00842245
internal_weight=789 542 247 155.5 80.5 368 312 174 56 156 75 91.5
internal_count=369 225 144 82 32 121 95 104 26 98 50 62
is_linear=0
shrinkage=0.02


Tree=14
num_leaves=13
num_cat=0
split_feature=2 0 11 22 2 2 0 19 34 2 31 27
split_gain=14.987 13.1168 5.87465 3.36777 2.22 4.31729 2.35077 1.55683 2.18582 0.919558 0.443641 0.00432234
threshold=955571.09942961263 0.12053668025532312 25.410479855130422 82.13429884970428 932650.20179399312 940824.63445610029 -0.88545602565320969 3307.6240951166669 3308.8693859697337 954490.04259240883 4.4939633184400369 -2.7947923223850455
decision_type=2 2 2 2 2 2 2 2 2 2 2 2
left_child=1 4 3 -2 6 -6 -1 11 -9 10 -3 -4
right_child=2 9 7 -5 5 -7 -8 8 -10 -11 -12 -13
leaf_value=0.0075642893014709802 -0.0037476595921949909 -0.0045406254758149529 -0.005101941793053239 0.0057866328032687309 -0.003997665946483612 0.0034842808450534506 0.0031427294792414741 -0.00089385137101635325 -0.0069372878165472121 0.0015471126768324109 -0.0012065423789123693 -0.0085076879377718323
leaf_weight=90 26 102 11.999999999999998 30.5 36 171.5 114.5 46.5 51 11.999999999999998 22.5 66
leaf_count=13 15 67 8 6 24 55 37 26 34 4 14 45
internal_value=7.08254e-05 0.00187551 -0.00417193 0.00138123 0.00365552 0.00215726 0.00513927 -0.00596756 -0.00413245 -0.00346395 -0.00397549 -0.00811503
internal_weight=780.5 548.5 232 56.5 412 207.5 204.5 175.5 97.5 136.5 124.5 78
internal_count=348 214 134 21 129 79 50 113 60 85 81 53
is_linear=0
shrinkage=0.02


Tree=15
num_leaves=12
num_cat=0
split_feature=2 0 19 34 2 2 22 1 2 31 27
split_gain=12.8012 11.6585 5.95269 7.64284 2.34677 4.4509 3.62702 1.31464 0.936414 0.5389 0.286395
threshold=955571.09942961263 0.35460488704253579 3307.707630040341 3308.3523652283779 932650.20179399312 940351.15984073735 38.938908690466725 -0.51639395938746235 954490.04259240883 4.7666347385164327 -2.4155964878178087
decision_type=2 2 2 2 2 2 2 2 2 2 2
left_child=1 4 -2 7 6 -6 -1 -4 9 -3 -5
right_child=2 8 3 10 5 -7 -8 -9 -10 -11 -12
leaf_value=-0.0033874936345077693 -0.0080710928248262943 -0.0049729403832586864 0.0044602811176956232 -0.0027353932813361835 -0.0039513218988974893 0.0031419409578920861 0.0053685959256530658 -0.0011301685788979133 0.0012724312058201542 -0.00095124435119139851 -0.0070085124368066175
leaf_weight=19.5 85.5 91.5 55 11.999999999999998 43.5 163 209 22.5 11.999999999999998 18 54
leaf_count=13 58 61 16 8 29 55 48 13 4 11 36
internal_value=2.65991e-05 0.00166691 -0.00393581 -0.00140013 0.00319815 0.00162038 0.00459544 0.00282129 -0.00377118 -0.00435165 -0.00633926
internal_weight=785.5 556.5 229 143.5 435 206.5 228.5 77.5 121.5 109.5 66
internal_count=352 221 131 73 145 84 61 29 76 72 44
is_linear=0
shrinkage=0.02


Tree=16
num_leaves=12
num_cat=0
split_feature=2 12 19 2 12 10 22 23 15 30 11
split_gain=13.4738 8.58318 5.79031 7.28868 2.0595 2.56332 1.44734 0.849689 0.689832 0.301061 0.0915496
threshold=955571.09942961263 25.872443188552083 3307.707630040341 962331.14875402476 26.714875967121369 82.198063680545616 77.691101486862976 83.830413657757688 -1.2216426563939076 -2.4532767997337475 25.757097710929788
decision_type=2 2 2 2 2 2 2 2 2 2 2
left_child=1 8 -2 6 5 -3 -4 -6 10 -5 -1
right_child=2 4 3 9 7 -7 -8 -9 -10 -11 -12
leaf_value=-0.0051734981098745629 -0.0078410596977919328 0.0029491090853952548 0 -0.0027187636216481526 0.0032913215735539433 -0.0013372951656956936 0.0055166223033682096 0.0061764188171329346 -0.0006637454439027637 -0.0068153544350674283 -0.0025613485023830876
leaf_weight=57 94.5 163.5 39 13.499999999999998 148 82.5 37 65 24 55.5 14.999999999999998
leaf_count=38 64 54 21 9 47 46 7 12 13 37 10
internal_value=-7.09187e-05 0.00163741 -0.00402352 -0.00146708 0.00277753 0.00150412 0.00276555 0.00421811 -0.00375218 -0.00611712 -0.00471989
internal_weight=794.5 555 239.5 145 459 246 76 213 96 69 72
internal_count=358 220 138 74 159 100 28 59 61 46 48
is_linear=0
shrinkage=0.02


Tree=17
num_leaves=14
num_cat=0
split_feature=19 0 19 34 19 19 0 1 21 9 30 29 27
split_gain=13.6675 11.7556 5.50149 7.11938 2.42521 4.50045 2.15664 1.37276 1.35314 0.344376 0.305983 0.110884 0.0142983
threshold=3272.5624926432911 0.12053668025532312 3307.707630040341 3308.3523652283779 3197.7015301234437 3223.4275948893351 -0.70581670320594825 0.74851074817110097 40.426087952306609 82.208269237089198 -2.4532767997337475 -0.29070494150475457 -2.7947923223850455
decision_type=2 2 2 2 2 2 2 2 2 2 2 2 2
left_child=1 4 12 8 6 -6 -1 11 -4 -9 -5 -3 -2
right_child=2 7 3 10 5 -7 -8 9 -10 -11 -12 -13 -14
leaf_value=0.0064264448606967933 -0.0047283578603355969 -0.0046496588026652226 0.0048463877747347067 -0.0026698258290688199 -0.0040238573338304256 0.0033227470322188153 0.0021489207129689715 0.001526224819322427 -0.00032119982332399447 -0.0017577404457109946 -0.0067684180186345019 -0.0022939949173193712 -0.0079725211879663298
leaf_weight=136 11.999999999999998 87 44 13.499999999999998 40.5 159.5 77.5 22.5 35 25.5 57 18 84
leaf_count=25 8 58 11 9 27 51 28 9 19 15 38 12 57
internal_value=-3.24432e-05 0.00167307 -0.00396233 -0.00151797 0.00342497 0.00180625 0.00490884 -0.00303597 0.00256878 -0.000178376 -0.00608333 -0.00430261 -0.0076665
internal_weight=812 566.5 245.5 149.5 413.5 200 213.5 153 79 48 70.5 105 96
internal_count=367 225 142 77 131 78 53 94 30 24 47 70 65
is_linear=0
shrinkage=0.02


Tree=18
num_leaves=12
num_cat=0
split_feature=2 0 11 22 2 2 22 19 2 2 16
split_gain=13.1146 11.2855 5.20023 2.95018 2.4265 4.01624 2.63463 1.32171 1.56183 0.824308 0.24542
threshold=955571.09942961263 0.35460488704253579 25.410479855130422 82.13429884970428 929667.84895722091 940351.15984073735 41.877517858576873 3307.5576184428196 962362.10142236948 954490.04259240883 -1.6913726964013276
decision_type=2 2 2 2 2 2 2 2 2 2 2
left_child=1 4 3 -2 6 -6 -1 -4 -9 10 -3
right_child=2 9 7 -5 5 -7 -8 8 -10 -11 -12
leaf_value=-0.0004204987977232252 -0.0034822113524783744 -0.0045994382047720543 -0.0076884243492285412 0.0054401619415730242 -0.0030366367616828671 0.00316973481995628 0.0055774961577352046 -0.00074236921855696928 -0.0060059133431850332 0.001197697091985632 -0.0020107659267054666
leaf_weight=33.5 26 87 73.5 30.5 52.5 180.5 194 39 57 11.999999999999998 25.5
leaf_count=17 15 58 50 6 33 58 40 21 38 4 16
internal_value=0.000189175 0.00177225 -0.00388448 0.00131594 0.00321774 0.0017523 0.00468857 -0.00562599 -0.00393243 -0.00353311 -0.00406439
internal_weight=811 585 226 56.5 460.5 233 227.5 169.5 96 124.5 112.5
internal_count=356 226 130 21 148 91 57 109 59 78 74
is_linear=0
shrinkage=0.02


Tree=19
num_leaves=10
num_cat=0
split_feature=28 2 24 22 2 25 11 2 16
split_gain=12.2762 6.21713 5.64905 3.19443 1.95962 0.69791 0.696523 0.680673 0.203578
threshold=1.1447874678523158 962406.74596153933 81.328879129652634 77.691101486862976 934403.47357291461 26.60193671306974 26.930875584549657 927197.79279134318 -0.75905709839643631
decision_type=2 2 2 2 2 2 2 2 2
left_child=1 2 8 -4 7 -6 -7 -2 -1
right_child=4 -3 3 -5 5 6 -8 -9 -10
leaf_value=-0.0058571125277637557 0.0040580558522233688 -0.006512234765581968 -0.00069525462956655597 0.0032029654255201073 0.003460526206818494 -0.0034927862697591385 0.0019765709945741964 0.0075846756439208983 -0.0024269915988047916
leaf_weight=67 50 80.5 303 114.5 53.5 13.499999999999998 23 61 13.499999999999998
leaf_count=45 13 54 153 34 15 9 8 8 9
internal_value=7.12085e-05 -0.00140652 -0.000560116 0.000376704 0.00431306 0.00203676 -5.17317e-05 0.00608917 -0.00536118
internal_weight=779.5 578.5 498 417.5 201 90 36.5 111 80.5
internal_count=348 295 241 187 53 32 17 21 54
is_linear=0
shrinkage=0.02


Tree=20
num_leaves=12
num_cat=0
split_feature=2 0 19 34 28 2 21 23 1 25 11
split_gain=10.9326 10.2615 5.14601 6.10165 1.78205 2.92109 1.28033 1.23078 0.452561 0.227952 0.0833243
threshold=955571.09942961263 0.35460488704253579 3307.707630040341 3308.3523652283779 1.1447874678523158 922873.70852786337 40.426087952306609 83.751441853124817 0.74851074817110097 25.681890036760347 25.79286252455638
decision_type=2 2 2 2 2 2 2 2 2 2 2
left_child=1 4 -2 6 5 -1 -4 -6 10 -5 -3
right_child=2 8 3 9 7 -7 -8 -9 -10 -11 -12
leaf_value=-0.0042524311898047467 -0.0073398073957266054 -0.0046432659541461481 0.0046866674842415282 -0.0024318252801895143 0.0034178813384970023 0.0025247685185523444 -0.00033817305834326023 0.0073773346831289563 -0.0010508148199633548 -0.0062782138833054543 -0.0027859488819090149
leaf_weight=27 90 69 44 11.999999999999998 148.5 231 35 43 27 54 30
leaf_count=18 61 46 11 8 44 82 19 6 14 36 20
internal_value=0 0.00148654 -0.00361929 -0.00124485 0.00290197 0.00178734 0.00247081 0.00436774 -0.00352201 -0.00567808 -0.00415032
internal_weight=810.5 575.5 235 145 449.5 258 79 191.5 126 66 99
internal_count=365 230 135 74 150 100 30 50 80 44 66
is_linear=0
shrinkage=0.02


Tree=21
num_leaves=12
num_cat=0
split_feature=2 14 20 2 2 2 1 10 1 25 28
split_gain=13.4252 7.77302 3.30048 5.03333 2.69598 3.74994 1.89496 1.76296 1.12271 0.670655 0.468597
threshold=955571.09942961263 -1.710059146780271 3307.6240951166669 962406.74596153933 930087.24185297696 940351.15984073735 -0.40966402954315212 81.7768774683516 -0.51639395938746235 26.852182658749047 -1.31340971624392
decision_type=2 2 2 2 2 2 2 2 2 2 2
left_child=1 7 -2 8 6 -6 -3 9 -4 -1 -9
right_child=2 4 3 -5 5 -7 -8 10 -10 -11 -12
leaf_value=0.0021724295279011135 -0.0072338021367788306 0.0013534712100697454 0.0036170739634406 -0.006166002500237841 -0.0035986341975068536 0.0028280767710783194 0.0059142121247478295 -0.004072136037930464 -0.0014339003374179205 -0.0027654490838448205 0
leaf_weight=38.5 88.5 52 40.5 64.5 45 163 141.5 96 28.5 13.499999999999998 11.999999999999998
leaf_count=14 60 20 13 43 30 55 25 64 17 9 6
internal_value=-0.000106081 0.00153788 -0.00425547 -0.00220782 0.00302239 0.00141233 0.00471868 -0.00216843 0.00151631 0.000811504 -0.00361293
internal_weight=783.5 561.5 222 133.5 401.5 208 193.5 160 69 52 108
internal_count=356 223 133 73 130 85 45 93 30 23 70
is_linear=0
shrinkage=0.02


Tree=22
num_leaves=13
num_cat=0
split_feature=2 0 19 2 23 31 1 26 27 2 9 29
split_gain=10.9182 10.2986 4.63947 6.27487 1.87002 1.60415 1.2555 1.23521 0.82456 0.491122 0.393701 0.129784
threshold=955571.09942961263 0.12053668025532312 3307.707630040341 962292.19349260756 83.751441853124817 3.2644369006427945 0.61559370248597578 26.701755312415468 -1.0437109528571529 962514.86924537865 82.208269237089198 -0.29070494150475457
decision_type=2 2 2 2 2 2 2 2 2 2 2 2
left_child=1 4 -2 8 7 -6 11 -1 -4 -5 -8 -3
right_child=2 6 3 9 5 -7 10 -9 -10 -11 -12 -13
leaf_value=0.0008236491396319826 -0.0070414655511523341 -0.0044039214410279926 0.0055912572713568811 -0.0020663739329292662 0.0065093491670504136 0.0025077748049318399 0.0011313870784008142 0.0036563749862344643 0.0010092791831248426 -0.0061649435039039125 -0.0020655752441339327 -0.0019155255442278253
leaf_weight=141.5 89.5 84 30.5 19.5 99 75 31.5 112.5 35 54 27 16.5
leaf_count=61 60 56 6 13 15 24 13 32 15 36 16 11
internal_value=0.000168338 0.00161444 -0.00352419 -0.00119423 0.00322851 0.0048321 -0.00270746 0.00210023 0.00325013 -0.00516731 -0.000325552 -0.00404916
internal_weight=815.5 587 228.5 139 428 174 159 254 65.5 73.5 58.5 100.5
internal_count=358 228 130 70 132 39 96 93 21 49 29 67
is_linear=0
shrinkage=0.02


Tree=23
num_leaves=14
num_cat=0
split_feature=5 0 19 34 23 0 26 1 1 30 5 23 27
split_gain=10.9849 8.77547 3.32337 4.53195 1.61668 1.5761 1.5608 1.32888 1.18907 0.252799 0.247506 0.112324 0.0531233
threshold=3284.8212552336181 0.12053668025532312 3307.6240951166669 3308.3523652283779 83.751441853124817 -0.70581670320594825 26.701755312415468 0.61559370248597578 -0.51639395938746235 -2.4532767997337475 3281.1050707664631 79.644993629092355 -2.7947923223850455
decision_type=2 2 2 2 2 2 2 2 2 2 2 2 2
left_child=1 4 12 8 6 -6 -1 11 -4 -5 -9 -3 -2
right_child=2 7 3 9 5 -7 -8 10 -10 -11 -12 -13 -14
leaf_value=0.00059554033837447024 -0.0040392504958090955 -0.0051375182435132458 0.0035080558958741808 -0.0022994064013163247 0.0070275973254487712 0.0029239464021864393 0.0038185245427039432 -0.0010012837825786501 -0.0016254925163168654 -0.0060168021998853764 0.0017187780233529899 -0.0032081962978510667 -0.0072724907685678894
leaf_weight=144.5 11.999999999999998 33 47 13.499999999999998 64 103.5 104.5 40.5 27 57 18 63 69
leaf_count=64 8 22 15 9 8 31 29 23 16 38 6 42 47
internal_value=3.81245e-05 0.00151672 -0.00368238 -0.00181274 0.0030264 0.0045522 0.00197091 -0.0025302 0.00161343 -0.00539547 -0.000108962 -0.00396075 -0.00689988
internal_weight=796.5 571 225.5 144.5 416.5 167.5 249 154.5 74 70.5 58.5 96 81
internal_count=358 225 133 78 132 39 93 93 31 47 29 64 55
is_linear=0
shrinkage=0.02


Tree=24
num_leaves=13
num_cat=0
split_feature=2 0 11 22 9 2 19 2 1 9 27 7
split_gain=9.72644 8.7084 4.12977 2.56281 2.18408 1.3323 1.13376 1.67693 1.04607 0.389327 0.295854 0.207586
threshold=955571.09942961263 0.06026834012766185 25.410479855130422 82.13429884970428 84.064272792489319 933085.16036982159 3307.6240951166669 962458.4493606576 0.61559370248597578 82.208269237089198 -0.74477730315026414 95.504250774803225
decision_type=2 2 2 2 2 2 2 2 2 2 2 2
left_child=1 4 3 -2 5 -1 -4 -8 10 -10 -3 -6
right_child=2 8 6 -5 11 -7 7 -9 9 -11 -12 -13
leaf_value=0.0046779286903304027 -0.0034175905596751438 -0.0038967423006666425 -0.0068469476259480676 0.0050250453930348162 -0.0028650088613231977 0.002138556088234211 -0.00056936223432421684 -0.0057302322886947886 0.0010421006270249684 -0.002004191958407561 -0.00033464104157906988 0.00012651853958765664
leaf_weight=183.5 24.5 97.5 76.5 30.5 21 165 46.5 57 36 28.5 11.999999999999998 13.499999999999998
leaf_count=40 14 65 52 6 13 60 25 38 15 17 7 6
internal_value=-0.000102188 0.00133497 -0.00350387 0.00123795 0.0030193 0.00349568 -0.00496204 -0.00347189 -0.00235523 -0.000288591 -0.00353419 -0.00168236
internal_weight=792 557 235 55 383 348.5 180 103.5 174 64.5 109.5 34.5
internal_count=358 223 135 20 119 100 115 63 104 32 72 19
is_linear=0
shrinkage=0.02


Tree=25
num_leaves=9
num_cat=0
split_feature=28 2 21 22 2 11 8 25
split_gain=8.84597 5.48561 4.50539 2.30938 1.0034 0.758485 0.29109 0.0370803
threshold=1.4631169966749498 962458.4493606576 23.618055666875005 82.13429884970428 941778.48302082752 26.016671061492442 19.957922742398111 26.60193671306974
decision_type=2 2 2 2 2 2 2 2
left_child=1 2 5 -4 6 -1 -2 -6
right_child=4 -3 3 -5 7 -7 -8 -9
leaf_value=-0.005128050886377503 0.0034483763532979152 -0.0059240298699476043 -0.00025797156560403568 0.0033475483199737594 0.0026564723695478134 -0.00068070537646611532 0.0065616003284531257 0.0012174122582476298
leaf_weight=77.5 26.5 82 340.5 88 29.5 21 60.5 24.5
leaf_count=52 7 55 165 24 9 11 9 10
internal_value=-0.000109557 -0.00115923 -0.000399343 0.000486929 0.00437458 -0.00422432 0.00571044 0.00209015
internal_weight=750 609 527 428.5 141 98.5 87 54
internal_count=342 307 252 189 35 63 16 19
is_linear=0
shrinkage=0.02


Tree=26
num_leaves=10
num_cat=0
split_feature=28 2 21 0 23 11 2 18 14
split_gain=9.93299 5.31404 3.85221 2.38114 1.00456 0.657717 0.333841 0.129392 0.0956729
threshold=1.3660473355459113 962458.4493606576 23.618055666875005 -0.85421994577343319 83.751441853124817 26.048651407286979 942258.86453251645 4.2678311623833833 2.2675777071715801
decision_type=2 2 2 2 2 2 2 2 2
left_child=1 2 5 -4 6 -1 8 -8 -2
right_child=4 -3 3 -5 -6 -7 7 -9 -10
leaf_value=-0.0047747706228387565 0.002865640958150228 -0.0057968004133966237 -0.0042958347653901134 0.00079906511151179888 0.0067166423412284458 -0.00052927332406952276 0.00054822907307081753 0.0028112433610314675 0.0049862468293734967
leaf_weight=82 33 88.5 39 384 48 19.5 25.5 20.5 33.5
leaf_count=55 10 59 25 165 6 10 11 6 6
internal_value=-0.000140587 -0.00130425 -0.000528041 0.000311091 0.00426239 -0.00399814 0.00312309 0.00165578 0.00404975
internal_weight=773.5 613 524.5 423 160.5 101.5 112.5 46 66.5
internal_count=353 314 255 190 39 65 33 17 16
is_linear=0
shrinkage=0.02


Tree=27
num_leaves=13
num_cat=0
split_feature=2 0 20 34 23 31 21 24 1 30 10 16
split_gain=8.49156 8.08642 3.64432 4.2887 2.06215 1.59435 1.54385 1.41304 0.409109 0.204542 0.105458 0.0584832
threshold=955571.09942961263 0.35460488704253579 3307.6240951166669 3308.3523652283779 83.751441853124817 3.3927527172927552 40.426087952306609 82.112766412783529 0.61559370248597578 -2.5764806401445459 83.650304286210698 -1.6490019917868106
decision_type=2 2 2 2 2 2 2 2 2 2 2 2
left_child=1 4 -2 6 7 -6 -4 -1 11 -5 -10 -3
right_child=2 8 3 9 5 -7 -8 -9 10 -11 -12 -13
leaf_value=0.0026175531500305695 -0.0066061072149963089 -0.0040854593180354283 0.0043111070866113186 -0.0021878170688947041 0.0056903457130337573 0.0017572156417537744 -0.0013611354078307296 -0.00042548769263166876 0 -0.0056278063887641554 -0.0022620526274045307 -0.0019058458278576533
leaf_weight=154.5 81 78 44 13.499999999999998 114.5 69.5 31.5 98 18.000000000000004 51 13.499999999999998 13.499999999999998
leaf_count=50 55 52 11 9 19 25 19 50 8 34 9 9
internal_value=4.04656e-05 0.00135417 -0.00326311 -0.00126529 0.00263207 0.00424174 0.00193815 0.00143308 -0.00314183 -0.0050042 -0.00102351 -0.00382131
internal_weight=780.5 559.5 221 140 436.5 184 75.5 252.5 123 64.5 31.5 91.5
internal_count=350 222 128 73 144 44 30 100 78 43 17 61
is_linear=0
shrinkage=0.02


Tree=28
num_leaves=13
num_cat=0
split_feature=2 0 11 22 2 2 1 19 34 2 32 27
split_gain=9.0798 6.94524 3.92099 2.27382 1.70899 1.91807 0.828429 0.789614 1.04628 0.215219 0.105553 0.0363205
threshold=955571.09942961263 0.12053668025532312 25.410479855130422 82.13429884970428 916879.24193357478 932650.20179399312 0.8542199457734333 3307.6240951166669 3308.8693859697337 948715.43764787063 4.0922417111778762 -2.6263785919871192
decision_type=2 2 2 2 2 2 2 2 2 2 2 2
left_child=1 4 3 -2 -1 -6 9 11 -9 -3 -8 -4
right_child=2 6 7 -5 5 -7 10 8 -10 -11 -12 -13
leaf_value=-0.004770528713862101 -0.0030289148509502414 -0.0033867580329102497 -0.0037821525764410143 0.0048017089869827039 0.0042763066826420918 0.0014455344058820962 0.0012439568916956583 -0.0012502950616557187 -0.0053514143625895188 -0.00032415336149710199 -0.00088892061710357676 -0.0067718303640380154
leaf_weight=10.499999999999998 26 106.5 11.999999999999998 30.5 198 194 21 48 57 11.999999999999998 13.499999999999998 64
leaf_count=7 15 71 8 6 47 76 9 28 38 6 7 43
internal_value=-0.000105996 0.00129082 -0.00336905 0.00117861 0.0026695 0.0028913 -0.00231386 -0.0047976 -0.00353941 -0.00310122 0.000351534 -0.00640792
internal_weight=793 555.5 237.5 56.5 402.5 392 153 181 105 118.5 34.5 76
internal_count=361 223 138 21 130 123 93 117 66 77 16 51
is_linear=0
shrinkage=0.02


Tree=29
num_leaves=11
num_cat=0
split_feature=28 2 22 1 28 2 25 11 2 32
split_gain=9.1587 3.98806 4.00093 2.60397 1.92541 1.61775 0.549711 0.553255 0.460907 0.0938586
threshold=1.1447874678523158 962331.14875402476 77.691101486862976 0.95297903005573359 -1.8351209175064496 934403.47357291461 26.60193671306974 26.930875584549657 927197.79279134318 4.1981892490159654
decision_type=2 2 2 2 2 2 2 2 2 2
left_child=1 2 3 -1 -4 8 -7 -8 -2 -3
right_child=5 9 4 -5 -6 6 7 -9 -10 -11
leaf_value=-0.0022417384673765689 0.0035491006497255307 -0.0055125481149083692 -0.0025171432656546431 0.0024905135901989763 0.0037925348946796591 0.0029012648008086466 -0.0032706628610690435 0.0015971686315475679 0.0065594743041992188 -0.0027285968879858652
leaf_weight=328 47 74.5 22.5 52.5 98 53.5 13.499999999999998 23 61 13.499999999999998
leaf_count=189 12 50 13 18 24 15 9 8 8 9
internal_value=-1.44111e-05 -0.00126859 -0.000567601 -0.00157635 0.00258152 0.00368791 0.00163541 -0.000208666 0.00533423 -0.0051607
internal_weight=787 589 501 380.5 120.5 198 90 36.5 108 88
internal_count=355 303 244 207 37 52 32 17 20 59
is_linear=0
shrinkage=0.02


Tree=30
num_leaves=10
num_cat=0
split_feature=28 5 24 0 5 23 26 30 16
split_gain=8.37237 4.34442 3.72191 1.91924 1.89152 0.696051 0.52368 0.1787 0.13352
threshold=1.1447874678523158 3308.05924738356 81.328879129652634 -0.85421994577343319 3268.3583182482757 83.751441853124817 26.722044864679969 -2.5845323770597708 -0.75905709839643631
decision_type=2 2 2 2 2 2 2 2 2
left_child=1 2 8 -4 5 6 -2 -3 -1
right_child=4 7 3 -5 -6 -7 -8 -9 -10
leaf_value=-0.0048797638377205271 0.0021786284903064371 -0.0022334389333923659 -0.00418127468002565 0.00083854933717415617 -0.00073209303506274726 0.0063785689892976172 0.0050466303084660503 -0.0054239044181908225 -0.0018731035590171814
leaf_weight=59.5 66.5 13.499999999999998 31.5 385.5 32 56 50 77.5 11.999999999999998
leaf_count=40 22 9 20 164 15 7 8 52 8
internal_value=0.000185722 -0.00104029 -0.000282482 0.000440948 0.0036519 0.00447595 0.00347498 -0.00501611 -0.0044514
internal_weight=784 579.5 488.5 417 204.5 172.5 116.5 91 71.5
internal_count=345 293 232 184 52 37 30 61 48
is_linear=0
shrinkage=0.02


Tree=31
num_leaves=14
num_cat=0
split_feature=2 0 19 34 2 2 2 1 31 30 2 32 27
split_gain=7.97603 6.57072 3.48551 4.73769 1.27557 3.61417 1.73847 0.91727 0.438461 0.286507 0.186021 0.119933 0.0695103
threshold=955571.09942961263 0.35460488704253579 3307.707630040341 3308.3523652283779 932650.20179399312 940351.15984073735 925992.3839295794 -0.51639395938746235 4.2076082855742643 -2.6147426660750743 962514.86924537865 3.1233482985343994 -2.7947923223850455
decision_type=2 2 2 2 2 2 2 2 2 2 2 2 2
left_child=1 4 12 7 6 -6 -1 -4 11 -10 -5 -3 -2
right_child=2 8 3 10 5 -7 -8 -9 9 -11 -12 -13 -14
leaf_value=0.0014266795975320481 -0.0034515973675168224 -0.0018586092885997561 0.0037866238821636549 -0.0020284121354420979 -0.003754429908824109 0.0027970651364291098 0.0052067692910650817 -0.0010007957332664064 -0.0024344487006847672 0.0010313558160430856 -0.0052755682825023301 -0.0040778838376204175 -0.0065361055776375493
leaf_weight=83.5 11.999999999999998 21 53.5 13.499999999999998 40.5 167 127 21 18 16.5 57 58.5 72
leaf_count=31 8 14 15 9 27 54 23 12 12 7 38 39 49
internal_value=0.000128862 0.00147434 -0.00297744 -0.00106007 0.00263637 0.001491 0.00373744 0.00241772 -0.00274804 -0.000747426 -0.00473676 -0.00356163 -0.00618714
internal_weight=761 532 229 145 418 207.5 210.5 74.5 114 34.5 70.5 79.5 84
internal_count=338 207 131 74 135 81 54 27 72 19 47 53 57
is_linear=0
shrinkage=0.02


Tree=32
num_leaves=13
num_cat=0
split_feature=2 28 11 22 9 23 2 2 2 10 30 31
split_gain=7.43762 6.2327 3.18612 3.25503 2.26143 1.5637 1.32128 2.06116 1.30348 0.660969 0.291666 0.223889
threshold=955571.09942961263 -0.68539767582538247 25.410479855130422 77.691101486862976 82.179170112174774 84.096301188247068 928835.69071090664 940824.63445610029 927197.79279134318 85.360707235839854 -2.6147426660750743 4.2637126739593905
decision_type=2 2 2 2 2 2 2 2 2 2 2 2
left_child=1 4 3 -2 5 -1 8 -8 -3 10 -4 -6
right_child=2 6 9 -5 11 -7 7 -9 -10 -11 -12 -13
leaf_value=-0.0014319211682892062 -0.0046101802832757442 0.002296948642756954 -0.0022836789574939755 0.004915990204878257 -0.0034852915216163167 0.0033621457674593296 -0.0030573800464471185 0.0027000800991183395 0.0059914523797228161 -0.0008225395494037205 -0.0051720223971520474 -0.0013358670380530936
leaf_weight=54 22.5 78 22.5 34 99 51.5 28.5 141.5 85 21 132 31.5
leaf_count=31 15 24 15 6 65 14 18 45 12 11 87 19
internal_value=-5.33621e-06 0.00122283 -0.00301459 0.00106678 -0.00125319 0.000903945 0.00298134 0.0017049 0.00427275 -0.00433774 -0.00479021 -0.00300269
internal_weight=801 569 232 56.5 236 105.5 333 170 163 175.5 154.5 130.5
internal_count=362 228 134 21 129 45 99 63 36 113 102 84
is_linear=0
shrinkage=0.02


Tree=33
num_leaves=13
num_cat=0
split_feature=5 0 19 5 23 5 32 0 5 31 30 29
split_gain=9.26546 6.16028 2.46255 2.94512 1.48261 1.17765 0.948412 0.913754 0.573783 0.376405 0.168824 0.0179297
threshold=3284.8212552336181 0.35460488704253579 3307.6240951166669 3308.05924738356 83.751441853124817 3195.7775956020723 2.8317746238704671 -0.35460488704253573 3281.1050707664631 4.5396063121841719 -2.4532767997337475 -2.5151366396272796
decision_type=2 2 2 2 2 2 2 2 2 2 2 2
left_child=1 4 11 7 6 -6 -1 -4 9 -3 -5 -2
right_child=2 8 3 10 5 -7 -8 -9 -10 -11 -12 -13
leaf_value=-0.0007223924870096792 -0.0035951518027318849 -0.0037310022301144069 -0.002472275470311825 -0.0019507945299148558 0.0050721419755653417 0.0015551764362133466 0.0020956549453337988 0.002599545650622424 0.0011763337276600027 -0.00039574110890046142 -0.0050573824475208919 -0.0062967398035014338
leaf_weight=62 11.999999999999998 88.5 18 13.499999999999998 110 63.5 186 49.5 11.999999999999998 18 58.5 80
leaf_count=33 8 59 12 9 18 24 65 17 4 11 39 54
internal_value=-0.000165575 0.00126698 -0.00350239 -0.00177544 0.00240117 0.00382074 0.00138302 0.00119373 -0.00273022 -0.00319914 -0.00455381 -0.00602908
internal_weight=771.5 540 231.5 139.5 421.5 173.5 248 67.5 118.5 106.5 72 92
internal_count=353 214 139 77 140 42 98 29 74 70 48 62
is_linear=0
shrinkage=0.02


Tree=34
num_leaves=13
num_cat=0
split_feature=2 14 19 2 9 16 2 11 1 1 2 27
split_gain=7.53882 4.75748 2.52089 3.2552 1.70863 1.29025 1.07594 1.06857 0.908418 0.421622 0.139767 0.0453319
threshold=955571.09942961263 -1.710059146780271 3307.6240951166669 962362.10142236948 84.064272792489319 1.9578841796881334 917650.38756081497 26.529142742212333 -0.51639395938746235 0.56806474673115548 962514.86924537865 -2.7271730840416351
decision_type=2 2 2 2 2 2 2 2 2 2 2 2
left_child=1 7 11 8 6 -6 -3 9 -4 -1 -5 -2
right_child=2 4 3 10 5 -7 -8 -9 -10 -11 -12 -13
leaf_value=-0.0033863605922596026 -0.0033470303215659583 -0.0027712946158868295 0.003189933105811968 -0.0020819142381350198 -0.0035305696249459733 0.0032341794687158923 0.0029894917538257305 0.0015590708448336675 -0.001347101793215986 -0.0010471689559710333 -0.0050355088384742407 -0.0062565998676660899
leaf_weight=81 11.499999999999998 11.999999999999998 44 13.499999999999998 31.5 15.499999999999998 336.5 31 27 57 57 72.5
leaf_count=54 8 7 14 9 21 4 97 12 16 30 38 49
internal_value=-0.000141519 0.00109107 -0.00322271 -0.00154585 0.00229095 -0.00122738 0.00277439 -0.00170067 0.00144482 -0.00245616 -0.00455286 -0.00594737
internal_weight=790 564.5 225.5 141.5 395.5 47 348.5 169 71 138 70.5 84
internal_count=359 225 134 77 129 25 104 96 30 84 47 57
is_linear=0
shrinkage=0.02


Tree=35
num_leaves=12
num_cat=0
split_feature=2 0 22 25 2 2 19 34 2 1 25
split_gain=7.74469 6.11563 2.61729 1.94058 1.57235 1.79256 0.79694 1.25121 0.718507 0.240943 0.015977
threshold=955571.09942961263 0.12053668025532312 82.13429884970428 26.44806153116096 917650.38756081497 932650.20179399312 3307.6240951166669 3308.8693859697337 954490.04259240883 0.91023613416931248 25.716069602462188
decision_type=2 2 2 2 2 2 2 2 2 2 2
left_child=1 4 6 -4 -1 -6 10 -8 9 -3 -2
right_child=2 8 3 -5 5 -7 7 -9 -10 -11 -12
leaf_value=-0.0032891419712040158 -0.0035214669969346785 -0.0029699452450736557 -0.0028125555111716189 0.005349415164523654 0.0040909184909000661 0.0013702181847766043 -0.00051485109360267713 -0.0050618157430931381 0.0017217445662527373 -8.8362594445545733e-07 -0.0062017483378565587
leaf_weight=16.5 11.999999999999998 120 22.5 21 199 197.5 46.5 52.5 14.999999999999998 13.499999999999998 63
leaf_count=10 8 80 13 3 44 77 27 35 5 7 43
internal_value=0 0.001242 -0.00319061 0.00113023 0.00249384 0.00275101 -0.00428264 -0.00298558 -0.00221635 -0.00268786 -0.0058765
internal_weight=779 561.5 217.5 43.5 413 396.5 174 99 148.5 133.5 75
internal_count=352 223 129 16 131 121 113 62 92 87 51
is_linear=0
shrinkage=0.02


Tree=36
num_leaves=11
num_cat=0
split_feature=28 5 22 1 28 5 8 5 31 32
split_gain=6.75536 3.01315 3.10812 2.73284 1.95588 1.63259 0.616238 0.427497 0.10854 0.0347546
threshold=1.1447874678523158 3308.6907953399405 77.691101486862976 0.95297903005573359 -1.8351209175064496 3212.0565312079352 23.589544422066933 3187.2866596579665 4.0421343958127585 2.7936067719081197
decision_type=2 2 2 2 2 2 2 2 2 2
left_child=1 2 3 -1 -4 7 8 -2 -7 -3
right_child=5 9 4 -5 -6 6 -8 -9 -10 -11
leaf_value=-0.0022389084424357863 0.0031476586198806765 -0.0030311295323901706 -0.0031781048523055184 0.00224013336249269 0.0033413981530070304 0.0032971999878976862 -0.0012302641769250233 0.0060391553049502153 0.0012331819495847148 -0.0052302637176513669
leaf_weight=330.5 48.5 16.5 21 63.5 98.5 24 30 56 29.5 61
leaf_count=196 12 11 13 22 24 6 15 7 11 41
internal_value=-0.000159308 -0.00121271 -0.00064675 -0.00150622 0.00215399 0.003125 0.000982987 0.00477957 0.00226013 -0.00485382
internal_weight=779 591 513.5 394 119.5 188 83.5 104.5 53.5 77.5
internal_count=358 307 255 218 37 51 32 19 17 52
is_linear=0
shrinkage=0.02


Tree=37
num_leaves=9
num_cat=0
split_feature=28 2 23 0 2 23 26 32
split_gain=6.65792 2.80007 2.31961 1.85211 1.81582 0.606001 0.552847 0.00426417
threshold=1.1447874678523158 962458.4493606576 80.132121825877263 -0.85421994577343319 950781.94788297673 83.751441853124817 26.722044864679969 2.9410966576378894
decision_type=2 2 2 2 2 2 2 2
left_child=1 2 -1 -4 5 6 -2 -3
right_child=4 7 3 -5 -6 -7 -8 -9
leaf_value=-0.0043540660870813692 0.0016591785768388023 -0.0029704032811251552 -0.0046178556039477838 0.00030113609444195705 -0.0014853191882371903 0.0055486321725135993 0.0045254736594783455 -0.0049687771699467647
leaf_weight=55 69.5 14.999999999999998 31.5 421 28.5 59 50 59.5
leaf_count=37 24 10 21 190 15 8 8 40
internal_value=1.86277e-05 -0.00107501 -0.000532739 -5.10115e-05 0.00308871 0.00383642 0.00291623 -0.0046593
internal_weight=789 582 507.5 452.5 207 178.5 119.5 74.5
internal_count=353 298 248 211 55 40 32 50
is_linear=0
shrinkage=0.02


Tree=38
num_leaves=14
num_cat=0
split_feature=2 28 11 22 10 2 2 17 19 2 2 31 31
split_gain=6.82326 5.16152 2.92858 1.81966 1.67404 1.30798 2.33059 0.810933 0.710124 0.728258 0.667237 0.267508 0.0384575
threshold=955571.09942961263 -1.1439724955685129 25.410479855130422 82.13429884970428 82.198063680545616 928835.69071090664 940351.15984073735 2.9808011355983299 3307.6240951166669 962406.74596153933 927197.79279134318 4.5396063121841719 2.9401533569533327
decision_type=2 2 2 2 2 2 2 2 2 2 2 2 2
left_child=1 4 3 -2 7 10 -7 -1 12 -10 -3 -6 -4
right_child=2 5 8 -5 11 6 -8 -9 9 -11 -12 -13 -14
leaf_value=0.0031377068302210643 -0.002600275098704375 0.0026213814716081365 -0.0065535886321269289 0.0046729806743819142 -0.0033901997751866774 -0.0028208200070593092 0.0025561447961088748 -0.00074633183050090853 -0.00068253411317155475 -0.0042498837838570282 0.0053010282455735903 -0.00070617113312085474 -0.004554150593649481
leaf_weight=32.5 24.5 91 34 27.5 94.5 39 154.5 56 40.5 58.5 77 21 47
leaf_count=9 14 25 23 5 62 24 49 30 23 39 11 13 32
internal_value=-1.21841e-05 0.00117027 -0.00289199 0.00123195 -0.00136049 0.00260365 0.0014488 0.000686311 -0.0040947 -0.00284238 0.0038974 -0.0029346 -0.00552156
internal_weight=797.5 565.5 232 52 204 361.5 193.5 88.5 180 99 168 115.5 81
internal_count=359 223 136 19 114 109 73 39 117 62 36 75 55
is_linear=0
shrinkage=0.02


Tree=39
num_leaves=10
num_cat=0
split_feature=27 5 24 31 26 11 28 16 8
split_gain=6.45414 2.69215 3.3531 1.54006 1.53592 1.2682 0.735793 0.292159 0.139828
threshold=1.2215757164282623 3308.3191163919764 83.172305671648544 3.2105840624546507 25.84416009402938 26.529142742212333 1.4631169966749498 0.64120319500605383 6.4044328991097936
decision_type=2 2 2 2 2 2 2 2 2
left_child=1 2 5 8 -4 -1 -5 -8 -2
right_child=3 -3 4 6 -6 -7 7 -9 -10
leaf_value=-0.0027638522317526087 0.0028816548325798731 -0.0043983356947248633 -0.0016654713541135058 -0.0013045168074350508 0.0021233830097352208 0.00038307610695008875 0.0041097416784249101 0.0014391225667103478 0.0051575924999143442
leaf_weight=207.5 26 81 54 30 182 66 24 67.5 80
leaf_count=129 7 54 32 15 58 29 4 24 12
internal_value=5.75373e-05 -0.00104298 -0.000494286 0.00291089 0.00124298 -0.00199923 0.00132525 0.00221611 0.00466595
internal_weight=818 590.5 509.5 227.5 236 273.5 121.5 91.5 106
internal_count=364 302 248 62 90 158 43 28 19
is_linear=0
shrinkage=0.02


Tree=40
num_leaves=14
num_cat=0
split_feature=2 28 19 34 1 23 26 1 14 16 31 27 34
split_gain=5.46489 4.36532 2.77713 3.49773 1.91004 1.19971 1.4439 0.984462 0.644297 0.447943 0.421086 0.0432826 0.0414475
threshold=955571.09942961263 -0.68539767582538247 3307.6240951166669 3308.3523652283779 0.95297903005573359 83.751441853124817 26.701755312415468 -0.51639395938746235 -1.710059146780271 2.12672235640329 4.2076082855742643 -2.7271730840416351 3309.9513656921768
decision_type=2 2 2 2 2 2 2 2 2 2 2 2 2
left_child=1 4 11 7 10 6 -3 -4 -6 -7 -1 -2 -5
right_child=2 5 3 12 8 9 -8 -9 -10 -11 -12 -13 -14
leaf_value=-0.002907094120162807 -0.0029576048277891597 0.00032216964395188571 0.0035538375654003839 -0.0028732136454847125 0 0.0028432619234577557 0.0035376587543222639 -0.001097736456327968 0.0041529176695305012 0.0055855394943900728 -0.00052855477442023571 -0.0056669621204507763 -0.0047479503963674822
leaf_weight=108 11.499999999999998 132.5 53.5 25.5 30.5 59.5 97.5 25.5 27 56 45 71 40.5
leaf_count=71 8 57 15 17 14 16 23 15 5 7 25 48 27
internal_value=0.000124945 0.00119561 -0.00247368 -0.000772481 -0.00106346 0.00257639 0.00170799 0.00203506 0.00199071 0.00424451 -0.00223239 -0.00537266 -0.0041332
internal_weight=783.5 556 227.5 145 210.5 345.5 230 79 57.5 115.5 153 82.5 66
internal_count=348 218 130 74 115 103 80 30 19 23 96 56 44
is_linear=0
shrinkage=0.02


Tree=41
num_leaves=15
num_cat=0
split_feature=2 0 19 2 21 2 1 27 27 2 9 11 19 27
split_gain=5.24989 4.95972 2.65483 3.24682 1.41633 1.36787 0.744144 0.633092 0.263532 0.248756 0.178619 0.0950994 0.039353 0.0674606
threshold=955571.09942961263 0.12053668025532312 3307.8080879886775 962292.19349260756 29.303412216366276 917650.38756081497 0.61559370248597578 -1.8062937365487521 -0.1561158213300759 962514.86924537865 82.208269237089198 25.384728979568937 3307.5576184428196 -2.7947923223850455
decision_type=2 2 2 2 2 2 2 2 2 2 2 2 2 2
left_child=1 4 12 7 8 -6 11 -4 -1 -5 -8 -3 13 -2
right_child=2 6 3 9 5 -7 10 -9 -10 -11 -12 -13 -14 -15
leaf_value=-0.003147626982094386 -0.0028450761702325605 -0.0037125392836151704 0.0049373773401433776 -0.0014103231389252912 -0.0030681102311972412 0.0028119380005810326 0.0010172942837079367 0.00079665603782785562 0.00016680518951680924 -0.004412691012777463 -0.0012587092623991126 -0.0021435457913648514 -0.0028015497128168745 -0.0056610789575438566
leaf_weight=18 11.999999999999998 48 26 19.5 14.999999999999998 379 28.5 36.5 16.5 48 24 51 11.999999999999998 67.5
leaf_count=12 8 32 4 13 9 108 12 16 7 32 14 34 8 46
internal_value=0.000127297 0.00112994 -0.00247909 -0.000608321 0.0022301 0.00257223 -0.00196003 0.00262579 -0.00156601 -0.00362384 0 -0.00296823 -0.00506284 -0.00532127
internal_weight=801.5 580 221.5 130 428.5 394 151.5 62.5 34.5 67.5 52.5 99 91.5 79.5
internal_count=355 228 127 65 136 117 92 20 19 45 26 66 62 54
is_linear=0
shrinkage=0.02


Tree=42
num_leaves=13
num_cat=0
split_feature=5 0 20 34 22 5 27 11 5 31 5 27
split_gain=5.78038 4.27754 2.11411 2.56152 1.07101 1.10251 0.718983 0.607306 0.446655 0.284547 0.0977855 0.0648354
threshold=3284.8212552336181 0.35460488704253579 3307.6240951166669 3308.3523652283779 36.720591428187866 3154.4669985649425 -0.74477730315026414 26.897867124443611 3281.1050707664631 4.7666347385164327 3308.6907953399405 -2.7947923223850455
decision_type=2 2 2 2 2 2 2 2 2 2 2 2
left_child=1 4 11 6 7 -6 -4 -1 9 -3 -5 -2
right_child=2 8 3 10 5 -7 -8 -9 -10 -11 -12 -13
leaf_value=-0.0013440980300176561 -0.0027944970208185686 -0.0031031774134996038 0.0029133653977013968 -0.0016571298815585948 -0.0040072436730066935 0.0025630445572029613 -0.001321765451071163 0.0021680836240450542 0.0011771876856132792 -0.0003074548478637423 -0.0043059955376845141 -0.0055499125368454871
leaf_weight=55.5 11.999999999999998 94.5 45.5 11.999999999999998 8.9999999999999982 345.5 22.5 28.5 11.999999999999998 19.5 57 75
leaf_count=31 8 63 15 8 6 101 13 9 4 12 38 51
internal_value=-0.000116583 0.000959823 -0.00282643 -0.00123513 0.00189484 0.00237444 0.00148498 -0.000111942 -0.00226251 -0.00265248 -0.00391875 -0.00524626
internal_weight=788.5 564.5 224 137 438.5 354.5 68 84 126 114 69 87
internal_count=359 226 133 74 147 107 28 40 79 75 46 59
is_linear=0
shrinkage=0.02


Tree=43
num_leaves=9
num_cat=0
split_feature=28 11 2 21 31 8 17 32
split_gain=5.71685 2.79022 2.10378 1.87577 0.660487 0.133012 0.0751219 0.00556797
threshold=1.4631169966749498 27.287961061847913 962514.86924537865 23.618055666875005 3.3738927481244994 1.2093812863141322 2.2325838019788082 2.9410966576378894
decision_type=2 2 2 2 2 2 2 2
left_child=1 2 3 -1 -2 -6 -7 -4
right_child=4 -3 7 -5 5 6 -8 -9
leaf_value=-0.0031810351943702625 0.0044358528429302721 0.0035777068173184117 -0.0027814229347489093 -0.00017663914053765619 0.0029784369217722042 0.0018801315786703577 0.00025940189863506114 -0.0047041584409651211
leaf_weight=104.5 89 49.5 14.999999999999998 394 27 25 27 59.5
leaf_count=67 15 12 10 187 6 8 11 40
internal_value=-1.24849e-05 -0.000899735 -0.00129834 -0.000818101 0.00324216 0.00181493 0.00110685 -0.00440588
internal_weight=790.5 622.5 573 498.5 168 79 52 74.5
internal_count=356 316 304 254 40 25 19 50
is_linear=0
shrinkage=0.02


Tree=44
num_leaves=11
num_cat=0
split_feature=28 2 21 19 2 12 31 2 2 33
split_gain=5.38719 2.55853 2.61519 2.42824 2.4697 1.42502 0.746287 0.353202 0.124633 0.00743849
threshold=1.3660473355459113 956115.24948820251 32.556505949337314 3307.707630040341 962258.08521709184 27.095717308643518 3.4069765663147544 952886.50091004989 942258.86453251645 3307.4659400786786
decision_type=2 2 2 2 2 2 2 2 2 2
left_child=1 2 7 9 -5 -4 -2 -1 -8 -3
right_child=6 3 5 4 -6 -7 8 -9 -10 -11
leaf_value=-0.0028293350940038053 0.0045528210447384762 -0.0058452331280708317 0.00024508836830931682 0.002325223675529872 -0.0031958320752954951 0.003446275654984148 0.0024593161087144507 0.00044142456551392881 0.00071151611413041208 -0.0041366363160021897
leaf_weight=103.5 83 48.5 214.5 54.5 75 74.5 42.5 13.499999999999998 35 37
leaf_count=68 14 33 97 19 50 18 11 5 14 25
internal_value=-1.85184e-05 -0.000866496 6.47785e-05 -0.00262259 -0.000857012 0.00109073 0.00322774 -0.00243425 0.0017238 -0.0052129
internal_weight=781.5 621 406 215 129.5 289 160.5 117 77.5 85.5
internal_count=354 315 188 127 69 115 39 73 25 58
is_linear=0
shrinkage=0.02


Tree=45
num_leaves=13
num_cat=0
split_feature=5 0 19 34 5 5 1 27 9 30 11 25
split_gain=6.11193 4.51234 1.71981 2.38685 1.34548 1.69341 0.598273 0.415437 0.190301 0.11363 0.0783567 0.0426344
threshold=3284.8212552336181 0.12053668025532312 3307.707630040341 3308.3523652283779 3154.4669985649425 3207.5247666608907 0.74851074817110097 -0.74477730315026414 81.306302933363554 -2.4532767997337475 25.384728979568937 26.098170316579072
decision_type=2 2 2 2 2 2 2 2 2 2 2 2
left_child=1 4 11 7 -1 -6 10 -4 -8 -5 -3 -2
right_child=2 6 3 9 5 -7 8 -9 -10 -11 -12 -13
leaf_value=-0.0031629197398821514 -0.0036607380835782916 -0.0034298950622479126 0.0026143441112627362 -0.0015440960496664047 0.003676201227278525 0.0010315490717909665 0.0012208646722868376 -0.0008650617813452696 -0.0011272546030270557 -0.0041198267638683323 -0.0020107030231293625 -0.0055555476673647885
leaf_weight=16.5 30 43.5 42.5 13.499999999999998 205.5 190 24 18 28.5 61.5 60 57
leaf_count=10 20 29 14 9 44 73 9 10 17 41 40 39
internal_value=-1.51101e-05 0.00108322 -0.00281634 -0.00136166 0.00218037 0.00241943 -0.00179485 0.00155101 -1.26961e-05 -0.00372171 -0.0026667 -0.00499788
internal_weight=790.5 568 222.5 135.5 412 395.5 156 60.5 52.5 75 103.5 87
internal_count=355 222 133 74 127 117 95 24 26 50 69 59
is_linear=0
shrinkage=0.02


Tree=46
num_leaves=12
num_cat=0
split_feature=2 0 11 29 2 2 2 19 34 11 31
split_gain=5.12717 3.93528 1.86079 1.35886 1.01021 1.14924 0.686461 0.534446 0.54567 0.174875 0.0472552
threshold=955571.09942961263 0.12053668025532312 25.410479855130422 -0.53792620357107601 916879.24193357478 932650.20179399312 954490.04259240883 3307.6240951166669 3308.8693859697337 25.384728979568937 2.9401533569533327
decision_type=2 2 2 2 2 2 2 2 2 2 2
left_child=1 4 3 -2 -1 -6 9 10 -9 -3 -4
right_child=2 6 7 -5 5 -7 -8 8 -10 -11 -12
leaf_value=-0.0041674006439390635 -0.0020942616158261384 -0.0034516097018795632 -0.0058238179830404435 0.0043259620865186066 0.0031665757863636474 0.0010536665651913084 0.0016164882152508468 -0.0007179980827595597 -0.0037946124297601209 -0.0017262745972425983 -0.0039078414646006119
leaf_weight=8.9999999999999982 27.5 45 31 22.5 206 216.5 18 45 52.5 79.5 47
leaf_count=6 15 30 21 4 49 84 6 26 35 51 32
internal_value=-7.25514e-06 0.000994265 -0.00255511 0.000797854 0.0019469 0.00209614 -0.00186671 -0.00352034 -0.00242723 -0.00239943 -0.00478999
internal_weight=799.5 574 225.5 50 431.5 422.5 142.5 175.5 97.5 124.5 78
internal_count=359 226 133 19 139 133 87 114 61 81 53
is_linear=0
shrinkage=0.02


Tree=47
num_leaves=12
num_cat=0
split_feature=28 2 24 12 2 14 2 21 21 30 31
split_gain=4.92211 1.93459 2.14923 1.99687 1.00367 1.00185 0.354248 0.354152 0.219201 0.0565347 0.02695
threshold=1.1447874678523158 962331.14875402476 83.328658582567144 27.287961061847913 934403.47357291461 0.24020203319530409 927197.79279134318 40.913264176684372 46.615351447687154 -2.5845323770597708 2.6522241983965293
decision_type=2 2 2 2 2 2 2 2 2 2 2
left_child=1 2 3 -1 6 -4 -2 -6 -9 -3 -11
right_child=4 9 5 -5 7 -7 -8 8 -10 10 -12
leaf_value=-0.0021043325046384799 0.0025948886165097986 -0.0017507799386978148 0.00017858074919243868 0.002978781398705074 -0.00079886459687660482 0.0031713263910125807 0.0050226245002746583 0.0032952834063885261 0.00063692410103976724 -0.0020502169838658084 -0.004120788656175137
leaf_weight=256 58 13.499999999999998 138 33.5 27.5 66 61 24 30.5 11.999999999999998 62.5
leaf_count=154 14 9 62 9 14 16 8 5 11 8 42
internal_value=4.49647e-05 -0.000885595 -0.000389155 -0.00149694 0.0027336 0.00117264 0.00390299 0.000972985 0.0019002 -0.00359408 -0.00386064
internal_weight=782.5 581.5 493.5 289.5 201 204 119 82 54.5 88 74.5
internal_count=352 300 241 163 52 78 22 30 16 59 50
is_linear=0
shrinkage=0.02


Tree=48
num_leaves=13
num_cat=0
split_feature=2 0 19 2 22 2 27 2 31 34 19 27
split_gain=4.46737 3.69673 1.90238 3.03721 1.16772 1.19754 0.540891 0.405582 0.27127 0.22282 0.0613523 0.0598344
threshold=955571.09942961263 0.35460488704253579 3307.9253368134487 962258.08521709184 36.720591428187866 932650.20179399312 -0.30225135037544826 954490.04259240883 4.7666347385164327 3308.8693859697337 3307.5576184428196 -2.7947923223850455
decision_type=2 2 2 2 2 2 2 2 2 2 2 2
left_child=1 4 10 -4 6 -6 -1 8 -3 -5 11 -2
right_child=2 7 3 9 5 -7 -8 -9 -10 -11 -12 -13
leaf_value=-0.0026149117310841881 -0.0024870779304592698 -0.0028919744001749239 0.0031957695524102636 -0.0011114660413314899 0.0032124827792934696 0.00092151350573617592 0.00078214558928596729 0.001181334623584041 -0.00017931681623061497 -0.0037712012012799585 -0.0025760658205383354 -0.0050770253961284952
leaf_weight=28.5 11.999999999999998 96 47 21 208 170 47.5 11.999999999999998 19.5 58.5 16.5 70.5
leaf_count=19 8 64 13 14 47 67 19 4 12 39 11 48
internal_value=-3.04619e-05 0.000893906 -0.00241311 -0.000752228 0.0017408 0.00219514 -0.0004919 -0.00209136 -0.00245926 -0.00312691 -0.00447254 -0.00477525
internal_weight=807 581.5 225.5 126.5 454 378 76 127.5 115.5 79.5 99 82.5
internal_count=365 232 133 66 152 114 38 80 76 53 67 56
is_linear=0
shrinkage=0.02


Tree=49
num_leaves=11
num_cat=0
split_feature=2 0 11 32 2 21 19 2 2 0
split_gain=4.85993 4.27321 2.51383 1.18401 1.14213 1.01918 0.587617 0.532741 0.52279 0.271837
threshold=956115.24948820251 0.12053668025532312 25.410479855130422 3.5150943836404944 917650.38756081497 33.687435032483201 3307.6240951166669 962406.74596153933 954490.04259240883 0.51639395938746258
decision_type=2 2 2 2 2 2 2 2 2 2
left_child=1 4 3 -2 -1 -6 -4 -8 9 -3
right_child=2 8 6 -5 5 -7 7 -9 -10 -11
leaf_value=-0.002970336867101265 0.0034796320473825608 -0.00068827157887234075 -0.0048322835380926075 -0.0025931659867772117 1.0319685563445089e-05 0.0028226949337600256 -0.00028606499912631184 -0.0034860054284334184 0.0013527291302497569 -0.0027220057516824455
leaf_weight=14.999999999999998 35.5 42 78 18 62.5 337 34.5 58.5 18 94.5
leaf_count=9 8 24 53 11 28 89 19 39 7 63
internal_value=0.000136871 0.00112228 -0.00234268 0.00138508 0.00218061 0.00238938 -0.00352246 -0.00234348 -0.00169791 -0.00212502
internal_weight=793.5 569 224.5 53.5 414.5 399.5 171 93 154.5 136.5
internal_count=350 220 130 19 126 117 111 58 94 87
is_linear=0
shrinkage=0.02


Tree=50
num_leaves=13
num_cat=0
split_feature=28 22 8 2 2 2 20 8 2 2 23 15
split_gain=4.77284 1.63825 2.30726 1.34059 1.55795 0.853484 0.661184 0.640533 0.447602 0.434065 0.201134 0.125812
threshold=1.1447874678523158 77.691101486862976 33.894123670260512 956115.24948820251 940351.15984073735 934403.47357291461 3307.6240951166669 23.589544422066933 936645.66333282168 927197.79279134318 80.692176850361733 -1.1113881798914762
decision_type=2 2 2 2 2 2 2 2 2 2 2 2
left_child=1 3 11 4 -1 9 -5 10 -4 -2 -7 -3
right_child=5 2 8 6 -6 7 -8 -9 -10 -11 -12 -13
leaf_value=-0.0022555658453193637 0.0020987718377298522 0.0038849510011218849 0 -0.0049361319996542854 0.00072784706084774102 0.00072696691545946844 -0.0020784667922295838 -0.0013206917198877485 -0.0034902096954981488 0.0048112759475708016 0.0031745369425961673 0.0019496636711634123
leaf_weight=149 50 40.5 23 57.5 128.5 27.5 90 30 36 61 34 37.5
leaf_count=92 13 7 10 39 57 11 56 15 23 8 7 11
internal_value=-0.000143232 -0.00109438 0.000791125 -0.00170751 -0.000870403 0.00247533 -0.00324437 0.000991143 -0.00214271 0.00365148 0.00215521 0.00303402
internal_weight=764.5 562 137 425 277.5 202.5 147.5 91.5 59 111 61.5 78
internal_count=349 295 51 244 149 54 95 33 33 21 18 18
is_linear=0
shrinkage=0.02


Tree=51
num_leaves=12
num_cat=0
split_feature=27 24 2 22 2 31 33 26 30 2 2
split_gain=3.80187 1.81834 2.18633 1.40359 1.06208 0.517824 0.515742 0.501986 0.0764361 0.0751171 0.0871534
threshold=1.2215757164282623 81.538314384089091 962331.14875402476 77.691101486862976 950781.94788297673 2.9882073245042218 3270.4554004486208 26.764701091386446 -2.7721921574217263 956115.24948820251 948715.43764787063
decision_type=2 2 2 2 2 2 2 2 2 2 2
left_child=1 9 3 -3 5 -2 -6 -7 -4 10 -1
right_child=4 2 8 -5 6 7 -8 -9 -10 -11 -12
leaf_value=-0.0032840282803608314 0.0041844204277827826 -0.00050634925860949624 -0.001256873240073522 0.002050897269948455 0.0011626228481531142 0.00080283139356308517 -0.0035854161074667262 0.0035903381002083258 -0.0035289033137561893 -0.0044425825852614188 -0.0012413854109935272
leaf_weight=43.5 71 292.5 11.999999999999998 119.5 18.5 70.5 14.999999999999998 43 73 31 18
leaf_count=29 11 148 8 35 6 26 10 8 49 21 12
internal_value=-1.71989e-05 -0.000854402 -0.000366257 0.000235289 0.00222796 0.00282228 -0.000968769 0.00190934 -0.00325863 -0.00340822 -0.00276172
internal_weight=807.5 589.5 497 412 218 184.5 33.5 113.5 85 92.5 61.5
internal_count=363 302 240 183 61 45 16 34 57 62 41
is_linear=0
shrinkage=0.02


Tree=52
num_leaves=14
num_cat=0
split_feature=2 0 19 34 21 2 2 27 27 11 34 27 19
split_gain=4.03135 3.76005 2.01664 2.6044 1.06995 0.911742 0.541243 0.467543 0.341145 0.231684 0.194949 0.0292724 0.0735272
threshold=955571.09942961263 0.12053668025532312 3307.9253368134487 3308.0406062318607 33.687435032483201 917650.38756081497 954490.04259240883 -0.58437147125168998 -1.1870347416825597 25.384728979568937 3308.8693859697337 -2.7947923223850455 3294.8938094306673
decision_type=2 2 2 2 2 2 2 2 2 2 2 2 2
left_child=1 4 11 8 7 -6 9 -1 -4 -3 -5 -2 -13
right_child=2 6 3 10 5 -7 -8 -9 -10 -11 -12 12 -14
leaf_value=-0.0030379274752404956 -0.0023065789617874003 -0.0031588906459510332 0.0047462154176500107 -0.00099536731806066292 -0.0026380984783172605 0.0026530455169553593 0.0015529644122490515 0.00067952445232979605 0.0013735543250629346 -0.0013364021986380977 -0.0035101822319331473 -0.0053114887096665118 -0.0034218695837826959
leaf_weight=16.5 11.999999999999998 46.5 21 21 11.999999999999998 349 18 52 35 94.5 54 42.5 40.5
leaf_count=11 8 31 3 14 7 93 6 21 14 59 36 29 27
internal_value=0.000180714 0.00105477 -0.00207846 -0.000439897 0.00202773 0.00246146 -0.00155538 -0.000233259 0.00276391 -0.0019784 -0.0028655 -0.00427526 -0.00449023
internal_weight=814.5 588.5 226 131 429.5 361 159 68.5 56 141 75 95 83
internal_count=359 228 131 67 132 100 96 32 17 90 50 64 56
is_linear=0
shrinkage=0.02


Tree=53
num_leaves=10
num_cat=0
split_feature=2 22 2 2 31 30 11 32 31
split_gain=3.48693 3.09973 2.22975 3.12376 1.05645 0.0961992 0.0930112 0.0393143 0.0149752
threshold=962331.14875402476 26.604971865191136 930087.24185297696 940351.15984073735 3.4069765663147544 -2.7721921574217263 25.43287464736451 2.9410966576378894 2.4104096649602265
decision_type=2 2 2 2 2 2 2 2 2
left_child=1 6 4 -4 -3 -2 -1 -7 -8
right_child=5 2 3 -5 -6 7 8 -9 -10
leaf_value=-0.0036999376202240968 -0.0012168333784297661 0.0034955828789444195 -0.0032325662821309554 0.0011004366779376361 0.00037407371330261228 -0.002327993178119262 -0.00091781067848205572 -0.004007526579703994 -0.0023242608767955805
leaf_weight=37.5 11.999999999999998 166.5 82.5 318 61 22.5 11.999999999999998 64 41.5
leaf_count=25 8 33 55 122 25 15 8 43 28
internal_value=0.000108997 0.000596891 0.00110038 0.000194164 0.00267527 -0.00338792 -0.00281763 -0.00364051 -0.00207879
internal_weight=817.5 719 628 400.5 227.5 98.5 91 86.5 53.5
internal_count=362 296 235 177 58 66 61 58 36
is_linear=0
shrinkage=0.02


Tree=54
num_leaves=11
num_cat=0
split_feature=28 11 2 19 2 20 23 26 12 31
split_gain=3.66859 1.83639 2.15322 1.0656 1.03124 2.07917 0.421008 0.339217 0.268161 0.00811061
threshold=1.1447874678523158 26.897867124443611 958872.39080992306 3256.5909767650473 962514.86924537865 3308.05924738356 83.751441853124817 26.701755312415468 27.095717308643518 2.7034692687942097
decision_type=2 2 2 2 2 2 2 2 2 2
left_child=1 4 8 6 5 -1 7 -2 -3 -6
right_child=3 2 -4 -5 9 -7 -8 -9 -10 -11
leaf_value=-0.0015635433317683146 0.0012082117912464573 0.00091660069662427134 -0.0041590699897872084 -0.00096302781347185366 -0.0019806620390326888 0.0020898353920171136 0.0045732342152368455 0.0034626749983621302 0.0033300587620637189 -0.0037812912597738465
leaf_weight=339 65 30 21 30.5 11.999999999999998 74.5 51 53 71.5 56.5
leaf_count=191 22 12 14 15 8 27 7 9 16 38
internal_value=4.60771e-05 -0.000728094 0.00143861 0.00238975 -0.00128565 -0.000895323 0.00300972 0.0022683 0.00265988 -0.00354363
internal_weight=804 604.5 122.5 199.5 482 413.5 169 118 101.5 68.5
internal_count=359 306 42 53 264 218 38 31 28 46
is_linear=0
shrinkage=0.02


Tree=55
num_leaves=13
num_cat=0
split_feature=2 0 19 2 23 26 0 21 2 31 26 33
split_gain=3.54227 2.99009 1.70624 2.20492 0.914336 0.882595 0.773291 0.572898 0.329728 0.251913 0.127896 0.0658568
threshold=956115.24948820251 0.35460488704253579 3307.8080879886775 962292.19349260756 83.751441853124817 26.701755312415468 -0.70581670320594825 42.00265947813643 954490.04259240883 4.7666347385164327 25.306835625965871 3307.4624640036941
decision_type=2 2 2 2 2 2 2 2 2 2 2 2
left_child=1 4 11 7 5 -1 -6 -4 9 -3 -5 -2
right_child=2 8 3 10 6 -7 -8 -9 -10 -11 -12 -13
leaf_value=-0.00025138969709061914 -0.0050964045262336735 -0.0026112711653576708 0.003659663408994675 -0.00078950533381214852 0.0043637192601705121 0.002117445763824213 0.0015604442485497086 -0.0006593976227773561 0.0006590933120912976 0 -0.0034233252473175532 -0.0033160434401178934
leaf_weight=142.5 48.5 99 36.5 11.999999999999998 67 109 107.5 16.5 16.5 18 58.5 40
leaf_count=65 33 66 8 8 9 33 35 10 7 11 39 27
internal_value=-8.77548e-05 0.000744138 -0.00228242 -0.000726878 0.0015644 0.000773825 0.00267615 0.00229721 -0.00184681 -0.00222095 -0.00302858 -0.00438262
internal_weight=771.5 559.5 212 123.5 426 251.5 174.5 53 133.5 117 70.5 88.5
internal_count=351 226 125 65 142 98 44 18 84 77 47 60
is_linear=0
shrinkage=0.02


Tree=56
num_leaves=13
num_cat=0
split_feature=5 22 10 28 1 24 31 18 5 1 30 5
split_gain=3.47175 2.65562 1.69218 1.14068 0.803164 0.663378 0.605634 0.447577 0.435295 0.370114 0.185572 0.00891333
threshold=3198.6685711135592 38.938908690466725 79.874997409875235 1.4631169966749498 -0.61559370248597534 83.681756026436091 3.4069765663147544 2.770906617809286 3185.8979265071971 -0.29696027566504651 -1.9965917868311396 3177.7230672488504
decision_type=2 2 2 2 2 2 2 2 2 2 2 2
left_child=1 10 5 4 -4 7 9 -2 -8 -3 -1 -12
right_child=2 6 3 -5 -6 -7 8 -9 -10 -11 11 -13
leaf_value=-0.00031874488492806755 0.0033055784838895005 0.0014390452611889387 -0.00053333879193911949 0.0014295418600241345 -0.0025499193861895377 -0.0020518571077248987 -0.0015216668806014915 0.00033248785957694051 0.0021209127899114188 0.0039497414552625808 -0.0038904349520092921 -0.0019177361903367218
leaf_weight=13.499999999999998 46.5 35.5 118.5 43.5 260 18 18 38.5 37 120 19.500000000000004 11.999999999999998
leaf_count=9 11 12 63 14 160 10 9 16 12 17 13 8
internal_value=-7.89872e-05 0.00182393 -0.00101143 -0.00157373 -0.00192843 0.00126274 0.00276944 0.00201118 0.000884648 0.00340852 -0.00250258 -0.00332087
internal_weight=780.5 255.5 525 422 378.5 103 210.5 85 55 155.5 45 31.5
internal_count=354 80 274 237 223 37 50 27 21 29 30 21
is_linear=0
shrinkage=0.02


end of trees

feature_importances:
city_estimated_population=150
week_sin=37
city_area_weighted_pop_density_lag20=35
city_area_weighted_u_component_of_wind_10m_rollmean_lag1_w8=32
city_area_weighted_wind_speed_10m_rollmean_lag1_w4=32
week_cos=31
city_area_weighted_rainfall_rollmean_lag1_w8=31
city_pop_density=27
city_area_weighted_temp_c_lag12=27
city_area_weighted_u_component_of_wind_10m_rollmean_lag1_w4=25
city_area_weighted_pop_density_rollmean_lag1_w8=22
city_area_weighted_rh_rollmean_lag1_w4=17
city_area_weighted_v_component_of_wind_10m_rollmean_lag1_w8=17
city_area_weighted_rainfall_rollmean_lag1_w4=14
city_area_weighted_rh_rollmean_lag1_w8=12
city_area_weighted_rh_lag20=11
city_area_weighted_temp_c_rollmean_lag1_w8=11
city_area_weighted_wind_speed_10m_rollmean_lag1_w8=11
city_area_weighted_rh_lag19=10
city_area_weighted_v_component_of_wind_10m_lag8=9
city_area_weighted_rainfall_lag17=8
city_area_weighted_temp_c_rollmean_lag1_w4=8
city_area_weighted_temp_c_lag11=7
city_area_weighted_u_component_of_wind_10m_lag6=7
city_area_weighted_pop_density_lag19=7
city_area_weighted_v_component_of_wind_10m_lag6=5
city_area_weighted_v_component_of_wind_10m_rollmean_lag1_w4=5
city_area_weighted_rainfall_lag20=3
city_area_weighted_pop_density_rollmean_lag1_w4=3
city_area_weighted_wind_speed_10m_lag12=2
city_area_weighted_wind_speed_10m_lag11=2

parameters:
[boosting: gbdt]
[objective: regression]
[metric: rmse]
[tree_learner: serial]
[device_type: cpu]
[data_sample_strategy: bagging]
[data: ]
[valid: ]
[num_iterations: 57]
[learning_rate: 0.02]
[num_leaves: 31]
[num_threads: 0]
[seed: 0]
[deterministic: 0]
[force_col_wise: 1]
[force_row_wise: 0]
[histogram_pool_size: -1]
[max_depth: 4]
[min_data_in_leaf: 8]
[min_sum_hessian_in_leaf: 0.001]
[bagging_fraction: 0.9]
[pos_bagging_fraction: 1]
[neg_bagging_fraction: 1]
[bagging_freq: 1]
[bagging_seed: 3]
[bagging_by_query: 0]
[feature_fraction: 0.8]
[feature_fraction_bynode: 1]
[feature_fraction_seed: 2]
[extra_trees: 0]
[extra_seed: 6]
[early_stopping_round: 0]
[early_stopping_min_delta: 0]
[first_metric_only: 0]
[max_delta_step: 0]
[lambda_l1: 0.1]
[lambda_l2: 1.5]
[linear_lambda: 0]
[min_gain_to_split: 0]
[drop_rate: 0.1]
[max_drop: 50]
[skip_drop: 0.5]
[xgboost_dart_mode: 0]
[uniform_drop: 0]
[drop_seed: 4]
[top_rate: 0.2]
[other_rate: 0.1]
[min_data_per_group: 100]
[max_cat_threshold: 32]
[cat_l2: 10]
[cat_smooth: 10]
[max_cat_to_onehot: 4]
[top_k: 20]
[monotone_constraints: ]
[monotone_constraints_method: basic]
[monotone_penalty: 0]
[feature_contri: ]
[forcedsplits_filename: ]
[refit_decay_rate: 0.9]
[cegb_tradeoff: 1]
[cegb_penalty_split: 0]
[cegb_penalty_feature_lazy: ]
[cegb_penalty_feature_coupled: ]
[path_smooth: 0]
[interaction_constraints: ]
[verbosity: -1]
[saved_feature_importance_type: 0]
[use_quantized_grad: 0]
[num_grad_quant_bins: 4]
[quant_train_renew_leaf: 0]
[stochastic_rounding: 1]
[linear_tree: 0]
[max_bin: 255]
[max_bin_by_feature: ]
[min_data_in_bin: 3]
[bin_construct_sample_cnt: 200000]
[data_random_seed: 1]
[is_enable_sparse: 1]
[enable_bundle: 1]
[use_missing: 1]
[zero_as_missing: 0]
[feature_pre_filter: 1]
[pre_partition: 0]
[two_round: 0]
[header: 0]
[label_column: ]
[weight_column: ]
[group_column: ]
[ignore_column: ]
[categorical_feature: ]
[forcedbins_filename: ]
[precise_float_parser: 0]
[parser_config_file: ]
[objective_seed: 5]
[num_class: 1]
[is_unbalance: 0]
[scale_pos_weight: 1]
[sigmoid: 1]
[boost_from_average: 1]
[reg_sqrt: 0]
[alpha: 0.9]
[fair_c: 1]
[poisson_max_delta_step: 0.7]
[tweedie_variance_power: 1.5]
[lambdarank_truncation_level: 30]
[lambdarank_norm: 1]
[label_gain: ]
[lambdarank_position_bias_regularization: 0]
[eval_at: ]
[multi_error_top_k: 1]
[auc_mu_weights: ]
[num_machines: 1]
[local_listen_port: 12400]
[time_out: 120]
[machine_list_filename: ]
[machines: ]
[gpu_platform_id: -1]
[gpu_device_id: -1]
[gpu_use_dp: 0]
[num_gpu: 1]

end of parameters
