tree
version=v4
num_class=1
num_tree_per_iteration=1
label_index=0
max_feature_idx=56
objective=regression
feature_names=week_sin week_cos city_estimated_population city_area_m2 city_area_km2 city_pop_density n_barangays_reported city_area_weighted_rainfall_lag19 city_area_weighted_rainfall_lag20 city_area_weighted_rh_lag19 city_area_weighted_rh_lag20 city_area_weighted_temp_c_lag11 city_area_weighted_temp_c_lag10 city_area_weighted_u_component_of_wind_10m_lag4 city_area_weighted_u_component_of_wind_10m_lag5 city_area_weighted_v_component_of_wind_10m_lag5 city_area_weighted_v_component_of_wind_10m_lag7 city_area_weighted_wind_speed_10m_lag11 city_area_weighted_wind_speed_10m_lag10 city_area_weighted_pop_density_lag20 city_area_weighted_pop_density_lag19 city_area_weighted_rainfall_rollmean_lag1_w4 city_area_weighted_rainfall_rollmean_lag1_w8 city_area_weighted_rh_rollmean_lag1_w4 city_area_weighted_rh_rollmean_lag1_w8 city_area_weighted_temp_c_rollmean_lag1_w4 city_area_weighted_temp_c_rollmean_lag1_w8 city_area_weighted_u_component_of_wind_10m_rollmean_lag1_w4 city_area_weighted_u_component_of_wind_10m_rollmean_lag1_w8 city_area_weighted_v_component_of_wind_10m_rollmean_lag1_w4 city_area_weighted_v_component_of_wind_10m_rollmean_lag1_w8 city_area_weighted_wind_speed_10m_rollmean_lag1_w4 city_area_weighted_wind_speed_10m_rollmean_lag1_w8 city_area_weighted_pop_density_rollmean_lag1_w4 city_area_weighted_pop_density_rollmean_lag1_w8 city_area_weighted_flood_risk_index_rollmean_lag1_w4 city_area_weighted_flood_risk_index_rollmean_lag1_w8 city_area_weighted_percent_annual_crop_rollmean_lag1_w4 city_area_weighted_percent_annual_crop_rollmean_lag1_w8 city_area_weighted_percent_brush_shrubs_rollmean_lag1_w4 city_area_weighted_percent_brush_shrubs_rollmean_lag1_w8 city_area_weighted_percent_built_up_rollmean_lag1_w4 city_area_weighted_percent_built_up_rollmean_lag1_w8 city_area_weighted_percent_inland_water_rollmean_lag1_w4 city_area_weighted_percent_inland_water_rollmean_lag1_w8 city_area_weighted_percent_open_forest_rollmean_lag1_w4 city_area_weighted_percent_open_forest_rollmean_lag1_w8 city_area_weighted_percent_perennial_crop_rollmean_lag1_w4 city_area_weighted_percent_perennial_crop_rollmean_lag1_w8 city_area_weighted_percent_open_barren_rollmean_lag1_w4 city_area_weighted_percent_open_barren_rollmean_lag1_w8 city_area_weighted_percent_fishpond_rollmean_lag1_w4 city_area_weighted_percent_fishpond_rollmean_lag1_w8 city_area_weighted_percent_grassland_rollmean_lag1_w4 city_area_weighted_percent_grassland_rollmean_lag1_w8 city_area_weighted_percent_mangrove_forest_rollmean_lag1_w4 city_area_weighted_percent_mangrove_forest_rollmean_lag1_w8
feature_infos=[-1:1] [-1:1] [914211.7095180488:964143.50380609359] none none [3142.64637869529:3314.2893043627] none [0.0025243612881299211:403.77764092016611] [0.0025243612881299211:403.77764092016611] [74.166209495041301:88.154553662835738] [74.166209495041301:88.154553662835738] [24.337778836331829:27.857639391615468] [24.337778836331829:27.857639391615468] [-4.5717681780699149:4.4965446280041954] [-4.5717681780699149:4.4965446280041954] [-6.2680500182560719:5.1247667214851038] [-6.2680500182560719:5.1247667214851038] [1.39564484944224:6.8002328204854665] [1.39564484944224:6.8002328204854665] [3125.6331669833717:3314.2893043626991] [3126.4700955675198:3314.2893043626991] [0.066242600448727776:147.57175632940832] [0.48078482996758953:119.23124797939784] [76.04244385379063:86.610761977842287] [76.761170402338564:86.082735724126366] [24.635251946080103:27.639879393457701] [24.734571822108446:27.440794559836895] [-3.4486736035175789:3.6280013469861503] [-3.0815340340364679:3.131422920161175] [-4.48361272930451:3.4734894156434146] [-3.8559405516430854:3.0795858777581708] [1.7342058228275261:5.7925001460518359] [1.9506388693011207:5.3170040362056081] [3140.4885697881891:3314.1262969917143] [3138.7712235644044:3313.8757850504171] none none none none none none none none none none none none none none none none none none none none none none
tree_sizes=965 1033 1295 1265 1032 916 1220 1218 937 1409 935 1194 1394 1455 1310 1434 1318 1037 1332 1355 1321 1339 1236 1337 1051 1310 1345 1135 1031 1233 946 1020 1308 1312 1411 1039 1235

Tree=0
num_leaves=10
num_cat=0
split_feature=28 2 21 30 2 23 2 2 15
split_gain=25.1587 12.0035 9.24304 4.60612 4.04595 0.992124 0.679704 0.528091 0.116711
threshold=1.1447874678523158 962458.4493606576 26.277924771024299 1.0758094966536584 934255.99707606074 80.820469304780346 927062.88636565593 951130.05767330003 2.6011562761114284
decision_type=2 2 2 2 2 2 2 2 2
left_child=1 2 5 -4 6 -1 -2 8 -6
right_child=4 -3 3 -5 7 -7 -8 -9 -10
leaf_value=0.56719502591211635 0.58859093198454937 0.56419810844348195 0.5810510661060807 0.57189028508235307 0.58232990570971921 0.57321193617700883 0.59366516466315533 0.57877336910389787 0.58563924335520101
leaf_weight=59.5 56.5 68.5 331 57 24.5 49.5 69 23 29.5
leaf_count=40 13 46 135 36 9 31 9 11 8
internal_value=0.579127 0.575878 0.577517 0.579687 0.588176 0.569839 0.591489 0.582662 0.584259
internal_weight=768 565.5 497 388 202.5 109 125.5 77 54
internal_count=338 288 242 171 50 71 22 28 17
is_linear=0
shrinkage=1


Tree=1
num_leaves=10
num_cat=0
split_feature=2 28 2 31 0 1 30 10 24
split_gain=21.5582 15.9557 8.29496 5.78749 3.77952 3.24941 1.12896 0.968931 0.602807
threshold=962331.14875402476 -1.8637476499897796 932505.71217918617 2.6285208399501054 -0.82298386589365657 0.74851074817110097 -2.733545816705226 82.54586017104846 81.350089196678326
decision_type=2 2 2 2 2 2 2 2 2
left_child=1 5 4 -4 -3 8 -2 -7 -1
right_child=6 2 3 -5 -6 7 -8 -9 -10
leaf_value=-0.012000017615937693 -0.0044578960579017115 0.012957446107738895 -0.0053738440255994436 0.0039858122523895251 0.004515386081461248 0.0028397477830157561 -0.014405546241963404 -0.00507754400626142 -0.0069787736353093535
leaf_weight=47.5 13.499999999999998 113 80.5 218.5 86 33 83.5 22.5 55.5
leaf_count=32 9 18 49 79 32 13 56 14 36
internal_value=2.83955e-05 0.00198682 0.00462606 0.00145139 0.00935744 -0.00627318 -0.013096 -0.000376475 -0.00940194
internal_weight=753.5 656.5 498 299 199 158.5 97 55.5 103
internal_count=338 273 178 128 50 95 65 27 68
is_linear=0
shrinkage=0.03


Tree=2
num_leaves=13
num_cat=0
split_feature=2 28 20 2 10 22 2 2 2 22 12 2
split_gain=20.828 15.3791 7.35353 11.0156 4.01878 2.82764 2.61091 3.1447 1.71925 1.10552 0.885112 0.63039
threshold=955390.25315090048 -0.68539767582538247 3307.6240951166669 962362.10142236948 81.33254498657611 77.691101486862976 928697.85537539248 941141.56092325097 927062.88636565593 36.174415620290027 26.542079477990985 962514.86924537865
decision_type=2 2 2 2 2 2 2 2 2 2 2 2
left_child=1 4 -2 5 9 -4 8 -8 -3 -1 -6 -5
right_child=2 6 3 11 10 -7 7 -9 -10 -11 -12 -13
leaf_value=-0.0037174507459489313 -0.014671641673060025 0.0068357221733165692 -0.0014881519267664236 -0.005185612201833955 -0.0072504482700448958 0.01044132996703449 -0.0032853262625949487 0.0067946264329686304 0.013378575380031879 0.0043807327590625863 0.00037975700944662094 -0.013654423747107246
leaf_weight=19.5 84 78 33 11.999999999999998 114 37 34.5 130 77 57 14.999999999999998 52.5
leaf_count=12 57 24 19 8 74 7 20 37 11 20 7 35
internal_value=7.15438e-06 0.00324842 -0.00775326 -0.00334503 -0.00313971 0.00485455 0.00735887 0.00466445 0.0101606 0.0022758 -0.00635558 -0.012205
internal_weight=743.5 525 218.5 134.5 205.5 70 319.5 164.5 155 76.5 129 64.5
internal_count=331 205 126 69 113 26 92 57 35 32 81 43
is_linear=0
shrinkage=0.03


Tree=3
num_leaves=13
num_cat=0
split_feature=2 0 11 29 2 2 2 20 2 0 23 2
split_gain=19.4118 17.1558 6.87158 3.79762 3.16478 5.11493 2.22413 2.22117 3.22631 1.12443 0.582719 0.012623
threshold=955390.25315090048 0.12053668025532312 25.410479855130422 -0.940305277613942 932939.92576212331 940666.55437881628 925462.95317175926 3307.6240951166669 962458.4493606576 0.70581670320594825 81.719815649151968 937864.62728147861
decision_type=2 2 2 2 2 2 2 2 2 2 2 2
left_child=1 4 3 -2 6 -6 -1 -4 -9 10 -3 -11
right_child=2 9 7 -5 5 -7 -8 8 -10 11 -12 -13
leaf_value=0.0041189865570087896 -0.0049773269856677339 -0.0068840702319145197 -0.014185904101779065 0.012033547314730556 -0.0071528711474858793 0.005929682590239964 0.011110919445551731 -0.0015758209407034486 -0.012596778638739335 -0.0072396502617527447 -0.0012118219038686501 -0.0098482640827855759
leaf_weight=60 24.5 24 71 21 31.5 155.5 147 49.5 46.5 33 51 30
leaf_count=23 13 16 48 3 21 49 28 27 31 22 28 20
internal_value=0.000314079 0.00337737 -0.00732784 0.00293153 0.0065638 0.00369163 0.00912103 -0.0101328 -0.00700439 -0.00569108 -0.00311337 -0.00863975
internal_weight=744.5 532 212.5 45.5 394 187 207 167 96 138 75 63
internal_count=329 207 122 16 121 70 51 106 58 86 44 42
is_linear=0
shrinkage=0.03


Tree=4
num_leaves=10
num_cat=0
split_feature=2 28 2 0 2 1 10 2 24
split_gain=16.91 14.0248 6.01511 5.60803 4.28824 2.38661 0.713052 0.467268 0.407055
threshold=962331.14875402476 -1.8637476499897796 932505.71217918617 -0.46472317204376817 925859.66298623162 0.74851074817110097 82.266234990011483 962514.86924537865 81.350089196678326
decision_type=2 2 2 2 2 2 2 2 2
left_child=1 5 4 -4 -3 8 -7 -2 -1
right_child=7 2 3 -5 -6 6 -8 -9 -10
leaf_value=-0.010734399341453205 -0.0061477157094772779 0.0017104179779536851 -0.0034016911044844802 0.0048454186555259579 0.011256458926247433 0.0021746801292618456 -0.0044983882917357344 -0.013168032550066711 -0.0066069249274378463
leaf_weight=54 13.499999999999998 64.5 130 170 127 28.5 27 79 54
leaf_count=36 9 28 71 58 22 12 17 53 35
internal_value=-0.000299071 0.0014005 0.00393361 0.00126726 0.00807459 -0.00618282 -0.00106729 -0.0122362 -0.00876397
internal_weight=747.5 655 491.5 300 191.5 163.5 55.5 92.5 108
internal_count=341 279 179 129 50 100 29 62 71
is_linear=0
shrinkage=0.03


Tree=5
num_leaves=9
num_cat=0
split_feature=2 27 22 1 25 2 0 0
split_gain=17.4271 11.9699 7.55908 4.97192 3.0939 2.29201 1.17145 0.70836
threshold=962458.4493606576 1.0875024565451603 77.691101486862976 0.91023613416931248 25.666780200388484 933815.06475229829 -0.61559370248597534 -0.95297903005573326
decision_type=2 2 2 2 2 2 2 2
left_child=1 2 3 -1 -4 7 -7 -3
right_child=-2 5 4 -5 -6 6 -8 -9
leaf_value=-0.0046997706540588147 -0.012550300055675293 0.013181777265764052 -0.0048407501938139523 0.0039374885651469226 0.0080351986773312088 0.0011571761402115225 0.0084143285853522168 0.0076022546942843949
leaf_weight=298.5 88 61 19.5 74 95 49 34 42
leaf_count=174 59 8 12 27 23 22 7 11
internal_value=-7.1621e-05 0.00157404 -0.000898824 -0.00297395 0.00580644 0.00802688 0.00421262 0.011016
internal_weight=761 673 487 372.5 114.5 186 83 103
internal_count=343 284 236 201 35 48 29 19
is_linear=0
shrinkage=0.03


Tree=6
num_leaves=12
num_cat=0
split_feature=2 0 19 2 10 2 22 10 10 0 2
split_gain=17.722 15.3128 5.70487 7.23568 2.96029 2.18279 1.40484 1.31527 0.907532 0.387212 0.352701
threshold=955390.25315090048 0.12053668025532312 3307.6240951166669 962362.10142236948 83.540517741617904 929112.09607254609 82.13429884970428 85.733694135766441 81.285285007288394 0.8542199457734333 962514.86924537865
decision_type=2 2 2 2 2 2 2 2 2 2 2
left_child=1 4 -2 6 5 -1 -4 -6 -3 -10 -5
right_child=2 8 3 10 7 -7 -8 -9 9 -11 -12
leaf_value=0.0094403103296139112 -0.01356713965044746 -0.00067015469266522309 -0.00060858439795777818 -0.0051085236126986837 -0.004130984772215871 0.0045923345039000927 0.007996300361373207 0.0064055121175704468 -0.0049963496520336881 -0.0089208246496286277 -0.011773630535248483
leaf_weight=178.5 78 30 34.5 11.999999999999998 33 166.5 32 14.499999999999998 66 43.5 49.5
leaf_count=38 53 15 19 8 20 59 7 4 43 29 33
internal_value=0.000232837 0.00312772 -0.00721502 -0.00325741 0.00616031 0.00712501 0.00356701 -0.000817898 -0.00537727 -0.00663558 -0.0105997
internal_weight=738 532 206 128 392.5 345 66.5 47.5 139.5 109.5 61.5
internal_count=328 208 120 67 121 97 26 24 87 72 41
is_linear=0
shrinkage=0.03


Tree=7
num_leaves=12
num_cat=0
split_feature=2 0 20 2 2 22 2 22 2 2 0
split_gain=15.2351 10.9137 5.15547 8.06089 2.59567 3.80823 3.73299 1.82371 0.909652 0.414623 0.313294
threshold=955390.25315090048 0.29696027566504674 3307.707630040341 962362.10142236948 929528.54266158096 38.677316482553017 940666.55437881628 77.691101486862976 954310.80352893798 962514.86924537865 0.61559370248597556
decision_type=2 2 2 2 2 2 2 2 2 2 2
left_child=1 4 -2 7 5 -1 -6 -4 10 -5 -3
right_child=2 8 3 9 6 -7 -8 -9 -10 -11 -12
leaf_value=-0.0047102826190430951 -0.012676118202334228 -0.0035872738617902192 -0.0010777071972768151 -0.0049373914419577041 -0.00505737015169658 0.009061780598585133 0.0048505268286460554 0.0088656341383854531 0.002127022862434387 -0.011604952591115778 -0.0074803981825913458
leaf_weight=19.5 85 31.5 30 13.499999999999998 43.5 165.5 147 35 11.999999999999998 54 72
leaf_count=13 57 20 17 9 27 37 51 7 4 36 48
internal_value=-0.000350543 0.0025753 -0.00694397 -0.00318809 0.00505591 0.00758455 0.00256567 0.00430688 -0.00545068 -0.0103849 -0.00635555
internal_weight=708.5 491 217.5 132.5 375.5 185 190.5 65 115.5 67.5 103.5
internal_count=326 200 126 69 128 50 78 24 72 45 68
is_linear=0
shrinkage=0.03


Tree=8
num_leaves=9
num_cat=0
split_feature=28 2 28 26 1 2 12 27
split_gain=15.5064 7.8845 6.99856 5.1763 2.04583 1.84582 0.159003 0.0504229
threshold=1.4418998010059079 962458.4493606576 -1.8637476499897796 26.193278513411688 0.74851074817110097 941618.86850076995 26.974796184346001 1.6126525561887488
decision_type=2 2 2 2 2 2 2 2
left_child=1 2 4 -4 -1 7 -7 -2
right_child=5 -3 3 -5 -6 6 -8 -9
leaf_value=-0.0079671589339753868 0.012411660986451002 -0.011260524872187021 0.0074862782759452934 -0.00064948181359212535 -0.0012832631845472019 0.0014185792930582735 0.0053090162716805936 0.0096529723167419427
leaf_weight=113.5 44.5 73 99.5 233.5 66 22.5 19 59
leaf_count=76 7 49 24 111 35 10 6 10
internal_value=7.10816e-05 -0.00210474 -0.000778288 0.00179212 -0.00553861 0.00882141 0.00331805 0.0109609
internal_weight=730.5 585.5 512.5 333 179.5 145 41.5 103.5
internal_count=328 295 246 135 111 33 16 17
is_linear=0
shrinkage=0.03


Tree=9
num_leaves=14
num_cat=0
split_feature=2 0 19 2 2 2 0 22 9 2 26 0 19
split_gain=15.2349 14.1097 3.76849 4.71659 2.29586 4.35269 2.31991 1.32361 0.95309 0.391893 0.200581 0.1472 0.00661311
threshold=955390.25315090048 0.12053668025532312 3307.707630040341 962362.10142236948 932939.92576212331 940666.55437881628 -0.82298386589365657 83.282063134532152 81.834827129397354 962514.86924537865 25.931773042544581 0.40966402954315223 3307.5037239684061
decision_type=2 2 2 2 2 2 2 2 2 2 2 2 2
left_child=1 4 12 7 6 -6 -1 -4 10 -5 -3 -10 -2
right_child=2 8 3 9 5 -7 -8 -9 11 -11 -12 -13 -14
leaf_value=0.010687736194218155 -0.012816099332179873 0.00058469617557018361 -0.0013951332217396852 -0.0041676643307392413 -0.0063626441145446938 0.0052942115324109496 0.0043417651228317353 0.0074629982972145075 -0.0037087355822324752 -0.010981496448265878 -0.004033001164404245 -0.0074027718764277141 -0.0086089258514917815
leaf_weight=112 63 22.5 37.5 11.999999999999998 34.5 152.5 102 24 16.5 46.5 11.999999999999998 88.5 11.999999999999998
leaf_count=17 43 10 22 8 23 49 35 5 11 31 8 59 8
internal_value=0.000126245 0.00272219 -0.0070387 -0.00367304 0.00558011 0.00311323 0.00770426 0.0021018 -0.00546363 -0.00970253 -0.00104757 -0.0068769 -0.0122848
internal_weight=735.5 540.5 195 120 401 187 214 61.5 139.5 58.5 34.5 105 75
internal_count=329 212 117 66 124 72 52 27 88 39 18 70 51
is_linear=0
shrinkage=0.03


Tree=10
num_leaves=9
num_cat=0
split_feature=28 2 28 26 2 24 0 21
split_gain=14.4595 8.81545 5.71092 5.12662 1.55103 1.42079 0.875054 0.228381
threshold=1.4418998010059079 962458.4493606576 -1.8637476499897796 26.236157466352513 942098.48089571309 82.008383758955361 -0.91023613416931226 45.391772173755335
decision_type=2 2 2 2 2 2 2 2
left_child=1 2 5 -4 6 -1 -2 -6
right_child=4 -3 3 -5 7 -7 -8 -9
leaf_value=-0.009249102665568297 0.011244663121325247 -0.010931724092295004 0.0064140106114580877 -0.0010849045033146248 0.00063613726774399922 -0.0032031420620264985 0.005262577580852093 0.0049181156004017047
leaf_weight=52 88 85 126 230.5 21 112.5 34.5 26.5
leaf_count=35 12 57 33 114 10 66 10 8
internal_value=0.000136906 -0.00203206 -0.000559071 0.00157182 0.00784409 -0.00516773 0.00962831 0.00310811
internal_weight=776 606 521 356.5 170 164.5 122.5 47.5
internal_count=345 305 248 147 40 101 22 18
is_linear=0
shrinkage=0.03


Tree=11
num_leaves=12
num_cat=0
split_feature=2 0 19 34 2 2 0 21 2 21 22
split_gain=14.5335 9.9771 3.48949 4.2892 2.4244 3.88242 1.75553 1.0331 0.949604 0.424528 0.0374175
threshold=955390.25315090048 0.12053668025532312 3307.707630040341 3308.6620506675818 932939.92576212331 940666.55437881628 -0.82298386589365657 41.853789696668301 954310.80352893798 10.130836531954687 62.892617038428945
decision_type=2 2 2 2 2 2 2 2 2 2 2
left_child=1 4 -2 7 6 -6 -1 -4 9 -3 -5
right_child=2 8 3 10 5 -7 -8 -9 -10 -11 -12
leaf_value=0.010013827502727508 -0.011790886471165886 -0.007690044134541562 0.0052079506171601158 -0.010936079402123726 -0.0061197966121741242 0.0047361512031756188 0.0042730633696897863 -0.0023036370007020815 0.0023869663048535585 -0.0037854864870327225 -0.0076640100602833727
leaf_weight=107 78 46.5 34 30 36 148 93 30 14.999999999999998 67.5 25.5
leaf_count=17 53 31 11 20 24 49 31 18 5 43 17
internal_value=1.23608e-05 0.00267709 -0.00688025 -0.00359128 0.00510108 0.00258245 0.00738637 0.00168255 -0.0045107 -0.0054442 -0.0096215
internal_weight=710.5 513 197.5 119.5 384 184 200 64 129 114 55.5
internal_count=319 200 119 66 121 73 48 29 79 74 37
is_linear=0
shrinkage=0.03


Tree=12
num_leaves=14
num_cat=0
split_feature=2 28 12 30 10 22 19 2 1 10 9 2 31
split_gain=11.7905 8.84635 5.07522 2.83537 2.75843 1.80742 1.44758 1.6929 1.41713 0.591312 0.527076 0.104362 0.0507591
threshold=955390.25315090048 -1.8637476499897796 25.395006314376012 -1.4114761051857927 84.064272792489319 27.971273471054484 3307.6240951166669 962458.4493606576 0.74851074817110097 82.266234990011483 83.205636824406312 937864.62728147861 4.2076082855742643
decision_type=2 2 2 2 2 2 2 2 2 2 2 2 2
left_child=1 8 3 -2 5 -3 12 -8 11 -10 -6 -1 -4
right_child=2 4 6 -5 10 -7 7 -9 9 -11 -12 -13 -14
leaf_value=-0.0053568942060543074 -0.0039416134165866038 -0.0042305690932662402 -0.012040829967644254 0.0099557049894332863 0.0014763199921165192 0.0061263222047371483 -0.0013141119845451847 -0.0093697480913436052 0.0018224045577603328 -0.0045692742626841478 -0.0048739206367084441 -0.0083173081093543284 -0.0076210159166501127
leaf_weight=36 27 14.999999999999998 58 24 20 352.5 45.5 49.5 34.5 19.5 25.5 36 11.999999999999998
leaf_count=24 14 10 39 4 9 98 25 33 14 13 17 24 8
internal_value=0.000329572 0.00270442 -0.00557481 0.00263514 0.00482683 0.00568919 -0.00812205 -0.00558103 -0.00422378 -0.000499541 -0.00207863 -0.00695131 -0.0114223
internal_weight=755 539 216 51 413 367.5 165 95 126 54 45.5 72 70
internal_count=332 209 123 18 134 108 105 58 75 27 26 48 47
is_linear=0
shrinkage=0.03


Tree=13
num_leaves=14
num_cat=0
split_feature=2 0 19 2 10 22 2 10 2 0 2 30 19
split_gain=13.2475 10.9824 4.99039 6.68068 2.5084 1.7189 1.43249 1.35802 0.580164 0.40254 0.322951 0.0249743 0.0252544
threshold=955390.25315090048 0.12053668025532312 3307.707630040341 962362.10142236948 83.540517741617904 77.691101486862976 929112.09607254609 85.854119177777065 949057.22539875016 0.29696027566504674 962514.86924537865 -2.5937361346899155 3307.5037239684061
decision_type=2 2 2 2 2 2 2 2 2 2 2 2 2
left_child=1 4 11 5 6 -4 -1 -6 9 -3 -5 -2 -13
right_child=2 8 3 10 7 -7 -8 -9 -10 -11 -12 12 -14
leaf_value=0.0075984859075348236 -0.0075696980884441961 -0.00056299969997128537 -0.00063608350720558609 -0.0037205468966410708 -0.0044391858895888201 0.0084596569851825114 0.0037887422606286726 0.0061288256741339163 0.0011175455084213844 -0.0062293984704066144 -0.0097980751570533285 -0.012061070084571838 -0.0081061081064158474
leaf_weight=189 11.999999999999998 13.499999999999998 36 11.999999999999998 36 37 178.5 14.499999999999998 11.999999999999998 106.5 58.5 71 13.499999999999998
leaf_count=42 8 8 20 8 22 7 63 4 5 71 39 48 9
internal_value=-3.92157e-05 0.00252494 -0.00590773 -0.00231779 0.00490701 0.00400584 0.00576741 -0.00131559 -0.00498719 -0.00561425 -0.00885109 -0.0111522 -0.011549
internal_weight=790 550 240 143.5 418 73 367.5 50.5 132 120 70.5 96.5 84.5
internal_count=354 215 139 74 131 27 105 26 84 79 47 65 57
is_linear=0
shrinkage=0.03


Tree=14
num_leaves=13
num_cat=0
split_feature=2 0 11 29 2 2 19 2 1 10 11 29
split_gain=12.2633 9.72704 4.81085 2.13287 1.73687 1.76482 1.07424 1.37137 1.06803 0.202334 0.145637 0.0252684
threshold=955390.25315090048 0.12053668025532312 25.410479855130422 -0.940305277613942 916623.09084794379 932939.92576212331 3307.6240951166669 962458.4493606576 0.74851074817110097 81.285285007288394 25.384728979568937 -2.6305705531875749
decision_type=2 2 2 2 2 2 2 2 2 2 2 2
left_child=1 4 3 -2 -1 -6 11 -8 10 -10 -3 -4
right_child=2 8 6 -5 5 -7 7 -9 9 -11 -12 -13
leaf_value=-0.0073973276674747469 -0.0033674698207113475 -0.0075597758638055136 -0.0073950010354702292 0.0089882728990088121 0.0073717170669598151 0.0031933294029863201 -0.0020250622989690823 -0.009335747781366404 0.0015556534611164254 -0.0025987415654878864 -0.0047505333773275411 -0.011366678846416189
leaf_weight=8.9999999999999982 26 43.5 11.999999999999998 22.5 187 185 45 49.5 22.5 18 49.5 66
leaf_count=6 14 29 8 4 43 67 26 33 9 11 33 45
internal_value=7.781e-06 0.00254847 -0.00588517 0.00240006 0.00498919 0.00531191 -0.00822369 -0.00592783 -0.0043913 -0.000272729 -0.00614694 -0.010876
internal_weight=735.5 514.5 221 48.5 381 372 172.5 94.5 133.5 40.5 93 78
internal_count=328 198 130 18 116 110 112 59 82 20 62 53
is_linear=0
shrinkage=0.03


Tree=15
num_leaves=14
num_cat=0
split_feature=2 0 19 2 2 2 0 22 2 31 34 19 31
split_gain=11.3924 10.4644 3.76135 5.0582 1.87614 3.54689 2.01343 0.844205 0.28203 0.150766 0.104343 0.0550235 0.0518043
threshold=955390.25315090048 0.29696027566504674 3307.8080879886775 962362.10142236948 932505.71217918617 940666.55437881628 -0.82298386589365657 77.691101486862976 948544.93737960549 4.4939633184400369 3309.0927249454858 3307.5576184428196 4.2076082855742643
decision_type=2 2 2 2 2 2 2 2 2 2 2 2 2
left_child=1 4 11 7 6 -6 -1 -4 9 -3 -5 12 -2
right_child=2 8 3 10 5 -7 -8 -9 -10 -11 -12 -13 -14
leaf_value=0.0091460409495304901 -0.011242312057327676 -0.0063731388041156928 0.00013952434504261384 -0.0048824328000728907 -0.0056158003371644324 0.0045277560859433947 0.0034712951395379074 0.0070600792332129051 -0.00075629971806819626 -0.0029171515253225439 -0.0091791940061669592 -0.0068302360320913382 -0.007042020953618563
leaf_weight=126 64.5 87 31.5 11.999999999999998 37.5 158.5 106.5 32 11.999999999999998 18 46.5 13.499999999999998 11.999999999999998
leaf_count=20 44 58 17 8 25 51 38 7 6 12 31 9 8
internal_value=0.000287625 0.00258296 -0.00559588 -0.00211761 0.00475479 0.00256076 0.00657906 0.00370569 -0.00533131 -0.00582794 -0.00841989 -0.0102193 -0.0107022
internal_weight=757.5 545.5 212 122 428.5 196 232.5 63.5 117 105 58.5 90 76.5
internal_count=334 210 124 63 134 76 58 24 76 70 39 61 52
is_linear=0
shrinkage=0.03


Tree=16
num_leaves=13
num_cat=0
split_feature=2 0 11 17 22 2 19 2 1 10 16 29
split_gain=9.23175 8.66428 4.32761 2.22889 1.6347 1.28063 0.947103 1.25431 0.842874 0.263874 0.192439 0.0231545
threshold=955390.25315090048 0.12053668025532312 25.410479855130422 4.6036148437686295 30.769374214769677 932939.92576212331 3307.6240951166669 962514.86924537865 0.74851074817110097 81.285285007288394 -1.1936314476195076 -2.425440617584576
decision_type=2 2 2 2 2 2 2 2 2 2 2 2
left_child=1 4 3 -2 -1 -6 11 -8 10 -10 -3 -4
right_child=2 8 6 -5 5 -7 7 -9 9 -11 -12 -13
leaf_value=-0.0041177052746673949 0.0057962379564599287 -0.0062687574901563277 -0.0068927910926823432 -0.0073998698350042106 0.0066439276412860807 0.0030478058481442456 -0.001824169036863666 -0.0088546546396456264 0.0014970831186213393 -0.0029828696338895788 -0.0018214670385305696 -0.010666472481518256
leaf_weight=18 40 84 11.999999999999998 14.999999999999998 190 177 46.5 46.5 22.5 22.5 11.999999999999998 60.5
leaf_count=12 10 56 8 10 44 63 27 31 9 14 8 41
internal_value=0 0.00216096 -0.00513811 0.00210264 0.00449032 0.00492663 -0.00755158 -0.00541217 -0.00417563 -0.000726434 -0.00575282 -0.0101645
internal_weight=746.5 526 220.5 55 385 367 165.5 93 141 45 96 72.5
internal_count=333 206 127 20 119 107 107 58 87 23 64 49
is_linear=0
shrinkage=0.03


Tree=17
num_leaves=10
num_cat=0
split_feature=28 5 21 30 5 5 25 1 5
split_gain=10.0066 5.00385 4.11275 2.26211 1.84785 0.504892 0.502848 0.413122 0.249107
threshold=1.1447874678523158 3308.496849293791 25.729179555116666 1.0758094966536584 3211.5495737122528 3186.8229123817778 26.784558032526352 -0.29696027566504651 3286.0673594337982
decision_type=2 2 2 2 2 2 2 2 2
left_child=1 2 8 -4 5 -2 7 -6 -1
right_child=4 -3 3 -5 6 -7 -8 -9 -10
leaf_value=-0.0053474641714407042 0.0057860699127029094 -0.0088038111671805384 0.0015189101779673551 -0.0049241345061087289 0.0054387784119074543 0.0099725808211735302 -0.0025777963871369135 0.00030707984812119429 -0.0096706262826919548
leaf_weight=79.5 55 79 348.5 56 35 69 14.999999999999998 24.5 17.5
leaf_count=51 13 53 145 34 9 9 8 11 12
internal_value=0.000153184 -0.00183405 -0.000717799 0.000613276 0.00595229 0.0081888 0.00215075 0.00339052 -0.00623344
internal_weight=779 580.5 501.5 404.5 198.5 124 74.5 59.5 97
internal_count=345 295 242 179 50 22 28 20 63
is_linear=0
shrinkage=0.03


Tree=18
num_leaves=13
num_cat=0
split_feature=2 0 19 2 0 11 2 22 2 31 2 19
split_gain=11.4754 8.79571 2.81821 3.041 1.61799 1.3849 1.25894 0.92683 0.707016 0.397508 0.141706 0.00576523
threshold=955933.59743728128 0.29696027566504674 3307.707630040341 962362.10142236948 -0.91023613416931226 26.897867124443611 934255.99707606074 82.13429884970428 949057.22539875016 4.4939633184400369 962514.86924537865 3307.5037239684061
decision_type=2 2 2 2 2 2 2 2 2 2 2 2
left_child=1 4 11 7 6 -6 -1 -4 9 -3 -5 -2
right_child=2 8 3 10 5 -7 -8 -9 -10 -11 -12 -13
leaf_value=0.0091657047709251972 -0.010618976177090275 -0.0062043025381016458 -0.0014640352894766972 -0.0038074828959428347 0.0013474612288109074 0.0053487702850802017 0.0025770937194929846 0.0059738999812730727 0.0015322215543128548 -0.0017698778213476234 -0.0082583475036196174 -0.0070645234493108902
leaf_weight=93 67.5 87 31.5 11.999999999999998 163.5 151.5 38.5 27 14.999999999999998 25.5 49.5 11.999999999999998
leaf_count=13 46 58 19 8 67 43 15 6 6 16 33 8
internal_value=0.000339906 0.00249626 -0.00583838 -0.00287897 0.00448093 0.00328748 0.00728205 0.00198635 -0.00442307 -0.00523683 -0.0074887 -0.0101955
internal_weight=773.5 574 199.5 120 446.5 315 131.5 58.5 127.5 112.5 61.5 79.5
internal_count=338 218 120 66 138 110 28 25 80 74 41 54
is_linear=0
shrinkage=0.03


Tree=19
num_leaves=14
num_cat=0
split_feature=2 0 11 32 9 2 20 2 0 17 23 2 1
split_gain=7.22693 6.65833 4.3559 2.23025 1.92051 1.1967 0.842088 0.982865 0.814508 0.779973 0.380321 0.111418 0.0269236
threshold=955390.25315090048 0.06026834012766185 25.410479855130422 3.5935562198909961 83.331839601423866 925859.66298623162 3307.6240951166669 962514.86924537865 0.70581670320594825 2.9098768708869707 82.032464716651745 930791.15074747603 0.5163939593874618
decision_type=2 2 2 2 2 2 2 2 2 2 2 2 2
left_child=1 4 3 -2 5 -1 12 -8 10 -6 -3 -10 -4
right_child=2 8 6 -5 9 -7 7 -9 11 -11 -12 -13 -14
leaf_value=0 0.0069731516172624602 -0.0040718966288081672 -0.010632535659033675 -0.0056981139543809392 -0.0054945745549418706 0.005811523795637789 -0.0015378527770559473 -0.008047610577681788 -0.0033204011239293145 0.0019573573005401482 6.3742085909623586e-05 -0.0065305003414348672 -0.0077998953649743661
leaf_weight=36.5 35.5 28.5 42.5 18 21 264 40.5 45 19.5 28.5 60 48 29.5
leaf_count=15 8 18 29 11 13 70 23 30 13 11 32 32 20
internal_value=-2.91279e-05 0.00191371 -0.00468239 0.00265607 0.00420954 0.00511007 -0.00718563 -0.00503481 -0.00322163 -0.00122057 -0.00128193 -0.00568705 -0.00961523
internal_weight=717 506 211 53.5 350 300.5 157.5 85.5 156 49.5 88.5 67.5 72
internal_count=325 204 121 19 109 85 102 53 95 24 50 45 49
is_linear=0
shrinkage=0.03


Tree=20
num_leaves=13
num_cat=0
split_feature=2 22 2 28 0 1 0 21 21 21 26 11
split_gain=7.91141 5.40933 4.21724 2.75893 3.55416 0.983587 0.980517 0.498623 0.322941 0.0637636 0.0481311 0.0200372
threshold=929947.19843037985 38.677316482553017 962458.4493606576 -1.8637476499897796 -0.46472317204376817 0.74851074817110097 -0.82298386589365657 61.108570614977531 50.963512272040241 77.152235375408608 26.114766787584848 25.927299453048537
decision_type=2 2 2 2 2 2 2 2 2 2 2 2
left_child=1 10 3 5 -5 -2 8 -8 -3 -4 -1 -12
right_child=2 6 9 4 -6 -7 7 -9 -10 -11 11 -13
leaf_value=-0.0029723157855332826 -0.0062666264629151142 0.0059509592077766462 -0.0089742516045059461 -0.0025636873572401826 0.0039199715270453192 -0.00080782504583659914 0.00010169346570968627 0.0052306872134025269 0.0094592359434617183 -0.0062169567983029247 -0.0071153018844538705 -0.0042134343930653167
leaf_weight=14.999999999999998 86.5 51 55 146.5 156 46.5 24 64 75 28.5 13.500000000000002 16.5
leaf_count=10 58 10 37 77 53 24 10 18 10 19 9 11
internal_value=0.000134861 0.00440933 -0.00199975 -0.000803917 0.000776908 -0.00438956 0.00639716 0.00386558 0.00810907 -0.0081356 -0.00494487 -0.00575506
internal_weight=778 259 519 435.5 302.5 133 214 88 126 83.5 45 30
internal_count=346 78 268 212 130 82 48 28 20 56 30 20
is_linear=0
shrinkage=0.03


Tree=21
num_leaves=13
num_cat=0
split_feature=2 28 20 2 22 2 9 2 28 17 2 34
split_gain=8.10977 4.71181 2.4289 3.26993 1.23419 1.38407 0.951449 0.79561 0.587191 0.30907 0.207408 0.178907
threshold=955933.59743728128 -1.693374537598815 3307.707630040341 962362.10142236948 36.174415620290027 932505.71217918617 81.834827129397354 939723.42934720404 -0.42695160685911987 3.2468920313162246 930791.15074747603 3309.0927249454858
decision_type=2 2 2 2 2 2 2 2 2 2 2 2
left_child=1 6 -2 8 7 -6 9 -3 -4 -1 -8 -5
right_child=2 4 3 11 5 -7 10 -9 -10 -11 -12 -13
leaf_value=0.0027308658350188777 -0.0096145703569535286 -0.0061355938799679283 0.0039182972097083144 -0.0035578320398926733 0.0060257051584419906 0.0020023131860906016 -0.0025671372588824582 0.0014247489700174852 -0.0032673227388698317 -0.0019092940085660667 -0.0056246069065714601 -0.007835899036471583
leaf_weight=25.5 76.5 14.999999999999998 46.5 14.999999999999998 165.5 148.5 36 56.5 11.999999999999998 24 64.5 58.5
leaf_count=9 52 10 16 10 37 58 23 25 8 14 43 39
internal_value=-0.000375876 0.00157711 -0.00538256 -0.00286479 0.00333216 0.00414008 -0.00291563 -0.000203399 0.00238897 0.000458131 -0.00458025 -0.00704243
internal_weight=744 535.5 208.5 132 385.5 314 150 71.5 58.5 49.5 100.5 73.5
internal_count=344 219 125 73 130 95 89 35 24 23 66 49
is_linear=0
shrinkage=0.03


Tree=22
num_leaves=12
num_cat=0
split_feature=2 0 19 2 2 2 22 1 2 31 31
split_gain=6.82437 6.01976 3.37336 4.25072 1.3872 1.15963 0.94591 0.324542 0.231137 0.099731 0.0458079
threshold=955390.25315090048 0.35460488704253579 3307.8080879886775 962331.14875402476 916623.09084794379 932505.71217918617 77.691101486862976 0.74851074817110097 962458.4493606576 2.4277513780904942 2.9240682443429526
decision_type=2 2 2 2 2 2 2 2 2 2 2
left_child=1 4 10 6 -1 -6 -4 9 -5 -3 -2
right_child=2 7 3 8 5 -7 -8 -9 -10 -11 -12
leaf_value=-0.0074023125976324083 -0.010454456818305839 -0.0022015765230171381 -0.00016262111115840174 -0.0025918930299006974 0.0056107220401005577 0.0023665030347533407 0.0067945327369905092 -0.00071140437620751393 -0.0077251008737545743 -0.005294555384901505 -0.0077799762903201959
leaf_weight=8.9999999999999982 28.5 14.999999999999998 30 11.999999999999998 192.5 213.5 40 22.5 51 78 61
leaf_count=6 19 10 17 8 48 82 8 12 34 52 41
internal_value=0.000113956 0.00196529 -0.00428246 -0.00121914 0.00365208 0.0039184 0.00383147 -0.00406192 -0.00682656 -0.00484037 -0.00875431
internal_weight=753 530.5 222.5 133 415 406 70 115.5 63 93 89.5
internal_count=337 210 127 67 136 130 25 74 42 62 60
is_linear=0
shrinkage=0.03


Tree=23
num_leaves=13
num_cat=0
split_feature=5 0 20 5 5 5 5 22 5 31 5 1
split_gain=6.35392 6.11555 2.84895 3.78921 1.34935 3.37536 1.92431 0.935483 0.228595 0.179339 0.14796 0.0296468
threshold=3284.1995875203543 0.35460488704253579 3307.707630040341 3308.1656486580919 3205.5328858536527 3233.5861703595915 3181.3230656771184 77.691101486862976 3260.6684878902402 4.4939633184400369 3308.8346008304748 -0.060268340127661524
decision_type=2 2 2 2 2 2 2 2 2 2 2 2
left_child=1 4 11 7 6 -6 -1 -4 9 -3 -5 -2
right_child=2 8 3 10 5 -7 -8 -9 -10 -11 -12 -13
leaf_value=0.00092696063181210773 -0.010050022690192511 -0.0055795665636747893 -0.00023624914187889593 -0.0036761565171182153 -0.0057043779269697953 0.0036657693656101339 0.0069787686567185292 0.0064912735211352501 -0.00045405557980904212 -0.0017078936893958597 -0.0077348716937669423 -0.0075602496759136122
leaf_weight=71 33.5 82.5 37.5 14.999999999999998 43.5 154 146.5 35 11.999999999999998 14.999999999999998 49.5 49.5
leaf_count=28 23 55 21 10 29 51 30 7 6 10 33 33
internal_value=-6.44152e-05 0.00172852 -0.0043342 -0.00164014 0.00339413 0.00157607 0.00502338 0.00303524 -0.0045441 -0.00502254 -0.00688442 -0.0086907
internal_weight=744.5 524.5 220 137 415 197.5 217.5 72.5 109.5 97.5 64.5 83
internal_count=336 209 127 71 138 80 58 28 71 65 43 56
is_linear=0
shrinkage=0.03


Tree=24
num_leaves=10
num_cat=0
split_feature=28 2 22 0 28 2 0 26 2
split_gain=6.54824 3.96353 3.47577 2.0772 1.43147 0.824806 0.264667 0.251053 0.0124384
threshold=1.4631169966749498 962458.4493606576 77.691101486862976 0.40966402954315223 -1.8466238581505625 942098.48089571309 -0.95297903005573326 26.649853383516525 962813.05101879186
decision_type=2 2 2 2 2 2 2 2 2
left_child=1 2 3 -1 -4 6 -2 -7 -3
right_child=5 8 4 -5 -6 7 -8 -9 -10
leaf_value=-1.7555178635545985e-05 0.0084962130656609167 -0.0055062786273236547 -0.0026734152509176987 -0.0045901973734205617 0.0054939918791816244 0.0037739806165460678 0.0051552788437795385 -0.00084781170962378385 -0.0076092324064782812
leaf_weight=277 64 25.5 22.5 131.5 109.5 29.5 47.5 14.999999999999998 59.5
leaf_count=126 8 17 13 86 26 9 11 8 40
internal_value=0.000286557 -0.00108475 -0.000129863 -0.00150081 0.00408091 0.00576641 0.00714475 0.00219871 -0.00706715
internal_weight=781.5 625.5 540.5 408.5 132 156 111.5 44.5 85
internal_count=344 308 251 212 39 36 19 17 57
is_linear=0
shrinkage=0.03


Tree=25
num_leaves=13
num_cat=0
split_feature=2 28 20 2 2 2 21 9 1 34 31 1
split_gain=6.84398 4.73578 1.93005 1.96038 1.74671 1.67207 0.710327 0.554104 0.206518 0.13514 0.110396 0.0531708
threshold=955390.25315090048 -1.8637476499897796 3307.6240951166669 962362.10142236948 917392.88906401931 932505.71217918617 38.061863029267748 81.834827129397354 0.78574730703237883 3309.0927249454858 4.5396063121841719 0.4647231720437684
decision_type=2 2 2 2 2 2 2 2 2 2 2 2
left_child=1 7 11 6 -3 -6 -4 8 -1 -5 -9 -2
right_child=2 4 3 9 5 -7 -8 10 -10 -11 -12 -13
leaf_value=-0.0028393500183309826 -0.0094679581649375691 -0.0060251462919371467 0.0046145649957852284 -0.00310257682017982 0.0057788117693206454 0.0017479512656309291 -0.0017486010556037608 -0.0052491647591749267 0.0014541702182131243 -0.0069131434388680028 -0.0022505468259516512 -0.006710249451860305
leaf_weight=16.5 48.5 16.5 29.5 14.999999999999998 178 197.5 31.5 70.5 22.5 49.5 18 30
leaf_count=10 33 10 9 10 38 78 19 47 10 33 11 20
internal_value=-0.000214186 0.00161257 -0.00485864 -0.00250071 0.00324666 0.00367298 0.00132927 -0.00338592 -0.000350391 -0.00611076 -0.004688 -0.00853059
internal_weight=723.5 519.5 204 125.5 392 375.5 61 127.5 39 64.5 88.5 78.5
internal_count=328 204 124 71 126 116 28 78 20 43 58 53
is_linear=0
shrinkage=0.03


Tree=26
num_leaves=13
num_cat=0
split_feature=2 0 19 34 2 2 15 2 2 21 19 1
split_gain=5.72033 4.90363 2.47148 3.09063 0.996975 1.055 0.413231 0.308021 0.235058 0.124761 0.0260588 0.0313502
threshold=955390.25315090048 0.35460488704253579 3307.8080879886775 3308.1882689900635 916623.09084794379 929528.54266158096 0.51095096471673784 948544.93737960549 962458.4493606576 18.953027020565738 3307.5576184428196 0.4647231720437684
decision_type=2 2 2 2 2 2 2 2 2 2 2 2
left_child=1 4 10 6 -1 -6 -4 9 -5 -3 11 -2
right_child=2 7 3 8 5 -7 -8 -9 -10 -11 -12 -13
leaf_value=-0.0069970447245766131 -0.0092847668432420299 -0.0057556320245823129 0.0051907098112361771 -0.0018456254812150164 0.0050749143743810572 0.0019200819507152972 -0.0003118591470377786 0.00020289954851413595 -0.006600297521700901 -0.0033277240704362083 -0.0052181944067661579 -0.0067452575122006241
leaf_weight=7.4999999999999991 45.5 45 41 13.499999999999998 180.5 210 16.5 13.499999999999998 55.5 52.5 11.999999999999998 31
leaf_count=5 31 30 11 9 45 81 9 6 37 35 8 21
internal_value=-0.000112612 0.00161845 -0.00420626 -0.00147942 0.00317484 0.0033914 0.00360773 -0.00392723 -0.00573112 -0.00451058 -0.00802711 -0.00837535
internal_weight=724 509 215 126.5 398 390.5 57.5 111 69 97.5 88.5 76.5
internal_count=328 202 126 66 131 126 20 71 46 65 60 52
is_linear=0
shrinkage=0.03


Tree=27
num_leaves=11
num_cat=0
split_feature=27 21 2 20 31 26 16 30 2 24
split_gain=5.38154 2.28264 2.87837 1.60689 1.18604 0.424154 0.610346 0.174629 0.154652 0.10316
threshold=1.2754724633487011 26.277924771024299 962331.14875402476 3308.1656486580914 2.9851572460468252 26.764701091386446 2.4517273884266673 -2.733545816705226 955933.59743728128 83.111413003659223
decision_type=2 2 2 2 2 2 2 2 2 2
left_child=1 8 3 -3 -2 6 -6 -4 9 -1
right_child=4 2 7 -5 5 -7 -8 -9 -10 -11
leaf_value=-0.0050021336804820238 0.0078671708987309383 -0.00017455623084215827 -0.002050906859911405 0.0055429887868174649 -0.002307227625910725 0.0049886011840349215 0.0035525936609184417 -0.00643117595789954 -0.0075579910060534113 -0.0017671359024685003
leaf_weight=72 64 310.5 11.999999999999998 50.5 27 40.5 36 63 25 13.499999999999998
leaf_count=48 9 145 8 13 13 10 11 42 17 8
internal_value=-1.70877e-05 -0.00146202 -0.0004775 0.000634226 0.00466906 0.00262077 0.00102099 -0.00578628 -0.00529405 -0.00453502
internal_weight=714 546.5 436 361 167.5 103.5 63 75 110.5 85.5
internal_count=324 281 208 158 43 34 24 50 73 56
is_linear=0
shrinkage=0.03


Tree=28
num_leaves=10
num_cat=0
split_feature=28 2 21 0 2 0 26 11 21
split_gain=5.57213 3.12813 2.79173 1.7675 0.667129 0.281774 0.189583 0.189559 0.031025
threshold=1.4418998010059079 962514.86924537865 25.729179555116666 -0.46472317204376817 942098.48089571309 -0.95297903005573326 26.649853383516525 25.877456609025867 77.152235375408608
decision_type=2 2 2 2 2 2 2 2 2
left_child=1 2 7 -4 5 -2 -6 -1 -3
right_child=4 8 3 -5 6 -7 -8 -9 -10
leaf_value=-0.0059365808672962646 0.0077485132730924161 -0.0074229729187488547 -0.0022787134570460164 0.0019244808243516519 0.0033570115411360015 0.0045358166062990117 -0.0003967652229858296 -0.002804112722781988 -0.0051117689002234982
leaf_weight=61 64 49 123 326.5 37 55.5 16.5 31.5 25.5
leaf_count=41 8 33 63 130 12 13 8 19 17
internal_value=0.000326306 -0.00100827 -0.000208093 0.000768495 0.00506925 0.0063189 0.00218574 -0.00492729 -0.00672994
internal_weight=789.5 616.5 542 449.5 173 119.5 53.5 92.5 74.5
internal_count=344 303 253 193 41 21 20 60 50
is_linear=0
shrinkage=0.03


Tree=29
num_leaves=12
num_cat=0
split_feature=27 22 2 12 28 15 31 19 9 16 21
split_gain=5.3702 1.87512 2.47004 2.11289 1.67706 1.16489 1.10877 0.569414 0.520274 0.396823 0.0581531
threshold=1.2754724633487011 77.691101486862976 955933.59743728128 26.374353044996841 -1.8240744362673704 -0.58076306002956712 2.9851572460468252 3298.0902882362116 78.352113171374285 2.0589580062866744 112.40176208308124
decision_type=2 2 2 2 2 2 2 2 2 2 2
left_child=1 2 3 -1 10 -6 -2 -4 -8 -10 -3
right_child=6 4 7 -5 5 -7 8 -9 9 -11 -12
leaf_value=-0.0033769085959142798 0.0072911463759599187 -0.0060616182165486457 -0.0088308878097128358 0.0021381023339402507 0.0069447736351989035 0.00027694873710872107 0.0044729109880514437 -0.0046005164768892458 -0.0013457879457208844 0.0029423092482863248 -0.0027320739411074539
leaf_weight=150 61 16.500000000000004 46 105.5 42 53.5 59 96 39.5 36 13.499999999999998
leaf_count=92 9 11 31 42 7 23 13 62 18 12 8
internal_value=-0.000276852 -0.00186447 -0.00287329 -0.00109437 0.00131641 0.00326652 0.00395057 -0.00603358 0.00238181 0.000690994 -0.00474817
internal_weight=718.5 523 397.5 255.5 125.5 95.5 195.5 142 134.5 75.5 30
internal_count=328 276 227 134 49 30 52 93 43 30 19
is_linear=0
shrinkage=0.03


Tree=30
num_leaves=9
num_cat=0
split_feature=28 2 21 2 31 17 23 21
split_gain=5.59368 2.09028 2.12115 1.27776 0.596234 0.300578 0.0724353 0.0383241
threshold=1.4631169966749498 962458.4493606576 25.729179555116666 929947.19843037985 3.3738927481244994 2.1330480452208955 82.297392416594533 77.152235375408608
decision_type=2 2 2 2 2 2 2 2
left_child=1 2 6 -4 -2 -6 -1 -3
right_child=4 7 3 -5 5 -7 -8 -9
leaf_value=-0.0054212538973010815 0.0067656795363988933 -0.0068916807210091307 0.0027869476701628849 -0.00094832591465957776 0.004953543825583025 0.00093511603782316305 -0.0028724089820937409 -0.0045579902136325835
leaf_weight=71.5 79.5 49.5 114.5 286.5 32 37.5 19.5 24
leaf_count=48 13 33 38 143 7 15 13 16
internal_value=-0.000168484 -0.00153426 -0.000819831 0.000118778 0.00498071 0.00285062 -0.00492854 -0.0062212
internal_weight=714.5 565.5 492 401 149 69.5 91 73.5
internal_count=326 291 242 181 35 22 61 49
is_linear=0
shrinkage=0.03


Tree=31
num_leaves=10
num_cat=0
split_feature=27 12 1 19 31 13 2 11 17
split_gain=5.07823 2.46703 1.59754 1.78372 1.33299 0.899404 0.848999 0.475152 0.391714
threshold=1.2215757164282623 27.165691767788996 0.91023613416931248 3308.1656486580914 3.0818100799190469 1.6223808351632705 962406.74596153933 27.095717308643518 2.1571730444926502
decision_type=2 2 2 2 2 2 2 2 2
left_child=1 2 3 -1 -2 -6 -4 -3 -7
right_child=4 7 6 -5 5 8 -8 -9 -10
leaf_value=-0.0045725379922081418 0.0072752324021779563 4.4790393114089963e-05 0.002430594736227283 0.00012393506185702898 -0.0033476594591682609 0.0054257037411914776 -0.0043944562909806646 0.005502314749550311 0.0013472414451477293
leaf_weight=253.5 77 21.5 80 101 21 43.5 19.5 46 44.5
leaf_count=163 11 9 28 47 11 8 13 11 17
internal_value=2.315e-05 -0.00149313 -0.00229182 -0.00323367 0.00426772 0.00208268 0.00104768 0.00381192 0.00341846
internal_weight=707.5 521.5 454 354.5 186 109 99.5 67.5 88
internal_count=318 271 251 210 47 36 41 20 25
is_linear=0
shrinkage=0.03


Tree=32
num_leaves=13
num_cat=0
split_feature=2 28 12 2 2 30 10 33 2 2 7 31
split_gain=4.1457 3.21745 2.64453 1.69475 1.42113 1.23618 0.791593 0.404095 0.538371 0.113678 0.0824014 0.0791601
threshold=955390.25315090048 -1.8637476499897796 25.395006314376012 916623.09084794379 932505.71217918617 -1.4114761051857927 82.233598753684717 3307.3137171262588 962556.70298914018 958131.20600088511 29.453460777368495 4.4939633184400369
decision_type=2 2 2 2 2 2 2 2 2 2 2 2
left_child=1 6 5 -3 -5 -2 10 9 -9 -4 -1 -8
right_child=2 3 7 4 -6 -7 11 8 -10 -11 -12 -13
leaf_value=0.0017067722126043266 -0.0020150995759502981 -0.0077952167437626762 -0.0043694316813578972 0.0051214072624357733 0.0014489593745738488 0.0074158199214935296 -0.0046779691916757392 -0.0021005746982380993 -0.0061455890419391474 -0.0088177902074960558 -0.000825680101388379 -0.002078589611196596
leaf_weight=27 24 11.999999999999998 11.999999999999998 183.5 200.5 24 69 60 64 31.5 18 18
leaf_count=11 13 8 8 39 81 4 46 36 43 21 11 12
internal_value=7.48377e-05 0.0015079 -0.00342014 0.00286027 0.00321653 0.00272486 -0.00252894 -0.00519572 -0.00423279 -0.00775013 0.000665254 -0.00418694
internal_weight=743.5 528 215.5 396 384 48 132 167.5 124 43.5 45 87
internal_count=333 208 125 128 120 17 80 108 79 29 22 58
is_linear=0
shrinkage=0.03


Tree=33
num_leaves=13
num_cat=0
split_feature=5 0 19 34 10 10 31 29 10 31 5 31
split_gain=4.72837 3.60756 1.78166 2.26052 0.798218 0.813315 0.679876 0.483821 0.281745 0.144721 0.144283 0.0545325
threshold=3284.1995875203543 0.35460488704253579 3307.8080879886775 3308.1882689900635 84.064272792489319 85.854119177777065 3.3738927481244994 1.0804148931642552 80.668311209848852 4.4939633184400369 3308.8346008304748 2.7938550680363265
decision_type=2 2 2 2 2 2 2 2 2 2 2 2
left_child=1 4 11 7 6 -6 -1 -4 -3 -10 -5 -2
right_child=2 8 3 10 5 -7 -8 -9 9 -11 -12 -13
leaf_value=0.0046008268566778195 -0.008401532803662121 0.00047887967654636931 0.0043630437308381639 -0.0024338961349027913 -0.0035312500889484702 0.0043400363454947606 0.0019562880175277809 -0.0019110351790641914 -0.0041502018141286335 -0.00089052123251770205 -0.0058085484723342908 -0.0060099033438641087
leaf_weight=193.5 31 16.5 45.5 19.5 31.5 17.5 168.5 13.499999999999998 84 16.5 52.5 56.5
leaf_count=50 21 8 12 13 19 5 59 9 56 11 35 38
internal_value=3.49252e-05 0.00157279 -0.00366469 -0.00141652 0.00289679 -0.000659499 0.00338279 0.00289453 -0.0030506 -0.00364385 -0.00496099 -0.00695953
internal_weight=746.5 528 218.5 131 411 49 362 59 117 100.5 72 87.5
internal_count=336 208 128 69 133 24 109 21 75 67 48 59
is_linear=0
shrinkage=0.03


Tree=34
num_leaves=14
num_cat=0
split_feature=2 15 19 2 12 21 2 2 2 15 2 29 19
split_gain=3.8963 3.68212 2.36973 2.49416 1.01204 1.11014 0.755402 1.71368 0.752986 0.546966 0.27014 0.150833 0.0619444
threshold=955933.59743728128 0.19477036848292148 3307.8080879886775 962331.14875402476 26.299063630185206 79.141982478598365 928697.85537539248 941141.56092325097 925462.95317175926 0.48051854983927228 952709.66195010522 -2.5382234025003378 3296.1696018948301
decision_type=2 2 2 2 2 2 2 2 2 2 2 2 2
left_child=1 4 12 9 10 -6 8 -8 -3 -4 -1 -5 -2
right_child=2 6 3 11 5 -7 7 -9 -10 -11 -12 -13 -14
leaf_value=-0.0031586140825445278 -0.0080108157143448325 0.0016685718011272993 0.0046864381420496353 -0.0018502413122914729 0.0022975577443902348 -0.0070916285984791248 -0.0046725227250218656 0.0037049559795944557 0.0063490487078302783 -0.0012487522436207847 0.0013502646054212861 -0.0055868689530275076 -0.0057146344813671741
leaf_weight=144 48.5 45 52 14.999999999999998 86 11.999999999999998 27 100.5 113 18 11.999999999999998 54 44.5
leaf_count=90 33 14 14 10 30 8 17 31 19 11 5 36 30
internal_value=-7.41216e-05 0.00132196 -0.00331879 -0.000812334 -0.00129902 0.00107269 0.00365539 0.00189667 0.00504431 0.00314303 -0.00279583 -0.00483402 -0.00700055
internal_weight=771.5 539.5 232 139 254 98 285.5 127.5 158 70 156 69 93
internal_count=348 214 134 71 133 38 81 48 33 25 95 46 63
is_linear=0
shrinkage=0.03


Tree=35
num_leaves=10
num_cat=0
split_feature=28 2 22 1 28 21 9 30 17
split_gain=3.61228 2.35478 2.16528 1.22364 1.16974 0.534072 0.32121 0.138717 0.0933834
threshold=1.4631169966749498 962331.14875402476 77.691101486862976 0.95297903005573359 -1.8466238581505625 68.106879030545898 78.352113171374285 -2.733545816705226 2.2293109457364797
decision_type=2 2 2 2 2 2 2 2 2
left_child=1 2 3 -1 -4 6 -2 -3 -8
right_child=5 7 4 -5 -6 -7 8 -9 -10
leaf_value=-0.0018934263155788787 0.0050392853974991908 -0.0020406978991011088 -0.0027904392931055516 0.0031062494414572667 0.0046234980276069386 0.007582628414034843 0.0028784976053083766 -0.0057260997533259616 0.00041620689648247904
leaf_weight=339 48 13.499999999999998 22.5 49.5 103 35 28 82 30.5
leaf_count=187 7 9 13 16 24 5 8 55 13
internal_value=5.51852e-05 -0.000946744 -0.000136176 -0.00124621 0.0032709 0.0043578 0.00322337 -0.00524722 0.00164852
internal_weight=751 609.5 514 388.5 125.5 141.5 106.5 95.5 58.5
internal_count=337 304 240 203 37 33 28 64 21
is_linear=0
shrinkage=0.03


Tree=36
num_leaves=12
num_cat=0
split_feature=5 0 19 5 5 22 5 21 21 22 19
split_gain=4.66587 2.92862 1.17561 1.41894 1.07954 0.824858 0.408028 0.334196 0.0987107 0.0959851 0.0525395
threshold=3286.0673594337982 0.29696027566504674 3307.8080879886775 3308.1656486580919 3153.5818351940852 27.971273471054484 3262.4295024030193 42.259311794962137 52.641777997444898 61.014212883258558 3296.1696018948301
decision_type=2 2 2 2 2 2 2 2 2 2 2
left_child=1 4 10 7 -1 -6 8 -4 -3 -5 -2
right_child=2 6 3 9 5 -7 -8 -9 -10 -11 -12
leaf_value=-0.0064737683197726376 -0.0076636349558830254 -0.002900695387967135 0.0037220142184466614 -0.006040674206236718 -0.0038298287163488569 0.0031208985587752652 0.0013466477699969942 -0.00093951924271881563 -0.0055656761785871107 -0.0034325872528794652 -0.0054014610802426057
leaf_weight=10.499999999999998 43 85.5 29.5 34.5 14.999999999999998 381 18 24 18 36 41.5
leaf_count=7 29 57 9 23 10 117 8 14 12 24 28
internal_value=-0.00013599 0.00136273 -0.00392687 -0.00202333 0.00258517 0.00284485 -0.00270263 0.00162447 -0.00342735 -0.0047965 -0.00664634
internal_weight=736.5 528 208.5 124 406.5 396 121.5 53.5 103.5 70.5 84.5
internal_count=338 211 127 70 134 127 77 23 69 47 57
is_linear=0
shrinkage=0.03


end of trees

feature_importances:
city_estimated_population=120
week_sin=37
city_area_weighted_pop_density_lag20=23
city_area_weighted_rainfall_rollmean_lag1_w8=22
city_area_weighted_u_component_of_wind_10m_rollmean_lag1_w8=22
city_area_weighted_rainfall_rollmean_lag1_w4=20
week_cos=17
city_pop_density=17
city_area_weighted_wind_speed_10m_rollmean_lag1_w4=17
city_area_weighted_rh_lag20=16
city_area_weighted_temp_c_lag11=9
city_area_weighted_pop_density_lag19=8
city_area_weighted_v_component_of_wind_10m_rollmean_lag1_w8=8
city_area_weighted_rh_lag19=7
city_area_weighted_temp_c_lag10=7
city_area_weighted_temp_c_rollmean_lag1_w8=7
city_area_weighted_wind_speed_10m_lag11=6
city_area_weighted_v_component_of_wind_10m_rollmean_lag1_w4=6
city_area_weighted_pop_density_rollmean_lag1_w8=6
city_area_weighted_v_component_of_wind_10m_lag5=5
city_area_weighted_u_component_of_wind_10m_rollmean_lag1_w4=5
city_area_weighted_rh_rollmean_lag1_w4=4
city_area_weighted_rh_rollmean_lag1_w8=4
city_area_weighted_v_component_of_wind_10m_lag7=3
city_area_weighted_temp_c_rollmean_lag1_w4=2
city_area_weighted_rainfall_lag19=1
city_area_weighted_u_component_of_wind_10m_lag4=1
city_area_weighted_wind_speed_10m_rollmean_lag1_w8=1
city_area_weighted_pop_density_rollmean_lag1_w4=1

parameters:
[boosting: gbdt]
[objective: regression]
[metric: rmse]
[tree_learner: serial]
[device_type: cpu]
[data_sample_strategy: bagging]
[data: ]
[valid: ]
[num_iterations: 37]
[learning_rate: 0.03]
[num_leaves: 31]
[num_threads: 0]
[seed: 0]
[deterministic: 0]
[force_col_wise: 1]
[force_row_wise: 0]
[histogram_pool_size: -1]
[max_depth: 4]
[min_data_in_leaf: 8]
[min_sum_hessian_in_leaf: 0.001]
[bagging_fraction: 0.85]
[pos_bagging_fraction: 1]
[neg_bagging_fraction: 1]
[bagging_freq: 1]
[bagging_seed: 3]
[bagging_by_query: 0]
[feature_fraction: 0.85]
[feature_fraction_bynode: 1]
[feature_fraction_seed: 2]
[extra_trees: 0]
[extra_seed: 6]
[early_stopping_round: 0]
[early_stopping_min_delta: 0]
[first_metric_only: 0]
[max_delta_step: 0]
[lambda_l1: 0.05]
[lambda_l2: 1]
[linear_lambda: 0]
[min_gain_to_split: 0]
[drop_rate: 0.1]
[max_drop: 50]
[skip_drop: 0.5]
[xgboost_dart_mode: 0]
[uniform_drop: 0]
[drop_seed: 4]
[top_rate: 0.2]
[other_rate: 0.1]
[min_data_per_group: 100]
[max_cat_threshold: 32]
[cat_l2: 10]
[cat_smooth: 10]
[max_cat_to_onehot: 4]
[top_k: 20]
[monotone_constraints: ]
[monotone_constraints_method: basic]
[monotone_penalty: 0]
[feature_contri: ]
[forcedsplits_filename: ]
[refit_decay_rate: 0.9]
[cegb_tradeoff: 1]
[cegb_penalty_split: 0]
[cegb_penalty_feature_lazy: ]
[cegb_penalty_feature_coupled: ]
[path_smooth: 0]
[interaction_constraints: ]
[verbosity: -1]
[saved_feature_importance_type: 0]
[use_quantized_grad: 0]
[num_grad_quant_bins: 4]
[quant_train_renew_leaf: 0]
[stochastic_rounding: 1]
[linear_tree: 0]
[max_bin: 255]
[max_bin_by_feature: ]
[min_data_in_bin: 3]
[bin_construct_sample_cnt: 200000]
[data_random_seed: 1]
[is_enable_sparse: 1]
[enable_bundle: 1]
[use_missing: 1]
[zero_as_missing: 0]
[feature_pre_filter: 1]
[pre_partition: 0]
[two_round: 0]
[header: 0]
[label_column: ]
[weight_column: ]
[group_column: ]
[ignore_column: ]
[categorical_feature: ]
[forcedbins_filename: ]
[precise_float_parser: 0]
[parser_config_file: ]
[objective_seed: 5]
[num_class: 1]
[is_unbalance: 0]
[scale_pos_weight: 1]
[sigmoid: 1]
[boost_from_average: 1]
[reg_sqrt: 0]
[alpha: 0.9]
[fair_c: 1]
[poisson_max_delta_step: 0.7]
[tweedie_variance_power: 1.5]
[lambdarank_truncation_level: 30]
[lambdarank_norm: 1]
[label_gain: ]
[lambdarank_position_bias_regularization: 0]
[eval_at: ]
[multi_error_top_k: 1]
[auc_mu_weights: ]
[num_machines: 1]
[local_listen_port: 12400]
[time_out: 120]
[machine_list_filename: ]
[machines: ]
[gpu_platform_id: -1]
[gpu_device_id: -1]
[gpu_use_dp: 0]
[num_gpu: 1]

end of parameters
