tree
version=v4
num_class=1
num_tree_per_iteration=1
label_index=0
max_feature_idx=56
objective=regression
feature_names=week_sin week_cos city_estimated_population city_area_m2 city_area_km2 city_pop_density n_barangays_reported city_area_weighted_rainfall_lag17 city_area_weighted_rainfall_lag20 city_area_weighted_rh_lag17 city_area_weighted_rh_lag18 city_area_weighted_temp_c_lag9 city_area_weighted_temp_c_lag8 city_area_weighted_u_component_of_wind_10m_lag2 city_area_weighted_u_component_of_wind_10m_lag3 city_area_weighted_v_component_of_wind_10m_lag3 city_area_weighted_v_component_of_wind_10m_lag5 city_area_weighted_wind_speed_10m_lag9 city_area_weighted_wind_speed_10m_lag8 city_area_weighted_pop_density_lag20 city_area_weighted_pop_density_lag19 city_area_weighted_rainfall_rollmean_lag1_w4 city_area_weighted_rainfall_rollmean_lag1_w8 city_area_weighted_rh_rollmean_lag1_w4 city_area_weighted_rh_rollmean_lag1_w8 city_area_weighted_temp_c_rollmean_lag1_w4 city_area_weighted_temp_c_rollmean_lag1_w8 city_area_weighted_u_component_of_wind_10m_rollmean_lag1_w4 city_area_weighted_u_component_of_wind_10m_rollmean_lag1_w8 city_area_weighted_v_component_of_wind_10m_rollmean_lag1_w4 city_area_weighted_v_component_of_wind_10m_rollmean_lag1_w8 city_area_weighted_wind_speed_10m_rollmean_lag1_w4 city_area_weighted_wind_speed_10m_rollmean_lag1_w8 city_area_weighted_pop_density_rollmean_lag1_w4 city_area_weighted_pop_density_rollmean_lag1_w8 city_area_weighted_flood_risk_index_rollmean_lag1_w4 city_area_weighted_flood_risk_index_rollmean_lag1_w8 city_area_weighted_percent_annual_crop_rollmean_lag1_w4 city_area_weighted_percent_annual_crop_rollmean_lag1_w8 city_area_weighted_percent_brush_shrubs_rollmean_lag1_w4 city_area_weighted_percent_brush_shrubs_rollmean_lag1_w8 city_area_weighted_percent_built_up_rollmean_lag1_w4 city_area_weighted_percent_built_up_rollmean_lag1_w8 city_area_weighted_percent_inland_water_rollmean_lag1_w4 city_area_weighted_percent_inland_water_rollmean_lag1_w8 city_area_weighted_percent_open_forest_rollmean_lag1_w4 city_area_weighted_percent_open_forest_rollmean_lag1_w8 city_area_weighted_percent_perennial_crop_rollmean_lag1_w4 city_area_weighted_percent_perennial_crop_rollmean_lag1_w8 city_area_weighted_percent_open_barren_rollmean_lag1_w4 city_area_weighted_percent_open_barren_rollmean_lag1_w8 city_area_weighted_percent_fishpond_rollmean_lag1_w4 city_area_weighted_percent_fishpond_rollmean_lag1_w8 city_area_weighted_percent_grassland_rollmean_lag1_w4 city_area_weighted_percent_grassland_rollmean_lag1_w8 city_area_weighted_percent_mangrove_forest_rollmean_lag1_w4 city_area_weighted_percent_mangrove_forest_rollmean_lag1_w8
feature_infos=[-1:1] [-1:1] [914211.7095180488:964143.50380609359] none none [3142.64637869529:3314.2893043627] none [0.0025243612881299211:403.77764092016611] [0.0025243612881299211:403.77764092016611] [74.166209495041301:88.154553662835738] [74.166209495041301:88.154553662835738] [24.337778836331829:27.857639391615468] [24.337778836331829:27.857639391615468] [-4.5717681780699149:4.4965446280041954] [-4.5717681780699149:4.4965446280041954] [-6.2680500182560719:5.1247667214851038] [-6.2680500182560719:5.1247667214851038] [1.39564484944224:6.8002328204854665] [1.39564484944224:6.8002328204854665] [3125.6331669833717:3314.2893043626991] [3126.4700955675198:3314.2893043626991] [0.066242600448727776:147.57175632940832] [0.48078482996758953:119.23124797939784] [76.04244385379063:86.610761977842287] [76.761170402338564:86.082735724126366] [24.635251946080103:27.639879393457701] [24.734571822108446:27.440794559836895] [-3.4486736035175789:3.6280013469861503] [-3.0815340340364679:3.131422920161175] [-4.48361272930451:3.4734894156434146] [-3.8559405516430854:3.0795858777581708] [1.7342058228275261:5.7925001460518359] [1.9506388693011207:5.3170040362056081] [3140.4885697881891:3314.1262969917143] [3138.7712235644044:3313.8757850504171] none none none none none none none none none none none none none none none none none none none none none none
tree_sizes=1068 1213 1198 1111 1226 1106 1423 1106 1401 1206 1215 1119 1114 1055 1128 1091 1425 1128 1151 1225 935 1520 1202 1200 1312 933 1394 1113 1243 1033 1415 1290 1040 1148 957 1072 1020 1107 1236 1290 1020 1302 946 1096 1027 1425 1122 942 1380 1045 1303 955 1237

Tree=0
num_leaves=11
num_cat=0
split_feature=2 28 21 2 2 19 34 30 10 16
split_gain=25.2371 19.5954 11.0149 4.78538 5.14908 3.49843 5.18997 3.35817 1.35265 0.724506
threshold=955029.36524073815 -1.8351209175064496 118.53987638285277 929250.6663411262 940351.15984073735 3307.707630040341 3308.8693859697337 1.3184334933059285 80.050224183521166 -1.0314015720681946
decision_type=2 2 2 2 2 2 2 2 2 2
left_child=1 8 5 7 -5 -2 -7 -3 -1 -10
right_child=2 3 -4 4 -6 6 -8 -9 9 -11
leaf_value=0.58043358585077587 0.57013912823622015 0.58401134373317931 0.58581476274418898 0.57705699262890997 0.58417149849487349 0.57967187304275813 0.5710263267157567 0.58904887972088782 0.57439882561189615 0.57958897523917818
leaf_weight=21 87.5 105.5 30.5 51 179 60.5 51 118 96 13.499999999999998
leaf_count=10 59 34 7 32 58 32 34 20 64 8
internal_value=0.580462 0.582672 0.574866 0.584638 0.582575 0.573149 0.57563 0.586721 0.575885 0.575004
internal_weight=813.5 584 229.5 453.5 230 199 111.5 223.5 130.5 109.5
internal_count=358 226 132 144 90 125 66 54 82 72
is_linear=0
shrinkage=1


Tree=1
num_leaves=12
num_cat=0
split_feature=5 28 21 5 5 19 34 5 0 25 29
split_gain=23.088 17.5398 8.89385 3.74835 5.67109 3.53464 5.50221 3.31287 1.68007 0.724654 0.124645
threshold=3282.9590181071881 -1.8110621321822589 127.26647111369276 3194.3435104508158 3232.5019865839581 3307.707630040341 3308.8693859697337 3181.7768032472159 0.51639395938746258 25.681890036760347 -1.0904788075392207
decision_type=2 2 2 2 2 2 2 2 2 2 2
left_child=1 8 5 7 -5 -2 -7 -3 9 -1 -10
right_child=2 3 -4 4 -6 6 -8 -9 10 -11 -12
leaf_value=-0.0038942699503330962 -0.0098126479657315423 0.0020487106681847185 0.0057722764576182651 -0.003591424787417054 0.0040884400526992977 -0.00029432643336745409 -0.0087818232953548424 0.0078021694673859523 -0.0062245346437506122 0.00092845087846120194 -0.0032147540395910091
leaf_weight=19.5 89 59.5 24 49.5 154.5 63.5 58.5 138 72 28.5 14.999999999999998
leaf_count=13 60 25 5 32 49 33 39 25 48 14 10
internal_value=-0.000239789 0.00204746 -0.00544986 0.00414394 0.0022026 -0.00676746 -0.00443758 0.00610741 -0.00414998 -0.00104901 -0.00579149
internal_weight=771.5 536.5 235 401.5 204 211 122 197.5 135 48 87
internal_count=353 216 137 131 81 132 72 50 85 27 58
is_linear=0
shrinkage=0.02


Tree=2
num_leaves=12
num_cat=0
split_feature=2 28 21 2 2 19 2 30 12 9 30
split_gain=27.8892 19.8696 6.45953 5.19804 4.5011 2.73349 4.36598 2.32973 0.813261 0.444478 0.00835063
threshold=955029.36524073815 -1.8928373758068815 118.53987638285277 929250.6663411262 940351.15984073735 3307.6240951166669 962406.74596153933 1.3184334933059285 25.763669001710905 82.184472405508615 -1.7425978715079913
decision_type=2 2 2 2 2 2 2 2 2 2 2
left_child=1 8 5 7 -5 -2 -7 -3 10 -10 -1
right_child=2 3 -4 4 -6 6 -8 -9 9 -11 -12
leaf_value=-0.0062301762974451462 -0.0097562603175976852 0.0041349999866177956 0.003990153715014458 -0.0030746755955383333 0.0037492713205812666 -0.00067687587599669181 -0.0084289752956508666 0.0085618280082566962 0 -0.0038014697084824247 -0.0035859610548725834
leaf_weight=61.5 87 91.5 22.5 48 174.5 54.5 63 118 19.5 34.5 11.999999999999998
leaf_count=41 59 28 6 30 57 29 42 20 10 23 8
internal_value=-2.11224e-05 0.00237539 -0.00591352 0.004423 0.00225748 -0.007034 -0.00490398 0.00668101 -0.00451763 -0.00248401 -0.00590549
internal_weight=786.5 559.5 227 432 222.5 204.5 117.5 209.5 127.5 54 73.5
internal_count=353 217 136 135 87 130 71 48 82 33 49
is_linear=0
shrinkage=0.02


Tree=3
num_leaves=11
num_cat=0
split_feature=2 0 21 2 2 29 19 34 0 25
split_gain=22.1218 17.1291 10.0092 3.93213 3.70958 3.52487 2.78988 3.7608 0.626321 0.130428
threshold=955029.36524073815 0.40966402954315223 118.53987638285277 929250.6663411262 940351.15984073735 0.2907162347693813 3307.707630040341 3308.8693859697337 0.70581670320594825 25.700819304024566
decision_type=2 2 2 2 2 2 2 2 2 2
left_child=1 3 6 5 -5 -1 -2 -8 9 -3
right_child=2 8 -4 4 -6 -7 7 -9 -10 -11
leaf_value=0.0012763050261598366 -0.0094407721812384479 -0.0039346738672918742 0.0053565488066524272 -0.002518650976539243 0.0035889172975284355 0.0073724193915553488 -0.00076788331403625774 -0.008417643631347501 -0.0059619408386724958 -0.0013354768451376287
leaf_weight=50.5 86 16.5 30.5 49.5 178.5 172.5 55.5 48 66 24
leaf_count=21 58 11 7 30 59 35 30 32 44 14
internal_value=0.000303353 0.00242471 -0.00504334 0.00412977 0.00224642 0.00601857 -0.0067566 -0.00440422 -0.00473435 -0.00254473
internal_weight=777.5 557.5 220 451 228 223 189.5 103.5 106.5 40.5
internal_count=341 214 127 145 89 56 120 62 69 25
is_linear=0
shrinkage=0.02


Tree=4
num_leaves=12
num_cat=0
split_feature=5 28 19 5 5 5 0 24 0 25 29
split_gain=25.1732 17.1116 5.16104 7.89245 3.56598 4.18126 2.43687 1.9689 0.823419 0.402359 0.129802
threshold=3282.9590181071881 -1.8351209175064496 3307.707630040341 3308.496849293791 3194.3435104508158 3232.5019865839581 -0.78574730703237861 83.328658582567144 0.51639395938746258 25.836708442330096 -1.0904788075392207
decision_type=2 2 2 2 2 2 2 2 2 2 2
left_child=1 8 -2 7 6 -6 -3 -4 9 -1 -10
right_child=2 4 3 -5 5 -7 -8 -9 10 -11 -12
leaf_value=-0.0031551293152539679 -0.0093872342301953224 0.0079562962255646692 -0.0020167828100548387 -0.0084108764765754573 -0.0026946252643352464 0.0037488124712167876 0.0034369646891084294 0.0043277785724554312 -0.005854454793930053 0.0011266137405678079 -0.0027915527840455374
leaf_weight=22.5 91.5 111.5 37.5 61.5 51 171 93 37.5 73.5 11.999999999999998 13.499999999999998
leaf_count=15 62 19 23 41 32 55 31 11 49 6 9
internal_value=-0.00016358 0.00215757 -0.00572884 -0.00318664 0.00404453 0.00225146 0.00595075 0.00115201 -0.00441847 -0.00162538 -0.00545715
internal_weight=776 548 228 136.5 426.5 222 204.5 75 121.5 34.5 87
internal_count=353 216 137 75 137 87 50 34 79 21 58
is_linear=0
shrinkage=0.02


Tree=5
num_leaves=11
num_cat=0
split_feature=2 0 21 2 2 22 20 2 31 12
split_gain=18.9802 16.3839 8.99134 3.54443 4.5272 3.58946 2.89228 4.89466 0.516577 0.251167
threshold=955029.36524073815 0.40966402954315223 118.53987638285277 929250.6663411262 940351.15984073735 39.258245967897402 3307.707630040341 962458.4493606576 2.8945550112523168 25.795743251931878
decision_type=2 2 2 2 2 2 2 2 2 2
left_child=1 3 6 5 -5 -1 -2 -8 -3 -10
right_child=2 8 -4 4 -6 -7 7 -9 9 -11
leaf_value=-0.00043101055052743035 -0.0091022937029776492 -0.0014928659131129582 0.0052095989845693117 -0.0030255256088243592 0.0035737023679901741 0.006755315797505798 -0.00013149159032059467 -0.0081314799242872531 -0.0060302755895889158 -0.003276894287457542
leaf_weight=32 83 21 30.5 52.5 178.5 180.5 62 60 64.5 30
leaf_count=16 56 13 7 33 58 38 32 40 43 19
internal_value=4.67769e-05 0.0020555 -0.00469566 0.00380431 0.00205543 0.00566836 -0.0062062 -0.00413308 -0.00460521 -0.00524188
internal_weight=794.5 559 235.5 443.5 231 212.5 205 122 115.5 94.5
internal_count=355 220 135 145 91 54 128 72 75 62
is_linear=0
shrinkage=0.02


Tree=6
num_leaves=14
num_cat=0
split_feature=2 0 11 22 2 2 2 19 2 23 0 12 0
split_gain=19.2054 14.328 7.19096 5.89264 3.5785 3.91349 3.56817 1.99428 2.82701 0.719665 0.639529 0.150253 0.00558464
threshold=955029.36524073815 0.40966402954315223 25.410479855130422 77.521872408486388 929250.6663411262 940351.15984073735 925199.68964952091 3307.707630040341 962406.74596153933 82.796839273748944 0.61559370248597556 26.052986181607618 0.8542199457734333
decision_type=2 2 2 2 2 2 2 2 2 2 2 2 2
left_child=1 4 3 9 6 -6 -1 -4 -9 -2 11 -3 -12
right_child=2 10 7 -5 5 -7 -8 8 -10 -11 12 -13 -14
leaf_value=0.0018756004367640477 -0.008380367946624754 -6.1417395418340498e-05 -0.0090225271111653172 0.0072235334249643179 -0.002625015064812543 0.0033666200721409263 0.0073594764573467553 -0.00066216239068243247 -0.0075511171023050936 -0.0013634009570987137 -0.0040345074325277095 -0.0031223867248605795 -0.0059247020062946146
leaf_weight=74 13.500000000000002 15.000000000000002 79.5 31 55.5 183 144 43.5 54 11.999999999999998 27 11.999999999999998 51
leaf_count=30 9 8 54 5 34 61 26 23 36 7 18 8 34
internal_value=0.000140208 0.00214695 -0.00465981 0.00149402 0.00368106 0.00195631 0.00553263 -0.00663142 -0.00455439 -0.00541153 -0.00446193 -0.00158476 -0.00538403
internal_weight=795 561.5 233.5 56.5 456.5 238.5 218 177 97.5 25.5 105 27 78
internal_count=353 219 134 21 151 95 56 113 59 16 68 16 52
is_linear=0
shrinkage=0.02


Tree=7
num_leaves=11
num_cat=0
split_feature=2 0 21 2 2 30 20 34 0 27
split_gain=19.0023 14.2651 8.7385 3.22872 4.55967 2.81835 2.36819 4.4385 0.940362 0.190367
threshold=955029.36524073815 0.29696027566504674 118.53987638285277 929250.6663411262 940351.15984073735 1.0839467063517672 3307.707630040341 3308.8693859697337 0.70581670320594825 -2.4808652844484587
decision_type=2 2 2 2 2 2 2 2 2 2
left_child=1 3 6 5 -5 -1 -2 -8 9 -3
right_child=2 8 -4 4 -6 -7 7 -9 -10 -11
leaf_value=0.0027009823715066633 -0.0087235114031367841 -0.0033551008353630701 0.0050169053263962272 -0.0031748086161473223 0.0036006149143480055 0.0075583633770748065 -5.5191626173577135e-05 -0.008076797617109199 -0.0054968558152516675 -0.00060202632253132172
leaf_weight=85 88.5 16.5 30.5 49.5 177.5 121 54.5 55.5 70.5 30
leaf_count=30 60 11 7 31 56 21 28 37 47 17
internal_value=9.0912e-05 0.00210879 -0.00472904 0.00378396 0.00210326 0.00559776 -0.00626292 -0.0041746 -0.00404328 -0.00169491
internal_weight=779 550 229 433 227 206 198.5 110 117 46.5
internal_count=345 213 132 138 87 51 125 65 75 28
is_linear=0
shrinkage=0.02


Tree=8
num_leaves=14
num_cat=0
split_feature=2 28 19 2 2 2 2 22 0 2 7 29 19
split_gain=18.8769 14.0359 5.7272 8.41394 3.4661 4.80276 2.72679 2.00814 1.3084 0.604585 0.394734 0.0642088 0.0273015
threshold=955029.36524073815 -1.8351209175064496 3307.8080879886775 962362.10142236948 932217.47705382493 940351.15984073735 925594.94772337156 77.521872408486388 0.51639395938746258 962556.70298914018 31.378407082935198 -1.0904788075392207 3307.5576184428196
decision_type=2 2 2 2 2 2 2 2 2 2 2 2 2
left_child=1 8 12 7 6 -6 -3 -4 10 -5 -1 -10 -2
right_child=2 4 3 9 5 -7 -8 -9 11 -11 -12 -13 -14
leaf_value=0.0012072462425345464 -0.0089413020772698484 0.0021383944766294265 -0.00075524398287137354 -0.002815454646945 -0.0036606933892859767 0.0034857149766004416 0.0070226638472429704 0.0062380076565154621 -0.005492458709588287 -0.0080193212463742208 -0.0024222927868918134 -0.0030690380699104729 -0.0054691685358683271
leaf_weight=19.5 79.5 69.5 28.5 14.999999999999998 46.5 171.5 152 35 69 51 25.5 16.5 13.499999999999998
leaf_count=9 54 27 16 10 31 54 28 7 46 34 16 11 9
internal_value=0.000120765 0.00205181 -0.00479787 -0.00201862 0.00376218 0.00193766 0.00552379 0.00312354 -0.00367054 -0.0069551 -0.000818274 -0.00510875 -0.00855326
internal_weight=792.5 570 222.5 129.5 439.5 218 221.5 63.5 130.5 66 45 85.5 93
internal_count=352 222 130 67 140 85 55 23 82 44 25 57 63
is_linear=0
shrinkage=0.02


Tree=9
num_leaves=12
num_cat=0
split_feature=2 28 21 2 2 30 19 34 0 25 30
split_gain=16.3073 13.5558 6.6472 3.32375 4.78575 3.20245 2.29695 3.62734 1.16472 0.629596 0.0448857
threshold=955029.36524073815 -1.8351209175064496 118.53987638285277 932217.47705382493 940351.15984073735 1.3184334933059285 3307.707630040341 3308.8693859697337 0.51639395938746258 25.681890036760347 -1.3613506619837776
decision_type=2 2 2 2 2 2 2 2 2 2 2
left_child=1 8 6 5 -5 -3 -2 -8 9 -1 -10
right_child=2 3 -4 4 -6 -7 7 -9 10 -11 -12
leaf_value=-0.0036562769875312464 -0.00841004547308076 0.0027087795439220612 0.0051389830439698475 -0.003625570051597827 0.0034365882214597043 0.007614659035757621 -0.00031832937292816226 -0.0074869347617432871 -0.0051910638679296536 0.00098548907564397436 -0.0026721512741512722
leaf_weight=18 78 103.5 24 48 168.5 118 59 54 76.5 27 11.999999999999998
leaf_count=12 53 35 5 32 54 20 31 36 51 13 8
internal_value=0.000173352 0.0019423 -0.00450041 0.00364307 0.0018475 0.0053649 -0.00575264 -0.00381471 -0.00360139 -0.000886257 -0.00492197
internal_weight=786.5 571.5 215 438 216.5 221.5 191 113 133.5 45 88.5
internal_count=350 225 125 141 86 55 120 67 84 25 59
is_linear=0
shrinkage=0.02


Tree=10
num_leaves=12
num_cat=0
split_feature=2 28 21 2 2 0 19 34 0 25 29
split_gain=16.6139 12.8311 7.84655 2.89939 4.10043 2.70492 1.8633 3.7441 1.29322 0.432646 0.0582671
threshold=955029.36524073815 -1.8351209175064496 118.53987638285277 929250.6663411262 940351.15984073735 -0.78574730703237861 3307.707630040341 3308.8693859697337 0.51639395938746258 25.700819304024566 -1.0904788075392207
decision_type=2 2 2 2 2 2 2 2 2 2 2
left_child=1 8 6 5 -5 -3 -2 -8 9 -1 -10
right_child=2 3 -4 4 -6 -7 7 -9 10 -11 -12
leaf_value=-0.0030873669824666443 -0.0082095193335379683 0.007213403048921139 0.0047413453795015813 -0.003034795005796921 0.0032977844792539657 0.0025837510733172681 -0.00028156632943344967 -0.0075286747895605194 -0.0052485257235227846 0.0008503942594193575 -0.0028450307900255377
leaf_weight=16.5 85.5 116 30.5 51 182.5 96 54.5 60 75 27 14.999999999999998
leaf_count=11 58 20 7 33 58 33 28 40 50 13 10
internal_value=2.45108e-05 0.00183491 -0.00449692 0.00346523 0.0018956 0.00515921 -0.00594049 -0.00414467 -0.00356883 -0.000651919 -0.00492301
internal_weight=809.5 579 230.5 445.5 233.5 212 200 114.5 133.5 43.5 90
internal_count=361 228 133 144 91 53 126 68 84 24 60
is_linear=0
shrinkage=0.02


Tree=11
num_leaves=11
num_cat=0
split_feature=2 0 21 24 24 20 2 9 0 14
split_gain=17.2868 12.4075 4.18308 3.19488 2.18704 2.00397 3.77047 1.59462 0.267193 0.0601012
threshold=955029.36524073815 0.40966402954315223 118.53987638285277 82.868790427280643 81.075373537611625 3307.5576184428196 962406.74596153933 82.184472405508615 0.78574730703237894 -2.8750314690097274
decision_type=2 2 2 2 2 2 2 2 2 2
left_child=1 3 5 4 -1 -2 -7 -5 9 -3
right_child=2 8 -4 7 -6 6 -8 -9 -10 -11
leaf_value=0.0016959378998848348 -0.0081887738735247871 -0.0016072013243323281 0.0032629098196824391 0.00246998554754204 0.0057956195589448072 -0.0003472968928926573 -0.0071875634340272431 -0.0017056453227479427 -0.0052365201538444586 -0.0035463903629117544
leaf_weight=75 76.5 19.5 22.5 110.5 195.5 62 67.5 52.5 57 30
leaf_count=30 52 12 6 40 43 32 45 30 38 20
internal_value=-0.000101557 0.00184711 -0.00469743 0.00335175 0.0046819 -0.00559383 -0.00396943 0.00110963 -0.00422036 -0.00289142
internal_weight=768.5 540 228.5 433.5 270.5 206 129.5 163 106.5 49.5
internal_count=348 213 135 143 73 129 77 70 70 32
is_linear=0
shrinkage=0.02


Tree=12
num_leaves=11
num_cat=0
split_feature=2 28 22 2 2 30 19 2 12 27
split_gain=14.3444 10.909 5.65129 2.84321 3.5569 2.59044 2.36842 3.48412 0.602048 0.408446
threshold=955029.36524073815 -1.8928373758068815 97.224291893986091 932217.47705382493 939879.97999360645 1.3184334933059285 3307.707630040341 962514.86924537865 25.848702099613838 -2.4808652844484587
decision_type=2 2 2 2 2 2 2 2 2 2
left_child=1 8 6 5 -5 -3 -2 -8 -1 -10
right_child=2 3 -4 4 -6 -7 7 -9 9 -11
leaf_value=-0.0049276376167933147 -0.0081035544023675427 0.0022927140128481517 0.0053093321777525409 -0.0036256132033364529 0.0027662104780145119 0.007038670998480585 -0.00012155375730688291 -0.0073418212147320014 -0.0033879426876703899 0.00015246416098541683
leaf_weight=70.5 87 89.5 19.5 42 171.5 102 57.5 49.5 28.5 21
leaf_count=47 59 32 4 28 59 18 30 33 19 11
internal_value=-0.000246339 0.00152893 -0.00460127 0.00309958 0.00148298 0.00486601 -0.00564076 -0.00353553 -0.00372838 -0.00188643
internal_weight=738.5 525 213.5 405 213.5 191.5 194 107 120 49.5
internal_count=340 214 126 137 87 50 122 63 77 30
is_linear=0
shrinkage=0.02


Tree=13
num_leaves=10
num_cat=0
split_feature=2 28 2 31 0 21 25 2 2
split_gain=13.7204 11.963 4.77617 4.5963 2.15363 1.52634 1.30329 0.167203 0.00186366
threshold=962458.4493606576 -1.8351209175064496 932217.47705382493 2.6335515188583001 -0.78574730703237861 27.32339991650025 25.681890036760347 956115.24948820251 962619.29232193122
decision_type=2 2 2 2 2 2 2 2 2
left_child=1 5 4 -4 -3 7 -7 -1 -2
right_child=8 2 3 -5 -6 6 -8 -9 -10
leaf_value=-0.004734931572029988 -0.0048136482357978823 0.0067413882374187592 -0.0035217322607835133 0.002148324556392669 0.0025043731155991555 -0.0038316513263597723 0.00041708553058129768 -0.0077972799641745439 -0.0077946868357451063
leaf_weight=70.5 13.499999999999998 102 75 224 98.5 60 52.5 15.999999999999998 79
leaf_count=47 9 18 47 81 34 40 25 11 53
internal_value=-0.000288912 0.000672449 0.00232576 0.000708934 0.00470382 -0.00345382 -0.00185196 -0.00544736 -0.00746465
internal_weight=791 698.5 499.5 299 200.5 199 112.5 86.5 92.5
internal_count=365 303 180 128 52 123 65 58 62
is_linear=0
shrinkage=0.02


Tree=14
num_leaves=11
num_cat=0
split_feature=2 0 21 14 2 19 34 12 31 28
split_gain=15.8114 10.5553 3.96578 2.72307 1.89942 1.73866 3.27371 1.54067 0.229466 0.059577
threshold=955029.36524073815 0.46472317204376884 118.53987638285277 0.56651133260465592 933961.79279496009 3307.707630040341 3308.8693859697337 27.287961061847913 2.8945550112523168 -2.8060297951639623
decision_type=2 2 2 2 2 2 2 2 2 2
left_child=1 3 5 7 -5 -2 -7 -1 -3 -10
right_child=2 8 -4 4 -6 6 -8 -9 9 -11
leaf_value=0.0006757718760687317 -0.0076522940374996462 -0.0017579050167248797 0.0031754729847113289 0.0063145657538502048 0.0025067636628798655 -0.00036923450921192639 -0.0070517682711283359 0.0050954952766368924 -0.0025567898720502851 -0.0050195903848718713
leaf_weight=188 85.5 18 22.5 119 102.5 59 58.5 37 13.499999999999998 66
leaf_count=82 58 12 6 23 36 31 39 8 9 44
internal_value=-0.00013047 0.00171291 -0.00456821 0.00301751 0.00459017 -0.00545327 -0.00376004 0.00144033 -0.0041965 -0.00468116
internal_weight=769.5 544 225.5 446.5 221.5 203 117.5 225 97.5 79.5
internal_count=348 214 134 149 59 128 70 90 65 53
is_linear=0
shrinkage=0.02


Tree=15
num_leaves=11
num_cat=0
split_feature=2 0 21 2 2 22 19 34 31 12
split_gain=13.2472 10.1697 7.29872 2.44212 4.48135 2.68365 1.81662 3.23563 0.348765 0.114342
threshold=955029.36524073815 0.40966402954315223 118.53987638285277 929667.84895722091 940351.15984073735 39.258245967897402 3307.707630040341 3308.8693859697337 2.8945550112523168 25.795743251931878
decision_type=2 2 2 2 2 2 2 2 2 2
left_child=1 3 6 5 -5 -1 -2 -8 -3 -10
right_child=2 8 -4 4 -6 -7 7 -9 9 -11
leaf_value=-0.00072175174595704719 -0.0074953724293188115 -0.0011888114674223794 0.0052385797813290459 -0.0036116011862953505 0.0030896173002785202 0.0054314546392858036 0 -0.0068080849427925904 -0.0049357252070027545 -0.0027659146524312201
leaf_weight=32 85.5 21 29 49.5 181 198.5 54.5 55.5 57 27
leaf_count=16 58 13 6 33 58 44 28 37 38 17
internal_value=0.000198855 0.00183165 -0.00389365 0.00311303 0.00162786 0.00456945 -0.00528803 -0.00347664 -0.00374006 -0.00432244
internal_weight=790.5 566 224.5 461 230.5 230.5 195.5 110 105 84
internal_count=348 219 129 151 91 60 123 65 68 55
is_linear=0
shrinkage=0.02


Tree=16
num_leaves=14
num_cat=0
split_feature=2 28 11 22 2 2 30 19 28 9 23 28 2
split_gain=13.3462 9.90093 4.64946 4.28592 2.87258 3.30451 2.16328 1.27205 1.86905 0.684078 0.499478 0.393855 0.0302484
threshold=955029.36524073815 -1.8351209175064496 25.410479855130422 77.521872408486388 932217.47705382493 939879.97999360645 1.3184334933059285 3307.5576184428196 -1.2708809305129982 81.825036303743971 82.796839273748944 -2.157238220135524 932217.47705382493
decision_type=2 2 2 2 2 2 2 2 2 2 2 2 2
left_child=1 9 3 10 6 -6 -3 -4 -9 11 -2 -1 -11
right_child=2 4 7 -5 5 -7 -8 8 -10 12 -12 -13 -14
leaf_value=-0.0026871776901758633 -0.0069960385481516512 0.0026435088792751576 -0.0076570508267754826 0.0066910486394708814 -0.003587792584950897 0.0026064387518208382 0.0067042933708065557 -0.00048911854330404311 -0.0060460505476896314 -0.0033604264025406173 -0.0011146099004480574 0.0014821200045672328 -0.0048867092970758677
leaf_weight=18 13.500000000000002 114.5 75 26 42 162.5 105 39 67.5 45 11.999999999999998 14.999999999999998 46.5
leaf_count=12 9 37 51 4 28 56 18 20 45 30 7 6 31
internal_value=-0.000116808 0.00158414 -0.00411401 0.00113238 0.00304123 0.0013077 0.00462739 -0.00561066 -0.00406469 -0.00333942 -0.00451807 -0.000752029 -0.00422389
internal_weight=781.5 548.5 233 51.5 424 204.5 219.5 181.5 106.5 124.5 25.5 33 91.5
internal_count=354 218 136 20 139 84 55 116 65 79 16 18 61
is_linear=0
shrinkage=0.02


Tree=17
num_leaves=11
num_cat=0
split_feature=19 0 21 28 19 19 19 34 31 10
split_gain=12.5 10.1986 6.23779 2.16376 2.50409 1.98514 1.44553 2.81046 0.682852 0.215077
threshold=3270.7552430883611 0.29696027566504674 118.53987638285277 1.3660473355459113 3172.8595950630656 3205.0370486839342 3307.707630040341 3309.0927249454858 2.4104096649602265 80.689158653651376
decision_type=2 2 2 2 2 2 2 2 2 2
left_child=1 3 6 4 -1 -5 -2 -8 -3 -10
right_child=2 8 -4 5 -6 -7 7 -9 9 -11
leaf_value=-0.0034149740858683514 -0.0072773066157834562 0.00011384350700037819 0.0042774761244654663 0.0064117884897205921 0.0025781869226890915 0.0016830453679993235 -0.00060671050029416243 -0.0067721221129099516 -0.0010840463558832805 -0.0041447976957916634
leaf_weight=30 84 19.5 30.5 108 237 56.5 60.5 58.5 13.499999999999998 102
leaf_count=19 57 10 7 19 80 22 33 39 8 68
internal_value=-8.1219e-05 0.00152144 -0.00396287 0.00302317 0.00188203 0.00482956 -0.00523302 -0.00370077 -0.00324437 -0.00382263
internal_weight=800 566.5 233.5 431.5 267 164.5 203 119 135 115.5
internal_count=362 226 136 140 99 41 129 72 86 76
is_linear=0
shrinkage=0.02


Tree=18
num_leaves=11
num_cat=0
split_feature=2 28 21 21 2 19 2 10 16 2
split_gain=13.4804 9.86065 7.2466 3.16662 3.13928 1.09478 1.74883 0.820668 0.428744 0.160106
threshold=955029.36524073815 -1.8110621321822589 118.53987638285277 25.537891332121603 929250.6663411262 3307.5576184428196 962556.70298914018 80.050224183521166 -1.1936314476195076 939879.97999360645
decision_type=2 2 2 2 2 2 2 2 2 2
left_child=1 7 5 9 -5 -2 -7 -1 -9 -3
right_child=2 3 -4 4 -6 6 -8 8 -10 -11
leaf_value=0.00055989125087147677 -0.0074313380107283592 -0.0045355103015899652 0.0049515544938259441 0.0052353351105196766 0.0017142197853788944 -0.0018371494000382496 -0.0067295179285554799 -0.0042314598690353184 -0.00055318742328219945 -0.0010869698172642126
leaf_weight=19.5 78.5 16.500000000000004 29 202 210.5 64.5 57 100.5 16.5 11.999999999999998
leaf_count=9 53 11 6 44 80 38 38 67 10 8
internal_value=-7.39231e-05 0.00155213 -0.00416665 0.00300676 0.00345605 -0.00552574 -0.00420267 -0.00311455 -0.00374318 -0.00327711
internal_weight=806.5 577.5 229 441 412.5 200 121.5 136.5 117 28.5
internal_count=364 229 135 143 124 129 76 86 77 19
is_linear=0
shrinkage=0.02


Tree=19
num_leaves=12
num_cat=0
split_feature=2 28 21 29 2 2 20 2 0 25 29
split_gain=12.3013 10.1047 4.63131 2.25962 2.41344 1.79086 1.75594 3.29432 0.701388 0.283119 0.0553872
threshold=955029.36524073815 -1.8351209175064496 118.53987638285277 1.1256452915411093 932650.20179399312 925594.94772337156 3307.707630040341 962406.74596153933 0.51639395938746258 25.681890036760347 -1.0904788075392207
decision_type=2 2 2 2 2 2 2 2 2 2 2
left_child=1 8 6 5 -5 -3 -2 -8 9 -1 -10
right_child=2 3 -4 4 -6 -7 7 -9 10 -11 -12
leaf_value=-0.002834078977505366 -0.0070548384723229463 -0.0027555763494400754 0.0039683965797777535 0.0066516683711064775 0.0023083387543805516 0.0023982174122105528 0.00039207789434918331 -0.0062806004929164098 -0.0046810234549144901 0.00049413206643528413 -0.0023481234033902484
leaf_weight=16.5 85.5 30 25.5 110 102.5 181.5 54.5 61.5 70.5 21 13.499999999999998
leaf_count=11 58 17 6 18 36 62 27 41 47 11 9
internal_value=5.07812e-05 0.00168126 -0.00384396 0.00313937 0.00459686 0.00164354 -0.00486449 -0.00316359 -0.00336708 -0.000971678 -0.00437726
internal_weight=772.5 545.5 227 424 212.5 211.5 201.5 116 121.5 37.5 84
internal_count=343 211 132 133 54 79 126 68 78 22 56
is_linear=0
shrinkage=0.02


Tree=20
num_leaves=9
num_cat=0
split_feature=28 2 28 2 19 23 22 13
split_gain=11.6041 6.72863 4.91193 2.37243 2.34322 0.737137 0.375041 0.325692
threshold=1.3660473355459113 962458.4493606576 -2.1885172185183639 935293.58171792142 3308.4968492937901 83.930116927970388 45.48663720651296 2.5774123418880199
decision_type=2 2 2 2 2 2 2 2
left_child=1 2 5 6 -4 -1 -2 -5
right_child=3 -3 4 7 -6 -7 -8 -9
leaf_value=-0.0045888634168823649 0.0038647052703365205 -0.0065568927792941821 0.00013097436150067112 -0.00056681125859419507 0.0054527070228367639 -0.001018429994367171 0.0070902948203993722 0.0023941257463113682
leaf_weight=103 29.5 83.5 366 22.5 35 33 80 35.5
leaf_count=69 7 56 164 12 7 20 11 12
internal_value=-6.10602e-05 -0.00132613 -0.000493064 0.00458369 0.000619023 -0.00375761 0.00630329 0.00122654
internal_weight=788 620.5 537 167.5 401 136 109.5 58
internal_count=358 316 260 42 171 89 18 24
is_linear=0
shrinkage=0.02


Tree=21
num_leaves=15
num_cat=0
split_feature=2 28 11 22 29 2 9 20 34 12 25 24 29 2
split_gain=10.747 9.36748 4.69374 3.76556 2.3298 2.16226 1.44781 1.10077 1.69243 0.512113 0.299183 0.234115 0.0388802 0.0143732
threshold=955029.36524073815 -1.8351209175064496 25.410479855130422 77.521872408486388 1.1256452915411093 932650.20179399312 83.540062847005117 3307.707630040341 3308.8693859697337 25.848702099613838 25.626799366528815 82.857610669655486 -1.2664102462031717 957762.23848687171
decision_type=2 2 2 2 2 2 2 2 2 2 2 2 2 2
left_child=1 9 3 11 6 -6 -3 13 -9 12 -11 -2 -1 -4
right_child=2 4 7 -5 5 -7 -8 8 -10 10 -12 -13 -14 -15
leaf_value=-0.0044767026688701424 -0.0058430163383483879 0.0020897500720355434 -0.0041283566986139008 0.0060157555946936982 0.0063109939316995283 0.0022865461353254739 -0.0025582439331781298 -0.00058601363596095829 -0.0058501420711216173 -0.0034058153394195766 -0.00039525386691093451 -0.001522332669408233 -0.0022021762993600633 -0.0071659672572694979
leaf_weight=63 13.500000000000002 173 11.499999999999998 31 113 109 30 45 55.5 21 37.5 11.999999999999998 11.999999999999998 71
leaf_count=42 9 61 8 5 19 38 18 24 37 14 21 7 8 48
internal_value=-1.22167e-05 0.00150505 -0.00354603 0.00143647 0.00295744 0.00437258 0.00137935 -0.00509436 -0.00355596 -0.00308535 -0.00156743 -0.00408136 -0.00418924 -0.00684763
internal_weight=798 558.5 239.5 56.5 425 222 203 183 100.5 133.5 58.5 25.5 75 82.5
internal_count=359 221 138 21 136 57 79 117 61 85 35 16 50 56
is_linear=0
shrinkage=0.02


Tree=22
num_leaves=12
num_cat=0
split_feature=2 28 21 2 2 2 19 2 0 25 2
split_gain=11.0907 8.15591 4.46085 2.11506 3.32342 2.76936 1.4109 2.56307 0.838474 0.421533 0.0570048
threshold=955029.36524073815 -1.8351209175064496 127.26647111369276 932217.47705382493 939879.97999360645 925594.94772337156 3307.8080879886775 962458.4493606576 0.51639395938746258 25.681890036760347 932217.47705382493
decision_type=2 2 2 2 2 2 2 2 2 2 2
left_child=1 8 6 5 -5 -3 -2 -8 9 -1 -10
right_child=2 3 -4 4 -6 -7 7 -9 10 -11 -12
leaf_value=-0.0029303219434287813 -0.0066169893153445423 0.00060301411449909209 0.0041086862788480873 -0.003425854534573025 0.0026675160152821531 0.0058441827635290801 0.00018333138395281671 -0.005838276536218703 -0.0030569210158454046 0.00095927355686823519 -0.0047005014047827778
leaf_weight=16.5 93 58.5 24 43.5 172 138 50 61.5 43.5 27 45
leaf_count=11 63 24 5 29 56 25 25 41 29 13 30
internal_value=-0.000127067 0.00142356 -0.00381263 0.00281039 0.00141314 0.00431032 -0.00477512 -0.00315372 -0.00287297 -0.000520144 -0.00397928
internal_weight=772.5 544 228.5 412 215.5 196.5 204.5 111.5 132 43.5 88.5
internal_count=351 217 134 134 85 49 129 66 83 24 59
is_linear=0
shrinkage=0.02


Tree=23
num_leaves=12
num_cat=0
split_feature=5 28 21 5 5 5 19 34 0 25 5
split_gain=10.3456 7.58648 3.97974 2.02184 3.16873 2.07035 1.65627 2.80886 0.67562 0.303516 0.0315221
threshold=3282.9590181071881 -1.8928373758068815 118.53987638285277 3204.5420638553137 3230.8822833742051 3181.7768032472159 3307.8080879886775 3309.0927249454858 0.51639395938746258 25.681890036760347 3222.9016460273597
decision_type=2 2 2 2 2 2 2 2 2 2 2
left_child=1 8 6 5 -5 -3 -2 -8 9 -1 -10
right_child=2 3 -4 4 -6 -7 7 -9 10 -11 -12
leaf_value=-0.0025363664262824585 -0.0064543465878913013 0.0013877728277637113 0.0037073026498158773 -0.0033794789925217627 0.0025772213357074442 0.0055605019228102048 0.00024833700060844423 -0.0059826919388126674 -0.0030229815734970954 0.00087365153369804217 -0.004514180340937206
leaf_weight=16.5 93 76 25.5 43.5 170 139 59 54 45 22.5 40.5
leaf_count=11 63 28 6 29 56 26 30 36 30 11 27
internal_value=-1.25312e-06 0.00148218 -0.00354014 0.00274586 0.00133915 0.00411456 -0.00446723 -0.00275122 -0.00283215 -0.000560172 -0.00381798
internal_weight=784.5 553 231.5 428.5 213.5 215 206 113 124.5 39 85.5
internal_count=353 218 135 139 85 54 129 66 79 22 57
is_linear=0
shrinkage=0.02


Tree=24
num_leaves=13
num_cat=0
split_feature=2 0 19 2 10 27 10 28 29 2 23 29
split_gain=10.235 7.88476 2.82317 3.86325 1.66975 1.41849 1.29914 1.05727 0.456775 0.336666 0.218014 0.0124225
threshold=955029.36524073815 0.12053668025532312 3307.8080879886775 962331.14875402476 84.034226969006298 1.0875024565451603 85.840671989299139 -1.1138919911380893 -0.29493833003097808 962556.70298914018 82.215960440446381 -2.7443872796854158
decision_type=2 2 2 2 2 2 2 2 2 2 2 2
left_child=1 4 11 7 5 -1 -6 -4 10 -5 -3 -2
right_child=2 8 3 9 6 -7 -8 -9 -10 -11 -12 -13
leaf_value=0.0017817976687031273 -0.0039137582337414782 -0.0041882417157292368 0.003359708883589314 -0.0021785721847644218 -0.0036308127286141384 0.004318388604948287 0.0034728233627974985 -0.0025170739622730198 0 -0.0058271745045979815 -0.0022598505590775216 -0.0067270978494123976
leaf_weight=179 11.999999999999998 58.5 45 18 27 187.5 14.499999999999998 14.999999999999998 19.5 52.5 63 81
leaf_count=66 8 39 14 12 17 46 4 10 11 35 39 55
internal_value=-0.0002099 0.0012567 -0.00380567 -0.00185193 0.00266637 0.00309726 -0.00106774 0.00183243 -0.00279343 -0.00498819 -0.00324435 -0.00645314
internal_weight=772.5 549 223.5 130.5 408 366.5 41.5 60 141 70.5 121.5 93
internal_count=356 222 134 71 133 112 21 24 89 47 78 63
is_linear=0
shrinkage=0.02


Tree=25
num_leaves=9
num_cat=0
split_feature=2 28 2 31 2 16 1 2
split_gain=8.81525 7.75364 3.35065 3.1346 2.2254 0.968788 0.392726 0.240223
threshold=962331.14875402476 -1.8928373758068815 932217.47705382493 2.779338890378138 925594.94772337156 -1.1113881798914762 0.74851074817110097 962556.70298914018
decision_type=2 2 2 2 2 2 2 2
left_child=1 5 4 -4 -3 6 -1 -2
right_child=7 2 3 -5 -6 -7 -8 -9
leaf_value=-0.004294752703181335 -0.0027907401008738409 0.0011227682986796298 -0.0021863973853201726 0.0021398326199063484 0.005463323119080936 0.00072390597815416308 -0.001680928049179224 -0.0061511676411474901
leaf_weight=96.5 16.5 74 98 202.5 141 23 37.5 76
leaf_count=64 11 28 56 69 26 12 23 51
internal_value=0.000107784 0.000910335 0.00209724 0.000718475 0.00399673 -0.00295714 -0.00360474 -0.00562712
internal_weight=765 672.5 515.5 300.5 215 157 134 92.5
internal_count=340 278 179 125 54 99 87 62
is_linear=0
shrinkage=0.02


Tree=26
num_leaves=14
num_cat=0
split_feature=2 0 19 2 10 27 23 28 0 2 21 13 19
split_gain=11.8031 7.5685 2.58987 3.62962 1.59557 1.56538 1.37884 1.10651 0.473461 0.339998 0.243161 0.0393895 0.00886472
threshold=955571.09942961263 0.29696027566504674 3307.8080879886775 962331.14875402476 83.708737436559133 -0.069445796152676334 84.268364260423638 -1.5129502023494881 0.70581670320594825 962556.70298914018 20.52859382275139 -1.9088189198401515 3307.5576184428196
decision_type=2 2 2 2 2 2 2 2 2 2 2 2 2
left_child=1 4 12 7 5 -1 -6 -4 10 -5 -3 -10 -2
right_child=2 8 3 9 6 -7 -8 -9 11 -11 -12 -13 -14
leaf_value=0.0013776681503757488 -0.0068397728637525227 -0.0028161269675428965 0.0035650769564104672 -0.0020868309736251831 -0.0030593592298753338 0.0041474425329693729 0.0035349468501602731 -0.0023782973711689312 -0.0042618624176297875 -0.0056986299111292903 -0.00018767836570739746 -0.0023396256963411966 -0.0041342430035273235
leaf_weight=127.5 77 24 39 18 31.5 250.5 19 16.5 51 57 36 18 13.499999999999998
leaf_count=49 52 16 11 12 19 62 5 11 34 38 20 12 9
internal_value=-4.52051e-05 0.00150297 -0.00394347 -0.00207945 0.00278228 0.0032276 -0.00050947 0.00174695 -0.00271433 -0.00491586 -0.00131462 -0.00384923 -0.00653191
internal_weight=778.5 557.5 221 130.5 428.5 378 50.5 55.5 129 75 60 69 90.5
internal_count=350 217 133 72 135 111 24 22 82 50 36 46 61
is_linear=0
shrinkage=0.02


Tree=27
num_leaves=11
num_cat=0
split_feature=2 28 21 9 20 34 24 10 15 16
split_gain=8.84841 6.66784 3.02444 2.18252 1.29377 2.01506 0.989579 0.625287 0.570603 0.426511
threshold=955029.36524073815 -1.8351209175064496 118.53987638285277 83.540062847005117 3307.707630040341 3309.0927249454858 81.075373537611625 80.050224183521166 1.0581364951365171 -1.1936314476195076
decision_type=2 2 2 2 2 2 2 2 2 2
left_child=1 7 4 6 -2 -6 -3 -1 -5 -9
right_child=2 3 -4 8 5 -7 -8 9 -10 -11
leaf_value=0.00051581015984217325 -0.0060315780387870188 0.00093474979036384156 0.003585396019617717 -0.0028492118134237237 -0.0001229356552564329 -0.0054759887280287564 0.0036348221206809806 -0.0036601193423072493 0.0009522521841910577 -0.00017008695235619178
leaf_weight=21 85.5 70.5 21 30 60.5 52.5 297 94.5 29.5 18
leaf_count=10 58 28 5 19 32 35 78 63 12 11
internal_value=0 0.00133271 -0.00339096 0.00255325 -0.00416036 -0.0026666 0.00312817 -0.00254135 -0.000954596 -0.00312884
internal_weight=780 560.5 219.5 427 198.5 113 367.5 133.5 59.5 112.5
internal_count=351 221 130 137 125 67 106 84 31 74
is_linear=0
shrinkage=0.02


Tree=28
num_leaves=12
num_cat=0
split_feature=2 22 2 34 2 30 21 31 11 26 29
split_gain=9.87223 5.84657 4.38614 3.22325 3.49769 0.753682 0.58547 0.251611 0.196108 0.155233 0.0535912
threshold=929667.84895722091 38.938908690466725 962406.74596153933 3307.6418053821476 955571.09942961263 1.3184334933059285 118.53987638285277 2.2805368346188866 26.318788791849911 26.426997773588031 -2.1387154832774118
decision_type=2 2 2 2 2 2 2 2 2 2 2
left_child=1 8 3 4 -2 7 -5 -3 10 -7 -1
right_child=2 5 -4 6 -6 9 -8 -9 -10 -11 -12
leaf_value=-0.001895340380072594 -0.00054205791935190307 0.0049083983077377576 -0.0057137265529246684 0.001558249174639946 -0.0054785786786904697 0.0042383235191044057 0.0055517684069546795 0.0024368550330400468 -0.00039375417983090441 0.0065707214251667454 -0.0042776208601745906
leaf_weight=13.499999999999995 300 29 85 39.5 70 36.5 26 67.5 11.999999999999998 72 24.000000000000004
leaf_count=9 150 5 57 17 47 8 4 21 7 9 16
internal_value=-1.51912e-05 0.00319933 -0.00159545 -0.000770222 -0.00149973 0.00468694 0.00326212 0.00326377 -0.00287892 0.00587277 -0.00357717
internal_weight=775 254.5 520.5 435.5 370 205 65.5 96.5 49.5 108.5 37.5
internal_count=350 75 275 218 197 43 21 26 32 17 25
is_linear=0
shrinkage=0.02


Tree=29
num_leaves=10
num_cat=0
split_feature=2 22 2 28 31 0 23 2 21
split_gain=8.15763 6.2049 4.47714 3.17112 2.94439 0.78089 0.698372 0.66609 0.219604
threshold=929667.84895722091 38.938908690466725 962514.86924537865 -1.8573890276424792 2.6335515188583001 -0.91023613416931226 82.018806126893992 925594.94772337156 36.24739964913158
decision_type=2 2 2 2 2 2 2 2 2
left_child=1 8 3 6 -5 -3 -2 -7 -1
right_child=2 5 -4 4 -6 7 -8 -9 -10
leaf_value=-0.0037785329588112377 -0.0047756468441860741 0.0058398837157111749 -0.005660252451896667 -0.0026606214895234471 0.001683264530342801 0.00042550709894147973 -0.0017901353691733861 0.004042245542347743 -0.00069182748324943309
leaf_weight=40.5 59 92 82 84 228.5 28 78 94 14.999999999999998
leaf_count=27 40 14 55 51 83 12 48 21 9
internal_value=3.02763e-05 0.00285794 -0.00140376 -0.000606596 0.000502126 0.00440193 -0.0031281 0.00324362 -0.00301954
internal_weight=801 269.5 531.5 449.5 312.5 214 137 122 55.5
internal_count=360 83 277 222 134 47 88 33 36
is_linear=0
shrinkage=0.02


Tree=30
num_leaves=14
num_cat=0
split_feature=5 27 19 5 5 5 0 5 24 5 31 1 19
split_gain=8.47977 6.45582 2.49454 3.52316 1.57613 2.06262 1.40815 1.04245 0.961539 0.910359 0.110679 0.029382 0.00298832
threshold=3284.8212552336181 -0.74477730315026414 3307.8080879886775 3308.3191163919764 3191.4980887443776 3232.5019865839581 0.51639395938746258 3185.8979265071971 83.328658582567144 3180.4180847561879 2.8945550112523168 0.78574730703237883 3307.5576184428196
decision_type=2 2 2 2 2 2 2 2 2 2 2 2 2
left_child=1 6 12 8 7 -6 9 -3 -4 -1 -8 -5 -2
right_child=2 4 3 11 5 -7 10 -9 -10 -11 -12 -13 -14
leaf_value=-0.0034417137795438374 -0.0064528551913322282 0.0027852430498402424 -0.00092793451824731989 -0.0054154708522061515 -0.0030045009189181861 0.0026548433076831503 -0.00096134389385029123 0.0060713325380547644 0.0040210582410943685 0.00089256719150464638 -0.003438631408047258 -0.0028747266332308451 -0.0038978895266850791
leaf_weight=22.5 69 89 27 46.5 30 137.5 11.999999999999998 80 33 99 84 11.999999999999998 13.499999999999998
leaf_count=15 47 25 16 31 19 42 8 11 9 43 56 8 9
internal_value=1.52209e-05 0.00129501 -0.00348576 -0.00157059 0.0030274 0.00161172 -0.00137844 0.00439225 0.00179318 4.14786e-05 -0.00316904 -0.00501252 -0.00613565
internal_weight=755 554 201 118.5 336.5 167.5 217.5 169 60 121.5 96 58.5 82.5
internal_count=339 219 120 64 97 61 122 36 25 58 64 39 56
is_linear=0
shrinkage=0.02


Tree=31
num_leaves=13
num_cat=0
split_feature=2 0 19 2 2 2 2 29 0 2 23 1
split_gain=7.35015 5.74068 2.7659 3.74086 1.46577 2.72038 1.794 1.0028 0.36009 0.269003 0.129605 0.0404335
threshold=955571.09942961263 0.29696027566504674 3307.8080879886775 962331.14875402476 929250.6663411262 940351.15984073735 925594.94772337156 0.88948022619222111 0.70581670320594825 962556.70298914018 81.235507165503208 -0.46472317204376873
decision_type=2 2 2 2 2 2 2 2 2 2 2 2
left_child=1 4 -2 7 6 -6 -1 -4 10 -5 -3 -10
right_child=2 8 3 9 5 -7 -8 -9 11 -11 -12 -13
leaf_value=0.0010207932901072812 -0.0060473195986314255 -0.0026464958313183909 0.0038102011503754088 -0.002005272856780461 -0.0028687395139359961 0.002481057571284976 0.0049353968467854212 -0.0016002286059352067 -0.0017169198526276481 -0.0051914733681413866 -0.00055244379927372111 -0.0038187246822022104
leaf_weight=75.5 81 18 44 19.5 49.5 146.5 133 18 11.999999999999998 52.5 42 54
leaf_count=29 55 12 12 13 31 46 24 11 8 35 25 36
internal_value=-4.63819e-05 0.00121531 -0.00315563 -0.00134532 0.00237759 0.00110831 0.00354482 0.00220724 -0.00248436 -0.00441429 -0.00126241 -0.00351285
internal_weight=745.5 530.5 215 134 404.5 196 208.5 62 126 72 60 66
internal_count=337 211 126 71 130 77 53 23 81 48 37 44
is_linear=0
shrinkage=0.02


Tree=32
num_leaves=10
num_cat=0
split_feature=2 28 21 2 2 34 2 10 16
split_gain=8.05229 6.76321 3.86048 1.49613 2.08429 0.714967 1.88805 0.593035 0.422175
threshold=955571.09942961263 -1.8351209175064496 118.53987638285277 916879.24193357478 929250.6663411262 3307.4722733007352 962556.70298914018 80.050224183521166 -1.1936314476195076
decision_type=2 2 2 2 2 2 2 2 2
left_child=1 7 5 -3 -5 -2 -7 -1 -9
right_child=2 3 -4 4 -6 6 -8 8 -10
leaf_value=0.00064809815656571162 -0.0059225758304746121 -0.0033447855819355356 0.0034011146202683452 0.0042834294988330166 0.0014485691744547621 -0.00059358509217317284 -0.0053349554642041523 -0.0034780004709815057 -4.0908633134303945e-05
leaf_weight=19.5 62 14.999999999999998 30.5 199 226 63.5 73.5 102 18
leaf_count=9 42 9 7 42 85 35 49 68 11
internal_value=9.1394e-05 0.00134944 -0.00306473 0.00256668 0.00279104 -0.00408373 -0.00318198 -0.00246213 -0.00298577
internal_weight=809 579.5 229.5 440 425 199 137 139.5 120
internal_count=357 224 133 136 127 126 84 88 79
is_linear=0
shrinkage=0.02


Tree=33
num_leaves=11
num_cat=0
split_feature=5 29 5 34 5 23 1 0 25 5
split_gain=6.55173 4.26826 3.84977 2.40019 3.58354 1.79773 0.877069 0.515303 0.468675 0.0807391
threshold=3195.7775956020723 0.2907162347693813 3308.496849293791 3307.6418053821476 3284.8212552336181 83.592576703816135 1.0000000180025095e-35 -0.95297903005573326 26.502624020915178 3167.9331475847443
decision_type=2 2 2 2 2 2 2 2 2 2
left_child=1 5 3 4 -2 9 -5 -3 -9 -1
right_child=2 7 -4 6 -6 -7 -8 8 -10 -11
leaf_value=-0.0048771782643867272 -0.00016827729756856873 0.0058074899803508403 -0.0052006091999180735 0.0039299284072048897 -0.0049630959397414702 0.0024505694261619023 -0.0015149094382921856 0.0014248218949024494 0.0044498216987641391 -0.0025477682836850487
leaf_weight=14.999999999999998 287.5 70 85 55 78.5 33.5 13.499999999999998 37.5 59 36
leaf_count=10 138 10 57 14 53 10 9 13 11 24
internal_value=-6.01583e-05 0.00258128 -0.00134398 -0.000569639 -0.00121818 -0.00104936 0.00281882 0.00442868 0.00333451 -0.00339076
internal_weight=770.5 251 519.5 434.5 366 84.5 68.5 166.5 96.5 51
internal_count=349 78 271 214 191 44 23 34 24 34
is_linear=0
shrinkage=0.02


Tree=34
num_leaves=9
num_cat=0
split_feature=2 28 32 12 2 21 25 1
split_gain=6.13592 5.64915 2.47675 2.08562 1.43063 0.77537 0.821147 0.0882043
threshold=962458.4493606576 -1.8351209175064496 2.6297517167621964 27.287961061847913 934403.47357291461 27.32339991650025 25.681890036760347 0.56806474673115548
decision_type=2 2 2 2 2 2 2 2
left_child=1 5 3 -3 -4 7 -7 -1
right_child=-2 2 4 -5 -6 6 -8 -9
leaf_value=-0.0041068537431103846 -0.005057403352681328 -0.0021986500577887104 0.0038295384339067373 0.0032886597212258874 0.0013753114009284538 -0.0027309341945541583 0.00066088588095846628 -0.0015963913191247869
leaf_weight=68.5 83.5 96.5 176.5 37 217.5 60 51 11.999999999999998
leaf_count=46 56 55 40 9 81 40 24 8
internal_value=2.21772e-05 0.000624163 0.00169376 -0.000643365 0.00249014 -0.00230201 -0.00116672 -0.00379306
internal_weight=802.5 719 527.5 133.5 394 191.5 111 80.5
internal_count=359 303 185 64 121 118 64 54
is_linear=0
shrinkage=0.02


Tree=35
num_leaves=10
num_cat=0
split_feature=2 28 2 0 0 23 30 32 2
split_gain=6.49614 4.96964 3.30268 2.77904 1.68149 0.313808 0.26981 0.155254 0.1243
threshold=962331.14875402476 -2.1885172185183639 929250.6663411262 -0.51639395938746191 -0.78574730703237861 83.930116927970388 -2.7548402933585909 4.0538114700558117 930508.84833992214
decision_type=2 2 2 2 2 2 2 2 2
left_child=1 5 4 -4 -3 8 -2 -7 -1
right_child=6 2 3 -5 -6 7 -8 -9 -10
leaf_value=-0.0022407938631044499 -0.0013380164923491302 0.005035193503864349 -0.001999862799944822 0.0016634344716007128 0.0015021820743590739 0.00037234178727323358 -0.0050014334404268742 -0.0023836404204368592 -0.0041654054733504236
leaf_weight=34.5 11.999999999999998 122.5 126.5 232.5 102 15.000000000000002 88 13.499999999999998 55
leaf_count=23 8 20 69 87 35 8 59 9 37
internal_value=0.000119283 0.000804376 0.00156428 0.000364109 0.00345947 -0.002909 -0.0046078 -0.000920366 -0.00349466
internal_weight=801.5 701.5 583.5 359 224.5 118 100 28.5 89.5
internal_count=355 288 211 156 55 77 67 17 60
is_linear=0
shrinkage=0.02


Tree=36
num_leaves=10
num_cat=0
split_feature=27 5 21 0 5 5 0 5 5
split_gain=6.53438 3.47116 3.31087 2.0761 1.63133 1.00885 0.469282 0.421598 0.102877
threshold=1.0875024565451603 3308.496849293791 23.618055666875005 -0.85421994577343319 3210.5382324562052 3270.15464781018 -0.35460488704253573 3185.8979265071971 3286.6917970274835
decision_type=2 2 2 2 2 2 2 2 2
left_child=1 2 8 -4 7 6 -6 -2 -1
right_child=4 -3 3 -5 5 -7 -8 -9 -10
leaf_value=-0.0030984426192596725 0.0029996262943744662 -0.0048504473699665642 -0.0038289307626309223 0.00095012788169714861 0.00091867981249323257 -0.0029876502446639229 0.0044049333260983842 0.0057542305340732092 -0.0052747592424091539
leaf_weight=85.5 48.5 80.5 39 348 50.5 18 23 67 17.5
leaf_count=57 12 54 25 144 19 12 4 9 12
internal_value=6.29724e-05 -0.00103938 -0.000396311 0.000450445 0.0030963 0.00104767 0.00210256 0.00466792 -0.00355775
internal_weight=777.5 570.5 490 387 207 91.5 73.5 115.5 103
internal_count=348 292 238 169 56 35 23 21 69
is_linear=0
shrinkage=0.02


Tree=37
num_leaves=11
num_cat=0
split_feature=2 2 2 30 19 2 28 2 10 25
split_gain=6.52836 3.12935 3.11125 2.89807 2.36583 3.1165 0.580612 0.415191 0.283351 0.221443
threshold=930087.24185297696 962458.4493606576 925199.68964952091 1.0226745182934287 3308.319116391976 955571.09942961263 1.4631169966749498 962258.08521709184 79.874997409875235 26.135913086117871
decision_type=2 2 2 2 2 2 2 2 2 2
left_child=2 4 3 9 5 -2 8 -6 -4 -1
right_child=1 -3 6 -5 7 -7 -8 -9 -10 -11
leaf_value=-0.0011429630617300669 -0.00023921574331266251 -0.0047438929775221782 0.00090734372039635966 0.0031760771415450355 0.0043950131833553324 -0.0046682309257837888 0.0056540540837917196 0.00096907480136822839 0.0037017639935880472 -0.0041394353369489699
leaf_weight=18 294.5 86.5 22.5 53.5 34.5 80 72 28 67.5 37.5
leaf_count=11 142 58 8 13 8 54 9 12 17 25
internal_value=2.26928e-06 -0.0012989 0.00251644 -8.18237e-05 -0.000598542 -0.0012055 0.0042616 0.00295013 0.00305134 -0.00325835
internal_weight=794.5 523.5 271 109 437 374.5 162 62.5 90 55.5
internal_count=357 274 83 49 216 196 34 20 25 36
is_linear=0
shrinkage=0.02


Tree=38
num_leaves=12
num_cat=0
split_feature=2 28 11 22 10 19 22 28 9 10 16
split_gain=6.03644 5.26625 2.7267 2.28118 1.22718 0.822167 0.812763 0.681678 0.557382 0.474359 0.121536
threshold=955571.09942961263 -1.8351209175064496 25.410479855130422 77.521872408486388 83.354740097629303 3307.5576184428196 22.117933239034592 -1.2708809305129982 82.567289392403964 80.050224183521166 -1.1936314476195076
decision_type=2 2 2 2 2 2 2 2 2 2 2
left_child=1 9 3 -2 6 -4 -3 -7 -6 -1 -11
right_child=2 4 5 -5 8 7 -8 -9 -10 10 -12
leaf_value=0.0004486143451470596 -0.0029912855706962882 -0.00250513885418574 -0.0056711146282635138 0.0053010249744762077 0.0015387428753799008 -0.00046454342588400237 0.0027855811915209329 -0.00386462875612739 -0.0021453714433355611 -0.0031661711769799396 -0.00069075622161229454
leaf_weight=18 24 10.499999999999998 68 26 29.5 37.5 353 72 33 97.5 11.999999999999998
leaf_count=8 15 7 46 4 10 20 100 48 19 65 8
internal_value=-2.00959e-05 0.00110466 -0.00275463 0.00131069 0.00217336 -0.00391235 0.00261761 -0.00274025 -0.000379911 -0.00243433 -0.00292591
internal_weight=781 553.5 227.5 50 426 177.5 363.5 109.5 62.5 127.5 109.5
internal_count=350 217 133 19 136 114 107 68 29 81 73
is_linear=0
shrinkage=0.02


Tree=39
num_leaves=13
num_cat=0
split_feature=5 29 19 34 24 17 29 25 11 28 5 33
split_gain=6.35463 4.26745 2.20697 2.98703 1.69602 1.38343 1.05688 0.716553 0.570647 0.562021 0.373721 0.251839
threshold=3284.8212552336181 0.2907162347693813 3307.8080879886775 3308.1882689900635 83.033531480175455 2.9808011355983299 0.88948022619222111 26.694181783970844 27.144690199991988 -0.76371836203609289 3229.2704557054217 3309.0891933755638
decision_type=2 2 2 2 2 2 2 2 2 2 2 2
left_child=1 5 -2 6 7 9 -4 -3 -6 -1 -7 -5
right_child=2 4 3 11 8 10 -8 -9 -10 -11 -12 -13
leaf_value=-0.00053146209658095332 -0.005293098115672668 0.0021616964123851467 0.0042124183464050296 -0.0017043979097815121 -0.0024912896667207991 -0.0026729078617144897 -0.001381608710402534 0.0043666014707957699 0.0017147327661514282 0.0029638011429780797 -0.0007875581468724034 -0.0044685099298118524
leaf_weight=31.5 94.5 139 36 24 30 102 19.5 118.5 20 39 80 57
leaf_count=15 64 42 8 16 19 65 12 24 6 10 43 38
internal_value=-0.000177022 0.000971978 -0.00295938 -0.00128926 0.00255049 -0.000946206 0.00222723 0.00320352 -0.000769104 0.00139577 -0.00186829 -0.00371964
internal_weight=791 560 231 136.5 307.5 252.5 55.5 257.5 50 70.5 182 81
internal_count=362 224 138 74 91 133 20 66 25 25 108 54
is_linear=0
shrinkage=0.02


Tree=40
num_leaves=10
num_cat=0
split_feature=2 28 21 2 2 19 2 10 16
split_gain=5.58186 4.76622 3.07066 1.74193 1.61184 0.694219 0.781537 0.498701 0.337788
threshold=955571.09942961263 -1.8351209175064496 118.53987638285277 916879.24193357478 932217.47705382493 3307.5576184428196 962556.70298914018 80.050224183521166 -1.1936314476195076
decision_type=2 2 2 2 2 2 2 2 2
left_child=1 7 5 -3 -5 -2 -7 -1 -9
right_child=2 3 -4 4 -6 6 -8 8 -10
leaf_value=0.00072621937805698031 -0.0052530900420044825 -0.0045406824270884192 0.003094290714710951 0.003661427119976194 0.0011199390927352103 -0.0010512548921284852 -0.0043110273974573511 -0.0030457497170998478 0
leaf_weight=19.5 68 13.499999999999998 30.5 201.5 206 66 57 100.5 18
leaf_count=9 46 9 7 44 80 38 38 67 11
internal_value=2.24936e-05 0.00108977 -0.00265124 0.00214804 0.00239036 -0.00359608 -0.00261169 -0.00211276 -0.00259984
internal_weight=780.5 559 221.5 421 407.5 191 123 138 118.5
internal_count=349 220 129 133 124 122 76 87 78
is_linear=0
shrinkage=0.02


Tree=41
num_leaves=13
num_cat=0
split_feature=2 28 19 2 2 2 2 28 0 9 33 2
split_gain=4.97214 4.22724 2.12344 2.58197 1.01552 2.47203 1.24388 0.739196 0.386209 0.193533 0.162471 0.0206662
threshold=955571.09942961263 -1.8351209175064496 3307.8080879886775 962331.14875402476 932217.47705382493 939879.97999360645 925594.94772337156 -1.1138919911380893 0.70581670320594825 82.184472405508615 3309.0891933755638 938018.13389962201
decision_type=2 2 2 2 2 2 2 2 2 2 2 2
left_child=1 8 -2 7 6 -6 -3 -4 9 -1 -5 -10
right_child=2 4 3 10 5 -7 -8 -9 11 -11 -12 -13
leaf_value=0.0002915631135304769 -0.0051030156002955483 0.00060360392950531232 0.0030129170587658884 -0.0017675103161070081 -0.003366542400984929 0.0019529781592028093 0.0040495037683879083 -0.0018498200783223818 -0.0023709891885519033 -0.0018287969100578077 -0.0042569990323649519 -0.0037710788891865661
leaf_weight=25.5 87.5 65 48.5 21 42 174 128 14.999999999999998 33 42 52.5 37.5
leaf_count=14 59 24 14 14 28 59 25 10 22 27 35 25
internal_value=-0.000190672 0.000835555 -0.0026889 -0.00109403 0.00185835 0.000893347 0.00291286 0.00181729 -0.00216883 -0.00100986 -0.00362196 -0.00320654
internal_weight=771.5 547 224.5 137 409 216 193 63.5 138 67.5 73.5 70.5
internal_count=356 224 132 73 136 87 49 24 88 41 49 47
is_linear=0
shrinkage=0.02


Tree=42
num_leaves=9
num_cat=0
split_feature=5 28 5 5 5 24 30 0
split_gain=4.41827 3.50417 1.59501 2.28748 1.87045 0.176531 0.158098 0.129452
threshold=3308.05924738356 -2.1885172185183639 3195.7775956020723 3230.8822833742051 3180.4180847561879 84.014568241294583 -2.7548402933585909 0.78574730703237894
decision_type=2 2 2 2 2 2 2 2
left_child=1 5 4 -4 -3 7 -2 -1
right_child=6 2 3 -5 -6 -7 -8 -9
leaf_value=-0.0017868875461644021 -0.0015193608373403548 -5.1211263598115356e-05 -0.0031577939254239322 0.0010741210938843343 0.0040946471754385498 -0.0009675225129833927 -0.0043530691198327325 -0.003662609535406848
leaf_weight=33 13.499999999999998 66 60 298 121 25.5 86.5 59.5
leaf_count=22 9 27 40 116 24 15 58 40
internal_value=-0.000130043 0.000461163 0.00114114 0.000349082 0.00263203 -0.00263757 -0.00401833 -0.0030539
internal_weight=763 663 545 358 187 118 100 92.5
internal_count=351 284 207 156 51 77 67 62
is_linear=0
shrinkage=0.02


Tree=43
num_leaves=11
num_cat=0
split_feature=2 0 2 2 2 21 23 2 31 30
split_gain=4.63751 3.00471 2.64665 2.33546 1.88811 1.8628 0.310932 0.294717 0.151727 0.0620438
threshold=929667.84895722091 -0.78574730703237861 962458.4493606576 925199.68964952091 939879.97999360645 23.618055666875005 82.99805166743792 933522.35621840123 3.8759557424746665 0.059251585661293217
decision_type=2 2 2 2 2 2 2 2 2 2
left_child=1 6 4 8 7 -6 -1 -2 -3 -5
right_child=2 3 -4 9 5 -7 -8 -9 -10 -11
leaf_value=0.0054289609676099002 -0.0014367249563833077 -0.0034207980941081875 -0.0043594169200990686 0.00330941029980376 -0.0032536953532221646 0.00075049754098631839 0.0030465220309592585 -0.0039299059092998507 -0.0010692792895767424 0.0016437458522238974
leaf_weight=64 36 42 86.5 35.5 53.5 297 54 58.5 21 28
leaf_count=8 24 27 58 9 36 121 12 39 13 8
internal_value=-0.00013566 0.00213315 -0.00118617 0 -0.000552298 0.000122359 0.00440735 -0.00303825 -0.00271106 0.0026606
internal_weight=776 244.5 531.5 126.5 445 350.5 118 94.5 63 63.5
internal_count=355 77 278 57 220 157 20 63 40 17
is_linear=0
shrinkage=0.02


Tree=44
num_leaves=10
num_cat=0
split_feature=27 2 21 2 32 2 0 22 23
split_gain=4.68396 2.39133 2.55274 1.75487 1.67763 1.08252 0.529005 0.322555 0.0916446
threshold=1.0875024565451603 962458.4493606576 23.618055666875005 933961.79279496009 3.7627138053336471 951304.50922833837 -0.35460488704253573 45.48663720651296 81.74217432924911
decision_type=2 2 2 2 2 2 2 2 2
left_child=1 2 8 7 -4 6 -5 -2 -1
right_child=3 -3 4 5 -6 -7 -8 -9 -10
leaf_value=-0.0037951719594820767 0.0020401787515413965 -0.0041678078094426587 0.00097686187246489144 0.00051975406243883328 -0.0022016116421630918 -0.003308905112743378 0.0041094799625630285 0.0048276762345975093 -0.0021187671416749558
leaf_weight=64 28 77.5 313.5 56.5 82.5 21 23 86.5 34.5
leaf_count=43 7 52 121 22 52 14 4 13 23
internal_value=1.02198e-05 -0.000933461 -0.000411458 0.00251916 0.000303839 0.000552722 0.00163985 0.00419846 -0.00326859
internal_weight=787 572 494.5 215 396 100.5 79.5 114.5 98.5
internal_count=351 291 239 60 173 40 26 20 66
is_linear=0
shrinkage=0.02


Tree=45
num_leaves=14
num_cat=0
split_feature=5 28 19 34 21 5 22 0 25 33 5 5 19
split_gain=4.48867 3.84952 2.01652 2.49185 1.84431 0.846377 0.524312 0.28631 0.300427 0.154149 0.125167 0.0724386 0.0209781
threshold=3282.9590181071881 -1.8351209175064496 3307.9253368134487 3308.1882689900635 25.537891332121603 3194.3435104508158 77.521872408486388 0.51639395938746258 25.626799366528815 3309.0891933755638 3229.2704557054217 3222.9016460273597 3307.5576184428196
decision_type=2 2 2 2 2 2 2 2 2 2 2 2 2
left_child=1 7 12 6 10 -6 -4 8 -1 -5 -3 -9 -2
right_child=2 4 3 9 5 -7 -8 11 -10 -11 -12 -13 -14
leaf_value=-0.0026362674948241975 -0.004983704563544457 -0.004025278531842761 6.8149773805749173e-05 -0.0014441077230232103 0.0031971114198650632 0.0012579905527150806 0.0041116614771670983 -0.0020125339138274542 0.00071036164272649622 -0.0038994906890959971 -0.0010464439809322358 -0.0034997570949724353 -0.0028056749820709226
leaf_weight=16.5 81.5 16.500000000000004 24 19.5 173.5 202.5 29 48 24 51 13.499999999999998 42 13.499999999999998
leaf_count=11 55 11 12 13 39 76 6 32 13 34 9 28 9
internal_value=-0.000162411 0.000819283 -0.00257108 -0.000847248 0.00178153 0.00216722 0.00236961 -0.00214544 -0.000650919 -0.00329235 -0.00286196 -0.00277442 -0.00474334
internal_weight=755 536.5 218.5 123.5 406 376 53 130.5 40.5 70.5 30 90 95
internal_count=348 219 129 65 135 115 18 84 24 47 20 60 64
is_linear=0
shrinkage=0.02


Tree=46
num_leaves=11
num_cat=0
split_feature=2 28 21 2 10 19 2 0 25 18
split_gain=4.99681 4.47861 2.55674 1.43258 1.1341 1.01351 1.24238 0.359574 0.245348 0.0290818
threshold=955571.09942961263 -1.8351209175064496 118.53987638285277 916879.24193357478 84.034226969006298 3307.8080879886775 962556.70298914018 0.51639395938746258 25.681890036760347 4.5125189298595538
decision_type=2 2 2 2 2 2 2 2 2 2
left_child=1 7 5 -3 -5 -2 -7 8 -1 -9
right_child=2 3 -4 4 -6 6 -8 9 -10 -11
leaf_value=-0.0021443567612232308 -0.0046742147259373479 -0.003419175538751814 0.0036277802271001483 0.0026923146227927647 -0.00053446988122803822 0.00022804892678891334 -0.0038769828337326387 -0.0022376023097998568 0.00077787428790772404 -0.0034948480685551963
leaf_weight=18 90 16.5 24 382.5 47.5 59 55.5 66 25.5 28.5
leaf_count=12 61 10 5 103 24 30 37 44 13 19
internal_value=0.000146158 0.0011287 -0.00234945 0.00210293 0.00233061 -0.00308195 -0.00176889 -0.00199782 -0.000418052 -0.00268629
internal_weight=813 584.5 228.5 446.5 430 204.5 114.5 138 43.5 94.5
internal_count=358 225 133 137 127 128 67 88 25 63
is_linear=0
shrinkage=0.02


Tree=47
num_leaves=9
num_cat=0
split_feature=27 2 21 0 31 10 2 23
split_gain=4.24027 2.19211 2.3681 1.57546 1.17013 0.639552 0.557329 0.0223637
threshold=1.0875024565451603 962406.74596153933 20.52859382275139 -0.85421994577343319 2.9475670263431399 78.721478309840123 951304.50922833837 80.847017022048661
decision_type=2 2 2 2 2 2 2 2
left_child=1 2 7 -4 -2 -6 -7 -1
right_child=4 -3 3 -5 5 6 -8 -9
leaf_value=-0.0035570252885838518 0.0044605649290910734 -0.0039831584605241298 -0.0034748397843094355 0.00074884898195765471 0.0029012513117092414 0.0010193848528450341 -0.0029228600793414646 -0.0023243192485891857
leaf_weight=58 75 74.5 37.5 366 60 68 16.5 37.5
leaf_count=39 12 50 24 153 13 24 11 25
internal_value=8.63029e-05 -0.000816223 -0.000328888 0.000339959 0.00244297 0.001347 0.000188788 -0.00313703
internal_weight=793 573.5 499 403.5 219.5 144.5 84.5 95.5
internal_count=351 291 241 177 60 48 35 64
is_linear=0
shrinkage=0.02


Tree=48
num_leaves=14
num_cat=0
split_feature=2 29 19 34 22 0 2 25 31 31 10 33 19
split_gain=4.17971 3.83907 2.56616 3.23364 1.30732 1.19145 0.848128 0.811117 0.593681 0.279194 0.278664 0.134319 0.062356
threshold=955571.09942961263 1.0000000180025095e-35 3308.1656486580914 3308.1882689900635 63.991114920010467 -0.12053668025532321 933522.35621840123 26.121658646054502 3.4069765663147544 3.2540034813105234 81.825036303743971 3309.0891933755638 3307.5576184428196
decision_type=2 2 2 2 2 2 2 2 2 2 2 2 2
left_child=1 5 12 9 8 7 -6 -1 -3 -4 -7 -5 -2
right_child=2 4 3 11 6 10 -8 -9 -10 -11 -12 -13 -14
leaf_value=0.0026558239908628569 -0.0049234920158272698 0.0035653912630195994 0.0012221027367255266 -0.0015032820949563755 0.0015272046154545199 -0.00066690120649754358 -0.0035598809533649023 -0.0012830572106440864 0.0015161435510963204 0.0042696672728363902 -0.0026324695900899094 -0.0036987671537531746 -0.0029846999703669083
leaf_weight=45 82.5 175 24 22.5 29.5 45 21 36 94.5 34 108 52.5 24
leaf_count=12 56 40 10 15 9 25 14 19 31 6 72 35 16
internal_value=-5.85615e-05 0.000893253 -0.00226041 -0.000379743 0.00231442 -0.0010441 -0.000591423 0.000889469 0.00286657 0.00310482 -0.00207939 -0.00310866 -0.00455262
internal_weight=793.5 554 239.5 133 320 234 50.5 81 269.5 58 153 75 106.5
internal_count=360 222 138 66 94 128 23 31 71 16 97 50 72
is_linear=0
shrinkage=0.02


Tree=49
num_leaves=10
num_cat=0
split_feature=27 2 21 32 2 22 2 2 23
split_gain=3.75035 1.94992 2.19584 1.37441 1.24011 0.902601 0.430928 0.40742 0.0248426
threshold=1.0875024565451603 962458.4493606576 20.52859382275139 3.7627138053336471 933961.79279496009 60.279155882850432 950261.76418680756 926793.80330132751 80.847017022048661
decision_type=2 2 2 2 2 2 2 2 2
left_child=1 2 8 -4 7 6 -6 -2 -1
right_child=4 -3 3 -5 5 -7 -8 -9 -10
leaf_value=-0.0034780870720278472 0.002041719096047538 -0.0037998810347049466 0.00093208159030791352 -0.0019181982219304847 0.0024944680204987526 -0.0037884732015205152 -0.00041412107179413979 0.004518574247554856 -0.0021635657729847093
leaf_weight=62.5 54.5 76 300.5 85.5 48.5 14.999999999999998 32 72 30
leaf_count=42 15 51 117 55 13 10 15 10 20
internal_value=2.33377e-05 -0.000853661 -0.000371134 0.000290595 0.00221383 0.000457119 0.00132744 0.00350353 -0.00311436
internal_weight=776.5 554.5 478.5 386 222 95.5 80.5 126.5 92.5
internal_count=348 285 234 172 63 38 28 25 62
is_linear=0
shrinkage=0.02


Tree=50
num_leaves=13
num_cat=0
split_feature=2 0 11 22 24 24 25 20 28 11 8 13
split_gain=4.12188 3.43664 2.3869 1.71449 1.07925 0.940572 0.811503 0.667661 0.46615 0.118794 0.0906237 0.0288675
threshold=955571.09942961263 0.40966402954315223 25.410479855130422 77.521872408486388 82.868790427280643 81.286549019241434 26.194251437137158 3307.5576184428196 -1.2708809305129982 25.79286252455638 61.645053196830879 -1.8281255052910648
decision_type=2 2 2 2 2 2 2 2 2 2 2 2
left_child=1 4 3 -2 5 -1 -6 -4 -9 11 -11 -3
right_child=2 9 7 -5 6 -7 -8 8 -10 10 -12 -13
leaf_value=0.00070130434369890943 -0.0024713387980180627 -0.0029464507805252518 -0.004859528674206263 0.0044430823472829967 0.0014954186100583837 0.0033655223557131088 -0.0012738808597768506 -0.00035049876370109046 -0.0032011721708636353 -0.00018121717215684592 -0.0021786178020863898 -0.0014951956321795782
leaf_weight=78 24 52.5 69.5 31 129.5 186.5 60.5 37.5 67.5 24 16.5 19.5
leaf_count=31 15 35 47 5 44 42 32 20 45 15 11 13
internal_value=7.62552e-05 0.000993927 -0.00217401 0.00140497 0.00177059 0.00259576 0.0006001 -0.00331578 -0.00222113 -0.00210828 -0.00109134 -0.00261915
internal_weight=796.5 567 229.5 55 454.5 264.5 190 174.5 105 112.5 40.5 72
internal_count=355 223 132 20 149 73 76 112 65 74 26 48
is_linear=0
shrinkage=0.02


Tree=51
num_leaves=9
num_cat=0
split_feature=28 2 28 26 2 2 13 30
split_gain=3.63889 2.32066 2.04814 1.84176 0.797831 0.619916 0.130331 0.0733663
threshold=1.4631169966749498 962331.14875402476 -1.8351209175064496 26.23137204961116 941300.40759226016 962188.56250168371 2.5774123418880199 -2.7548402933585909
decision_type=2 2 2 2 2 2 2 2
left_child=1 2 5 -4 -2 -1 -6 -3
right_child=4 7 3 -5 6 -7 -8 -9
leaf_value=-0.0023992572029610556 0.0039504279825598636 -0.0014001510562720123 0.0026657653185630974 -0.00031216909710007407 -0.00031460183991326228 0.0014685091855558188 0.0015875155245754081 -0.0036700492959658975
leaf_weight=146 92.5 11.999999999999998 125 238.5 21 17 34 87
leaf_count=96 15 8 33 109 10 6 11 58
internal_value=1.09655e-05 -0.000654108 -0.000118228 0.000713147 0.00282294 -0.001974 0.000836783 -0.00343981
internal_weight=773 625.5 526.5 363.5 147.5 163 55 99
internal_count=346 310 244 142 36 102 21 66
is_linear=0
shrinkage=0.02


Tree=52
num_leaves=12
num_cat=0
split_feature=2 22 2 2 24 30 27 2 28 2 27
split_gain=3.62597 3.05843 1.84662 2.02739 1.61403 0.574796 0.481663 0.389694 0.104475 0.0807022 0.00438538
threshold=929667.84895722091 38.938908690466725 962458.4493606576 939411.09118113399 80.259223531744411 1.3184334933059285 -0.47995590206213484 933522.35621840123 -2.5024659564876317 927197.79279134318 -2.6563910368758723
decision_type=2 2 2 2 2 2 2 2 2 2 2
left_child=1 8 3 7 -5 6 -3 -2 10 -7 -1
right_child=2 5 -4 4 -6 9 -8 -9 -10 -11 -12
leaf_value=-0.0018604498227437333 -0.0012452931396755172 0.0029455237859437444 -0.0035846342324263097 -0.0031174967259783109 0.00079073401609865525 0.0031423243728646061 4.240852353594652e-05 -0.0039751005450884506 -0.0036797909584310325 0.0047266157481981362 -0.00067149050202634601
leaf_weight=13.500000000000002 39 58 85 47 323.5 55.5 39.5 58.5 21 56 11.999999999999998
leaf_count=9 26 14 57 32 131 11 14 39 14 7 8
internal_value=1.09899e-05 0.00197713 -0.000896702 -0.000394357 0.000279005 0.00301136 0.00180805 -0.00293879 -0.00257848 0.0040079 -0.0014434
internal_weight=808.5 255.5 553 468 370.5 209 97.5 97.5 46.5 111.5 25.5
internal_count=362 77 285 228 163 46 28 65 31 18 17
is_linear=0
shrinkage=0.02


end of trees

feature_importances:
city_estimated_population=148
week_sin=45
city_area_weighted_u_component_of_wind_10m_rollmean_lag1_w8=43
city_pop_density=38
city_area_weighted_pop_density_lag20=38
city_area_weighted_rainfall_rollmean_lag1_w4=32
city_area_weighted_rainfall_rollmean_lag1_w8=18
city_area_weighted_temp_c_rollmean_lag1_w4=18
city_area_weighted_pop_density_rollmean_lag1_w8=18
city_area_weighted_v_component_of_wind_10m_rollmean_lag1_w4=17
city_area_weighted_rh_lag18=15
city_area_weighted_v_component_of_wind_10m_rollmean_lag1_w8=15
city_area_weighted_rh_rollmean_lag1_w4=13
city_area_weighted_wind_speed_10m_rollmean_lag1_w4=13
city_area_weighted_rh_rollmean_lag1_w8=11
city_area_weighted_u_component_of_wind_10m_rollmean_lag1_w4=11
city_area_weighted_temp_c_lag9=8
city_area_weighted_temp_c_lag8=8
city_area_weighted_rh_lag17=7
city_area_weighted_v_component_of_wind_10m_lag5=7
city_area_weighted_pop_density_lag19=7
week_cos=5
city_area_weighted_u_component_of_wind_10m_lag2=4
city_area_weighted_wind_speed_10m_rollmean_lag1_w8=4
city_area_weighted_pop_density_rollmean_lag1_w4=4
city_area_weighted_u_component_of_wind_10m_lag3=2
city_area_weighted_temp_c_rollmean_lag1_w8=2
city_area_weighted_rainfall_lag17=1
city_area_weighted_rainfall_lag20=1
city_area_weighted_v_component_of_wind_10m_lag3=1
city_area_weighted_wind_speed_10m_lag9=1
city_area_weighted_wind_speed_10m_lag8=1

parameters:
[boosting: gbdt]
[objective: regression]
[metric: rmse]
[tree_learner: serial]
[device_type: cpu]
[data_sample_strategy: bagging]
[data: ]
[valid: ]
[num_iterations: 53]
[learning_rate: 0.02]
[num_leaves: 31]
[num_threads: 0]
[seed: 0]
[deterministic: 0]
[force_col_wise: 1]
[force_row_wise: 0]
[histogram_pool_size: -1]
[max_depth: 4]
[min_data_in_leaf: 8]
[min_sum_hessian_in_leaf: 0.001]
[bagging_fraction: 0.9]
[pos_bagging_fraction: 1]
[neg_bagging_fraction: 1]
[bagging_freq: 1]
[bagging_seed: 3]
[bagging_by_query: 0]
[feature_fraction: 0.8]
[feature_fraction_bynode: 1]
[feature_fraction_seed: 2]
[extra_trees: 0]
[extra_seed: 6]
[early_stopping_round: 0]
[early_stopping_min_delta: 0]
[first_metric_only: 0]
[max_delta_step: 0]
[lambda_l1: 0.1]
[lambda_l2: 1.5]
[linear_lambda: 0]
[min_gain_to_split: 0]
[drop_rate: 0.1]
[max_drop: 50]
[skip_drop: 0.5]
[xgboost_dart_mode: 0]
[uniform_drop: 0]
[drop_seed: 4]
[top_rate: 0.2]
[other_rate: 0.1]
[min_data_per_group: 100]
[max_cat_threshold: 32]
[cat_l2: 10]
[cat_smooth: 10]
[max_cat_to_onehot: 4]
[top_k: 20]
[monotone_constraints: ]
[monotone_constraints_method: basic]
[monotone_penalty: 0]
[feature_contri: ]
[forcedsplits_filename: ]
[refit_decay_rate: 0.9]
[cegb_tradeoff: 1]
[cegb_penalty_split: 0]
[cegb_penalty_feature_lazy: ]
[cegb_penalty_feature_coupled: ]
[path_smooth: 0]
[interaction_constraints: ]
[verbosity: -1]
[saved_feature_importance_type: 0]
[use_quantized_grad: 0]
[num_grad_quant_bins: 4]
[quant_train_renew_leaf: 0]
[stochastic_rounding: 1]
[linear_tree: 0]
[max_bin: 255]
[max_bin_by_feature: ]
[min_data_in_bin: 3]
[bin_construct_sample_cnt: 200000]
[data_random_seed: 1]
[is_enable_sparse: 1]
[enable_bundle: 1]
[use_missing: 1]
[zero_as_missing: 0]
[feature_pre_filter: 1]
[pre_partition: 0]
[two_round: 0]
[header: 0]
[label_column: ]
[weight_column: ]
[group_column: ]
[ignore_column: ]
[categorical_feature: ]
[forcedbins_filename: ]
[precise_float_parser: 0]
[parser_config_file: ]
[objective_seed: 5]
[num_class: 1]
[is_unbalance: 0]
[scale_pos_weight: 1]
[sigmoid: 1]
[boost_from_average: 1]
[reg_sqrt: 0]
[alpha: 0.9]
[fair_c: 1]
[poisson_max_delta_step: 0.7]
[tweedie_variance_power: 1.5]
[lambdarank_truncation_level: 30]
[lambdarank_norm: 1]
[label_gain: ]
[lambdarank_position_bias_regularization: 0]
[eval_at: ]
[multi_error_top_k: 1]
[auc_mu_weights: ]
[num_machines: 1]
[local_listen_port: 12400]
[time_out: 120]
[machine_list_filename: ]
[machines: ]
[gpu_platform_id: -1]
[gpu_device_id: -1]
[gpu_use_dp: 0]
[num_gpu: 1]

end of parameters
