tree
version=v4
num_class=1
num_tree_per_iteration=1
label_index=0
max_feature_idx=56
objective=regression
feature_names=week_sin week_cos city_estimated_population city_area_m2 city_area_km2 city_pop_density n_barangays_reported city_area_weighted_rainfall_lag20 city_area_weighted_rainfall_lag14 city_area_weighted_rh_lag14 city_area_weighted_rh_lag15 city_area_weighted_temp_c_lag6 city_area_weighted_temp_c_lag5 city_area_weighted_u_component_of_wind_10m_lag1 city_area_weighted_u_component_of_wind_10m_lag2 city_area_weighted_v_component_of_wind_10m_lag2 city_area_weighted_v_component_of_wind_10m_lag1 city_area_weighted_wind_speed_10m_lag6 city_area_weighted_wind_speed_10m_lag5 city_area_weighted_pop_density_lag20 city_area_weighted_pop_density_lag19 city_area_weighted_rainfall_rollmean_lag1_w4 city_area_weighted_rainfall_rollmean_lag1_w8 city_area_weighted_rh_rollmean_lag1_w4 city_area_weighted_rh_rollmean_lag1_w8 city_area_weighted_temp_c_rollmean_lag1_w4 city_area_weighted_temp_c_rollmean_lag1_w8 city_area_weighted_u_component_of_wind_10m_rollmean_lag1_w4 city_area_weighted_u_component_of_wind_10m_rollmean_lag1_w8 city_area_weighted_v_component_of_wind_10m_rollmean_lag1_w4 city_area_weighted_v_component_of_wind_10m_rollmean_lag1_w8 city_area_weighted_wind_speed_10m_rollmean_lag1_w4 city_area_weighted_wind_speed_10m_rollmean_lag1_w8 city_area_weighted_pop_density_rollmean_lag1_w4 city_area_weighted_pop_density_rollmean_lag1_w8 city_area_weighted_flood_risk_index_rollmean_lag1_w4 city_area_weighted_flood_risk_index_rollmean_lag1_w8 city_area_weighted_percent_annual_crop_rollmean_lag1_w4 city_area_weighted_percent_annual_crop_rollmean_lag1_w8 city_area_weighted_percent_brush_shrubs_rollmean_lag1_w4 city_area_weighted_percent_brush_shrubs_rollmean_lag1_w8 city_area_weighted_percent_built_up_rollmean_lag1_w4 city_area_weighted_percent_built_up_rollmean_lag1_w8 city_area_weighted_percent_inland_water_rollmean_lag1_w4 city_area_weighted_percent_inland_water_rollmean_lag1_w8 city_area_weighted_percent_open_forest_rollmean_lag1_w4 city_area_weighted_percent_open_forest_rollmean_lag1_w8 city_area_weighted_percent_perennial_crop_rollmean_lag1_w4 city_area_weighted_percent_perennial_crop_rollmean_lag1_w8 city_area_weighted_percent_open_barren_rollmean_lag1_w4 city_area_weighted_percent_open_barren_rollmean_lag1_w8 city_area_weighted_percent_fishpond_rollmean_lag1_w4 city_area_weighted_percent_fishpond_rollmean_lag1_w8 city_area_weighted_percent_grassland_rollmean_lag1_w4 city_area_weighted_percent_grassland_rollmean_lag1_w8 city_area_weighted_percent_mangrove_forest_rollmean_lag1_w4 city_area_weighted_percent_mangrove_forest_rollmean_lag1_w8
feature_infos=[-1:1] [-1:1] [914211.7095180488:964143.50380609359] none none [3142.64637869529:3314.2893043627] none [0.0025243612881299211:403.77764092016611] [0.0025243612881299211:403.77764092016611] [74.166209495041301:88.154553662835738] [74.166209495041301:88.154553662835738] [24.337778836331829:27.857639391615468] [24.337778836331829:27.857639391615468] [-4.5717681780699149:4.4965446280041954] [-4.5717681780699149:4.4965446280041954] [-6.2680500182560719:5.1247667214851038] [-6.2680500182560719:5.1247667214851038] [1.39564484944224:6.8002328204854665] [1.39564484944224:6.8002328204854665] [3125.6331669833717:3314.2893043626991] [3126.4700955675198:3314.2893043626991] [0.066242600448727776:147.57175632940832] [0.48078482996758953:119.23124797939784] [76.04244385379063:86.610761977842287] [76.761170402338564:86.082735724126366] [24.635251946080103:27.639879393457701] [24.734571822108446:27.440794559836895] [-3.4486736035175789:3.6280013469861503] [-3.0815340340364679:3.131422920161175] [-4.48361272930451:3.4734894156434146] [-3.8559405516430854:3.0795858777581708] [1.7342058228275261:5.7925001460518359] [1.9506388693011207:5.3170040362056081] [3140.4885697881891:3314.1262969917143] [3138.7712235644044:3313.8757850504171] none none none none none none none none none none none none none none none none none none none none none none
tree_sizes=1145 1200 1092 1296 1205 1296 1308 1219 1223 1217 1200 1305 1321 1227 1198 1280 1297 1134 1122 1127 1308 1331 1214 1223 1321 1225 1395 1261 1356 954 1321 1293 1125 1227 1219

Tree=0
num_leaves=12
num_cat=0
split_feature=2 30 19 2 2 2 24 30 28 26 1
split_gain=24.0007 20.3553 9.91552 8.98425 4.53017 5.48547 3.33698 2.59007 1.55038 0.213749 0.084762
threshold=954490.04259240883 -1.417304923735603 3307.8080879886775 962514.86924537865 928835.69071090664 940351.15984073735 84.101625039755177 1.7797867354236481 -1.8351209175064496 25.681992045938976 0.5163939593874618
decision_type=2 2 2 2 2 2 2 2 2 2 2
left_child=1 8 -2 6 7 -6 -4 -3 9 -1 -5
right_child=2 4 3 10 5 -7 -8 -9 -10 -11 -12
leaf_value=0.57215532187501716 0.56654618937779555 0.58933776926442638 0.57921541288495282 0.56766530680749583 0.5766798556311854 0.58821491672243287 0.59107685065180837 0.5962900309429533 0.58316982384059102 0.57559848566801475 0.57312951268881529
leaf_weight=61.5 90 142 40.5 33 46.5 169 43 78 16.5 39 11.999999999999998
leaf_count=41 61 42 24 22 29 53 10 11 8 26 8
internal_value=0.582521 0.585851 0.574129 0.579528 0.588836 0.585706 0.585342 0.591863 0.574791 0.573401 0.568867
internal_weight=771 552.5 218.5 128.5 435.5 215.5 83.5 220 117 100.5 45
internal_count=335 210 125 64 135 82 34 53 75 67 30
is_linear=0
shrinkage=1


Tree=1
num_leaves=12
num_cat=0
split_feature=2 30 19 2 7 24 2 28 2 1 1
split_gain=20.8077 15.8956 7.85556 10.4391 4.4606 3.47326 2.21451 1.91781 1.44455 0.191455 0.118281
threshold=954490.04259240883 -1.417304923735603 3307.8080879886775 962458.4493606576 7.7439602188914831 84.101625039755177 933085.16036982159 -1.8351209175064496 940351.15984073735 -0.12053668025532321 0.5163939593874618
decision_type=2 2 2 2 2 2 2 2 2 2 2
left_child=1 7 -2 5 6 -4 -3 9 -6 -1 -5
right_child=2 4 3 10 8 -7 -8 -9 -10 -11 -12
leaf_value=-0.0047322860567977553 -0.014810563158180754 0.011356665491947828 -0.0020527102736274849 -0.013806577721394989 0.00022847614543778554 0.010301362489399156 0.0043612027766094319 0.0022871822586381122 0.0054208912583900261 -0.0088599733397728055 -0.0083208227661939766
leaf_weight=18 87.5 134.5 43.5 46.5 100.5 37 62 18 93 81 11.999999999999998
leaf_count=12 59 28 25 31 47 7 23 8 30 54 8
internal_value=-0.000271952 0.00310308 -0.00781368 -0.00332412 0.00601237 0.00366388 0.0091903 -0.00655063 0.00274681 -0.00817931 -0.0128653
internal_weight=733.5 507 226.5 139 390 80.5 196.5 117 193.5 99 58.5
internal_count=332 202 130 71 128 32 51 74 77 66 39
is_linear=0
shrinkage=0.03


Tree=2
num_leaves=11
num_cat=0
split_feature=2 30 19 2 7 24 9 28 2 26
split_gain=22.5828 15.9499 7.01099 8.88356 3.6403 2.57522 1.96131 1.69024 1.60041 0.171636
threshold=954490.04259240883 -1.3938269524849773 3307.8080879886775 962514.86924537865 8.9284899505678474 84.101625039755177 83.547226156672579 -1.8351209175064496 933085.16036982159 25.709718039680272
decision_type=2 2 2 2 2 2 2 2 2 2
left_child=1 7 -2 5 8 -4 -6 9 -3 -1
right_child=2 4 3 -5 6 -7 -8 -9 -10 -11
leaf_value=-0.00910676798915863 -0.014347305160207848 0.01084973269450798 -0.0025529170656526409 -0.0127369029099291 0.0042924665520347209 0.0084965042460423239 -0.0045213339851712282 0.001535657318263519 0.0050373606941350327 -0.0059239815461945219
leaf_weight=61.5 96 133 36 54 158.5 38 25.5 19.5 68.5 37.5
leaf_count=41 65 27 21 36 56 9 16 9 25 25
internal_value=-0.000346069 0.00317431 -0.0082525 -0.00359398 0.00613271 0.00313874 0.00304504 -0.00640808 0.00891586 -0.00798746
internal_weight=728 504 224 128 385.5 74 184 118.5 201.5 99
internal_count=330 199 131 66 124 30 72 75 52 66
is_linear=0
shrinkage=0.03


Tree=3
num_leaves=13
num_cat=0
split_feature=2 30 19 34 2 2 30 23 32 2 26 19
split_gain=20.5675 15.6835 6.49765 7.59177 4.01948 4.09151 2.75963 1.33479 1.13023 0.711806 0.203229 0.0649843
threshold=954490.04259240883 -1.417304923735603 3307.9253368134487 3308.490044934149 928835.69071090664 940351.15984073735 0.72965674604310282 84.087607571080312 3.6271997935907669 962619.29232193122 25.580282474877162 3307.6240951166669
decision_type=2 2 2 2 2 2 2 2 2 2 2 2
left_child=1 8 11 7 6 -6 -3 -4 -1 -5 -10 -2
right_child=2 4 3 9 5 -7 -8 -9 10 -11 -12 -13
leaf_value=-0.0005622026483386249 -0.014155325679084924 0.0032420190793275832 0.00050557316356981301 -0.0048345447344439367 -0.0042676056541894611 0.0058214682776984101 0.011590349027564971 0.00947652053170734 -0.0088215107098918097 -0.012812978461564303 -0.0054488806106150148 -0.0091287997869344845
leaf_weight=28.5 78 49 34.5 16.5 46.5 151 146.5 26 52.5 40.5 39 11.999999999999998
leaf_count=15 53 20 17 11 28 48 26 5 35 27 26 8
internal_value=0.000362944 0.00358821 -0.00758261 -0.00287788 0.00648561 0.00342898 0.00953271 0.00447665 -0.00586356 -0.0106525 -0.00747466 -0.0136093
internal_weight=720.5 513 207.5 117.5 393 197.5 195.5 60.5 120 57 91.5 90
internal_count=319 198 121 60 122 76 46 22 76 38 61 61
is_linear=0
shrinkage=0.03


Tree=4
num_leaves=12
num_cat=0
split_feature=2 30 19 2 24 24 2 2 28 1 26
split_gain=21.3483 13.6032 6.30312 7.9066 3.87679 2.71899 2.66702 1.48766 1.16182 0.408786 0.167257
threshold=954490.04259240883 -1.417304923735603 3307.8080879886775 962458.4493606576 82.916396245057555 84.198450079261548 931786.98273031309 934403.47357291461 -1.8351209175064496 0.78574730703237883 25.681992045938976
decision_type=2 2 2 2 2 2 2 2 2 2 2
left_child=1 8 -2 5 7 -4 -6 -3 10 -5 -1
right_child=2 4 3 9 6 -7 -8 -9 -10 -11 -12
leaf_value=-0.0085987478951427415 -0.013569138305251664 0.0096413272552622054 -0.0018258802059544139 -0.0127359480744914 0.0053109102222919456 0.0097142183347181821 -0.003743178049678152 0.0054461507289125036 0.0011525195120700767 -0.005534250425604674 -0.0054580625999718904
leaf_weight=52.5 91.5 155 40.5 46.5 61.5 32 54 165.5 16.5 11.999999999999998 39
leaf_count=35 62 35 23 31 20 6 31 53 8 8 26
internal_value=0.000243582 0.00344716 -0.00756265 -0.00328491 0.00580867 0.00331014 0.00106916 0.00750336 -0.00603841 -0.0114017 -0.00734979
internal_weight=766.5 544 222.5 131 436 72.5 115.5 320.5 108 58.5 91.5
internal_count=338 208 130 68 139 29 51 88 69 39 61
is_linear=0
shrinkage=0.03


Tree=5
num_leaves=13
num_cat=0
split_feature=2 30 19 33 2 2 2 23 31 2 32 19
split_gain=17.675 12.4989 6.37505 9.05352 3.46164 4.85332 2.39278 1.79734 0.924367 0.692756 0.153038 0.0981319
threshold=954490.04259240883 -1.417304923735603 3307.9253368134487 3308.3487403804293 928835.69071090664 940351.15984073735 926392.00140437984 84.087607571080312 3.3210251594636371 962556.70298914018 4.0922417111778762 3307.6240951166669
decision_type=2 2 2 2 2 2 2 2 2 2 2 2
left_child=1 8 11 7 6 -6 -3 -4 -1 -5 -10 -2
right_child=2 4 3 9 5 -7 -8 -9 10 -11 -12 -13
leaf_value=0.00038082931637763975 -0.013514860058132608 0.0050439208156103721 8.1744274174844892e-05 -0.0038331475329810177 -0.0047750126376616209 0.0052899400181735737 0.01178748939758853 0.009673928935187202 -0.0055187892018015994 -0.011982584537159311 -0.0085531301839011052 -0.0086364664127086786
leaf_weight=16.5 78 102 36 13.499999999999998 55.5 181 94 34 42 54 48 13.499999999999998
leaf_count=8 53 34 18 9 34 58 15 6 28 36 32 9
internal_value=0.000147797 0.00311587 -0.00681484 -0.00268239 0.00538366 0.0029115 0.00832911 0.00483256 -0.00604416 -0.0104543 -0.00722979 -0.0129125
internal_weight=768 539 229 137.5 432.5 236.5 196 70 106.5 67.5 90 91.5
internal_count=340 209 131 69 141 92 49 24 68 45 60 62
is_linear=0
shrinkage=0.03


Tree=6
num_leaves=13
num_cat=0
split_feature=2 30 19 2 24 9 23 23 32 1 25 19
split_gain=16.1656 11.7741 5.43282 6.9934 3.04106 3.59794 1.82163 1.49729 1.11384 0.521233 0.106767 0.0707209
threshold=954490.04259240883 -1.417304923735603 3307.9253368134487 962406.74596153933 82.69468826545625 82.198063680545616 84.087607571080312 80.692176850361733 3.6271997935907669 0.78574730703237883 25.609020317402322 3307.6240951166669
decision_type=2 2 2 2 2 2 2 2 2 2 2 2
left_child=1 8 11 6 7 -6 -4 -3 -1 -5 -10 -2
right_child=2 4 3 9 5 -7 -8 -9 10 -11 -12 -13
leaf_value=-3.5757672111943083e-05 -0.012914138174699453 0.0024574609392006459 -0.00064255769375492534 -0.011901631657996873 0.0046717182647240786 -0.0059129607660404161 0.0095144382834434511 0.0081859063563798056 -0.0081713504981150657 -0.0044750827071738655 -0.0054273476996333208 -0.0083952410508846415
leaf_weight=25.5 82.5 53.5 33 43.5 94 40.5 29 207.5 55.5 13.499999999999998 36 13.499999999999998
leaf_count=13 56 22 18 29 32 26 5 49 37 9 24 9
internal_value=-0.000221426 0.00267318 -0.00710873 -0.00277021 0.00514658 0.00145332 0.0041601 0.00703127 -0.0056478 -0.0102761 -0.0071783 -0.0123872
internal_weight=727.5 512.5 215 119 395.5 134.5 62 261 117 57 91.5 96
internal_count=329 203 126 61 129 58 23 71 74 38 61 65
is_linear=0
shrinkage=0.03


Tree=7
num_leaves=12
num_cat=0
split_feature=2 28 2 2 20 2 30 24 30 1 32
split_gain=16.9194 10.9695 4.19597 4.52042 4.16567 5.16746 2.3032 1.76495 0.904784 0.297423 0.258919
threshold=954490.04259240883 -1.8351209175064496 932217.47705382493 939411.09118113399 3307.8080879886775 962458.4493606576 0.72965674604310282 84.101625039755177 -1.3613506619837776 0.78574730703237883 4.0922417111778762
decision_type=2 2 2 2 2 2 2 2 2 2 2
left_child=1 8 6 -4 -2 7 -3 -6 10 -7 -1
right_child=4 2 3 -5 5 9 -8 -9 -10 -11 -12
leaf_value=-0.0049109866252249994 -0.012367916267920049 0.0024403756393059609 -0.0066596999232505635 0.0043874633594390908 -0.0014642702102302069 -0.011321638177570542 0.010387295305273915 0.0090406909476627006 0.0012783810290154711 -0.0050662914784625175 -0.0084392787100064873
leaf_weight=45 93 45.5 42 147 40.5 46.5 130 21 13.499999999999998 11.999999999999998 49.5
leaf_count=30 63 18 28 49 23 31 24 4 7 8 33
internal_value=-0.000620477 0.002542 0.00503062 0.00190251 -0.00762194 -0.0038596 0.00836098 0.00218605 -0.00581241 -0.0101704 -0.00684386
internal_weight=685.5 472.5 364.5 189 213 120 175.5 61.5 108 58.5 94.5
internal_count=318 189 119 77 129 66 42 27 70 39 63
is_linear=0
shrinkage=0.03


Tree=8
num_leaves=12
num_cat=0
split_feature=2 2 29 29 20 2 2 17 32 2 28
split_gain=13.8989 7.06691 5.13519 4.05417 3.39671 1.34819 1.21938 0.772822 0.550693 0.188075 0.0634177
threshold=929250.6663411262 962458.4493606576 -0.63437600324070575 -1.9840607440304763 3308.8346008304748 926392.00140437984 924806.60658906971 2.9012518020756004 3.9629543366216438 962619.29232193122 -2.6119751651144445
decision_type=2 2 2 2 2 2 2 2 2 2 2
left_child=2 3 6 8 -5 7 10 -4 -2 -3 -1
right_child=1 9 5 4 -6 -7 -8 -9 -10 -11 -12
leaf_value=-0.0069585819535139129 -0.0016010558033894213 -0.0062899484244676738 0.0025083489607362185 -0.00073633320081909468 0.0095834754332900039 0.01104642565397734 0.0035502980860268197 0.0081993205529451371 -0.0078766508979069717 -0.011705825372253145 -0.0034379510571216714
leaf_weight=19.5 16.5 11.999999999999998 41.5 277 31 88 19.5 49 76 69 13.499999999999998
leaf_count=13 10 8 16 131 5 13 7 11 51 46 9
internal_value=-7.74274e-05 -0.00298078 0.00595467 -0.00133014 0.000325148 0.0083716 -0.00223776 0.00566198 -0.00680236 -0.0110083 -0.00570592
internal_weight=712.5 481.5 231 400.5 308 178.5 52.5 90.5 92.5 81 33
internal_count=320 251 69 197 136 40 29 27 61 54 22
is_linear=0
shrinkage=0.03


Tree=9
num_leaves=12
num_cat=0
split_feature=2 30 20 2 7 2 16 2 28 2 26
split_gain=12.5418 11.7701 5.69284 6.1784 2.82195 1.53486 1.5234 1.37326 0.877441 0.30564 0.198492
threshold=954490.04259240883 -1.417304923735603 3307.8080879886775 962362.10142236948 7.7439602188914831 933085.16036982159 0.32842577824274582 940351.15984073735 -1.8351209175064496 962619.29232193122 25.681992045938976
decision_type=2 2 2 2 2 2 2 2 2 2 2
left_child=1 8 -2 6 5 -3 -4 -6 10 -5 -1
right_child=2 4 3 9 7 -7 -8 -9 -10 -11 -12
leaf_value=-0.0075093358408159271 -0.012165789846940474 0.009318601560933587 0.0074297818096129443 -0.0049065023604780433 0.00014837548668647919 0.0037618341048208754 -0.0024415919486342405 0.0050113550355443013 0.0011844623079523442 -0.010720825651288032 -0.004493152075994023
leaf_weight=66 81.5 140.5 44.5 14.999999999999998 106.5 70 19.5 103 14.999999999999998 39 42
leaf_count=44 55 28 10 10 49 26 12 31 7 26 28
internal_value=0.000297124 0.00266254 -0.00611477 -0.00185575 0.00505298 0.00750436 0.00440773 0.00255882 -0.00546274 -0.00925158 -0.00640212
internal_weight=742.5 543 199.5 118 420 210.5 64 209.5 123 54 108
internal_count=326 213 113 58 134 54 22 80 79 36 72
is_linear=0
shrinkage=0.03


Tree=10
num_leaves=12
num_cat=0
split_feature=2 30 20 2 2 2 2 0 28 1 26
split_gain=14.8913 11.7519 4.39334 5.15695 2.98645 3.85233 1.91136 1.73663 1.03291 0.269033 0.155097
threshold=954490.04259240883 -1.3938269524849773 3307.8080879886775 962458.4493606576 928835.69071090664 940351.15984073735 926392.00140437984 0.95297903005573359 -1.8351209175064496 0.78574730703237883 25.681992045938976
decision_type=2 2 2 2 2 2 2 2 2 2 2
left_child=1 8 -2 7 6 -6 -3 -4 10 -5 -1
right_child=2 4 3 9 5 -7 -8 -9 -10 -11 -12
leaf_value=-0.0072032113530253626 -0.011620064663576941 0.0050279007539219033 -0.00081190304708952943 -0.010535772902087161 -0.0046478219037775744 0.0048986277370384945 0.010859625992774964 0.0088515083813667291 0.0014524408343591186 -0.00461593857063697 -0.0045133281512104943
leaf_weight=64.5 85.5 112 49.5 46.5 48 169 99 24 18 11.999999999999998 45
leaf_count=43 58 35 27 31 30 52 15 4 8 8 30
internal_value=0.000281016 0.00288825 -0.0063538 -0.0028697 0.00526955 0.00276846 0.00780951 0.00239982 -0.00507258 -0.00944465 -0.0061622
internal_weight=773 555.5 217.5 132 428 217 211 73.5 127.5 58.5 109.5
internal_count=341 213 128 70 132 82 50 31 81 39 73
is_linear=0
shrinkage=0.03


Tree=11
num_leaves=13
num_cat=0
split_feature=2 30 19 33 24 10 23 0 28 2 19 11
split_gain=11.0246 8.27779 5.08653 5.62651 2.52007 2.55655 1.73779 0.807466 0.701383 0.530718 0.155658 0.152771
threshold=954490.04259240883 -1.417304923735603 3308.1656486580914 3308.3487403804293 82.844209698843954 82.518746429945438 80.743061428102607 0.95297903005573359 -1.7459573555043504 962556.70298914018 3306.5106535805053 25.395006314376012
decision_type=2 2 2 2 2 2 2 2 2 2 2 2
left_child=1 8 10 7 6 -6 -3 -4 11 -5 -2 -1
right_child=2 4 3 9 5 -7 -8 -9 -10 -11 -12 -13
leaf_value=-0.0078978306554696124 -0.011596054028146542 0.0011939615434231727 0.00133122867886864 -0.0029482160371262578 0.0033357613346849872 -0.0064771362194648158 0.0071821957012903623 0.0083846196949481956 0.0010730362853099559 -0.00992657884747483 -0.0073791899215884327 -0.00490291387716244
leaf_weight=33 77 56 30.5 14.999999999999998 89 31.5 215 29 13.499999999999998 42 19.5 57
leaf_count=22 52 25 14 10 32 21 52 5 6 28 13 38
internal_value=-9.10045e-05 0.00236247 -0.00578415 -0.00152376 0.00435827 0.000726021 0.00595923 0.00487558 -0.00514197 -0.00819852 -0.0108437 -0.00609226
internal_weight=708 495 213 116.5 391.5 120.5 271 59.5 103.5 57 96.5 90
internal_count=318 196 122 57 130 53 77 19 66 38 65 60
is_linear=0
shrinkage=0.03


Tree=12
num_leaves=13
num_cat=0
split_feature=2 30 19 2 2 2 2 28 30 26 1 19
split_gain=12.5354 9.56088 3.93688 4.77275 2.74658 3.66815 2.21421 0.879546 0.818367 0.146974 0.110436 0.0323602
threshold=955029.36524073815 -1.2135970647620253 3307.9253368134487 962458.4493606576 932217.47705382493 940351.15984073735 924806.60658906971 -1.8351209175064496 0.1998995861850727 25.766951664965998 0.70581670320594814 3306.5106535805053
decision_type=2 2 2 2 2 2 2 2 2 2 2 2
left_child=1 7 11 8 6 -6 -3 9 -4 -1 -5 -2
right_child=2 4 3 10 5 -7 -8 -9 -10 -11 -12 -13
leaf_value=-0.006881479790851251 -0.011610548349034865 0.0020275501099835456 0.0044060314554307195 -0.0098096487716488202 -0.0059369056330528108 0.004211163252871194 0.0091557354566352122 0.00068255613574927496 -0.0039748746775663812 -0.0040943270711278588 -0.0053076009612817027 -0.0075221656652597274
leaf_weight=66 73.5 55.5 53 45 39 160 144 21 11.999999999999998 36 11.999999999999998 11.999999999999998
leaf_count=44 50 21 17 30 26 52 27 10 8 24 8 8
internal_value=-2.00521e-05 0.00245957 -0.00624108 -0.00272756 0.00471629 0.00219511 0.00720019 -0.00481881 0.00279928 -0.00596164 -0.00899556 -0.0111477
internal_weight=729 521.5 207.5 122 398.5 199 199.5 123 65 102 57 85.5
internal_count=325 204 121 63 126 78 48 78 25 68 38 58
is_linear=0
shrinkage=0.03


Tree=13
num_leaves=12
num_cat=0
split_feature=2 30 12 7 30 21 2 23 28 19 32
split_gain=11.7344 9.53036 4.27134 3.17963 2.98884 1.33305 1.19995 0.790504 0.740757 0.689588 0.0866718
threshold=954490.04259240883 -1.417304923735603 25.395006314376012 7.7439602188914831 -2.0393823140004312 127.26647111369276 933522.35621840123 84.788642108369501 -1.8351209175064496 3307.6240951166669 4.0922417111778762
decision_type=2 2 2 2 2 2 2 2 2 2 2
left_child=1 8 4 6 -2 9 -3 -5 10 -4 -1
right_child=2 3 5 7 -6 -7 -8 -9 -10 -11 -12
leaf_value=-0.0046192776283151219 -0.0055735535122910318 0.0087225425107386508 -0.010610123136931139 0.0014753508658773159 0.008544842135906219 0.0012604015111923217 0.0039652035496148619 0.0073961039107778804 0.0011061118394136427 -0.0064211830733542511 -0.0068915926432498139
leaf_weight=46.5 23.5 153.5 68 196.5 29 13.999999999999998 75 22 14.999999999999998 97.5 52.5
leaf_count=31 14 30 46 80 5 5 26 4 7 63 35
internal_value=0.000397578 0.00274566 -0.00526131 0.00472094 0.00221109 -0.00745529 0.00719167 0.0021093 -0.00496016 -0.00820471 -0.00589616
internal_weight=793 561 232 447 52.5 179.5 228.5 218.5 114 165.5 99
internal_count=346 213 133 140 19 114 56 84 73 109 66
is_linear=0
shrinkage=0.03


Tree=14
num_leaves=12
num_cat=0
split_feature=2 2 22 2 2 2 23 2 16 2 1
split_gain=12.9828 4.61511 4.52579 2.5508 1.8946 3.17903 0.944795 0.658706 0.413346 0.197449 0.0397174
threshold=929250.6663411262 962556.70298914018 38.938908690466725 924806.60658906971 939411.09118113399 954490.04259240883 83.333947061333518 926392.00140437984 -1.2526100304366656 933085.16036982159 0.8542199457734333
decision_type=2 2 2 2 2 2 2 2 2 2 2
left_child=2 4 3 10 9 -6 7 -4 -8 -2 -1
right_child=1 -3 6 -5 5 -7 8 -9 -10 -11 -12
leaf_value=-0.0066041370524514108 -0.0036460868977010248 -0.0096863239521258748 0.0063700137648582452 0.0070984514683485028 0.002187194117793802 -0.0038528072176162486 0.0077285365462303164 0.010857463048054621 0.0025757614900668462 -0.0070287612798966854 -0.0035312516277369397
leaf_weight=30 33 75 61.5 19 172.5 142 22 77 44 46.5 11.999999999999998
leaf_count=20 22 50 15 4 68 78 4 10 16 31 8
internal_value=8.57119e-05 -0.00291163 0.00537714 -0.00175267 -0.00159698 -0.000538742 0.00750936 0.00893554 0.00440546 -0.005706 -0.00586359
internal_weight=734.5 469 265.5 61 394 314.5 204.5 138.5 66 79.5 42
internal_count=326 249 77 32 199 146 45 25 20 53 28
is_linear=0
shrinkage=0.03


Tree=15
num_leaves=13
num_cat=0
split_feature=2 30 19 33 2 2 2 0 31 2 19 26
split_gain=9.36893 7.99824 4.40757 5.4869 2.22194 3.68639 1.71616 0.656898 0.543142 0.393532 0.188469 0.177395
threshold=955029.36524073815 -1.3938269524849773 3308.1656486580914 3308.3487403804293 931786.98273031309 940351.15984073735 926392.00140437984 0.91023613416931248 3.3210251594636371 962619.29232193122 3307.6240951166669 25.681992045938976
decision_type=2 2 2 2 2 2 2 2 2 2 2 2
left_child=1 8 10 7 6 -6 -3 -4 -1 -5 -2 -10
right_child=2 4 3 9 5 -7 -8 -9 11 -11 -12 -13
leaf_value=0.00031568910717600729 -0.010730315147613991 0.0038584367773362559 0.001135592780658044 -0.0033251925293888364 -0.0054345818115921502 0.0042650122503395628 0.0094202871083923917 0.0073788203089252893 -0.0061049308043438933 -0.0092112881862715379 -0.0062956943590390052 -0.0033173757300463094
leaf_weight=19.5 72.5 104 27 16.5 43.5 168.5 102 37 63 43.5 18 42
leaf_count=10 49 34 13 11 29 53 16 7 42 29 12 27
internal_value=0.000346197 0.00244639 -0.00494523 -0.00123521 0.00443438 0.00225155 0.00665181 0.00482603 -0.00419834 -0.00769825 -0.00994313 -0.00504587
internal_weight=757 542.5 214.5 124 418 212 206 64 124.5 60 90.5 105
internal_count=332 211 121 60 132 82 50 20 79 40 61 69
is_linear=0
shrinkage=0.03


Tree=16
num_leaves=13
num_cat=0
split_feature=2 30 12 32 7 2 2 19 2 28 1 31
split_gain=9.73333 7.74816 3.53189 3.31372 2.70794 1.39926 1.25964 0.789819 1.10535 0.661874 0.0909706 0.0174226
threshold=954490.04259240883 -1.417304923735603 25.395006314376012 3.8174713036909922 6.4044328991097936 925594.94772337156 933085.16036982159 3307.8080879886775 962556.70298914018 -1.8351209175064496 -0.12053668025532321 4.2138954436555709
decision_type=2 2 2 2 2 2 2 2 2 2 2 2
left_child=1 9 3 -2 6 -6 -3 11 -9 10 -1 -4
right_child=2 4 7 -5 5 -7 -8 8 -10 -11 -12 -13
leaf_value=-0.0030106850960537005 0.0082135173201560979 0.0082888380125949266 -0.010029147191481156 -0.0069161746421747879 -0.0053407552323558117 0.0026589667894230387 0.0031073928347000708 -0.0017299482490909235 -0.008502901000173195 0.00095176385630454322 -0.0058784534620211978 -0.0065054192486434029
leaf_weight=18 29 141.5 65 22 21 182.5 64 43.5 45 16.5 81 11.999999999999998
leaf_count=12 5 26 44 14 13 66 24 25 30 8 54 8
internal_value=0.00013168 0.0023425 -0.00520357 0.00165064 0.00428064 0.00180403 0.00670528 -0.00732198 -0.00524711 -0.00448567 -0.00540736 -0.00958967
internal_weight=741 524.5 216.5 51 409 203.5 205.5 165.5 88.5 115.5 99 77
internal_count=329 203 126 19 129 79 50 107 55 74 66 52
is_linear=0
shrinkage=0.03


Tree=17
num_leaves=11
num_cat=0
split_feature=5 30 0 7 19 19 5 28 7 1
split_gain=8.87995 6.86108 3.65129 2.05648 1.02394 1.33404 0.912207 0.854804 0.782423 0.137315
threshold=3281.1050707664631 -1.417304923735603 0.95297903005573359 7.7439602188914831 3307.8080879886775 3310.769238232554 3207.5247666608907 -1.8351209175064496 20.181781339728406 -0.12053668025532321
decision_type=2 2 2 2 2 2 2 2 2 2
left_child=1 7 4 6 -2 -6 -3 9 -5 -1
right_child=2 3 -4 8 5 -7 -8 -9 -10 -11
leaf_value=-0.0029264713534712795 -0.009312732330575493 0.0074186884123561298 0.0033902909526458153 -0.0019444252508532375 -0.0012525250439610438 -0.0082594711134308264 0.0031996569110443128 0.0022513536389451474 0.0027079380704605888 -0.0058920805177140618
leaf_weight=24 79.5 143.5 38 39 52.5 46.5 73.5 14.999999999999998 170.5 76.5
leaf_count=16 54 29 11 19 30 31 26 6 62 51
internal_value=0.000162534 0.0022159 -0.00495765 0.00397312 -0.00675214 -0.00460835 0.00601777 -0.00423842 0.00182962 -0.00523446
internal_weight=758.5 542 216.5 426.5 178.5 99 217 115.5 209.5 100.5
internal_count=335 209 126 136 115 61 55 73 81 67
is_linear=0
shrinkage=0.03


Tree=18
num_leaves=11
num_cat=0
split_feature=2 2 30 32 30 2 30 22 25 1
split_gain=9.50482 4.07218 3.87077 2.08114 2.87775 1.30867 0.672115 0.515291 0.316858 0.0785046
threshold=929250.6663411262 962619.29232193122 -1.1437269442245477 2.5644336449392218 -2.0393823140004312 926392.00140437984 1.4065700064921021 48.584009909187444 26.523157096164599 0.78574730703237883
decision_type=2 2 2 2 2 2 2 2 2 2
left_child=2 3 9 7 -5 6 -4 -2 -7 -1
right_child=1 -3 5 4 -6 8 -8 -9 -10 -11
leaf_value=-0.005354402454061942 -0.0017854233780077522 -0.0089405059388084126 0.0020928210736988308 -0.0045546897505565976 0.0012589533022290113 0.0059819074390456079 0.0070755631123917001 -0.0083593279100671602 0.0097917450207930332 -0.0020818212025333193
leaf_weight=21 16.5 67.5 70.5 103.5 286 39 38.5 38.5 77 14.999999999999998
leaf_count=14 10 45 26 65 120 9 7 26 10 9
internal_value=0.000244883 -0.0021277 0.00489522 -0.00107202 -0.000289745 0.00635688 0.00391474 -0.00648104 0.00858575 -0.00412449
internal_weight=773 512 261 444.5 389.5 225 109 55 116 36
internal_count=341 266 75 221 185 52 33 36 19 23
is_linear=0
shrinkage=0.03


Tree=19
num_leaves=11
num_cat=0
split_feature=2 2 2 29 34 22 1 23 16 2
split_gain=6.83817 3.96888 3.69042 2.7687 2.5106 4.03432 0.786262 0.587497 0.189739 0.0250936
threshold=929250.6663411262 962514.86924537865 925199.68964952091 1.0732400436145892 3307.7281308268093 42.95512216559451 0.23931566428755774 83.016171197786036 -0.72314703733496322 962688.12692897755
decision_type=2 2 2 2 2 2 2 2 2 2
left_child=2 4 3 8 5 -2 -6 -4 -1 -3
right_child=1 9 7 -5 6 -7 -8 -9 -10 -11
leaf_value=-0.0030488692230066739 0.00088369052043297668 -0.0054756158063044916 0.0093689119660691038 0.0057179043889045711 0.0062173730698227873 -0.0056816202455227914 -0.00078394677053864395 0.0049434109098381463 -0.0069869738446503155 -0.0087360297619406852
leaf_weight=36 188.5 11.999999999999998 72 39.5 49 150.5 19.5 53 19.5 66
leaf_count=22 81 8 11 9 12 98 11 13 13 44
internal_value=-0.000182019 -0.00217165 0.00419189 -0.000254854 -0.000971869 -0.00203472 0.00422011 0.00755853 -0.00455825 -0.00832908
internal_weight=705.5 485.5 220 95 407.5 339 68.5 125 55.5 78
internal_count=322 254 68 44 202 179 23 24 35 52
is_linear=0
shrinkage=0.03


Tree=20
num_leaves=13
num_cat=0
split_feature=2 28 19 34 7 11 2 2 0 2 26 19
split_gain=8.11986 5.72149 2.84323 4.06271 1.93599 1.52935 1.00829 0.918403 0.616767 0.308577 0.168044 0.111352
threshold=954490.04259240883 -1.8351209175064496 3308.1656486580914 3308.490044934149 7.7439602188914831 26.785930305843603 933085.16036982159 939879.97999360645 0.95297903005573359 962556.70298914018 25.59935976134766 3307.707630040341
decision_type=2 2 2 2 2 2 2 2 2 2 2 2
left_child=1 5 11 8 6 10 -3 -6 -4 -5 -1 -2
right_child=2 4 3 9 7 -7 -8 -9 -10 -11 -12 -13
leaf_value=-0.0059875516398199668 -0.0090448283786123441 0.0075334189528366551 0.00087815158814191806 -0.0022082228935484229 -0.00025514927194656236 0.0059056901865535312 0.0030379077072273815 0.0036943070339038966 0.0072365015193819994 -0.0076717595641858111 -0.0033449971226624923 -0.0053515031435659955
leaf_weight=57 81.5 127 27 13.499999999999998 102.5 12.499999999999998 74.5 107 29 52.5 49.5 16.5
leaf_count=38 55 24 13 9 47 3 27 34 5 35 33 11
internal_value=0.000114672 0.00212758 -0.0047155 -0.00162012 0.00380514 -0.00363728 0.00590192 0.00176284 0.00426637 -0.00662624 -0.00481582 -0.00849848
internal_weight=750 530 220 122 411 119 201.5 209.5 56 66 106.5 98
internal_count=334 206 128 62 132 74 51 81 18 44 71 66
is_linear=0
shrinkage=0.03


Tree=21
num_leaves=13
num_cat=0
split_feature=2 30 20 2 24 2 24 24 28 25 1 20
split_gain=6.15184 5.47108 3.26676 3.57904 1.7406 1.57807 1.07934 1.06465 0.384263 0.0898503 0.0664826 0.0139963
threshold=955029.36524073815 -1.417304923735603 3307.8080879886775 962458.4493606576 82.916396245057555 931786.98273031309 78.971878928300796 83.328658582567144 -1.8351209175064496 25.609020317402322 0.61559370248597578 3307.1649520452461
decision_type=2 2 2 2 2 2 2 2 2 2 2 2
left_child=1 8 11 7 6 -6 -3 -4 9 -1 -5 -2
right_child=2 4 3 10 5 -7 -8 -9 -10 -11 -12 -13
leaf_value=-0.0055556107695246557 -0.0094348680084826893 -0.0024989166691115026 -0.001903173405410988 -0.0077142994165420526 0.0031113266856904994 -0.0036677590087733484 0.0049360271708667938 0.0054551183832809323 0.00037816724705044179 -0.0035449451864820666 -0.004143563410410514 -0.0061362634530434243
leaf_weight=57 75.5 18 27 46.5 69.5 54 255 47 14.999999999999998 55.5 11.999999999999998 11.999999999999998
leaf_count=38 51 10 17 31 22 32 70 12 8 37 8 8
internal_value=-0.000405337 0.00136057 -0.00460533 -0.00159729 0.00310004 0.000129492 0.00443301 0.00276076 -0.00401918 -0.00461687 -0.007089 -0.00907389
internal_weight=744 524 220 132.5 396.5 123.5 273 74 127.5 112.5 58.5 87.5
internal_count=344 217 127 68 134 54 80 29 83 75 39 59
is_linear=0
shrinkage=0.03


Tree=22
num_leaves=12
num_cat=0
split_feature=2 30 12 7 26 2 19 28 2 28 1
split_gain=6.6624 5.32869 3.39269 1.81023 1.36564 1.09763 0.930125 0.886907 0.863594 0.626038 0.125298
threshold=955029.36524073815 -1.417304923735603 25.395006314376012 7.7439602188914831 25.555970720902888 925594.94772337156 3306.5106535805053 -1.1786831722377948 933085.16036982159 -1.8351209175064496 -0.2393156642875576
decision_type=2 2 2 2 2 2 2 2 2 2 2
left_child=1 9 4 8 -2 -5 -4 -8 -3 10 -1
right_child=2 3 6 5 -6 -7 7 -9 -10 -11 -12
leaf_value=-0.0014386030725877859 -0.0020616803595589267 0.0066916369395943649 -0.009144106002081008 -0.0053448771912800643 0.0076650080466270443 0.0022311584377238728 -0.0007669328710547199 -0.0065517796142958102 0.0026566567305173422 0.0013260317286703644 -0.0048554714964279396
leaf_weight=13.499999999999998 26 158.5 62 18 24 177.5 39.5 63 73 19.5 87
leaf_count=9 13 32 42 11 4 64 21 42 27 9 58
internal_value=0.000320874 0.00207967 -0.00414614 0.00364981 0.00263647 0.00150234 -0.00622026 -0.00436594 0.00544262 -0.00347899 -0.00442996
internal_weight=761.5 547 214.5 427 50 195.5 164.5 102.5 231.5 120 100.5
internal_count=332 210 122 134 17 75 105 63 59 76 67
is_linear=0
shrinkage=0.03


Tree=23
num_leaves=12
num_cat=0
split_feature=5 30 19 5 24 5 0 23 28 26 19
split_gain=5.78161 4.95505 2.46566 3.18916 1.45221 1.18417 1.03953 0.746066 0.485165 0.107154 0.0595213
threshold=3282.9590181071881 -1.417304923735603 3307.9253368134487 3308.8346008304748 82.916396245057555 3204.5420638553137 0.91023613416931248 78.16870040070151 -1.8351209175064496 25.681992045938976 3306.5106535805053
decision_type=2 2 2 2 2 2 2 2 2 2 2
left_child=1 8 10 6 7 -6 -4 -3 9 -1 -2
right_child=2 4 3 -5 5 -7 -8 -9 -10 -11 -12
leaf_value=-0.0052629399340949016 -0.008922158041665719 -0.003169503761374432 -0.00066469370515280686 -0.007015322649637154 0.0029171502638836297 -0.0029952789962005158 0.0064086904976178305 0.00466155031280782 0.0012021549199707805 -0.0030243236628729243 -0.0056536645582744051
leaf_weight=63 63.5 10.499999999999998 42 55.5 72.5 51 32 278.5 14.999999999999998 42 16.5
leaf_count=42 43 6 24 37 23 29 6 77 7 28 11
internal_value=-2.00655e-05 0.00163912 -0.0042322 -0.00163571 0.00320099 0.000459085 0.00241873 0.00436191 -0.0036995 -0.00441862 -0.00834467
internal_weight=742 532.5 209.5 129.5 412.5 123.5 74 289 120 105 80
internal_count=333 212 121 67 135 52 30 83 77 70 54
is_linear=0
shrinkage=0.03


Tree=24
num_leaves=13
num_cat=0
split_feature=2 30 19 2 2 2 2 24 32 29 24 1
split_gain=6.3661 5.13761 2.14137 2.52237 1.69023 3.0692 1.43246 0.669498 0.613905 0.169391 0.139885 0.125557
threshold=954490.04259240883 -1.0638361026349885 3307.9253368134487 962458.4493606576 932217.47705382493 940351.15984073735 925199.68964952091 84.101625039755177 3.7815401355956637 -0.940305277613942 84.051433549269134 -0.12053668025532321
decision_type=2 2 2 2 2 2 2 2 2 2 2 2
left_child=1 8 -2 7 6 -6 -3 -4 9 -1 -5 -10
right_child=2 4 3 10 5 -7 -8 -9 11 -11 -12 -13
leaf_value=0.00035440668932507541 -0.0081454504081451828 0.0013249278859557392 -0.00083306656229133527 -0.0071936394164756846 -0.0055446914463022426 0.0035167121663689607 0.0072570614639299964 0.0050343031663108951 -0.0013468543271032661 -0.0033626411331110985 -0.0029442320466041561 -0.0049632432346300376
leaf_weight=43.5 85.5 52.5 36 48 42 153 130 32 11.999999999999998 13.499999999999998 11.999999999999998 81
leaf_count=21 58 19 21 32 28 48 23 7 8 9 8 54
internal_value=-0.000129121 0.00163809 -0.00448968 -0.0019919 0.00350386 0.00153904 0.00557525 0.00193925 -0.00303962 -0.000542883 -0.00643055 -0.00453186
internal_weight=741 527.5 213.5 128 377.5 195 182.5 68 150 57 60 93
internal_count=336 210 126 68 118 76 42 28 92 30 40 62
is_linear=0
shrinkage=0.03


Tree=25
num_leaves=12
num_cat=0
split_feature=2 30 20 2 7 26 2 23 28 26 20
split_gain=6.34366 4.33958 2.08316 2.69225 1.5197 0.740245 0.687656 0.654183 0.555017 0.101737 0.026668
threshold=955029.36524073815 -1.417304923735603 3307.8080879886775 962458.4493606576 7.7439602188914831 26.23137204961116 940351.15984073735 84.087607571080312 -1.8351209175064496 25.59935976134766 3307.1649520452461
decision_type=2 2 2 2 2 2 2 2 2 2 2
left_child=1 8 10 7 5 -3 -6 -4 9 -1 -2
right_child=2 4 3 -5 6 -7 -8 -9 -10 -11 -12
leaf_value=-0.0049750189284032036 -0.0084159767594370796 -0.0023468094500510585 -0.00019432288345443198 -0.0067609513805671163 -0.00016801431291812175 0.0055525051110889767 0.0032647759221268416 0.005795936785017451 0.0017681160108319349 -0.0028457234922316995 -0.0053785114596629959
leaf_weight=54 70.5 10.499999999999998 40.5 54 110 191 98 26 16.5 49.5 13.499999999999998
leaf_count=36 48 5 22 36 49 47 31 5 8 33 9
internal_value=6.34091e-05 0.0017988 -0.00440952 -0.0018389 0.00326956 0.00512391 0.00145006 0.00217668 -0.00319333 -0.00400799 -0.00801448
internal_weight=734 529.5 204.5 120.5 409.5 201.5 208 66.5 120 103.5 84
internal_count=329 209 120 63 132 52 80 27 77 69 57
is_linear=0
shrinkage=0.03


Tree=26
num_leaves=14
num_cat=0
split_feature=2 27 19 2 10 7 32 32 0 2 21 19 32
split_gain=4.88126 4.51755 2.51028 3.11598 1.18611 1.03196 0.855034 0.5002 0.285547 0.187964 0.164639 0.13831 0.0540419
threshold=955029.36524073815 -1.3939060927333509 3308.319116391976 962406.74596153933 83.718734564844382 1.8188527514214077 2.9555485718881704 3.7815401355956637 0.95297903005573359 962556.70298914018 65.014630358982203 3306.5106535805053 4.0922417111778762
decision_type=2 2 2 2 2 2 2 2 2 2 2 2 2
left_child=1 7 11 8 5 -3 -6 10 -4 -5 -1 -2 -9
right_child=2 4 3 9 6 -7 -8 12 -10 -11 -12 -13 -14
leaf_value=-0.0017274287982406665 -0.008150962434709072 0.0063282863255510937 0.0017982356924759713 -0.0018885989325264324 -0.0059141959242130582 0.0027034701670054341 0.0020434498960402478 -0.0031089861884140051 0.0062240437239408494 -0.0064979173647729963 0.0016416686551911489 -0.0049359896787494984 -0.0051317307040242861
leaf_weight=48 71 116.5 27.5 11.999999999999998 18 191 32.5 31.5 29 46.5 16.5 25.5 49.5
leaf_count=28 48 24 12 8 12 64 12 21 5 31 6 17 33
internal_value=-1.64642e-05 0.00158794 -0.00383249 -0.000808033 0.00339896 0.0040977 -0.000823576 -0.00285058 0.00416471 -0.00562526 -0.00083076 -0.00737613 -0.00441091
internal_weight=715 503.5 211.5 115 358 307.5 50.5 145.5 56.5 58.5 64.5 96.5 81
internal_count=321 200 121 56 112 88 24 88 17 39 34 65 54
is_linear=0
shrinkage=0.03


Tree=27
num_leaves=12
num_cat=0
split_feature=2 30 7 20 2 2 18 0 28 1 1
split_gain=6.14626 4.20025 1.51713 1.48781 1.9257 0.811111 0.792868 0.626193 0.291258 0.0597182 0.0577823
threshold=955029.36524073815 -1.417304923735603 7.7439602188914831 3307.8080879886775 962458.4493606576 933085.16036982159 2.9840568438819584 0.91023613416931248 -1.8351209175064496 0.61559370248597578 -0.2393156642875576
decision_type=2 2 2 2 2 2 2 2 2 2 2
left_child=1 8 5 -2 7 -3 -4 -5 10 -6 -1
right_child=3 2 6 4 9 -7 -8 -9 -10 -11 -12
leaf_value=-0.0017364882192221181 -0.0075803092377526408 0.0060392856360971924 0.0024881722914261951 -0.00034676981448050005 -0.0066970162203778385 0.0019792305019166734 -0.0014978677624308352 0.0064757288238581493 0.00040971422474831343 -0.0034273116537011585 -0.0042592328430089924
leaf_weight=13.499999999999998 83 149 134 40.5 45 66.5 66 15.999999999999998 14.999999999999998 11.999999999999998 87
leaf_count=9 56 29 46 23 30 25 32 3 8 8 58
internal_value=-1.86224e-05 0.00165714 0.00306491 -0.00454009 -0.00225696 0.00480827 0.00116441 0.0016382 -0.00337713 -0.00610548 -0.00395558
internal_weight=727.5 531 415.5 196.5 113.5 215.5 200 56.5 115.5 57 100.5
internal_count=327 207 132 120 64 54 78 26 75 38 67
is_linear=0
shrinkage=0.03


Tree=28
num_leaves=13
num_cat=0
split_feature=2 22 2 2 21 26 30 2 2 16 24 2
split_gain=4.61469 2.684 2.27638 1.93569 1.90695 1.18393 0.790354 0.469907 0.371519 0.0556038 0.0288458 0.045065
threshold=929250.6663411262 38.938908690466725 962458.4493606576 938944.48968868202 10.256170735277101 27.249117132485736 1.7797867354236481 926392.00140437984 933085.16036982159 -2.0947241898358508 81.817264497946255 962688.12692897755
decision_type=2 2 2 2 2 2 2 2 2 2 2 2
left_child=1 5 3 8 -5 9 7 -3 -2 -1 -4 -12
right_child=2 6 10 4 -6 -7 -8 -9 -10 -11 11 -13
leaf_value=-0.0025427543409168724 -0.001803648659801584 0.0016113894774725562 -0.0038414087650867606 -0.0052066601325863413 0.0011812622538589165 0.0052842427730560304 0.0084879607652363007 0.0056152018422017929 -0.0061966564015908665 -0.0053964520958917472 -0.0039678680856640516 -0.0071162977740168564
leaf_weight=14.999999999999995 28.5 46.5 11.999999999999998 47.5 314.5 13.999999999999998 56 68 54 27.000000000000004 11.999999999999998 51
leaf_count=10 19 16 8 32 126 3 7 13 36 18 8 34
internal_value=0.000112257 0.00367817 -0.00144366 -0.000618089 0.000326901 -0.00197405 0.00554404 0.00403022 -0.00473681 -0.00449499 -0.00624432 -0.0066114
internal_weight=746 226.5 519.5 444.5 362 56 170.5 114.5 82.5 42 75 63
internal_count=330 67 263 213 158 31 36 29 55 28 50 42
is_linear=0
shrinkage=0.03


Tree=29
num_leaves=9
num_cat=0
split_feature=2 32 2 29 2 1 23 2
split_gain=3.50907 2.89525 1.55328 2.56578 1.14194 0.766113 0.309021 0.0127756
threshold=962514.86924537865 3.7815401355956637 929250.6663411262 0.6414792187435262 925199.68964952091 -0.2393156642875576 80.925698432784927 962688.12692897755
decision_type=2 2 2 2 2 2 2 2
left_child=1 2 4 -4 -1 -3 -7 -2
right_child=7 5 3 -5 -6 6 -8 -9
leaf_value=0.00084098720729351044 -0.0039289226084947585 0.0015043310865759849 0.0027026393079541177 -0.0030241131171346342 0.0055685320583384809 -0.0065065876630044754 -0.0029297448506055792 -0.0063963039603852131
leaf_weight=74 11.999999999999998 29 174.5 116.5 126 30 100.5 64.5
leaf_count=28 8 12 61 66 25 20 64 43
internal_value=-4.7692e-05 0.000668172 0.00181048 0.000402328 0.00383969 -0.00282831 -0.00380664 -0.00608431
internal_weight=727 650.5 491 291 200 159.5 130.5 76.5
internal_count=327 276 180 127 53 96 84 51
is_linear=0
shrinkage=0.03


Tree=30
num_leaves=13
num_cat=0
split_feature=2 30 19 33 7 18 30 21 28 2 25 19
split_gain=4.52816 3.62473 2.19309 1.95242 0.890381 0.820215 0.724938 0.610243 0.43078 0.163423 0.091054 0.00579999
threshold=955029.36524073815 -1.3938269524849773 3307.9253368134487 3308.3487403804293 7.7439602188914831 3.7450290231207677 0.1998995861850727 30.011413503951719 -1.8351209175064496 962619.29232193122 25.413303850684837 3306.5106535805053
decision_type=2 2 2 2 2 2 2 2 2 2 2 2
left_child=1 8 11 6 7 -6 -4 -3 10 -5 -1 -2
right_child=2 4 3 9 5 -7 -8 -9 -10 -11 -12 -13
leaf_value=-0.004742355862026473 -0.0075008392262458801 0.0075046771122859067 0.0044332768388769843 -0.001974038696395499 0.0022649132500547437 -0.0035596209669113161 -0.0029071270152926441 0.0034730946566173416 0.0010639611161313951 -0.0058033756623777103 -0.0027195041198596189 -0.0049734520850510432
leaf_weight=40.5 74 44.5 48.5 16.5 163 24 14.999999999999998 166 21 43.5 66 13.499999999999998
leaf_count=27 50 8 13 11 57 14 10 46 10 29 44 9
internal_value=0.0001191 0.00161277 -0.00358038 -0.000974801 0.00302491 0.00149444 0.00265788 0.00436392 -0.00276737 -0.00482452 -0.00353967 -0.00718845
internal_weight=736 525 211 123.5 397.5 187 63.5 210.5 127.5 60 106.5 87.5
internal_count=328 206 122 63 125 71 23 54 81 40 71 59
is_linear=0
shrinkage=0.03


Tree=31
num_leaves=13
num_cat=0
split_feature=2 30 19 2 24 24 23 28 0 25 19 23
split_gain=3.6215 3.03667 1.95461 1.88246 1.36118 1.12795 0.821361 0.55071 0.455552 0.0993088 0.0443585 0.0311402
threshold=955029.36524073815 -1.3938269524849773 3308.1656486580914 962514.86924537865 82.916396245057555 84.394900530365803 79.923874533526103 -1.8351209175064496 0.95297903005573359 25.493151517014223 3306.5106535805053 83.449635423292492
decision_type=2 2 2 2 2 2 2 2 2 2 2 2
left_child=1 7 10 8 6 -6 -3 9 -4 -1 -2 -5
right_child=2 4 3 11 5 -7 -8 -9 -10 -11 -12 -13
leaf_value=-0.0049660753282003622 -0.0072632530980639978 -0.0005300818483034769 0.00052366888010218528 -0.0062077995094202334 -0.0019283272425111918 0.0052198867981250469 0.004329070461785745 0.0016145181366946637 0.005913302087187767 -0.0027976678513583881 -0.0048145734242936401 -0.0033517027004407
leaf_weight=42 66.5 35 34.5 28.5 83 25 246 19.5 24 55.5 22.5 11.999999999999998
leaf_count=28 45 16 18 19 43 5 62 9 4 37 15 8
internal_value=2.26355e-05 0.001346 -0.00351953 -0.000587794 0.00262163 -0.000227178 0.00371879 -0.00286874 0.00282223 -0.00378791 -0.00672125 -0.00549885
internal_weight=694 506 188 99 389 108 281 117 58.5 97.5 89 40.5
internal_count=309 200 109 49 126 48 78 74 22 65 60 27
is_linear=0
shrinkage=0.03


Tree=32
num_leaves=11
num_cat=0
split_feature=2 30 21 7 2 34 2 2 28 25
split_gain=3.96509 2.84812 1.25018 1.09496 0.804277 0.717729 1.07378 0.458244 0.240248 0.105033
threshold=955029.36524073815 -1.417304923735603 118.53987638285277 6.4044328991097936 940351.15984073735 3307.4722733007352 962556.70298914018 933085.16036982159 -1.8351209175064496 25.413303850684837
decision_type=2 2 2 2 2 2 2 2 2 2
left_child=1 8 5 7 -5 -2 -7 -3 9 -1
right_child=2 3 -4 4 -6 6 -8 -9 -10 -11
leaf_value=-0.004671246885415167 -0.0069798283832413809 0.0050347862384891758 0.0028803244135817705 -0.00078648828506004069 0.0028822477223351597 -0.00013433190185840673 -0.0056587666589340176 0.0018796466901898382 0.00093629263370082925 -0.0024798431509159141
leaf_weight=39 62 138 23.5 111.5 101.5 62.5 64.5 64 11.999999999999998 60
leaf_count=26 42 28 7 51 32 32 43 23 6 40
internal_value=-6.12931e-05 0.00133399 -0.00351213 0.00247707 0.000960049 -0.00432583 -0.00297406 0.00405671 -0.00291025 -0.0033962
internal_weight=738.5 526 212.5 415 213 189 127 202 111 99
internal_count=330 206 124 134 83 117 75 51 72 66
is_linear=0
shrinkage=0.03


Tree=33
num_leaves=12
num_cat=0
split_feature=26 5 9 9 23 12 8 11 25 5 30
split_gain=3.16877 3.75812 1.24421 0.990449 0.886904 0.878841 0.827929 0.662836 0.598307 0.384871 0.0156647
threshold=26.507666201987629 3290.4578545027516 82.198063680545616 81.99238715822294 80.02715039447169 26.362004435452842 198.63936483047539 26.974796184346001 26.921665634171617 3309.2863768953666 1.4065700064921021
decision_type=2 2 2 2 2 2 2 2 2 2 2
left_child=2 4 3 5 7 -1 9 -2 -6 -4 -3
right_child=1 10 6 -5 8 -7 -8 -9 -10 -11 -12
leaf_value=-0.0032265326119959355 -0.0040118564116683872 -0.0066024001745854394 -0.0028510188781298122 0.0046401837801933283 0.0030582326513736743 0.0019647399922922398 0.0038639742374420162 0.0035776769610551687 0.0063625285281715058 -0.0061546579353511325 -0.004005113988087095
leaf_weight=66 21 28.5 213.5 36.5 128 51 13.999999999999998 18.5 87 39 13.499999999999998
leaf_count=39 13 19 131 9 36 18 4 5 16 26 9
internal_value=-7.69354e-05 0.002291 -0.00175362 0.000388322 0.00366896 -0.000953485 -0.0029898 -0.000419658 0.00442553 -0.00338947 -0.005915
internal_weight=716.5 296.5 420 153.5 254.5 117 266.5 39.5 215 252.5 42
internal_count=325 98 227 66 70 57 161 18 52 157 28
is_linear=0
shrinkage=0.03


Tree=34
num_leaves=12
num_cat=0
split_feature=2 2 29 2 2 2 2 8 16 23 24
split_gain=3.29113 1.86589 2.07447 1.72311 1.39459 1.35886 0.380501 0.369569 0.273845 0.245761 0.000182578
threshold=929250.6663411262 925199.68964952091 1.0503290734136683 962556.70298914018 938944.48968868202 944695.49735721631 933085.16036982159 58.036118650294874 -0.72314703733496322 82.677442014354753 81.88817909269018
decision_type=2 2 2 2 2 2 2 2 2 2 2
left_child=1 2 8 4 6 -6 -2 9 -1 -3 -5
right_child=3 7 -4 10 5 -7 -8 -9 -10 -11 -12
leaf_value=-0.0023031138097504514 -0.0016272944448904349 0.0055584454905727625 0.0044394782873773079 -0.0039296412714757024 0.0031257040236617939 -0.0010106585929693776 -0.0057964342106686956 0.0075634072870016094 -0.0068255396107347998 0.0022324512324571103 -0.005849549714684486
leaf_weight=37.5 36 45 47.5 14.999999999999998 98.5 252.5 49.5 43 19.5 43 61.5
leaf_count=23 24 7 10 10 32 126 33 6 13 13 41
internal_value=-7.29391e-05 0.00285382 -0.000125865 -0.00142236 -0.000684855 0.000151436 -0.00409745 0.00522505 -0.00396713 0.00399344 -0.00554801
internal_weight=748.5 235.5 104.5 513 436.5 351 85.5 131 57 88 76.5
internal_count=338 72 46 266 215 158 57 26 36 20 51
is_linear=0
shrinkage=0.03


end of trees

feature_importances:
city_estimated_population=125
city_area_weighted_v_component_of_wind_10m_rollmean_lag1_w8=36
city_area_weighted_pop_density_lag20=32
city_area_weighted_u_component_of_wind_10m_rollmean_lag1_w8=23
week_cos=19
city_area_weighted_rh_rollmean_lag1_w8=18
city_area_weighted_rh_rollmean_lag1_w4=15
city_area_weighted_temp_c_rollmean_lag1_w8=15
city_area_weighted_rainfall_lag20=14
city_area_weighted_wind_speed_10m_rollmean_lag1_w8=13
week_sin=9
city_area_weighted_pop_density_lag19=9
city_pop_density=7
city_area_weighted_temp_c_rollmean_lag1_w4=7
city_area_weighted_v_component_of_wind_10m_rollmean_lag1_w4=6
city_area_weighted_v_component_of_wind_10m_lag1=5
city_area_weighted_rainfall_rollmean_lag1_w4=5
city_area_weighted_rh_lag14=4
city_area_weighted_temp_c_lag5=4
city_area_weighted_rainfall_rollmean_lag1_w8=4
city_area_weighted_pop_density_rollmean_lag1_w4=4
city_area_weighted_pop_density_rollmean_lag1_w8=4
city_area_weighted_temp_c_lag6=3
city_area_weighted_wind_speed_10m_rollmean_lag1_w4=3
city_area_weighted_rainfall_lag14=2
city_area_weighted_rh_lag15=2
city_area_weighted_wind_speed_10m_lag5=2
city_area_weighted_wind_speed_10m_lag6=1
city_area_weighted_u_component_of_wind_10m_rollmean_lag1_w4=1

parameters:
[boosting: gbdt]
[objective: regression]
[metric: rmse]
[tree_learner: serial]
[device_type: cpu]
[data_sample_strategy: bagging]
[data: ]
[valid: ]
[num_iterations: 35]
[learning_rate: 0.03]
[num_leaves: 31]
[num_threads: 0]
[seed: 0]
[deterministic: 0]
[force_col_wise: 1]
[force_row_wise: 0]
[histogram_pool_size: -1]
[max_depth: 4]
[min_data_in_leaf: 8]
[min_sum_hessian_in_leaf: 0.001]
[bagging_fraction: 0.85]
[pos_bagging_fraction: 1]
[neg_bagging_fraction: 1]
[bagging_freq: 1]
[bagging_seed: 3]
[bagging_by_query: 0]
[feature_fraction: 0.85]
[feature_fraction_bynode: 1]
[feature_fraction_seed: 2]
[extra_trees: 0]
[extra_seed: 6]
[early_stopping_round: 0]
[early_stopping_min_delta: 0]
[first_metric_only: 0]
[max_delta_step: 0]
[lambda_l1: 0.05]
[lambda_l2: 1]
[linear_lambda: 0]
[min_gain_to_split: 0]
[drop_rate: 0.1]
[max_drop: 50]
[skip_drop: 0.5]
[xgboost_dart_mode: 0]
[uniform_drop: 0]
[drop_seed: 4]
[top_rate: 0.2]
[other_rate: 0.1]
[min_data_per_group: 100]
[max_cat_threshold: 32]
[cat_l2: 10]
[cat_smooth: 10]
[max_cat_to_onehot: 4]
[top_k: 20]
[monotone_constraints: ]
[monotone_constraints_method: basic]
[monotone_penalty: 0]
[feature_contri: ]
[forcedsplits_filename: ]
[refit_decay_rate: 0.9]
[cegb_tradeoff: 1]
[cegb_penalty_split: 0]
[cegb_penalty_feature_lazy: ]
[cegb_penalty_feature_coupled: ]
[path_smooth: 0]
[interaction_constraints: ]
[verbosity: -1]
[saved_feature_importance_type: 0]
[use_quantized_grad: 0]
[num_grad_quant_bins: 4]
[quant_train_renew_leaf: 0]
[stochastic_rounding: 1]
[linear_tree: 0]
[max_bin: 255]
[max_bin_by_feature: ]
[min_data_in_bin: 3]
[bin_construct_sample_cnt: 200000]
[data_random_seed: 1]
[is_enable_sparse: 1]
[enable_bundle: 1]
[use_missing: 1]
[zero_as_missing: 0]
[feature_pre_filter: 1]
[pre_partition: 0]
[two_round: 0]
[header: 0]
[label_column: ]
[weight_column: ]
[group_column: ]
[ignore_column: ]
[categorical_feature: ]
[forcedbins_filename: ]
[precise_float_parser: 0]
[parser_config_file: ]
[objective_seed: 5]
[num_class: 1]
[is_unbalance: 0]
[scale_pos_weight: 1]
[sigmoid: 1]
[boost_from_average: 1]
[reg_sqrt: 0]
[alpha: 0.9]
[fair_c: 1]
[poisson_max_delta_step: 0.7]
[tweedie_variance_power: 1.5]
[lambdarank_truncation_level: 30]
[lambdarank_norm: 1]
[label_gain: ]
[lambdarank_position_bias_regularization: 0]
[eval_at: ]
[multi_error_top_k: 1]
[auc_mu_weights: ]
[num_machines: 1]
[local_listen_port: 12400]
[time_out: 120]
[machine_list_filename: ]
[machines: ]
[gpu_platform_id: -1]
[gpu_device_id: -1]
[gpu_use_dp: 0]
[num_gpu: 1]

end of parameters
