tree
version=v4
num_class=1
num_tree_per_iteration=1
label_index=0
max_feature_idx=86
objective=regression
feature_names=week_sin week_cos city_estimated_population city_area_m2 city_area_km2 city_pop_density n_barangays_reported city_dengue_cases_lag1 city_dengue_cases_lag2 city_dengue_cases_lag3 city_dengue_cases_lag4 city_incidence_10000_lag1 city_incidence_10000_lag2 city_incidence_10000_lag3 city_incidence_10000_lag4 target_log_incidence_city_lag1 target_log_incidence_city_lag2 target_log_incidence_city_lag3 target_log_incidence_city_lag4 city_area_weighted_rainfall_lag18 city_area_weighted_rainfall_lag19 city_area_weighted_rainfall_lag12 city_area_weighted_rainfall_lag15 city_area_weighted_rh_lag12 city_area_weighted_rh_lag13 city_area_weighted_rh_lag11 city_area_weighted_rh_lag14 city_area_weighted_temp_c_lag4 city_area_weighted_temp_c_lag3 city_area_weighted_temp_c_lag5 city_area_weighted_temp_c_lag2 city_area_weighted_u_component_of_wind_10m_lag1 city_area_weighted_u_component_of_wind_10m_lag2 city_area_weighted_u_component_of_wind_10m_lag3 city_area_weighted_u_component_of_wind_10m_lag4 city_area_weighted_v_component_of_wind_10m_lag1 city_area_weighted_v_component_of_wind_10m_lag2 city_area_weighted_v_component_of_wind_10m_lag3 city_area_weighted_v_component_of_wind_10m_lag4 city_area_weighted_wind_speed_10m_lag4 city_area_weighted_wind_speed_10m_lag3 city_area_weighted_wind_speed_10m_lag2 city_area_weighted_wind_speed_10m_lag19 city_area_weighted_pop_density_lag20 city_area_weighted_pop_density_lag19 city_area_weighted_pop_density_lag18 city_area_weighted_pop_density_lag17 city_pop_density_lag20 city_pop_density_lag19 city_pop_density_lag18 city_pop_density_lag17 city_area_weighted_rainfall_rollmean_lag1_w4 city_area_weighted_rainfall_rollmean_lag1_w8 city_area_weighted_rh_rollmean_lag1_w4 city_area_weighted_rh_rollmean_lag1_w8 city_area_weighted_temp_c_rollmean_lag1_w4 city_area_weighted_temp_c_rollmean_lag1_w8 city_area_weighted_u_component_of_wind_10m_rollmean_lag1_w4 city_area_weighted_u_component_of_wind_10m_rollmean_lag1_w8 city_area_weighted_v_component_of_wind_10m_rollmean_lag1_w4 city_area_weighted_v_component_of_wind_10m_rollmean_lag1_w8 city_area_weighted_wind_speed_10m_rollmean_lag1_w4 city_area_weighted_wind_speed_10m_rollmean_lag1_w8 city_area_weighted_pop_density_rollmean_lag1_w4 city_area_weighted_pop_density_rollmean_lag1_w8 city_area_weighted_flood_risk_index_rollmean_lag1_w4 city_area_weighted_flood_risk_index_rollmean_lag1_w8 city_area_weighted_percent_annual_crop_rollmean_lag1_w4 city_area_weighted_percent_annual_crop_rollmean_lag1_w8 city_area_weighted_percent_brush_shrubs_rollmean_lag1_w4 city_area_weighted_percent_brush_shrubs_rollmean_lag1_w8 city_area_weighted_percent_built_up_rollmean_lag1_w4 city_area_weighted_percent_built_up_rollmean_lag1_w8 city_area_weighted_percent_inland_water_rollmean_lag1_w4 city_area_weighted_percent_inland_water_rollmean_lag1_w8 city_area_weighted_percent_open_forest_rollmean_lag1_w4 city_area_weighted_percent_open_forest_rollmean_lag1_w8 city_area_weighted_percent_perennial_crop_rollmean_lag1_w4 city_area_weighted_percent_perennial_crop_rollmean_lag1_w8 city_area_weighted_percent_open_barren_rollmean_lag1_w4 city_area_weighted_percent_open_barren_rollmean_lag1_w8 city_area_weighted_percent_fishpond_rollmean_lag1_w4 city_area_weighted_percent_fishpond_rollmean_lag1_w8 city_area_weighted_percent_grassland_rollmean_lag1_w4 city_area_weighted_percent_grassland_rollmean_lag1_w8 city_area_weighted_percent_mangrove_forest_rollmean_lag1_w4 city_area_weighted_percent_mangrove_forest_rollmean_lag1_w8
feature_infos=[-1:1] [-1:1] [914211.7095180488:964143.50380609359] [290905052.4156:290905052.4156] [290.90505241559998:290.90505241559998] [3142.64637869529:3314.2893043627] [80:80] [0:214] [0:214] [0:214] [0:214] [0:2.3051543834180643] [0:2.3051543834180643] [0:2.3051543834180643] [0:2.3051543834180643] [0:1.1954831842907574] [0:1.1954831842907574] [0:1.1954831842907574] [0:1.1954831842907574] [0.0025243612881299211:403.77764092016611] [0.0025243612881299211:403.77764092016611] [0.0025243612881299211:403.77764092016611] [0.0025243612881299211:403.77764092016611] [74.166209495041301:88.154553662835738] [74.166209495041301:88.154553662835738] [74.166209495041301:88.154553662835738] [74.166209495041301:88.154553662835738] [24.337778836331829:27.857639391615468] [24.337778836331829:27.857639391615468] [24.337778836331829:27.857639391615468] [24.337778836331829:27.857639391615468] [-4.5717681780699149:4.4965446280041954] [-4.5717681780699149:4.4965446280041954] [-4.5717681780699149:4.4965446280041954] [-4.5717681780699149:4.4965446280041954] [-6.2680500182560719:5.1247667214851038] [-6.2680500182560719:5.1247667214851038] [-6.2680500182560719:5.1247667214851038] [-6.2680500182560719:5.1247667214851038] [1.39564484944224:6.8002328204854665] [1.39564484944224:6.8002328204854665] [1.39564484944224:6.8002328204854665] [1.39564484944224:6.8002328204854665] [3125.6331669833717:3314.2893043626991] [3126.4700955675198:3314.2893043626991] [3127.3084466892665:3314.2893043626991] [3128.1482241098088:3314.2893043626991] [3125.6331669833721:3314.2893043627] [3126.4700955675198:3314.2893043627] [3127.3084466892665:3314.2893043627] [3128.1482241098092:3314.2893043627] [0.066242600448727776:147.57175632940832] [0.48078482996758953:119.23124797939784] [76.04244385379063:86.610761977842287] [76.761170402338564:86.082735724126366] [24.635251946080103:27.639879393457701] [24.734571822108446:27.440794559836895] [-3.4486736035175789:3.6280013469861503] [-3.0815340340364679:3.131422920161175] [-4.48361272930451:3.4734894156434146] [-3.8559405516430854:3.0795858777581708] [1.7342058228275261:5.7925001460518359] [1.9506388693011207:5.3170040362056081] [3140.4885697881891:3314.1262969917143] [3138.7712235644044:3313.8757850504171] [0.39206069116144171:0.39206069116144171] [0.39206069116144171:0.39206069116144171] [8.8038756226411614:8.8038756226411614] [8.8038756226411614:8.8038756226411614] [25.626315570017983:25.626315570017983] [25.626315570017983:25.626315570017983] [21.033173411121368:21.033173411121368] [21.033173411121368:21.033173411121368] [1.2929350729991871:1.2929350729991871] [1.2929350729991871:1.2929350729991871] [3.9987213824765591:3.9987213824765591] [3.9987213824765591:3.9987213824765591] [38.056785261807292:38.056785261807292] [38.056785261807292:38.056785261807292] [0.095033994494272564:0.095033994494272564] [0.095033994494272564:0.095033994494272564] [0.13200358533077799:0.13200358533077799] [0.13200358533077799:0.13200358533077799] [0.92089829914606036:0.92089829914606036] [0.92089829914606036:0.92089829914606036] [0.040257799965338029:0.040257799965338029] [0.040257799965338029:0.040257799965338029]
tree_sizes=1129 1362 1195 1374 1255 1283 1366 1355 1292 1276 1198 1282 1276 1289 1194 1290 1292 1282 1371 1376 1286 1210 1384 1283 1303 1392 1298 1387 1294 1287 1201 1377 1391 1300 1303 1301 1120 1478 1379 1394 1215 1301 1302 1380 1297 1390 1401 1306 1295 1305 1475 1305 1306 1213 1384 1302 1310 1395 1485 1320 1305 1405 1501 1232 1306 1218 1401 1412 1404 1413 1487 1405 1313 1227 1318 1303 1322 1322 1406 1322 1408 1230 1412 1319 1234 1416 1412 1418 1326 1229 1519 1320 1496 1423 1420 1226 1240 1324 1322 1331 1424 1318 1331 1501 1421 1535 1330 1325 1322 1320 1321 1321 1239 1494 1260 1149 1413 1140 1420 1335 1323 1240 1336 1521 1423 1234 1324 1325 1325 1246 1521 1424 1244 1336 1431 1330 1431 1425 1243 1325 1243 1432 1236 1154 1341 1320 1332 1331 1339 1529 1544 1436 1551 1341 1337 1427 1335 1346 1526 1539 1438 1240 1432 1418 1245 1238 1245 1436 1443 1257 1441 1417 1257 1443 1339 1541 1340 1446 1430 1342 1546 1340 1532 1426 1249 1349 1428 1439 1453 1438 1349 1431 1248 1538 1259 1321 1448 1550 1437 1343 1577 1355 1344 1447 1430 1258 1447 1160 1443 1350 1567 1343 1540 1418 1245 1250 1581 1462 1564 1583 1560 1249 1249 1344 1238 1339 1153 1541 1254 1441 1339 1428 1247 1256 1335 1251 1564 1256 1168 1453 1437 1636 1560 1444 1588 1329 1531 1546 1550 1530 1526 1417 1545 1250 1554 1345 1354 1356 1429 1256 1442 1578 1349 1554 1257 1254 1443 1540 1556 1460 1247 1445 1530 1347 1440 1435 1263 1160 1441 1353 1584 1330 1343 1565 1345 1343 1450 1454 1440 1430 1441 1259 1167 1449 1261 1255 1553 1438 1589 1576 1596 1254 1450 1576 1364 1437 1261 1350 1575 1450 1343 1458 1570 1546 1349 1342 1252 1354 1445 1533 1462 1173 1243 1454 1457 1254 1456 1551 1435 1601 1567 1342 1446 1162 1573 1357 1442 1535 1571 1457 1555 1446 1270 1350 1353 1352 1576 1605 1603 1460 1522 1584 1452 1586 1354 1379 1360 1365 1591 1613 1366 1348 1616 1538 1434 1543 1344 1468 1632 1536 1348 1266 1561 1597 1454 1587 1362 1353 1565 1582 1349 1656 1592 1449 1365 1601 1359 1359 1605 1475 1440 1463 1544 1440 1346 1474 1361 1556 1358 1452

Tree=0
num_leaves=12
num_cat=0
split_feature=11 56 25 5 52 61 44 57 62 61 34
split_gain=29.3663 14.5102 5.9841 4.39954 3.27347 2.72653 1.71983 1.73982 1.32249 0.282719 0.0431936
threshold=0.12597256272931903 26.509742429382744 79.944537446385525 3189.1500205195844 41.306786540456578 4.1821849651229526 3308.4968492937901 -2.131575426871168 3.1519857243409741 3.722101820762171 -0.37833360324085913
decision_type=2 2 2 2 2 2 2 2 2 2 2
left_child=9 2 -2 -3 -5 6 7 -4 -9 10 -1
right_child=1 3 5 4 -6 -7 -8 8 -10 -11 -12
leaf_value=0.55556567928120848 0.59285143468567036 0.60229782812315991 0.56849742677446613 0.59348029061149921 0.57610038446449274 0.56612768823070825 0.58750971200318047 0.57472146341625385 0.58549464193931677 0.56226689909293026 0.55788361647909313
leaf_weight=45.5 64 114 51 109.5 36 57 42 63 52 30 36
leaf_count=31 20 23 34 31 22 38 16 39 23 20 24
internal_value=0.581645 0.586103 0.57913 0.594943 0.58918 0.575816 0.578471 0.576184 0.579593 0.558117 0.55659
internal_weight=700 588.5 329 259.5 145.5 265 208 166 115 111.5 81.5
internal_count=321 246 170 76 53 150 112 96 62 75 55
is_linear=0
shrinkage=1


Tree=1
num_leaves=14
num_cat=0
split_feature=7 56 61 2 25 52 14 0 41 53 11 13 43
split_gain=24.7748 12.7536 5.50945 4.21595 3.41302 2.49668 1.35044 1.3302 1.18697 0.79242 0.409749 0.310335 0.0954901
threshold=10.500000000000002 26.509742429382744 3.7791412426736368 927739.85388046142 82.184472405508615 44.200134499867922 0.44387529389249558 0.61559370248597556 3.1777202248781422 82.429506488870686 0.87119046039826797 0.063991478976915039 3303.2532802552873
decision_type=2 2 2 2 2 2 2 2 2 2 2 2 2
left_child=11 2 4 -3 8 -5 -4 10 -2 -8 -6 12 -1
right_child=1 3 6 5 7 -7 9 -9 -10 -11 -12 -13 -14
leaf_value=-0.026131325736641887 0.011975686192907245 0.018777185162221353 -0.0038729106439504683 0.010065455323493872 -0.011524100303649903 -0.0047371892233689632 -0.02095634268991875 0.0030835539437411878 0.0012785743238239349 -0.010602615853505476 -0.0041326710780461634 -0.018417856888056305 -0.022399618178606036
leaf_weight=40 75.5 127 41 118.5 37.5 37.5 33 44.5 39.5 42 37.5 29.5 30
leaf_count=27 21 26 23 35 24 21 22 18 19 28 22 20 20
internal_value=0.000475232 0.00411825 -0.00225649 0.0120135 0.00215248 0.00650713 -0.0111695 -0.00376494 0.00830146 -0.0151583 -0.00782839 -0.0227193 -0.024532
internal_weight=733 633.5 350.5 283 234.5 156 116 119.5 115 75 75 99.5 70
internal_count=326 259 177 82 104 56 73 64 40 50 46 67 47
is_linear=0
shrinkage=0.05


Tree=2
num_leaves=12
num_cat=0
split_feature=11 56 2 35 29 52 38 40 14 43 17
split_gain=22.6805 10.3995 4.78063 3.76329 2.68439 2.6558 2.16854 1.88351 0.471192 0.273738 0.090779
threshold=0.12597256272931903 26.509742429382744 932361.4706413399 -1.5852157932507238 25.87038141575232 44.200134499867922 0.51343108758051603 3.6441255171575455 0.87119046039826797 3309.9943345711004 0.040736344407803278
decision_type=2 2 2 2 2 2 2 2 2 2 2
left_child=9 3 -3 7 -5 -4 -6 -2 -9 10 -1
right_child=1 2 5 4 6 -7 -8 8 -10 -11 -12
leaf_value=-0.024922217948492184 -0.001618705251972184 0.017463900749698457 0.0084311296949621112 0.011165884785867971 0.0031880722709708605 -0.0073681091293692595 -0.01020836514265587 -0.0096736641968355377 -0.016752915643155574 -0.018194791227579117 -0.021320692967560333
leaf_weight=43 65.5 128.5 91.5 58 81.5 37.5 48 57 40 37.5 29.5
leaf_count=29 33 27 29 18 35 23 31 34 27 25 20
internal_value=-0.000771788 0.00301097 0.0106379 -0.00260027 0.00222639 0.00383833 -0.0017774 -0.00816948 -0.0125929 -0.0216629 -0.0234568
internal_weight=717.5 607.5 257.5 350 187.5 129 129.5 162.5 97 110 72.5
internal_count=331 257 79 178 84 52 66 94 61 74 49
is_linear=0
shrinkage=0.05


Tree=3
num_leaves=14
num_cat=0
split_feature=11 62 2 59 35 56 52 1 10 2 12 11 43
split_gain=21.6193 11.2735 6.00285 5.14285 3.45385 2.49685 2.04678 1.99144 0.758524 0.480118 0.324322 0.269589 0.13428
threshold=0.12597256272931903 3.7815401355956637 928560.26477547444 0.52741854480424821 -1.1152500177108708 26.746097201387467 54.720345525498352 0.61559370248597578 47.500000000000007 945355.08056551439 0.063991478976915039 0.61030320932005278 3308.05924738356
decision_type=2 2 2 2 2 2 2 2 2 2 2 2 2
left_child=10 2 6 7 8 11 -2 -4 -3 -10 12 -5 -1
right_child=1 4 3 5 -6 -7 -8 -9 9 -11 -12 -13 -14
leaf_value=-0.023748073900971459 0.0092229291360977801 -0.0082209723300358251 0.011624416952583358 -0.015817899978350078 0.0048324048848725955 0.0033421174236914009 0.020245507610849589 0.00073370940051972874 -0.011699000000953676 -0.020361379981040956 -0.016147815934934858 -0.009195078047535693 -0.019568980957070988
leaf_weight=53.5 85.5 58.5 118.5 31.5 38.5 41 83 65 31.5 32.5 29.5 30 30
leaf_count=36 28 35 33 21 16 17 13 30 21 22 20 20 20
internal_value=-0.000551904 0.00313873 0.00716619 0.00275558 -0.0082307 -0.00621551 0.0146524 0.00776667 -0.0123362 -0.0160979 -0.0206544 -0.0125873 -0.0222466
internal_weight=728.5 615.5 454.5 286 161 102.5 168.5 183.5 122.5 64 113 61.5 83.5
internal_count=332 256 162 121 94 58 41 63 78 43 76 41 56
is_linear=0
shrinkage=0.05


Tree=4
num_leaves=13
num_cat=0
split_feature=12 59 2 2 59 2 2 62 9 13 40 45
split_gain=18.2359 10.8459 6.5933 4.65124 3.25987 3.14384 2.20311 1.98833 0.579442 0.509799 0.352349 0.124235
threshold=0.1250506716509989 -1.8422018295143967 928973.7709029183 939567.13312223961 0.52741854480424821 961880.65499257669 926125.34723596147 3.9629543366216438 83.500000000000014 0.063991478976915039 2.4285480621561253 3308.05924738356
decision_type=2 2 2 2 2 2 2 2 2 2 2 2
left_child=9 7 6 -4 10 -6 -3 -2 -9 11 -5 -1
right_child=1 2 3 4 5 -7 -8 8 -10 -11 -12 -13
leaf_value=-0.022255652625950015 -0.00074379188053816272 0.0086311683028369498 -0.010886520601774531 0.013043608384973863 0.0047111867381318014 -0.014288170658277744 0.019301930252535671 -0.0099564470742878174 -0.018203881054240114 -0.013048073028524718 0.0080329032603934491 -0.018170131053775549
leaf_weight=49 51.5 92 54 59.5 64 33 102 57 34 30 85.5 30
leaf_count=33 26 31 36 13 27 22 16 36 23 19 28 20
internal_value=0.000291408 0.00354649 0.00707736 0.0023819 0.00534262 -0.00175251 0.0142416 -0.00859477 -0.0130379 -0.018597 0.010089 -0.0207042
internal_weight=741.5 632.5 490 296 242 97 194 142.5 91 109 145 79
internal_count=330 258 173 126 90 49 47 85 59 72 41 53
is_linear=0
shrinkage=0.05


Tree=5
num_leaves=13
num_cat=0
split_feature=11 36 2 59 58 54 2 18 62 2 37 62
split_gain=18.1325 10.4928 6.29618 3.56178 3.34689 2.18362 1.61195 1.24617 0.830849 0.368438 0.204979 0.0483584
threshold=0.12597256272931903 -1.1113881798914762 928973.7709029183 0.2907162347693813 -0.1235762484068061 82.194908013749554 926125.34723596147 0.29733134908606135 3.8785675295654038 936797.1514255997 -0.43104598403719196 2.7594939380947419
decision_type=2 2 2 2 2 2 2 2 2 2 2 2
left_child=10 4 6 -4 7 -5 -3 -2 -9 -10 -1 -12
right_child=1 2 3 5 -6 -7 -8 8 9 -11 11 -13
leaf_value=-0.015696762511939851 -0.0022357006931735071 0.0099365851929035104 0.0088251476393681819 0.0027170164659306283 0.0082534357149531886 -0.011169742461707858 0.018773053103969213 -0.0059654839599552825 -0.010971225679866851 -0.018181233016061196 -0.021388758278228868 -0.018661966721216838
leaf_weight=43 48.5 101.5 107 59.5 34.5 54 105 39 31.5 40.5 35.5 30
leaf_count=29 25 30 33 26 11 36 16 24 21 27 24 20
internal_value=0.000479952 0.00377495 0.00815579 0.00228021 -0.0058674 -0.0038899 0.0144297 -0.00892175 -0.0118431 -0.0150269 -0.018379 -0.0201398
internal_weight=729.5 621 427 220.5 194 113.5 206.5 159.5 111 72 108.5 65.5
internal_count=322 249 141 95 108 62 46 97 72 48 73 44
is_linear=0
shrinkage=0.05


Tree=6
num_leaves=14
num_cat=0
split_feature=12 56 58 44 2 56 23 59 61 2 37 55 36
split_gain=16.985 9.48604 3.98034 3.97439 2.95602 2.26772 2.25089 0.776667 0.544703 0.32573 0.260197 0.123121 0.0368024
threshold=0.1250506716509989 26.509742429382744 0.95337381480386008 3308.4968492937901 927739.85388046142 25.940439609067706 82.005270240158197 0.7809659864172841 3.6382429977868807 946352.23987926601 -1.1113881798914762 25.614393997089 0.53891002305723157
decision_type=2 2 2 2 2 2 2 2 2 2 2 2 2
left_child=10 2 3 5 -3 9 -6 8 -7 11 -1 -2 -12
right_child=1 4 -4 -5 6 7 -8 -9 -10 -11 12 -13 -14
leaf_value=-0.014496208769269287 -0.013126127826578824 0.015315469512958289 0.0080410692764788256 0.0069213317033635195 0.0091901124379008391 0.0017882510019112223 -0.0044228401416066014 -0.010058950076973628 -0.0064519147264460721 -0.017200546365388685 -0.01852728292859834 -0.0089000070421025156 -0.020751252541175255
leaf_weight=40 40.5 134.5 73.5 56 98 60.5 44 31.5 30 35.5 43.5 30 32.5
leaf_count=27 27 27 24 21 27 27 24 21 19 24 29 20 22
internal_value=-0.000169445 0.00304908 -0.00232962 -0.00501359 0.0100035 -0.00794497 0.00497201 -0.00329693 -0.000943296 -0.0132946 -0.0177604 -0.0113278 -0.0194783
internal_weight=750 634 357.5 284 276.5 228 142 122 90.5 106 116 70.5 76
internal_count=339 261 183 159 78 138 51 67 46 71 78 47 51
is_linear=0
shrinkage=0.05


Tree=7
num_leaves=14
num_cat=0
split_feature=11 62 43 59 1 56 20 35 14 7 43 43 40
split_gain=15.412 7.25696 4.84772 4.19025 2.80366 1.95077 1.52198 1.4597 1.19769 0.371847 0.230593 0.178412 0.0591442
threshold=0.12453139815078598 3.7815401355956637 3182.686774595812 0.52741854480424821 0.70581670320594814 26.746097201387467 1.8962002702837248 -1.2083327212289665 0.4364845986549547 56.500000000000007 3238.5084860945931 3309.9943345711004 2.7378464010304899
decision_type=2 2 2 2 2 2 2 2 2 2 2 2 2
left_child=11 2 6 4 -4 9 -2 8 -3 -5 -10 12 -1
right_child=1 7 3 5 -6 -7 -8 -9 10 -11 -12 -13 -14
leaf_value=-0.016924861123164495 0.015521705679538597 -0.0026870760370741836 0.010453482760002963 -0.015104952691093325 -0.0029645570674566211 0.0024568317754363471 0.0068678976047828987 0.0031553526932839304 -0.01022140659730543 -0.0074222883061757158 -0.016088649762027406 -0.014231411988536516 -0.019894667597193466
leaf_weight=30 131 45.5 139.5 31.5 54 44 83 32 33 31.5 34 36 38
leaf_count=20 24 24 37 21 29 18 27 15 22 21 23 24 26
internal_value=0.000810434 0.00363344 0.00641408 0.00231836 0.00670891 -0.00562157 0.0121653 -0.00626721 -0.0089474 -0.0112636 -0.0131988 -0.0170776 -0.0185845
internal_weight=763 659 514.5 300.5 193.5 107 214 144.5 112.5 63 67 104 68
internal_count=331 261 177 126 66 60 51 84 69 42 45 70 46
is_linear=0
shrinkage=0.05


Tree=8
num_leaves=13
num_cat=0
split_feature=11 19 25 30 21 21 24 59 19 12 22 14
split_gain=13.5755 6.65655 3.54187 2.14681 1.85807 0.97277 0.774025 0.458387 0.454732 0.185814 0.145698 0.103598
threshold=0.12597256272931903 1.322293722441823 83.035838168446375 26.395716552633662 57.009873900056384 20.483989473531949 82.208269237089198 -0.065804608984900689 58.300480927385188 0.063991478976915039 67.705402230096055 0.60797990714294425
decision_type=2 2 2 2 2 2 2 2 2 2 2 2
left_child=9 -2 3 4 6 -4 -3 -5 11 10 -1 -7
right_child=1 2 5 7 -6 8 -8 -9 -10 -11 -12 -13
leaf_value=-0.018628087336266485 0.012461108592967588 -0.0011635836912319065 0.00010662947100975995 0.011139011953188026 0.0055234244969020142 -0.01269883985320727 -0.0104878421910023 0.0053921295697135592 -0.0044660953266144384 -0.012628279729531362 -0.014258577207387504 -0.0088923657742830432
leaf_weight=54 138.5 48 51.5 57.5 67 33 41.5 87.5 51 32.5 29.5 39
leaf_count=36 33 24 24 13 24 22 27 31 29 22 20 25
internal_value=-0.000147799 0.00281366 6.58209e-06 0.00328782 -0.000773342 -0.00566271 -0.00548712 0.00767107 -0.00807833 -0.0158359 -0.0170844 -0.010637
internal_weight=730.5 614.5 476 301.5 156.5 174.5 89.5 145 123 116 83.5 72
internal_count=330 252 219 119 75 100 51 44 76 78 56 47
is_linear=0
shrinkage=0.05


Tree=9
num_leaves=13
num_cat=0
split_feature=11 56 43 56 2 25 52 25 61 26 54 59
split_gain=11.8237 6.83769 3.39451 3.02258 2.41944 1.5146 1.31239 0.430589 0.206971 0.202865 0.1171 0.0703054
threshold=0.12597256272931903 26.509742429382744 3308.8346008304748 25.927278426641337 927739.85388046142 82.184472405508615 43.929677098012213 84.723859181623126 3.6828868137456854 84.845592531313102 81.966655197315745 -2.496884881800725
decision_type=2 2 2 2 2 2 2 2 2 2 2 2
left_child=8 2 3 9 -3 -5 -6 -7 10 11 -1 -2
right_child=1 4 -4 5 6 7 -8 -9 -10 -11 -12 -13
leaf_value=-0.013647945945040655 -0.014780618250370026 0.013142241930128426 0.0088060873351862717 0.0045745362584022394 0.0068162009947829788 -0.0072877580072821637 -0.0036802805257374772 1.8814917032917342e-05 -0.01130662082694471 -0.0083976751080516616 -0.017591736093163491 -0.011459730217854182
leaf_weight=29.5 34 139.5 58 78.5 112.5 61.5 40.5 30 30 33 52 30
leaf_count=20 23 28 18 30 34 38 23 15 20 22 35 20
internal_value=0.000127978 0.00283381 -0.00215765 -0.00453928 0.00837988 -0.000520774 0.00403772 -0.00489216 -0.0148572 -0.011582 -0.0161642 -0.013224
internal_weight=729 617.5 325 267 292.5 170 153 91.5 111.5 97 81.5 64
internal_count=326 251 166 148 85 83 57 53 75 65 55 43
is_linear=0
shrinkage=0.05


Tree=10
num_leaves=12
num_cat=0
split_feature=11 56 2 45 52 57 62 60 57 52 63
split_gain=11.3733 5.57177 3.94334 3.5311 2.88772 2.47501 0.637788 0.109673 0.0970594 0.067037 0.037842
threshold=0.12597256272931903 26.319821372446558 932361.4706413399 3308.4968492937901 44.200134499867922 -1.5823986343660692 4.0270718660323643 -2.8217355610273565 -2.4953262761592714 43.011265840179497 3309.7543640098352
decision_type=2 2 2 2 2 2 2 2 2 2 2
left_child=9 3 -3 5 -4 6 8 -8 -2 -1 -11
right_child=1 2 4 -5 -6 -7 7 -9 -10 10 -12
leaf_value=-0.013578400046036049 -0.008121986289254644 0.01256651623035545 0.0061799594910179152 0.0077171819815092246 -0.0075857906497444382 0.0016871559850283359 -0.01070755838106076 -0.014740056109118771 -0.0043678919784724711 -0.015055042250941581 -0.017486965608975245
leaf_weight=37 33 167.5 121.5 65.5 55.5 76 30 38.5 36 32.5 31.5
leaf_count=25 22 34 39 21 35 32 20 26 23 22 21
internal_value=0.000292515 0.00281388 0.00706748 -0.00243831 0.00186358 -0.00555393 -0.00955628 -0.012974 -0.00616333 -0.0152726 -0.016252
internal_weight=724.5 623.5 344.5 279 177 213.5 137.5 68.5 69 101 64
internal_count=320 252 108 144 74 123 91 46 45 68 43
is_linear=0
shrinkage=0.05


Tree=11
num_leaves=13
num_cat=0
split_feature=16 59 2 2 59 59 2 2 55 16 2 22
split_gain=10.0044 6.97364 3.35836 3.01392 2.15407 1.65715 1.41552 0.944458 0.907844 0.21813 0.204674 0.101518
threshold=0.11782802099242785 -1.8422018295143967 928973.7709029183 939567.13312223961 0.52741854480424821 0.97078537786588115 950955.87060959765 956297.17045225413 25.800909012133001 0.062026143353548613 936797.1514255997 66.345548363820726
decision_type=2 2 2 2 2 2 2 2 2 2 2 2
left_child=9 7 5 -4 -5 -3 -6 8 10 11 -2 -1
right_child=1 2 3 4 6 -7 -8 -9 -10 -11 -12 -13
leaf_value=-0.016099418875049145 -0.0083475872356858528 0.0052546372086825699 -0.008458581108048006 0.0085948839992470386 0.0046192699344828727 0.014248953175788025 -0.0073872567585078625 0.0014098929164961715 -0.0019136489927768709 -0.0098128665478960167 -0.01328173443527505 -0.012414362843511469
leaf_weight=51 36 88 54 140.5 52 122.5 46.5 30.5 37.5 31 50.5 29.5
leaf_count=34 24 30 36 38 20 21 28 14 21 20 34 20
internal_value=0.000472935 0.00281978 0.00567114 0.00220994 0.0046204 0.0104889 -0.00104879 -0.0064725 -0.00841131 -0.0133766 -0.0112282 -0.014749
internal_weight=769.5 658 503.5 293 239 210.5 98.5 154.5 124 111.5 86.5 80.5
internal_count=340 266 173 122 86 51 48 93 79 74 58 54
is_linear=0
shrinkage=0.05


Tree=12
num_leaves=13
num_cat=0
split_feature=2 60 19 43 2 7 31 2 40 58 9 30
split_gain=10.4231 6.15301 2.2135 2.16121 3.15395 1.08226 0.634215 0.559797 0.484021 0.0585577 0.0510786 0.00690223
threshold=954131.83177647495 -1.417304923735603 8.1236299674803512 3307.9253368134487 962556.70298914018 65.000000000000014 -2.0829590325646032 927332.94263704249 3.3054449166697704 -2.047151914349953 43.500000000000007 26.314999269584103
decision_type=2 2 2 2 2 2 2 2 2 2 2 2
left_child=1 6 7 9 -5 -4 10 -3 -7 -2 -1 -11
right_child=3 2 5 4 -6 8 -8 -9 -10 11 -12 -13
leaf_value=-0.010468602895973221 -0.017388754735390349 0.011932117341305405 -0.0025127466630052637 0.0023491659693630233 -0.014437158347344867 0.00801443807207621 -0.001262721530638817 0.0065399476789538089 0.0015234237265152237 -0.01417595942815145 -0.0078930287913541609 -0.015240257776389689
leaf_weight=31.5 30 136 67.5 62 51 71.5 41 74.5 48 31.5 49.5 29.5
leaf_count=21 20 28 33 30 34 20 23 25 21 21 33 20
internal_value=-0.00026833 0.0034924 0.00650702 -0.00984529 -0.00522696 0.00254838 -0.00632982 0.0100237 0.00540717 -0.0155801 -0.00889464 -0.0146907
internal_weight=723.5 519.5 397.5 204 113 187 122 210.5 119.5 91 81 61
internal_count=329 204 127 125 64 74 77 53 41 61 54 41
is_linear=0
shrinkage=0.05


Tree=13
num_leaves=13
num_cat=0
split_feature=2 14 59 2 2 62 60 57 41 51 36 57
split_gain=8.52372 5.10175 2.99828 2.61651 1.79243 1.72164 1.50634 1.29419 0.751571 0.242592 0.0853513 0.0177048
threshold=929389.48183021334 0.098665205011868609 0.91264550840880121 939099.76960135193 924937.39279954985 3.9480801801945318 1.1549015690347262 -1.6279013007760019 3.0542355903418636 59.388143300710212 -1.1113881798914762 0.2373232619893367
decision_type=2 2 2 2 2 2 2 2 2 2 2 2
left_child=2 10 4 9 -1 6 8 -7 -5 -3 -2 -12
right_child=1 3 -4 5 -6 7 -8 -9 -10 -11 11 -13
leaf_value=-0.0057267801782775983 -0.011590953526042757 -0.0059552228743476529 0.012434027881945593 0.0082922824444205557 0.0071429985845761924 -0.0093905013173141271 -0.0044656238064260017 0.0034511591384156805 0.0016081642493498414 -0.011282710354218538 -0.01553745524606843 -0.01389101363958851
leaf_weight=48 31.5 42 147.5 106.5 62 55 46.5 30.5 69.5 43.5 34.5 31
leaf_count=30 21 28 27 30 17 35 26 14 31 29 23 21
internal_value=0.000408196 -0.00345906 0.00777476 -0.000927295 0.0015271 0.00122087 0.00353818 -0.00480956 0.00565282 -0.0086657 -0.0137297 -0.0147582
internal_weight=748 490.5 257.5 393.5 110 308 222.5 85.5 176 85.5 97 65.5
internal_count=332 258 74 193 47 136 87 49 61 57 65 44
is_linear=0
shrinkage=0.05


Tree=14
num_leaves=12
num_cat=0
split_feature=11 36 5 5 59 5 39 5 14 5 52
split_gain=6.75303 4.63563 2.56399 1.94565 1.61959 1.39502 1.00656 0.930148 0.474018 0.311774 0.0951464
threshold=0.13117012582845447 -1.4298732518914343 3191.9702221221364 3231.4213087515614 0.47237382874815703 3183.6000768830149 3.4510564039424652 3270.7552430883611 0.4364845986549547 3253.1309855947943 61.536622231977496
decision_type=2 2 2 2 2 2 2 2 2 2 2
left_child=10 6 5 -4 -5 -3 -2 -6 -8 -10 -1
right_child=1 2 3 4 7 -7 8 -9 9 -11 -12
leaf_value=-0.009993076156440777 0.0012049183282440744 0.0046954388760270614 -0.0067485597191585438 0.0081845061538714774 0.0035322473917833784 0.013014438003301621 -0.002357514566037713 -0.0063493196359818947 -0.006753337669831056 -0.013057720187609478 -0.013064758752783141
leaf_weight=48.5 56.5 93 54 106.5 55 110 41 42 58.5 29.5 52.5
leaf_count=33 25 30 35 28 23 17 22 25 39 20 35
internal_value=0.000433302 0.00231307 0.00500129 0.00168866 0.00392753 0.00920327 -0.00436039 -0.000746369 -0.00679792 -0.00886674 -0.0115897
internal_weight=747 646 460.5 257.5 203.5 203 185.5 97 129 88 101
internal_count=332 264 158 111 76 47 106 48 81 59 68
is_linear=0
shrinkage=0.05


Tree=15
num_leaves=13
num_cat=0
split_feature=16 35 20 46 56 38 23 24 2 21 43 32
split_gain=6.13483 3.24142 1.87818 1.5524 1.62135 1.27121 1.48503 0.489416 0.249402 0.11899 0.0455435 0.0276388
threshold=0.098834626995922922 -1.4298732518914343 1.8962002702837248 3308.4968492937901 25.940439609067706 -1.0314015720681946 82.25299521997691 82.556796556031955 946854.33114247106 27.792905745292185 3308.6907953399405 -1.3074193743751759
decision_type=2 2 2 2 2 2 2 2 2 2 2 2
left_child=10 3 -3 4 8 -4 -7 -8 9 -2 11 -1
right_child=1 2 5 -5 -6 6 7 -9 -10 -11 -12 -13
leaf_value=-0.014239575347657933 -0.010309798419475555 0.0087473059988411022 0.0058689784672525201 0.0064039655029773717 0.00062283354954650774 0.0029746314856698881 -0.0024524889989859531 -0.01078628773490588 -0.013363278556173131 -0.0061868595624608655 -0.010764665479461352 -0.012075194302883188
leaf_weight=29.5 30 145.5 112.5 32.5 65 98.5 36 34.5 29.5 42 30 29.5
leaf_count=20 20 36 37 13 30 37 20 23 20 28 20 20
internal_value=-6.76834e-05 0.00167865 0.00413484 -0.00359169 -0.00554279 0.00175078 -0.000990623 -0.00653073 -0.00949122 -0.00790475 -0.0123509 -0.0131574
internal_weight=715 626 427 199 166.5 281.5 169 70.5 101.5 72 89 59
internal_count=324 264 153 111 98 117 80 43 68 48 60 40
is_linear=0
shrinkage=0.05


Tree=16
num_leaves=13
num_cat=0
split_feature=12 56 41 25 43 2 23 57 58 55 54 64
split_gain=6.18504 3.41175 1.98211 1.52123 1.34814 1.15901 0.893743 0.861161 0.21309 0.209553 0.115906 0.0380249
threshold=0.10388373195784792 26.509742429382744 3.1161837978552858 82.184472405508615 3308.8346008304748 927332.94263704249 82.005270240158197 -1.7839426942849206 -2.6722410183171967 25.614393997089 82.382180834266464 3309.7570452119453
decision_type=2 2 2 2 2 2 2 2 2 2 2 2
left_child=10 2 3 -2 7 -3 -7 8 -4 -10 -1 -12
right_child=1 5 4 -5 -6 6 -8 -9 9 -11 11 -13
leaf_value=-0.0088264184215894118 0.0079815355218519832 0.010086594083586375 -0.011783390522003175 -0.002696349597054309 0.004093813659115271 0.0060339733066230826 -0.0018083963007226866 -0.00088320015107884128 -0.010132951256545153 -0.0048935200216184407 -0.011237935598653097 -0.013621298644853674
leaf_weight=32.5 78.5 114.5 37.5 58 38.5 115.5 53 51 34 43.5 32.5 34.5
leaf_count=21 22 23 25 31 16 33 27 27 23 28 22 23
internal_value=0.000300529 0.00214657 -0.00122151 0.00344441 -0.00433593 0.00620493 0.00356723 -0.00629102 -0.00868927 -0.00719211 -0.0112766 -0.0124652
internal_weight=723.5 624 341 136.5 204.5 283 168.5 166 115 77.5 99.5 67
internal_count=321 255 172 53 119 83 60 103 76 51 66 45
is_linear=0
shrinkage=0.05


Tree=17
num_leaves=13
num_cat=0
split_feature=43 56 29 19 61 58 0 7 52 29 22 51
split_gain=6.31998 3.73991 2.80019 1.24846 0.840849 0.582293 0.571753 0.241413 0.176994 0.188951 0.176175 0.0500126
threshold=3267.7613587176597 26.178193275759153 25.544769356638696 8.1236299674803512 2.9020496582804967 -1.8351209175064496 -0.61559370248597534 57.500000000000007 45.738710969662222 25.544769356638696 71.334778551774278 59.388143300710212
decision_type=2 2 2 2 2 2 2 2 2 2 2 2
left_child=1 5 -2 6 -5 8 -3 10 9 -1 11 -4
right_child=2 3 7 4 -6 -7 -8 -9 -10 -11 -12 -13
leaf_value=-0.0075179036255135683 0.0022872433305272592 0.011085690363663539 -0.013989403714304386 0.005200004034082998 -0.0015867852128277988 0.0012776060283861378 0.0058647402819725827 -0.0069971593260817547 -0.0094973536592627347 -0.0020351622595141334 -0.008542654822365596 -0.011602980386288394
leaf_weight=33 57.5 87 46 110 78 33 132 35.5 31.5 30 32.5 42
leaf_count=22 23 20 31 34 39 15 36 23 21 19 22 28
internal_value=0.000127438 0.00303214 -0.00714453 0.00537305 0.00238421 -0.0044404 0.00793882 -0.010621 -0.00643717 -0.00490707 -0.0116886 -0.0128504
internal_weight=748 534.5 213.5 407 188 127.5 219 156 94.5 63 120.5 88
internal_count=333 206 127 129 73 77 56 104 62 41 81 59
is_linear=0
shrinkage=0.05


Tree=18
num_leaves=14
num_cat=0
split_feature=13 59 20 23 9 38 9 57 56 56 54 9 64
split_gain=5.61604 3.40664 1.64473 1.14528 1.55639 0.631031 0.627851 0.601606 0.521495 0.373987 0.301689 0.124747 0.0364445
threshold=0.1250506716509989 -1.8482387261309532 1.5454276010565715 83.42481171962298 70.000000000000014 0.17914639560589377 114.50000000000001 -2.0941409609818193 25.311517226646583 26.418801196791303 82.445876978885892 85.500000000000014 3309.7570452119453
decision_type=2 2 2 2 2 2 2 2 2 2 2 2 2
left_child=10 7 -3 5 -5 9 -7 8 -2 -4 -1 -10 -12
right_child=1 2 3 4 -6 6 -8 -9 11 -11 12 -13 -14
leaf_value=-0.0061340000424812092 -0.0015141251579492906 0.008652319741803546 0.0033191896838924064 -0.0090126122285922369 0.0048303678430415492 -0.0019212432881748236 0.0051887229020180919 0.0012841176034675706 -0.0069439996162365229 0.0083703938561181229 -0.010716911825075956 -0.011156031817702925 -0.012952119032541912
leaf_weight=33.5 39.5 150.5 65 45 37 67.5 57.5 36 43.5 84 35.5 29.5 37.5
leaf_count=20 22 34 26 28 14 33 18 17 29 20 24 20 25
internal_value=0.0005863 0.00231773 0.0042702 0.00241765 -0.00276639 0.00396908 0.00134934 -0.00434173 -0.006142 0.00616685 -0.0100624 -0.00864612 -0.0118651
internal_weight=761.5 655 506.5 356 82 274 125 148.5 112.5 149 106.5 73 73
internal_count=330 261 173 139 42 97 51 88 71 46 69 49 49
is_linear=0
shrinkage=0.05


Tree=19
num_leaves=14
num_cat=0
split_feature=13 35 25 8 2 2 0 24 61 61 2 38 41
split_gain=4.54069 2.63685 1.43952 1.03009 1.01878 0.838635 0.965561 1.32204 0.590594 0.352059 0.129672 0.0970616 0.0403442
threshold=0.1250506716509989 -1.4298732518914343 83.42481171962298 62.500000000000007 956844.54844074836 928560.26477547444 0.12053668025532312 82.242518279079732 3.6999531125055616 3.7791412426736368 945355.08056551439 -2.2223253873775768 2.2695874382505683
decision_type=2 2 2 2 2 2 2 2 2 2 2 2 2
left_child=9 4 5 -4 8 -3 7 -7 -2 12 11 -10 -1
right_child=1 2 3 -5 -6 6 -8 -9 10 -11 -12 -13 -14
leaf_value=-0.0092938472454746571 -0.00053651350136432383 0.0080348043721169236 -0.0067258417455836987 0.0039549213620912599 0.0045216705693075293 0.0040743281450969253 0.0077048854053425944 -0.0065810466527767564 -0.0041479003660026053 -0.0044995622739928669 -0.0099490132511538612 -0.0080281648802514559 -0.01157697497978123
leaf_weight=30 45 150 49.5 41.5 32.5 88 73.5 43.5 31.5 30.5 34 33 54.5
leaf_count=20 22 33 30 16 13 31 19 26 21 18 23 22 37
internal_value=2.30046e-05 0.00171053 0.00375559 -0.00185494 -0.00347184 0.00519379 0.003115 0.000549546 -0.00528222 -0.00910432 -0.0074503 -0.00613315 -0.0107664
internal_weight=737 622 446 91 176 355 205 131.5 143.5 115 98.5 64.5 84.5
internal_count=331 256 155 46 101 109 76 57 88 75 66 43 57
is_linear=0
shrinkage=0.05


Tree=20
num_leaves=13
num_cat=0
split_feature=13 62 20 25 0 38 56 11 13 36 61 41
split_gain=5.0072 2.56708 1.52194 1.25209 1.36659 0.569584 0.551506 0.468416 0.431894 0.0961135 0.0901561 0.0218153
threshold=0.1250506716509989 3.9480801801945318 1.8962002702837248 82.184472405508615 0.61559370248597556 -1.1936314476195076 25.311517226646583 0.70326495343191886 0.76589950547407426 -2.766748718201419 3.5333594682500764 2.3707586663642002
decision_type=2 2 2 2 2 2 2 2 2 2 2 2
left_child=10 2 -2 8 7 6 -3 -5 -4 -8 11 -1
right_child=1 5 3 4 -6 -7 9 -9 -10 -11 -12 -13
leaf_value=-0.0095121352126201 0.0075714281024323454 -0.0011642731513295855 0.0021168078272486455 -0.0075109312040174117 0.0061691821774556531 0.001604072235097162 -0.0068750394066259025 -0.001223238961150249 0.0068627955643711866 -0.010762193222678658 -0.0074418911710381515 -0.01123791810996989
leaf_weight=30 159 35 99.5 58.5 42 30.5 29.5 60 92.5 34.5 33 47
leaf_count=20 37 20 37 39 14 14 20 31 25 23 22 32
internal_value=0.000227093 0.00191837 0.00351048 0.00167873 -0.00158055 -0.00437015 -0.0062107 -0.00432729 0.00440329 -0.00897046 -0.00962844 -0.0105655
internal_weight=751 641 511.5 352.5 160.5 129.5 99 118.5 192 64 110 77
internal_count=334 260 183 146 84 77 63 70 62 43 74 52
is_linear=0
shrinkage=0.05


Tree=21
num_leaves=12
num_cat=0
split_feature=14 29 43 58 25 20 51 54 52 54 64
split_gain=4.19151 2.2592 1.53168 1.64155 0.954377 0.650286 0.491658 0.241871 0.159883 0.0788465 0.0727018
threshold=0.12463008836108688 26.727622419785664 3308.8346008304748 -1.8351209175064496 82.019795141185 2.137788091950628 39.710622787190815 81.88817909269018 43.718045250080898 82.334872756247123 3309.0927249454858
decision_type=2 2 2 2 2 2 2 2 2 2 2
left_child=7 2 3 8 -5 -3 -6 -1 9 -2 -9
right_child=1 5 -4 4 6 -7 -8 10 -10 -11 -12
leaf_value=-0.0052980072770829074 -0.0070778698916884432 0.008311523308100947 0.0067838702487562769 0.0036754200893056367 0.00011458667746234324 0.0027125926361688509 -0.0064609137993483327 -0.0082859563175588843 -0.0092042973652334496 -0.0035730083364372452 -0.011207324580142373
leaf_weight=36.5 34.5 102 54.5 106.5 62 105.5 52.5 34 50.5 30 57
leaf_count=21 23 22 18 35 28 37 35 23 34 20 38
internal_value=-0.000505993 0.00124886 -0.000991381 -0.00225255 0.000268501 0.00546484 -0.00290038 -0.00873661 -0.00709734 -0.0054477 -0.0101158
internal_weight=725.5 598 390.5 336 221 207.5 114.5 127.5 115 64.5 91
internal_count=334 252 193 175 98 59 63 82 77 43 61
is_linear=0
shrinkage=0.05


Tree=22
num_leaves=14
num_cat=0
split_feature=11 1 5 59 57 52 52 53 13 52 37 28 38
split_gain=3.39098 2.32774 1.18449 1.81115 1.05291 0.957296 0.726788 0.624559 0.292956 0.207992 0.142663 0.0348637 0.00995968
threshold=0.15058814594785341 0.4647231720437684 3199.1533615238827 0.47237382874815703 -0.83767374241689552 56.406447518754192 46.708157769793822 82.297392416594533 0.10388373195784792 43.929677098012213 -2.242033525297265 26.106413629293918 0.27968778553900403
decision_type=2 2 2 2 2 2 2 2 2 2 2 2 2
left_child=8 2 5 7 9 -2 -5 -4 11 -3 -11 -1 -13
right_child=1 4 3 6 -6 -7 -8 -9 -10 10 -12 12 -14
leaf_value=-0.007485942422382293 0.0029945895919648324 -0.0034729656790766644 0.0010581859254411288 0.00026854742992375242 0.0031049151820215313 0.010361613133965537 -0.0072577867677921922 0.0077980615222156885 -0.0031945504054116704 -0.0055258078146725896 -0.0099980287253856673 -0.010203374114076971 -0.0089520720684010055
leaf_weight=31 90.5 51 56 76 44 86 55.5 89 30 37.5 34 29.5 34.5
leaf_count=21 28 31 23 33 15 13 37 25 17 24 23 20 23
internal_value=1.02014e-05 0.00152598 0.0033841 0.00134137 -0.00352946 0.00658419 -0.00290797 0.00519508 -0.00750197 -0.00591242 -0.00765246 -0.00886221 -0.00952884
internal_weight=744.5 619.5 453 276.5 166.5 176.5 131.5 145 125 122.5 71.5 95 64
internal_count=333 252 159 118 93 41 70 48 81 78 47 64 43
is_linear=0
shrinkage=0.05


Tree=23
num_leaves=13
num_cat=0
split_feature=5 56 23 11 24 53 43 5 5 58 19 53
split_gain=3.2624 2.42215 1.67334 1.3149 0.605169 0.517337 0.408336 0.923164 0.295593 0.161754 0.14673 0.0997
threshold=3279.8737039924613 26.261567158503052 85.456718975800555 1.238889847126893 82.179170112174774 82.367986516492323 3307.9253368134487 3308.8346008304748 3226.6015428070805 -2.0995386357799535 1.322293722441823 81.979499068539596
decision_type=2 2 2 2 2 2 2 2 2 2 2 2
left_child=1 4 6 5 -1 10 11 -8 9 -6 -3 -2
right_child=2 3 -4 -5 8 -7 7 -9 -10 -11 -12 -13
leaf_value=0.00082917998661287135 -0.012761337027467533 0.0059442788121049049 0.0048163133763497873 0.0088999812237241065 -0.0051618616591081207 -0.0011457366220464435 0.0001669294135261893 -0.010228288590267141 -0.0017981704222993591 -0.010005857348442079 0.0026674816809890054 -0.0090829572022551371
leaf_weight=64 29 54 31 104.5 40.5 79 39.5 46.5 39 30 93 50.5
leaf_count=28 20 12 12 20 27 38 20 31 23 20 36 34
internal_value=-0.000379978 0.00175061 -0.0058447 0.00426203 -0.00303338 0.00211749 -0.00784163 -0.00545374 -0.00529096 -0.00722314 0.0038712 -0.0104248
internal_weight=700.5 504 196.5 330.5 173.5 226 165.5 86 109.5 70.5 147 79.5
internal_count=321 204 117 106 98 86 105 51 70 47 48 54
is_linear=0
shrinkage=0.05


Tree=24
num_leaves=13
num_cat=0
split_feature=2 20 43 2 61 58 2 45 1 7 7 58
split_gain=3.19021 2.03233 2.26029 1.47778 1.15494 0.828716 0.5485 0.513435 0.326419 0.235763 0.0949005 0.0920183
threshold=962556.70298914018 1.8962002702837248 3309.0497546487782 954131.83177647495 2.9442740074242328 -0.24925763588317121 940036.78519925964 3307.8080879886775 -1.7225262015363449e-16 74.500000000000014 6.5000000000000009 -2.3253654745009458
decision_type=2 2 2 2 2 2 2 2 2 2 2 2
left_child=1 5 3 4 6 -1 -3 -5 -6 11 -2 -10
right_child=10 2 -4 7 8 -7 -8 -9 9 -11 -12 -13
leaf_value=0.0010916361279669218 -0.0080915698240841601 0.00063127062537453402 0.010083885519017476 -0.0105753031373024 0.00020128970681722704 0.0081119127966919734 0.0068843295461818825 -0.0023755789757706224 -0.0044197640536973873 -0.0019977234620997247 -0.011698584929108621 -0.0082060796643296883
leaf_weight=64 46.5 82.5 46 52.5 70.5 122.5 61 30 34.5 70.5 30 30
leaf_count=23 31 34 14 36 35 25 14 16 23 38 20 20
internal_value=0.000162671 0.00127662 -0.000452149 -0.00157534 -0.00015269 0.00570281 0.00328937 -0.00759359 -0.00255627 -0.00399632 -0.00950609 -0.00618084
internal_weight=740.5 664 477.5 431.5 349 186.5 143.5 82.5 205.5 135 76.5 64.5
internal_count=329 278 230 216 164 48 48 52 116 81 51 43
is_linear=0
shrinkage=0.05


Tree=25
num_leaves=14
num_cat=0
split_feature=13 56 43 57 42 9 37 14 53 1 2 61 41
split_gain=2.74339 2.08601 1.45545 1.29238 0.787271 0.736867 0.741459 0.700345 0.200462 0.117334 0.110726 0.0939549 0.0260935
threshold=0.1250506716509989 26.509742429382744 3308.8346008304748 -1.7839426942849206 3.6054696333144021 115.50000000000001 0.83621676190537919 1.1536331324377966 80.715128988203062 0.4647231720437684 936343.44215609564 3.5151545675479925 2.3319044592796145
decision_type=2 2 2 2 2 2 2 2 2 2 2 2 2
left_child=11 2 3 8 7 6 -3 -5 -2 -10 -11 12 -1
right_child=1 5 -4 4 -6 -7 -8 -9 9 10 -12 -13 -14
leaf_value=-0.0072278758008328704 -0.008858205924431482 0.0060376702396548951 0.0069438880520690353 -0.0056866278268258887 0.0055292336323784783 0.0087999155510615264 -0.0002681926655777767 0.0028656298987740697 -0.002209044134824712 -0.0038366213572235443 -0.007616541660451271 -0.0050457452970837794 -0.0091364905058619501
leaf_weight=31.5 37.5 98.5 48.5 54 56.5 79.5 88.5 43 34.5 39 38.5 31.5 41.5
leaf_count=21 25 23 15 32 19 16 37 15 20 26 26 21 28
internal_value=0.000164498 0.00143145 -0.00109797 -0.00238519 0.000837432 0.00476761 0.00305334 -0.00189542 -0.00569405 -0.00463462 -0.00571439 -0.00732807 -0.00831291
internal_weight=722.5 618 351.5 303 153.5 266.5 187 97 149.5 112 77.5 104.5 73
internal_count=324 254 178 163 66 76 60 47 97 72 52 70 49
is_linear=0
shrinkage=0.05


Tree=26
num_leaves=13
num_cat=0
split_feature=12 1 2 38 52 20 41 23 38 11 43 57
split_gain=2.98057 1.68582 1.15326 1.2143 0.802551 0.760314 0.689168 0.620635 0.142545 0.122125 0.0414751 0.0194855
threshold=0.13850649630012987 0.4647231720437684 930649.87631964788 -0.1509632510582207 56.406447518754192 18.571367637617687 3.2326542072361 82.184472405508615 -2.4602085557551319 0.083323367388109235 3309.9943345711004 -1.4762357011787373
decision_type=2 2 2 2 2 2 2 2 2 2 2 2
left_child=9 2 4 6 -2 -5 -4 -3 -9 10 11 -1
right_child=1 7 3 5 -6 -7 -8 8 -10 -11 -12 -13
leaf_value=-0.0091881846219806339 0.0029786814346117675 0.0014055039288233158 0.0075978460854717669 0.00047158873235077963 0.0092281333773451702 -0.0073730162714147358 0.00032668803340499909 -0.0027724397613499794 -0.006655331002548337 -0.0038732603743361935 -0.0059906763955950744 -0.0074548438191413885
leaf_weight=29.5 103.5 57.5 77 92 102 46.5 56.5 39 60 30 30 36
leaf_count=20 31 24 19 39 15 30 28 24 39 18 20 24
internal_value=0.000383968 0.00177755 0.0032536 0.00111777 0.0060806 -0.00216216 0.00452054 -0.00272606 -0.00512571 -0.00665613 -0.00753033 -0.00823551
internal_weight=759.5 634 477.5 272 205.5 138.5 133.5 156.5 99 125.5 95.5 65.5
internal_count=331 249 162 116 46 69 47 87 63 82 64 44
is_linear=0
shrinkage=0.05


Tree=27
num_leaves=14
num_cat=0
split_feature=10 23 2 45 32 9 22 28 1 59 54 34 63
split_gain=2.57701 1.44973 1.034 0.976356 0.669721 0.50126 0.479134 0.343009 0.295173 0.190366 0.121442 0.077342 0.0733623
threshold=10.500000000000002 83.329616876968217 929389.48183021334 3308.6907953399405 1.2585893992099584 119.50000000000001 95.741349431030912 26.400135503829059 -0.060268340127661524 -1.4639685446126278 81.671440720872212 -2.4921328474918085 3309.0891933755638
decision_type=2 2 2 2 2 2 2 2 2 2 2 2 2
left_child=12 2 4 5 -2 8 7 9 -3 -4 -9 -10 -1
right_child=1 3 6 -5 -6 -7 -8 10 11 -11 -12 -13 -14
leaf_value=-0.0055270718791606754 0.0032066164955020498 -0.00268584725381148 -0.0006760621923454029 0.0053285965805544575 0.0091927689825830293 0.0014672985154902563 0.0054327417262266956 0.00014424817119207647 -0.0061580339692991932 -0.0055348034678162012 0.0035234781235213516 -0.0095848022590553951 -0.0081424694858555115
leaf_weight=49.5 109.5 49.5 48.5 34 81.5 32 45.5 63 34.5 34.5 46 31.5 58.5
leaf_count=33 35 29 24 12 13 14 14 27 23 22 16 21 39
internal_value=0.000175252 0.00143567 0.00302206 -0.00230963 0.00576092 -0.0040703 0.000819443 -0.000273813 -0.00560453 -0.00269566 0.00157035 -0.00779354 -0.00694375
internal_weight=718 610 428.5 181.5 191 147.5 237.5 192 115.5 83 109 66 108
internal_count=322 250 151 99 48 87 103 89 73 46 43 44 72
is_linear=0
shrinkage=0.05


Tree=28
num_leaves=13
num_cat=0
split_feature=2 24 2 50 19 44 61 52 13 7 25 8
split_gain=2.11924 1.36815 0.833076 1.52744 0.81142 0.79558 0.629163 0.504738 0.180759 0.169346 0.1637 0.106204
threshold=962556.70298914018 83.392014104193024 954131.83177647495 3307.9253368134491 8.7376843943744174 3308.4968492937901 2.9020496582804967 35.126421302371476 0.41051150161235589 67.500000000000014 83.850602388870456 5.5000000000000009
decision_type=2 2 2 2 2 2 2 2 2 2 2 2
left_child=1 2 4 -4 8 7 -6 -3 -1 -8 -9 -2
right_child=11 5 3 -5 6 -7 9 10 -10 -11 -12 -13
leaf_value=0.0035076724036651498 -0.0061835271073505289 -0.00043408024759419199 -0.0082047976236394107 0.0058927921091134735 0.0040533096597181349 0.0045387467399479881 -0.0038752886902300582 -0.0080692799890349654 0.006600604796789678 6.4160621188806769e-05 -0.0040116812263069485 -0.009985567828019461
leaf_weight=76.5 36 56.5 47 32.5 89.5 31 46.5 58 123.5 66 43.5 37.5
leaf_count=22 24 28 32 12 26 13 28 39 28 30 29 25
internal_value=-6.3454e-05 0.000820069 0.00223511 -0.00244163 0.00315999 -0.00278492 0.000924777 -0.00422185 0.00541756 -0.00156415 -0.00633031 -0.00812334
internal_weight=744 670.5 481.5 79.5 402 189 202 158 200 112.5 101.5 73.5
internal_count=336 287 178 44 134 109 84 96 50 58 68 49
is_linear=0
shrinkage=0.05


Tree=29
num_leaves=13
num_cat=0
split_feature=2 57 53 42 9 53 58 23 52 31 14 32
split_gain=2.14921 1.54547 1.31757 0.809681 0.598544 0.515135 0.430134 0.345964 0.30569 0.200672 0.118486 0.0277552
threshold=954131.83177647495 -1.7839426942849206 84.673052484288391 2.2293109457364797 114.50000000000001 81.632330168818896 -1.6071567251303536 80.791181824293446 41.306786540456578 -1.9088189198401515 0.45268076351439396 -0.94926382792551089
decision_type=2 2 2 2 2 2 2 2 2 2 2 2
left_child=1 9 5 -3 7 -2 -7 -5 -9 10 -1 -8
right_child=2 3 -4 4 -6 6 11 8 -10 -11 -12 -13
leaf_value=-0.0068130021944405542 -0.01020620033551166 -0.0013733771176555672 0.0049548815557922147 0.0047247181495500582 0.0083377278347810113 -0.0010259052885005311 -0.0075958075946655828 0.003269326390215644 -0.0025399590537954985 -8.4902389789931487e-05 -0.0029736153747852859 -0.0057558982835916603
leaf_weight=31.5 47 74 34.5 148 75 62 34.5 54 39 40 55.5 50.5
leaf_count=21 32 34 12 36 14 33 23 20 22 20 36 34
internal_value=-1.03025e-05 0.00177447 -0.0040485 0.00333447 0.00443694 -0.00564962 -0.00419275 0.003223 0.000833174 -0.00301607 -0.00436374 -0.00650269
internal_weight=745.5 517 228.5 390 316 194 147 241 93 127 87 85
internal_count=337 203 134 126 92 122 90 78 42 77 57 57
is_linear=0
shrinkage=0.05


Tree=30
num_leaves=12
num_cat=0
split_feature=2 1 56 9 61 20 2 52 19 42 10
split_gain=1.58441 1.35502 1.23566 0.597968 0.410156 0.38528 0.451069 0.21183 0.096003 0.0858296 0.0696546
threshold=954131.83177647495 -0.35460488704253562 25.617483251414502 65.000000000000014 3.1170688694604292 1.6437168477881028 939567.13312223961 49.229298391403397 40.048796225512142 4.074670277617642 4.5000000000000009
decision_type=2 2 2 2 2 2 2 2 2 2 2
left_child=1 5 -2 7 -5 -1 -7 -3 -6 10 -4
right_child=2 3 9 4 8 6 -8 -9 -10 -11 -12
leaf_value=0.0059203085234850392 0.0020676670951717017 -0.0025281700510932231 -0.0059222760642397001 0.0036747837218187628 -0.00036683181921641034 -0.0015868002803609621 0.0043910062895753449 -0.0075249291478823397 -0.003781911349463938 -0.0047351980988664189 -0.0086163483211927332
leaf_weight=117 58.5 46.5 43.5 59 51 53 78 39 34.5 43.5 53.5
leaf_count=24 25 30 29 17 27 26 24 26 21 28 36
internal_value=-0.000289433 0.00127128 -0.00403827 -0.00149306 0.000468013 0.00383498 0.0019725 -0.00480739 -0.00174485 -0.0065806 -0.00740818
internal_weight=677 478 199 230 144.5 248 131 85.5 85.5 140.5 97
internal_count=313 195 118 121 65 74 50 56 48 93 65
is_linear=0
shrinkage=0.05


Tree=31
num_leaves=14
num_cat=0
split_feature=2 43 2 56 20 2 9 54 43 61 54 7 26
split_gain=1.84951 0.994886 1.55393 1.26789 0.622032 0.590101 1.0201 0.361204 0.354491 0.298901 0.0934201 0.0801211 0.0647647
threshold=962514.86924537865 3309.0497546487782 954131.83177647495 25.940439609067706 1.6437168477881028 939567.13312223961 142.00000000000003 82.844209698843954 3307.9253368134487 2.705341464586827 82.621698969070152 6.5000000000000009 84.697941038574896
decision_type=2 2 2 2 2 2 2 2 2 2 2 2 2
left_child=1 2 3 12 -5 6 7 -6 10 -7 -4 -2 -1
right_child=11 -3 8 4 5 9 -8 -9 -10 -11 -12 -13 -14
leaf_value=-0.005194447230961588 -0.0058075253466012503 0.0079175045025093784 -0.010033516611969263 0.0053223855469537824 -0.00091980243450962007 0.0060536110744116804 0.0051366638392210014 -0.007053757732501254 -0.0012984632141888142 0.0015259247806160092 -0.0060360482335090641 -0.0090332550425378105 -0.0022969613950832961
leaf_weight=54 49.5 47.5 28.5 138 48 63 45 48 30 86.5 30 31.5 30
leaf_count=36 33 14 20 30 22 13 13 32 16 36 20 21 20
internal_value=6.16039e-05 0.000951365 0.000400796 0.00145731 0.00255841 0.0012454 -0.00107504 -0.00398678 -0.00571741 0.00343391 -0.00798353 -0.00706198 -0.00415963
internal_weight=729.5 648.5 601 512.5 428.5 290.5 141 96 88.5 149.5 58.5 81 84
internal_count=326 272 258 202 146 116 67 54 56 49 40 54 56
is_linear=0
shrinkage=0.05


Tree=32
num_leaves=14
num_cat=0
split_feature=2 31 9 64 54 1 24 54 22 40 33 33 14
split_gain=1.83417 1.11593 0.843974 1.18194 0.919703 0.511614 0.473128 0.298628 0.223089 0.0902312 0.0851382 0.0692161 0.0648067
threshold=962556.70298914018 -2.7211341676296761 115.50000000000001 3308.0406062318607 82.812131774242843 -0.40966402954315212 82.179170112174774 81.913265043853741 19.957922742398111 3.5677240172786164 0.1269246420921108 -2.3195049434291479 0.051902954913930342
decision_type=2 2 2 2 2 2 2 2 2 2 2 2 2
left_child=1 11 3 4 5 7 -7 10 -6 -10 -3 -1 -2
right_child=12 2 -4 -5 8 6 -8 -9 9 -11 -12 -13 -14
leaf_value=-0.0059535756823606793 -0.0056900692005188045 0.00021584542555501686 0.0052766285672656852 0.0084271482516373158 -0.0012098498877726105 0.0015618490000951638 -0.0056864553363993771 0.0056297014175511126 -0.0072505587091048554 -0.0036526076641628549 0.0030098871563218142 -0.0030473726934620313 -0.0085725250295721565
leaf_weight=40 39 64 132 44.5 47.5 51.5 40 67 39 31.5 47.5 42 39
leaf_count=26 26 26 36 12 21 21 25 15 26 20 17 26 26
internal_value=0.00011153 0.000985374 0.00177711 0.000709045 -0.00017615 0.00143315 -0.00160681 0.00299145 -0.00385845 -0.00564296 0.00140613 -0.00446503 -0.0071313
internal_weight=724.5 646.5 564.5 432.5 388 270 91.5 178.5 118 70.5 111.5 82 78
internal_count=323 271 219 183 171 104 46 58 67 46 43 52 52
is_linear=0
shrinkage=0.05


Tree=33
num_leaves=13
num_cat=0
split_feature=2 59 2 44 2 2 39 29 53 10 2 14
split_gain=1.42611 0.871837 0.653219 0.638298 0.646244 0.90648 0.401332 0.317168 0.196362 0.157275 0.145824 0.0586592
threshold=928973.7709029183 0.91264550840880121 962556.70298914018 3308.8346008304748 954131.83177647495 938634.69093454955 2.7378464010304899 26.59995210268259 82.429506488870686 55.500000000000007 945355.08056551439 0.051902954913930342
decision_type=2 2 2 2 2 2 2 2 2 2 2 2
left_child=1 7 3 4 5 9 -7 -1 -6 -2 -8 -4
right_child=2 -3 11 -5 8 6 10 -9 -10 -11 -12 -13
leaf_value=-0.0037636565621055312 -0.006426048354694138 0.0059216196111623676 -0.0049005789630528962 0.0049208804597089323 -0.0082566065027525545 0.0040674880592140765 0.0014688133041134775 0.0022305965633882632 -0.0033235636583074583 -0.0022110386292139689 -0.0020753279797508756 -0.0078190444771087525
leaf_weight=42 54 120.5 36 40.5 38 79.5 51.5 46.5 43 37.5 66.5 33
leaf_count=26 36 23 24 14 26 22 24 15 27 25 35 22
internal_value=-0.000292715 0.00315409 -0.00179508 -0.00103846 -0.00169077 -0.000584501 0.00132152 -0.000614134 -0.00563783 -0.00469859 -0.000528521 -0.00629637
internal_weight=688.5 209 479.5 410.5 370 289 197.5 88.5 81 91.5 118 69
internal_count=319 64 255 209 195 142 81 41 53 61 59 46
is_linear=0
shrinkage=0.05


Tree=34
num_leaves=13
num_cat=0
split_feature=2 35 43 56 2 9 54 35 42 36 27 14
split_gain=1.34574 1.01117 0.888284 1.10423 1.16688 0.297614 0.425925 0.266848 0.161981 0.158003 0.119247 0.0851399
threshold=962556.70298914018 3.1183510819330453 3309.0497546487782 26.228414564816145 957394.35248148954 119.50000000000001 82.874089501695153 0.49715838739399537 4.3874249335715154 -2.0947241898358508 25.654570404039372 0.051902954913930342
decision_type=2 2 2 2 2 2 2 2 2 2 2 2
left_child=1 2 3 8 5 6 7 -5 9 10 -1 -2
right_child=11 -3 -4 4 -6 -7 -8 -9 -10 -11 -12 -13
leaf_value=-0.0047348014283925301 -0.0047585256795088455 0.0070690723128306364 0.0066952682955532658 0.0043073681866698859 -0.0056340938799570653 0.0054118675759106177 -0.0023768277908457775 0.00060584201657382607 -0.00074753729730016663 -0.0063367675827254374 -0.00050549443811178209 -0.0082407647292270809
leaf_weight=37.5 37.5 60 49 109 53.5 63.5 53.5 88 36 63 30 33
leaf_count=25 25 13 15 30 36 14 27 31 19 39 19 22
internal_value=0.000169392 0.000888416 0.000252328 -0.000338878 0.00119153 0.00235449 0.00157947 0.00265389 -0.0037168 -0.00453591 -0.00285511 -0.00638851
internal_weight=713.5 643 583 534 367.5 314 250.5 197 166.5 130.5 67.5 70.5
internal_count=315 268 255 240 138 102 88 61 102 83 44 47
is_linear=0
shrinkage=0.05


Tree=35
num_leaves=13
num_cat=0
split_feature=2 62 60 53 2 23 33 56 35 43 7 58
split_gain=1.1894 0.727347 0.708545 0.663383 0.63796 0.716027 0.268659 0.23898 0.19531 0.17972 0.0720303 0.0687384
threshold=962556.70298914018 3.9480801801945318 1.7664669787668543 84.32931788697401 954131.83177647495 83.566995278436394 -2.3712605199148604 26.319821372446558 0.58014550144962829 3307.9253368134487 6.5000000000000009 -2.5489168102774071
decision_type=2 2 2 2 2 2 2 2 2 2 2 2
left_child=1 2 3 4 5 7 11 -1 -9 -6 -2 -3
right_child=10 6 -4 -5 9 -7 -8 8 -10 -11 -12 -13
leaf_value=-0.00068094631009814094 -0.0046673649383915791 -0.0063195815204944413 0.0059793779989341638 0.0054873096110486935 -0.0056950456779269343 -0.0045386882304834821 -0.00035793446378279344 0.0042729638791058492 0.0010932928137761732 -0.00090049544556273359 -0.0078303076326847083 -0.0031108176828147697
leaf_weight=59 45 35.5 77 64.5 51.5 48 68.5 115.5 83 31.5 30 31.5
leaf_count=29 30 23 16 18 35 30 37 29 27 17 20 21
internal_value=3.66318e-05 0.000709341 0.00154513 0.00079141 1.1782e-05 0.00106788 -0.00255981 0.00211299 0.00294343 -0.00387543 -0.00593254 -0.00481098
internal_weight=740.5 665.5 530 453 388.5 305.5 135.5 257.5 198.5 83 75 67
internal_count=332 282 201 185 167 115 81 85 56 52 50 44
is_linear=0
shrinkage=0.05


Tree=36
num_leaves=11
num_cat=0
split_feature=2 56 7 42 20 61 37 11 44 60
split_gain=1.21271 0.907284 0.676677 0.523905 0.326398 0.332984 0.166679 0.151354 0.0723186 0.0231261
threshold=954131.83177647495 26.178193275759153 39.500000000000007 2.2878642537950165 1.6437168477881028 2.9442740074242328 -2.2801144772207294 0.093436118292147582 3310.188648689214 -0.95793592073989198
decision_type=2 2 2 2 2 2 2 2 2 2
left_child=1 6 7 -3 -5 -6 -1 8 9 -2
right_child=2 3 -4 4 5 -7 -8 -9 -10 -11
leaf_value=-0.00071365164222365754 -0.0064877515627165972 -0.0019454545786847242 0.00036544564791256566 0.0048999966647571488 0.0033368156238107898 -0.0011050071125099249 -0.0044452392005998841 -0.0085021185129880907 -0.0026596675432908039 -0.0045934336076320064
leaf_weight=63 29.5 57.5 84 156 122 64.5 57 30 36 35.5
leaf_count=38 20 27 39 32 35 31 37 20 24 24
internal_value=2.10149e-05 0.00132695 -0.00313753 0.00247089 0.00321232 0.00180064 -0.00248616 -0.00538372 -0.00445746 -0.00545316
internal_weight=735 520 215 400 342.5 186.5 120 131 101 65
internal_count=327 200 127 125 98 66 75 88 68 44
is_linear=0
shrinkage=0.05


Tree=37
num_leaves=15
num_cat=0
split_feature=5 52 52 56 7 45 33 59 36 25 5 7 43 41
split_gain=1.1206 0.89252 0.872609 0.82442 0.55717 0.839009 0.577631 0.346422 0.162063 0.150067 0.0847723 0.0762117 0.0536655 0.0423976
threshold=3194.820695318987 56.406447518754192 62.91268541663802 26.679583328028766 15.500000000000002 3308.319116391976 -1.8800095547056699 0.52741854480424821 1.9101387494513817 83.718734564844382 3253.1309855947943 10.500000000000002 3301.3101305655623 3.0542355903418636
decision_type=2 2 2 2 2 2 2 2 2 2 2 2 2 2
left_child=1 3 4 -1 13 6 10 -8 -9 11 -6 -4 -11 -2
right_child=2 -3 9 -5 5 -7 7 8 -10 12 -12 -13 -14 -15
leaf_value=-0.0047734368811635413 -0.002995978116298155 0.0063685841876042404 -0.0041458931411542587 0.0034228792099596618 -0.0022506450853225861 0.0075718996395547702 0.0032959999331477578 -0.0033583985055101262 0.0009556332123033779 -0.004116387099363945 -0.0057953695591161222 -0.0073525306748019326 -0.0012904462567161002 -0.0056440303891392082
leaf_weight=51 31 105.5 31.5 77 33 41.5 102.5 39.5 48.5 36 34.5 45 31.5 29.5
leaf_count=32 20 20 21 19 22 10 32 22 21 24 22 30 18 20
internal_value=0.00010018 0.00296361 -0.00122643 0.00015716 8.93876e-05 0.000973468 -8.79073e-05 0.00132038 -0.000980779 -0.00451596 -0.00406239 -0.00603215 -0.00279761 -0.00428718
internal_weight=737.5 233.5 504 128 360 299.5 258 190.5 88 144 67.5 76.5 67.5 60.5
internal_count=333 71 262 51 169 129 119 75 43 93 44 51 42 40
is_linear=0
shrinkage=0.05


Tree=38
num_leaves=14
num_cat=0
split_feature=24 7 62 19 24 58 40 30 9 32 41 25 24
split_gain=0.928867 0.735298 0.675112 0.46354 0.425682 0.360348 0.258178 0.2405 0.145507 0.140822 0.100122 0.0743158 0.0709774
threshold=83.286726923193427 12.500000000000002 3.796851489867719 21.415389033911946 85.456718975800555 0.90239488760291142 2.5197463816159726 26.819784324536418 31.500000000000004 1.3638979492180463 4.1193605387888441 81.49931652979997 84.139554741113713
decision_type=2 2 2 2 2 2 2 2 2 2 2 2 2
left_child=1 11 3 5 7 8 -5 10 -3 -4 12 -1 -2
right_child=4 2 9 6 -6 -7 -8 -9 -10 -11 -12 -13 -14
leaf_value=-0.0052189379471998948 -0.0040474909578798101 0.0010851091938093305 -0.0041669536475092174 0.0026159500185036124 0.00099632041151257789 0.0069234067840235579 -0.0020744756096974016 0.0002848518574062516 0.0041727118450340141 0.00028311593050602826 -0.002630702159810989 -0.0017679121267671388 -0.0067911945076452361
leaf_weight=32.5 49.5 64 40 66.5 74 87.5 52.5 34 94.5 32 52.5 30 45
leaf_count=22 32 20 26 21 37 16 29 14 24 14 34 19 30
internal_value=0.000256716 0.0015102 0.00223569 0.00310854 -0.00219864 0.00434783 0.000546645 -0.00350487 0.00292598 -0.00218914 -0.0043814 -0.00356245 -0.00535402
internal_weight=754.5 499.5 437 365 255 246 119 181 158.5 72 147 62.5 94.5
internal_count=338 191 150 110 147 60 50 110 44 40 96 41 62
is_linear=0
shrinkage=0.05


Tree=39
num_leaves=14
num_cat=0
split_feature=2 53 56 9 35 20 26 14 19 53 52 54 25
split_gain=0.834468 1.0528 1.01867 0.408564 0.347859 0.198933 0.179746 0.195681 0.158709 0.138532 0.104117 0.100897 0.0516531
threshold=954131.83177647495 84.673052484288391 26.261567158503052 115.50000000000001 0.49715838739399537 105.81799452547385 85.169054881076747 0.90048449541874664 1.8962002702837248 81.632330168818896 41.980343727440577 81.501059712323539 82.892662034538475
decision_type=2 2 2 2 2 2 2 2 2 2 2 2 2
left_child=2 5 6 4 11 9 7 10 -6 -2 -1 -4 -11
right_child=1 -3 3 -5 8 -7 -8 -9 -10 12 -12 -13 -14
leaf_value=-0.0029698882897694905 -0.007947709821442616 0.0045890276751867154 0.0017882785223171872 0.005497819183198787 0.0015912501141428948 -0.00065735691770290336 0.00097175108916733571 -0.00075708295770206496 -0.0018204481843759881 -0.0054942943546320167 -0.0067759235268053802 0.0044961919048518845 -0.0032574496765877927
leaf_weight=37.5 33.5 41 59 90.5 66 30 34.5 51.5 70.5 46.5 34.5 82.5 58
leaf_count=24 23 14 20 18 19 17 21 27 34 31 23 20 38
internal_value=7.86372e-05 -0.00259443 0.00113974 0.00257986 0.00162995 -0.00434753 -0.00221902 -0.00311036 -0.000170836 -0.00514975 -0.00479361 0.0033671 -0.00425279
internal_weight=735.5 209 526.5 368.5 278 168 158 123.5 136.5 138 72 141.5 104.5
internal_count=329 123 206 111 93 109 95 74 53 92 47 40 69
is_linear=0
shrinkage=0.05


Tree=40
num_leaves=12
num_cat=0
split_feature=2 2 2 43 51 2 58 59 19 22 19
split_gain=0.894343 0.618002 0.486898 0.628078 0.651408 0.533319 0.263874 0.292968 0.0733406 0.0467564 0.0152799
threshold=928973.7709029183 924937.39279954985 962556.70298914018 3308.8346008304748 50.749615802127771 954669.54912594671 -1.9630262538300789 0.47237382874815703 40.666723794808483 16.970546634867787 42.083732370823945
decision_type=2 2 2 2 2 2 2 2 2 2 2
left_child=1 -1 3 4 5 6 -2 -8 -4 -6 -11
right_child=2 -3 8 -5 9 -7 7 -9 -10 10 -12
leaf_value=-0.0006028860458172858 -0.0018173354962200392 0.0049991573894658361 -0.0065738582689046981 0.005134089405720051 -0.0028224636287684894 -0.0045934663437630823 0.0041227728906999194 -0.00023824206983240754 -0.0033984358402337003 -0.0042613234586366044 -0.0057047532526431259
leaf_weight=80 50 128 33 45.5 34.5 46 94.5 65 40.5 33.5 40.5
leaf_count=34 31 24 22 16 22 29 27 27 27 23 27
internal_value=0.000103425 0.00284453 -0.00107701 -0.000404446 -0.00109676 0.000281605 0.00135203 0.00234556 -0.00482414 -0.0043426 -0.00505131
internal_weight=691 208 483 409.5 364 255.5 209.5 159.5 73.5 108.5 74
internal_count=309 58 251 202 186 114 85 54 49 72 50
is_linear=0
shrinkage=0.05


Tree=41
num_leaves=13
num_cat=0
split_feature=2 43 2 56 10 14 28 35 35 53 55 14
split_gain=0.715615 0.628846 0.877649 0.532853 0.27218 0.21323 0.203057 0.16617 0.159511 0.12801 0.110668 0.0653368
threshold=962556.70298914018 3308.8346008304748 954131.83177647495 26.261567158503052 81.500000000000014 0.46956593867161395 26.299063630185206 -1.4469127482127468 0.49715838739399537 82.429506488870686 25.57680021321185 0.051902954913930342
decision_type=2 2 2 2 2 2 2 2 2 2 2 2
left_child=1 2 3 6 5 8 7 10 -5 -4 -1 -2
right_child=11 -3 9 4 -6 -7 -8 -9 -10 -11 -12 -13
leaf_value=-0.0030145506781991574 -0.0032429753414665663 0.0056111455062585599 -0.0065103173694189866 0.0034421971893676046 0.0039807215716705811 -0.0020762489296288953 0.001996376126429395 -0.0054087109948423783 0.00043145769422278191 -0.002673443342988076 0.00035490715622518574 -0.0062879423786332649
leaf_weight=48 36 56.5 42.5 79.5 116.5 45 34 33 98.5 44.5 49.5 34.5
leaf_count=32 24 18 29 21 29 24 13 21 32 28 29 23
internal_value=5.07337e-05 0.000571595 8.98108e-05 0.000890347 0.00202202 0.000998754 -0.00144524 -0.0023419 0.00177614 -0.00454778 -0.0013039 -0.00473307
internal_weight=718 647.5 591 504 339.5 223 164.5 130.5 178 87 97.5 70.5
internal_count=323 276 258 201 106 77 95 82 53 57 61 47
is_linear=0
shrinkage=0.05


Tree=42
num_leaves=13
num_cat=0
split_feature=5 52 52 1 54 5 43 54 59 25 7 7
split_gain=0.716873 0.744816 0.519641 0.456443 0.432454 0.473101 0.273932 0.233588 0.117838 0.106483 0.0538741 0.0496408
threshold=3194.820695318987 56.406447518754192 62.91268541663802 -0.2393156642875576 84.101625039755177 3279.8737039924613 3308.05924738356 82.891814717014739 0.47237382874815703 83.850602388870456 13.500000000000002 33.500000000000007
decision_type=2 2 2 2 2 2 2 2 2 2 2 2
left_child=1 3 4 -1 5 7 -7 8 -2 10 -4 -11
right_child=2 -3 9 -5 -6 6 -8 -9 -10 11 -12 -13
leaf_value=0.0021982482428218697 0.0027434802626958121 0.0052927913293403725 -0.0032510645123142185 -0.003977434268686921 0.004922361580212033 -0.0058875578482752867 -0.00073049144748173374 -0.0026401837110125391 2.7607133983165249e-05 -0.0033019127405208093 -0.0059368768078816494 -0.00052092576166614898
leaf_weight=74.5 100 115.5 33 50 41 51.5 51.5 39 66.5 34.5 43 30
leaf_count=22 35 21 22 29 14 35 30 24 28 23 29 17
internal_value=0.000162061 0.0024009 -0.000934511 -0.000281946 9.78656e-05 -0.000543315 -0.00330902 0.000842904 0.00165876 -0.00350259 -0.00477067 -0.00200843
internal_weight=730 240 490 124.5 349.5 308.5 103 205.5 166.5 140.5 76 64.5
internal_count=329 72 257 51 166 152 65 87 63 91 51 40
is_linear=0
shrinkage=0.05


Tree=43
num_leaves=14
num_cat=0
split_feature=2 43 2 56 42 0 13 2 54 24 54 26 8
split_gain=0.478694 0.401963 0.673521 0.459371 0.311434 0.37364 0.303628 0.174733 0.140183 0.184725 0.10641 0.0569119 0.0459644
threshold=962556.70298914018 3308.8346008304748 954131.83177647495 25.940439609067706 3.0361949165574136 -0.61559370248597534 1.2927551826094723 936797.1514255997 83.216930959544854 81.285285007288394 82.674015028186346 84.697941038574896 4.5000000000000009
decision_type=2 2 2 2 2 2 2 2 2 2 2 2 2
left_child=1 2 3 11 6 -6 7 -5 9 -7 -4 -1 -2
right_child=12 -3 10 4 5 8 -8 -9 -10 -11 -12 -13 -14
leaf_value=-0.0034781968934243326 -0.0025215054730263853 0.0048227914042540433 -0.0057699680604316574 -0.0046985663340560029 0.0050667469415463795 0.0001795320451114472 0.0024837030395865444 4.8534349803554104e-05 -0.001282851142662295 0.0036543057741111719 -0.0023370783429081535 -0.00077518858636418985 -0.0051472753577982075
leaf_weight=55.5 30 48.5 40.5 42 90.5 77 50 36 44.5 76 51 30 37.5
leaf_count=37 20 17 28 25 20 29 14 15 22 20 32 20 25
internal_value=2.49149e-05 0.000446349 8.84102e-05 0.000808179 0.00149422 0.00240627 -0.00055787 -0.0025076 0.00118716 0.00190556 -0.00385655 -0.00252977 -0.00398027
internal_weight=709 641.5 593 501.5 416 288 128 78 197.5 153 91.5 85.5 67.5
internal_count=324 279 262 202 145 91 54 40 71 49 60 57 45
is_linear=0
shrinkage=0.05


Tree=44
num_leaves=13
num_cat=0
split_feature=2 52 1 52 33 38 12 61 9 25 11 20
split_gain=0.688694 0.633961 0.499529 0.349573 0.351345 0.269094 0.25205 0.173769 0.162431 0.0674744 0.0603995 0.0270764
threshold=928973.7709029183 56.406447518754192 -0.2393156642875576 52.300244890381471 -2.5559284117624865 -0.79289168989527992 0.64683467623674684 3.3210251594636371 43.500000000000007 83.42481171962298 0.1420026277919797 70.071190702998578
decision_type=2 2 2 2 2 2 2 2 2 2 2 2
left_child=1 2 -1 4 -2 7 9 -6 -7 10 -5 -11
right_child=3 -3 -4 6 5 8 -8 -9 -10 11 -12 -13
leaf_value=0.0020708815562863682 -0.0033582953549258984 0.0053137356225325142 -0.0047513086844283422 -0.0033159009018351167 0.004279374511856021 -0.0030992590011127536 4.2330083300130665e-05 0.00045484985026565412 0.00063872740419972096 -0.003644287899240024 -0.0062596027858746366 -0.0016104076833774645
leaf_weight=86 61.5 98 39 31.5 66 46.5 59 54 77.5 36 39 30
leaf_count=24 38 16 25 21 16 26 31 32 30 24 26 19
internal_value=-8.55299e-06 0.00230287 -5.76418e-05 -0.00103739 1.91531e-05 0.000870436 -0.00268841 0.00255834 -0.000763017 -0.00386873 -0.00494433 -0.0027198
internal_weight=724 223 125 501 305.5 244 195.5 120 124 136.5 70.5 66
internal_count=328 65 49 263 142 104 121 48 56 90 47 43
is_linear=0
shrinkage=0.05


Tree=45
num_leaves=14
num_cat=0
split_feature=2 59 2 52 54 2 47 54 54 8 8 40 2
split_gain=0.60793 0.638781 0.425445 0.377001 0.436422 0.411661 0.208466 0.178343 0.187625 0.102833 0.0720225 0.0603711 0.0250267
threshold=929389.48183021334 0.91264550840880121 924937.39279954985 62.91268541663802 84.101625039755177 954131.83177647495 3308.3191163919764 82.939790592279209 81.913265043853741 62.500000000000007 19.500000000000004 3.2532899544029812 962744.12191543716
decision_type=2 2 2 2 2 2 2 2 2 2 2 2 2
left_child=1 2 -1 4 5 7 -7 8 11 10 12 -2 -5
right_child=3 -3 -4 9 -6 6 -8 -9 -10 -11 -12 -13 -14
leaf_value=-0.0040042342955157869 0.0012576567184211863 0.0042706022344305367 0.0021471582199177465 -0.001597905094086221 0.0051101991710694218 -0.0052989122765395077 -0.0007144948307701111 -0.0022548359624731044 0.0035813339415096471 -0.00059712761947491649 -0.0050756400314104916 -0.001072076991868188 -0.0035932779451832175
leaf_weight=52.5 58.5 149.5 60.5 33 38 54.5 45.5 42 62 35.5 51 53 30
leaf_count=34 20 27 17 22 12 37 26 25 21 20 34 26 20
internal_value=0.000175742 0.00212623 -0.00071079 -0.000842157 4.80333e-05 -0.000561673 -0.003213 0.000668642 0.00137634 -0.00294706 -0.00367883 0.00015025 -0.00254808
internal_weight=765.5 262.5 113 503 353.5 315.5 100 215.5 173.5 149.5 114 111.5 63
internal_count=341 78 51 263 167 155 63 92 67 96 76 46 42
is_linear=0
shrinkage=0.05


Tree=46
num_leaves=14
num_cat=0
split_feature=42 14 2 60 62 29 2 23 25 27 40 26 34
split_gain=0.377781 0.414293 0.39407 0.628051 0.374931 0.235131 0.176773 0.146139 0.102842 0.0935174 0.094039 0.0680149 0.0479299
threshold=2.3653221696445121 0.23886946294010888 962228.86149236548 -1.417304923735603 2.4596534193310062 26.626962117301598 947865.55683914886 82.184472405508615 82.600286474334112 26.198879346267351 3.5677240172786164 83.718734564844382 -1.3481477743102255
decision_type=2 2 2 2 2 2 2 2 2 2 2 2 2
left_child=9 6 3 8 -5 7 -2 -6 -3 10 -1 -10 -8
right_child=1 2 -4 4 5 -7 12 -9 11 -11 -12 -13 -14
leaf_value=-0.0055097036820370704 0.00046074468819868003 -0.004879055660811888 0.0054162936672420793 -0.0021887814773148616 0.0023017923813313246 0.0040749971821033223 -0.0044381756111081831 -0.0014168244035609849 -0.0031460992674427952 -0.00088185608537510193 -0.0018830045605157044 2.8999855714863624e-05 -0.0021178966611235714
leaf_weight=36 52.5 34.5 50.5 47.5 76 135 41.5 40.5 33 49.5 35.5 34.5 48
leaf_count=22 20 23 13 22 23 30 28 24 22 25 22 22 30
internal_value=-6.17934e-06 0.000512945 0.00125379 0.000729586 0.00188533 0.00265479 -0.00184264 0.00100905 -0.00265832 -0.00255246 -0.00370903 -0.00152327 -0.00319378
internal_weight=714.5 593.5 451.5 401 299 251.5 142 116.5 102 121 71.5 67.5 89.5
internal_count=326 257 179 166 99 77 78 47 67 69 44 44 58
is_linear=0
shrinkage=0.05


Tree=47
num_leaves=13
num_cat=0
split_feature=19 5 43 44 5 57 33 62 5 58 34 37
split_gain=0.445443 0.409241 0.348008 0.574917 0.333571 0.24091 0.230061 0.176132 0.131774 0.0576013 0.0490878 0.030957
threshold=8.1236299674803512 3194.820695318987 3308.8346008304748 3309.4788623334657 3267.1653068004393 -1.6279013007760019 -1.110602297451714 3.029456229587379 3258.3330848616051 0.74191392921579158 -2.1356635122385215 -2.2801144772207294
decision_type=2 2 2 2 2 2 2 2 2 2 2 2
left_child=1 -1 5 -4 -3 8 -7 9 10 -8 11 -2
right_child=2 4 3 -5 -6 6 7 -9 -10 -11 -12 -13
leaf_value=0.0034206916737419216 -0.0017461996189215116 0.0016782365701332386 0.0066007570216530254 -0.0015760183962287779 -0.0036314650655093817 0.0024076468245354745 -0.0019266746218989392 0.00029993056460230985 -0.0050469200953701951 -0.0046128016529661245 -0.00039476729527285155 -0.0038925218262842727
leaf_weight=152 36 73.5 38 49.5 49.5 53 50.5 79.5 53.5 33 33 31.5
leaf_count=32 24 26 8 32 32 17 29 32 35 21 22 20
internal_value=9.52477e-05 0.00168559 -0.000860697 0.00197504 -0.000458595 -0.00153131 -0.000454027 -0.00138451 -0.00304231 -0.00298826 -0.00197517 -0.00274782
internal_weight=732.5 275 457.5 87.5 123 370 216 163 154 83.5 100.5 67.5
internal_count=330 90 240 40 58 200 99 82 101 50 66 44
is_linear=0
shrinkage=0.05


Tree=48
num_leaves=13
num_cat=0
split_feature=2 52 52 41 59 56 26 29 25 43 2 30
split_gain=0.446764 0.5037 0.343319 0.328772 0.353356 0.3255 0.119691 0.154679 0.0883225 0.10615 0.0455857 0.0154629
threshold=929389.48183021334 56.406447518754192 62.91268541663802 3.0542355903418636 0.2907162347693813 26.679583328028766 84.452548233421822 26.198879346267351 82.827853661780907 3307.9253368134487 950434.89482521161 25.877456609025867
decision_type=2 2 2 2 2 2 2 2 2 2 2 2
left_child=1 5 3 4 -2 -1 7 10 -4 11 -5 -10
right_child=2 -3 8 6 -6 -7 -8 -9 9 -11 -12 -13
leaf_value=-0.0030605851800418367 0.0032631871010924832 0.0046882711315938573 -0.0044321443743926166 -0.0025095078091706257 -0.0013928802972077393 0.0019756219931205232 0.0011244025865069977 -0.00031715255940882424 -0.0037473024458934863 0.0006291028378265245 -0.0051607093379154043 -0.0021788622802970084
leaf_weight=51 127 106.5 45 36 60 86.5 41 69.5 30 31.5 29.5 33
leaf_count=32 35 18 30 23 32 22 23 33 20 17 19 22
internal_value=0.000351612 0.00210698 -0.000500745 0.000309441 0.00176926 0.000107647 -0.00124162 -0.00196019 -0.00260897 -0.00174079 -0.00370356 -0.00292574
internal_weight=746.5 244 502.5 363 187 137.5 176 135 139.5 94.5 65.5 63
internal_count=326 72 254 165 67 54 98 75 89 59 42 42
is_linear=0
shrinkage=0.05


Tree=49
num_leaves=13
num_cat=0
split_feature=35 8 61 24 35 22 24 33 41 53 57 9
split_gain=0.370611 0.219472 0.208317 0.278966 0.200479 0.152505 0.150792 0.12916 0.113985 0.120455 0.0290607 0.00784476
threshold=3.1183510819330453 8.5000000000000018 3.7075158584855381 84.064272792489319 1.1653924569246619 48.149917717000029 85.681646388200519 0.092487801694334473 4.3121363537480564 82.491405916548047 0.2373232619893367 3.5000000000000004
decision_type=2 2 2 2 2 2 2 2 2 2 2 2
left_child=1 10 3 4 5 7 8 -3 9 -4 11 -1
right_child=-2 2 6 -5 -6 -7 -8 -9 -10 -11 -12 -13
leaf_value=-0.002539748415026976 0.0038780596790214381 -0.00026680873177776284 -0.0054350029400272951 -0.0025467426509587707 -0.001072191750906684 0.0034364814612087508 0.0017923999352563846 0.0027269810056466549 -0.00047175142590118494 -0.0012799834310444017 -0.0011703048235115906 -0.0036452760671575866
leaf_weight=34.5 60 88 37 53.5 67.5 106.5 30.5 61 57.5 33 30 30
leaf_count=23 14 35 23 29 30 29 17 18 33 21 20 20
internal_value=0.000123412 -0.000234742 0.000157972 0.000797419 0.00135133 0.00199159 -0.00136577 0.000958837 -0.00212126 -0.00347621 -0.00245597 -0.00305395
internal_weight=689 629 534.5 376.5 323 255.5 158 149 127.5 70 94.5 64.5
internal_count=312 298 235 141 112 82 94 53 77 44 63 43
is_linear=0
shrinkage=0.05


Tree=50
num_leaves=15
num_cat=0
split_feature=2 35 43 2 56 32 56 54 7 54 22 8 62 60
split_gain=0.418625 0.391027 0.338779 0.395019 0.293927 0.167448 0.144613 0.100904 0.0964025 0.268155 0.0809834 0.0657078 0.065602 0.0223055
threshold=962556.70298914018 3.1183510819330453 3308.8346008304748 954131.83177647495 26.228414564816145 -1.0656130436440516 25.823445320625833 82.621698969070152 65.000000000000014 82.874089501695153 0.69887696433612623 6.5000000000000009 3.0375671204808352 -2.5781745476720705
decision_type=2 2 2 2 2 2 2 2 2 2 2 2 2 2
left_child=1 2 3 4 5 6 13 -5 9 10 -6 -2 -10 -1
right_child=11 -3 -4 7 8 -7 -8 -9 12 -11 -12 -13 -14 -15
leaf_value=-0.0010874121442832278 -0.0020982486359398104 0.0045423764767300373 0.0040403673664555634 -0.0049274072970873044 -0.00010945985582892342 -0.0046703384071588513 0.001419389278867171 -0.0016258751425926609 0.0034414757692226858 -0.0031867743402376383 0.0023825390054722419 -0.0051620415986205143 0.00134043037537862 -0.0028870806680060925
leaf_weight=33 42 58.5 54.5 40.5 49.5 30 54.5 54 66 38 95.5 30 85 36
leaf_count=22 28 12 18 28 16 18 27 34 13 23 25 20 28 24
internal_value=0.00025437 0.000630345 0.000270794 -8.21983e-05 0.000491319 -0.00131969 -0.000505772 -0.00304082 0.00132363 0.000552004 0.00153182 -0.00337483 0.00225877 -0.00202637
internal_weight=767 695 636.5 582 487.5 153.5 123.5 94.5 334 183 145 72 151 69
internal_count=336 288 276 258 196 91 73 62 105 64 41 48 41 46
is_linear=0
shrinkage=0.05


Tree=51
num_leaves=13
num_cat=0
split_feature=42 64 5 58 55 5 20 35 24 29 33 61
split_gain=0.334793 0.418372 0.323061 0.484404 0.345158 0.298706 0.152246 0.13317 0.125459 0.0922233 0.0475926 0.0633575
threshold=2.4285480621561253 3308.490044934149 3307.5576184428196 -0.29042322015178662 27.342681109386817 3209.5303198874872 57.802898254809904 1.0657870733506554 83.708737436559133 26.281769474793414 -2.4223319190140389 2.9020496582804967
decision_type=2 2 2 2 2 2 2 2 2 2 2 2
left_child=8 2 3 4 6 -5 10 -7 9 -1 -2 -12
right_child=1 -3 -4 5 -6 7 -8 -9 -10 -11 11 -13
leaf_value=-0.0025456188160883769 -0.0037443163814117214 -0.003639647333572308 0.0048645772794894517 0.0040840306258226036 0.0032475735086740717 0.0022684153793475679 0.00031768485903739931 -0.0013911419388308538 -0.0044903889174262683 0.00040611318842160936 -0.0028758972551736796 -0.00027858848408915296
leaf_weight=55 49.5 51 51.5 122 45 48.5 72.5 51 37.5 51 59 39
leaf_count=33 33 34 15 22 10 15 36 27 25 23 30 22
internal_value=0.000160853 0.000688475 0.00109876 0.000700119 -0.000742315 0.00242583 -0.00155843 0.000392662 -0.00200479 -0.00112545 -0.00248059 -0.00184227
internal_weight=732.5 589 538 486.5 265 221.5 220 99.5 143.5 106 147.5 98
internal_count=325 244 210 195 131 64 121 42 81 56 85 52
is_linear=0
shrinkage=0.05


Tree=52
num_leaves=13
num_cat=0
split_feature=63 43 56 43 53 7 53 11 1 43 60 25
split_gain=0.366812 0.497029 0.369072 0.240404 0.186763 0.243678 0.210276 0.0757473 0.0666097 0.0490764 0.0471174 0.0389314
threshold=3308.3487403804293 3308.8346008304748 25.823445320625833 3267.7613587176597 82.769278972028332 65.000000000000014 80.784256884674377 0.093436118292147582 -0.78574730703237872 3241.8296882093728 -2.5781745476720705 83.42481171962298
decision_type=2 2 2 2 2 2 2 2 2 2 2 2
left_child=1 2 9 4 6 -6 -4 -2 -8 10 -1 -5
right_child=7 -3 3 11 5 -7 8 -9 -10 -11 -12 -13
leaf_value=-0.00048357419203966853 -0.0018904204394924887 0.0055116534638016126 -0.00011685959237453704 -0.0029561177799365969 -0.0025086971203776174 0.0015844591905272776 0.0016647513360986785 -0.0050239631223181888 0.0035596051642437392 -0.0043098900524469524 -0.0032214470292356886 -0.00070069894345450986
leaf_weight=30 54 46 91 41.5 68.5 77.5 77.5 30 115.5 32.5 33 35.5
leaf_count=20 36 10 34 28 38 26 20 20 32 22 22 22
internal_value=9.93346e-05 0.000502027 0.000119549 0.000656636 0.00111737 -0.00033596 0.0018645 -0.00300954 0.00279872 -0.00273179 -0.0019177 -0.00191628
internal_weight=732.5 648.5 602.5 507 430 146 284 84 193 95.5 63 77
internal_count=330 274 264 200 150 64 86 56 52 64 42 50
is_linear=0
shrinkage=0.05


Tree=53
num_leaves=12
num_cat=0
split_feature=19 14 43 2 61 62 43 42 34 11 35
split_gain=0.378874 0.32035 0.246385 0.458839 0.312726 0.14055 0.137348 0.0893143 0.0970426 0.0875594 0.0317307
threshold=8.1236299674803512 0.12463008836108688 3308.8346008304748 962362.10142236948 3.0871008564918649 2.7018916751292426 3189.6179557168102 2.7526750446829058 -1.8800095547056699 0.90048449541874664 -1.9640191836336494
decision_type=2 2 2 2 2 2 2 2 2 2 2
left_child=1 -1 4 -4 5 -2 -3 9 10 -6 -9
right_child=2 6 3 -5 7 -7 -8 8 -10 -11 -12
leaf_value=-0.0025524349793893835 -0.0014893275433046334 0.0034481545603066164 0.0055780418704502116 -0.0012630986374508786 -0.0023833896223736067 0.0015169568302665364 0.00093587201130999767 -0.0016496306409438451 -0.00011184270327108178 -0.0058658867758714546 -0.0036091896948283134
leaf_weight=36.5 59 142.5 43 57 46.5 114 88 37.5 61.5 29.5 46
leaf_count=21 31 27 9 37 30 38 35 25 30 19 30
internal_value=0.000282317 0.00179983 -0.000537878 0.00167859 -0.00110043 0.000491692 0.00248902 -0.00234676 -0.00161905 -0.00373515 -0.00272915
internal_weight=761 267 494 100 394 173 230.5 221 145 76 83.5
internal_count=332 83 249 46 203 69 62 134 85 49 55
is_linear=0
shrinkage=0.05


Tree=54
num_leaves=14
num_cat=0
split_feature=19 9 43 2 57 52 8 29 52 25 53 2 19
split_gain=0.299965 0.262805 0.177993 0.381911 0.173852 0.159014 0.198728 0.13274 0.1115 0.0440435 0.0339652 0.0332724 0.0122433
threshold=8.1236299674803512 31.500000000000004 3308.8346008304748 962362.10142236948 -2.5775133079080566 34.223285118958152 67.500000000000014 26.626962117301598 55.874685012700333 82.857113498171074 80.784256884674377 938171.89343862899 44.861656819733668
decision_type=2 2 2 2 2 2 2 2 2 2 2 2 2
left_child=1 -1 4 -4 10 9 11 -3 -8 -6 -2 -7 -13
right_child=2 7 3 -5 5 6 8 -9 -10 -11 -12 12 -14
leaf_value=-0.00077587253587054362 -0.0046877756580647276 0.0011263449576550298 0.0051697557718542071 -0.0013363165747340734 0.00013188088943034111 -0.00396780151199421 -0.0011901760669124704 0.0038614742774912649 0.0021232135252767181 0.0023477327454801103 -0.0024392939411485809 -0.0014724703446503671 -0.0028838384523987774
leaf_weight=87.5 29.5 84 38 55.5 49.5 43.5 62 94 43 41 39 31.5 30
leaf_count=38 20 28 8 36 22 27 28 19 17 18 26 20 20
internal_value=0.000128243 0.00146781 -0.000640739 0.00130786 -0.00113449 -0.000616323 -0.00137138 0.00257074 0.000166736 0.00113575 -0.00340762 -0.0029095 -0.00216094
internal_weight=728 265.5 462.5 93.5 369 300.5 210 178 105 90.5 68.5 105 61.5
internal_count=327 85 242 44 198 152 112 47 45 40 46 67 40
is_linear=0
shrinkage=0.05


Tree=55
num_leaves=13
num_cat=0
split_feature=2 59 2 2 45 2 2 61 11 54 21 9
split_gain=0.274247 0.251732 0.249855 0.262994 0.323553 0.321895 0.197897 0.177429 0.0617465 0.0585771 0.0430116 0.0237562
threshold=929389.48183021334 1.0618809742754129 938634.69093454955 962362.10142236948 3308.4968492937901 954131.83177647495 925331.20051898144 3.1949611784967487 0.093436118292147582 82.382180834266464 37.717836898738604 33.500000000000007
decision_type=2 2 2 2 2 2 2 2 2 2 2 2
left_child=1 6 11 4 5 7 -1 -4 -5 -7 -9 -2
right_child=2 -3 3 8 -6 9 -8 10 -10 -11 -12 -13
leaf_value=-0.0018691347157073325 -0.004108336449615539 0.0033539488699773816 0.0025247460979807893 -0.0014437758793624548 0.0044979880124600118 -0.0043753756690890558 0.0020329781846764191 -0.001346531675222355 -0.0042338088150912275 -0.001581282129903373 0.00071499960206609264 -0.0023299587274631189
leaf_weight=64 31.5 111 104.5 58.5 47.5 31 66 55.5 30 47.5 46.5 46.5
leaf_count=34 21 20 27 39 11 21 15 29 19 32 25 31
internal_value=0.000220091 0.00160515 -0.000448844 3.27379e-05 0.000677467 4.07137e-05 0.000111938 0.00107676 -0.00238955 -0.00268468 -0.000406716 -0.00304815
internal_weight=740 241 499 421 332.5 285 130 206.5 88.5 78.5 102 78
internal_count=324 69 255 203 145 134 49 81 58 53 54 52
is_linear=0
shrinkage=0.05


Tree=56
num_leaves=13
num_cat=0
split_feature=2 59 52 53 59 1 25 33 20 25 43 53
split_gain=0.256212 0.28446 0.256081 0.186089 0.162356 0.207008 0.149793 0.115372 0.103098 0.0833977 0.0479883 0.0279477
threshold=928973.7709029183 0.91264550840880121 62.91268541663802 79.581629734408395 0.2907162347693813 0.70581670320594814 83.540062847005117 0.92044930670145841 22.136828517603877 82.827853661780907 3308.4968492937901 84.177631186939365
decision_type=2 2 2 2 2 2 2 2 2 2 2 2
left_child=1 8 3 -2 5 6 -5 -6 -1 -4 11 -11
right_child=2 -3 9 4 7 -7 -8 -9 -10 10 -12 -13
leaf_value=0.0010402391279688266 -0.002575063992977663 0.0033011695407631418 -0.0039315614119979992 0.0032947194296866658 -0.0023497721955048302 -0.0012286191835871661 -1.2812194751298174e-05 0.00091392293554515801 -0.0021528488774839346 -0.0011374776142959793 0.00024315477551325508 -0.0029856735666592919
leaf_weight=63.5 46.5 124 41.5 126 56.5 51 47 52 42 45 34.5 37.5
leaf_count=21 27 22 28 34 34 29 27 21 23 30 18 25
internal_value=0.00027895 0.00167748 -0.000318188 0.000387584 0.000801909 0.00157086 0.00239614 -0.000785605 -0.000230943 -0.00200581 -0.00132274 -0.00197757
internal_weight=767 229.5 537.5 379 332.5 224 173 108.5 105.5 158.5 117 82.5
internal_count=339 66 273 172 145 90 61 55 44 101 73 55
is_linear=0
shrinkage=0.05


Tree=57
num_leaves=14
num_cat=0
split_feature=2 0 33 1 1 51 27 30 26 24 56 1 31
split_gain=0.253269 0.193454 0.246746 0.20819 0.211391 0.123507 0.246337 0.194256 0.157463 0.0943368 0.062794 0.0552173 0.0402035
threshold=962950.60235245991 -0.95297903005573326 -3.3367432971413797 -0.95297903005573326 0.4647231720437684 47.491669890776308 26.350251851438969 25.625456875072935 83.859184163549614 82.293743100190568 26.731778623232035 0.91023613416931248 -0.12697004675267601
decision_type=2 2 2 2 2 2 2 2 2 2 2 2 2
left_child=1 -1 -3 -4 5 6 8 -7 -5 -6 -8 -11 -9
right_child=-2 2 3 4 9 7 10 12 -10 11 -12 -13 -14
leaf_value=-0.0021762507576072081 -0.0031909074589964895 -0.0032766121402382853 -0.0017675436862552439 -0.0032359898411508264 0.00097439866095524411 0.0063123259402345869 0.0010204819673351173 0.0032072600395399702 0.0012692272110975216 -0.0025976303322143698 0.0031756435854383459 -7.1792219791354414e-06 0.0014687848761539956
leaf_weight=66 52.5 37.5 65.5 43.5 72.5 32 58 49 35 48 81 36 103.5
leaf_count=36 35 23 28 25 31 7 21 12 18 30 19 24 32
internal_value=0.000162998 0.000405033 0.000662576 0.000899306 0.00121207 0.00181901 0.00101183 0.00277057 -0.00122729 -0.00034697 0.00227637 -0.00148744 0.00202738
internal_weight=780 727.5 661.5 624 558.5 402 217.5 184.5 78.5 156.5 139 84 152.5
internal_count=341 306 270 247 219 134 83 51 43 85 40 54 44
is_linear=0
shrinkage=0.05


Tree=58
num_leaves=15
num_cat=0
split_feature=35 8 42 9 43 61 35 21 11 57 26 25 27 13
split_gain=0.197881 0.165072 0.171274 0.157266 0.15887 0.202217 0.251167 0.120352 0.115575 0.0724067 0.0519245 0.0412738 0.0145534 0.00831564
threshold=3.1183510819330453 158.00000000000003 2.4981445216141682 8.5000000000000018 3309.0497546487782 3.3899552690455548 0.32842577824274582 6.4044328991097936 0.90048449541874664 -1.7839426942849206 83.067370058774713 82.600286474334112 25.625456875072935 0.031295835226192344
decision_type=2 2 2 2 2 2 2 2 2 2 2 2 2 2
left_child=1 2 8 13 5 6 -5 -8 10 11 -1 -7 -13 -4
right_child=-2 -3 3 4 -6 9 7 -9 -10 -11 -12 12 -14 -15
leaf_value=0.00031241011539740224 0.0028248504560062851 0.0029942668203649849 -0.0015463328238684631 0.0025721800426910528 0.0032517927337665947 -0.0034890714919928348 0.00053492940194275855 -0.0028742322966886259 -0.0043066255200435132 0.00036496156519585915 -0.00200046009133355 -0.00058168443046352795 -0.0021033005540569624 -0.0026845563066308386
leaf_weight=45.5 69 43.5 34.5 133 49 33 77 39 34 45.5 52 33 30 30
leaf_count=24 17 11 23 34 16 22 22 24 20 19 35 22 18 20
internal_value=0.00027373 1.44845e-05 -0.000189482 0.000229799 0.000568155 0.000231412 0.00108913 -0.000611254 -0.00179646 -0.00127794 -0.000921121 -0.0020566 -0.00130626 -0.00207574
internal_weight=748 679 635.5 504 439.5 390.5 249 116 131.5 141.5 97.5 96 63 64.5
internal_count=327 310 299 220 177 161 80 46 79 81 59 62 40 43
is_linear=0
shrinkage=0.05


Tree=59
num_leaves=13
num_cat=0
split_feature=30 26 23 0 14 26 29 22 58 36 30 8
split_gain=0.214715 0.177562 0.201511 0.164937 0.159305 0.131525 0.0890887 0.0864513 0.0538397 0.036526 0.0705332 0.0565258
threshold=26.395716552633662 79.503962507911169 85.456718975800555 -0.91023613416931226 0.23941493917993445 82.670242169724816 26.811263948159908 28.149650470335313 0.82190657000922418 -2.1237134111312757 25.454081813926887 47.500000000000007
decision_type=2 2 2 2 2 2 2 2 2 2 2 2
left_child=1 -1 3 -3 5 -2 7 -6 9 10 -5 -11
right_child=4 2 -4 8 6 -7 -8 -9 -10 11 -12 -13
leaf_value=0.0016335343233503993 -0.0023317520881426476 -0.0051257300279324968 0.0016355363987212148 -0.0021288045422223054 -0.00039391952209678806 0.0014347166367189353 0.0027900649870779099 0.0021855460201192093 0.00061827272749864141 -0.0034738379040694179 0.00071129635102862938 -0.0011760497270902419
leaf_weight=69.5 52.5 31.5 53.5 47.5 66.5 41.5 112 63.5 32.5 48 40.5 60.5
leaf_count=24 29 19 28 31 29 18 23 20 12 32 25 32
internal_value=0.000155187 -0.0006533 -0.00115946 -0.00173348 0.00107797 -0.000668896 0.0017565 0.00086605 -0.00126686 -0.00157866 -0.000821713 -0.00219258
internal_weight=719.5 383.5 314 260.5 336 94 242 130 229 196.5 88 108.5
internal_count=322 203 179 151 119 47 72 49 132 120 56 64
is_linear=0
shrinkage=0.05


Tree=60
num_leaves=13
num_cat=0
split_feature=11 56 28 26 42 2 53 52 11 25 25 27
split_gain=0.264891 0.217084 0.170909 0.177378 0.156331 0.110139 0.105894 0.0925596 0.0479388 0.0563985 0.0450178 0.0413681
threshold=0.66509362536009664 26.306282688939685 27.208485342135102 85.787049536531967 2.9647403811045163 940982.9699244271 81.786373284257081 57.16485619614668 0.13117012582845447 83.850602388870456 83.494270317949145 26.516008836604502
decision_type=2 2 2 2 2 2 2 2 2 2 2 2
left_child=2 4 3 6 -2 -3 11 10 -9 -10 -8 -1
right_child=1 5 -4 -5 -6 -7 7 8 9 -11 -12 -13
leaf_value=-0.0042989635476093184 -0.0027463217988154109 0.003228518212480205 0.0014114694259539768 0.0020109088575417126 0.0011372355513528667 0.00077460016250426391 0.00057501622746067673 -0.00087697385765966916 -0.0039338403103992029 -0.0012370766734944262 -0.0015448720144057597 -0.0018734235379655483
leaf_weight=43.5 49 105 71.5 37 55 81 77.5 52.5 47 33 37 29.5
leaf_count=28 28 16 20 19 28 31 30 35 28 19 23 17
internal_value=-3.00399e-05 0.00113695 -0.000819834 -0.00126672 -0.000692517 0.00215988 -0.0016457 -0.00115122 -0.00205098 -0.00282143 -0.000110013 -0.00331878
internal_weight=718.5 290 428.5 357 104 186 320 247 132.5 80 114.5 73
internal_count=322 103 219 199 56 47 180 135 82 47 53 45
is_linear=0
shrinkage=0.05


Tree=61
num_leaves=14
num_cat=0
split_feature=24 56 24 7 57 12 60 42 38 42 24 52 10
split_gain=0.22102 0.182715 0.169444 0.136253 0.14484 0.091477 0.121048 0.0727171 0.0716312 0.0591639 0.0439149 0.0301132 0.0145734
threshold=77.877030354564013 26.649853383516525 85.456718975800555 148.50000000000003 1.1582870411041164 0.76589950547407426 1.0000000180025095e-35 4.1365552931973335 -1.4298732518914343 3.4732032409926874 83.708737436559133 43.718045250080898 39.500000000000007
decision_type=2 2 2 2 2 2 2 2 2 2 2 2 2
left_child=-1 2 3 4 7 6 -3 9 -9 10 11 -2 -11
right_child=1 5 -4 -5 -6 -7 -8 8 -10 12 -12 -13 -14
leaf_value=0.0019420398164396013 0.00034840148544925103 0.0014723184723847026 0.001640924894147449 0.001412106544012204 -0.0045402548766478737 0.0024368536178371869 -0.0018958207300823671 0.0011314541734391962 -0.0016038484459456343 -0.003833105424983484 -0.0024603160533040545 -0.0014381598279249134 -0.0023104459423727046
leaf_weight=116 42.5 63.5 54 40 39 64 46 50.5 45.5 33 51 53 30
leaf_count=30 21 19 28 15 24 15 22 26 26 22 33 35 19
internal_value=-5.90523e-05 -0.000438344 -0.000981778 -0.00135012 -0.00167084 0.000935119 5.73924e-05 -0.00130453 -0.000164965 -0.00182672 -0.00127571 -0.000643093 -0.00310803
internal_weight=728 612 438.5 384.5 344.5 173.5 109.5 305.5 96 209.5 146.5 95.5 63
internal_count=335 305 249 221 206 56 41 182 52 130 89 56 41
is_linear=0
shrinkage=0.05


Tree=62
num_leaves=15
num_cat=0
split_feature=2 45 35 42 14 58 28 56 26 58 52 9 25 33
split_gain=0.16916 0.154698 0.179974 0.165269 0.178786 0.131449 0.139238 0.123019 0.102351 0.0723614 0.0504963 0.0503998 0.0211677 0.0181053
threshold=962514.86924537865 3308.8346008304748 3.1889764132951695 4.1047806113193923 1.5194745496988993 0.16416736030603871 27.250644258496735 26.587883885913158 82.823802890343117 1.0099895461705521 43.446910398636774 4.5000000000000009 82.892662034538475 -1.8281255052910648
decision_type=2 2 2 2 2 2 2 2 2 2 2 2 2 2
left_child=1 2 3 4 7 6 8 9 -5 10 -1 -2 -12 -14
right_child=11 -3 -4 5 -6 -7 -8 -9 -10 -11 12 -13 13 -15
leaf_value=-0.00066774258808816663 -0.00085416935870180957 0.0031115171446634286 0.0028728044958043738 -0.0020472696077172433 0.0017520250212530503 0.0030854908402497862 0.0026201843958476496 3.3123163470568568e-06 0.00082805962101243312 -0.0043896930369858944 -0.0035227856051827234 -0.0034547954096378372 -0.0028023391123861078 -0.0010792943498780651
leaf_weight=67 34.5 44 51.5 64.5 54 51 43.5 104 59.5 30 31.5 40.5 30 31
leaf_count=39 23 14 12 36 18 11 10 33 30 18 20 27 20 21
internal_value=-8.07185e-06 0.00024708 4.29739e-05 -0.000214511 -0.000892005 0.000862969 0.000186261 -0.00137847 -0.000667575 -0.00213681 -0.00171307 -0.00225851 -0.00247023 -0.00192669
internal_weight=736.5 661.5 617.5 566 347.5 218.5 167.5 293.5 124 189.5 159.5 75 92.5 61
internal_count=332 282 268 256 169 87 76 151 66 118 100 50 61 41
is_linear=0
shrinkage=0.05


Tree=63
num_leaves=12
num_cat=0
split_feature=25 10 56 40 53 25 0 56 33 19 35
split_gain=0.137177 0.21886 0.142395 0.17433 0.159764 0.117396 0.0741493 0.0397792 0.0624215 0.0259715 0.0233493
threshold=79.944537446385525 22.500000000000004 26.722044864679969 2.9422286620472211 81.248584000541342 82.220484315007369 0.70581670320594825 26.503054332778564 0.065498129951744227 23.505678354368275 -1.4469127482127468
decision_type=2 2 2 2 2 2 2 2 2 2 2
left_child=1 -1 3 7 -5 -6 9 8 -2 -7 -11
right_child=2 -3 -4 4 5 6 -8 -9 -10 10 -12
leaf_value=-0.0013839152578615632 -0.0019954877035372486 0.0022027239965745566 0.0011800031488140425 -0.0024460493205628528 0.0021631472754551281 -4.0529986159000771e-05 0.00099729991560591996 -0.0011687879814062177 -0.0048858833592385058 -0.00086316228420602991 -0.0026380720670290646
leaf_weight=61 49.5 140.5 112.5 63.5 66.5 41.5 71 41 30 45 31.5
leaf_count=28 32 32 35 37 25 25 36 20 19 29 20
internal_value=3.32693e-07 0.00111694 -0.00040727 -0.000813569 -0.000201536 0.000356298 -0.000279446 -0.0024338 -0.0030862 -0.00104766 -0.00159401
internal_weight=753.5 201.5 552 439.5 319 255.5 189 120.5 79.5 118 76.5
internal_count=338 60 278 243 172 135 110 71 51 74 49
is_linear=0
shrinkage=0.05


Tree=64
num_leaves=13
num_cat=0
split_feature=2 35 1 24 2 43 2 62 7 26 53 52
split_gain=0.14765 0.158945 0.131255 0.163494 0.162291 0.122651 0.147992 0.121984 0.0821085 0.0739131 0.0430174 0.0332517
threshold=962950.60235245991 3.1183510819330453 -0.95297903005573326 78.091959911703398 921832.63357570791 3308.8346008304748 954669.54912594671 3.5083613883365707 85.500000000000014 85.566326753513692 82.194450238430051 38.029343137888823
decision_type=2 2 2 2 2 2 2 2 2 2 2 2
left_child=1 2 -1 -4 -5 6 7 8 -6 11 -8 -9
right_child=-2 -3 3 4 5 -7 10 9 -10 -11 -12 -13
leaf_value=-0.00192554948365411 -0.002453300044131042 0.0028444577994592053 0.0024003293863389384 -0.0031016985420137646 0.00031238706536224412 0.0022834846766532531 -0.0033591229139881976 -0.00033090874237720581 0.0025062956661278816 0.0015371552389115096 -0.0009401097556110471 -0.0020776193155150895
leaf_weight=68.5 49.5 59.5 86 38 92 66.5 34 51 79.5 30 40 58.5
leaf_count=32 33 14 17 18 37 28 23 28 21 18 25 38
internal_value=0.000186182 0.000371903 0.00014346 0.000389728 3.64869e-05 0.000300609 -4.1888e-05 0.000436295 0.00132939 -0.000661666 -0.00205155 -0.00126408
internal_weight=753 703.5 644 575.5 489.5 451.5 385 311 171.5 139.5 74 109.5
internal_count=332 299 285 253 236 218 190 142 58 84 48 66
is_linear=0
shrinkage=0.05


Tree=65
num_leaves=12
num_cat=0
split_feature=63 43 19 2 53 52 8 52 11 52 2
split_gain=0.155621 0.147088 0.164724 0.0863066 0.0816113 0.0985642 0.0976147 0.0745445 0.0784964 0.026497 0.0226756
threshold=3310.4724566934597 3309.0497546487782 6.0324338762357206 932794.93961261341 80.85777991104095 34.223285118958152 62.500000000000007 71.113529737278057 1.0886994539333599 41.306786540456578 938171.89343862899
decision_type=2 2 2 2 2 2 2 2 2 2 2
left_child=1 2 3 -1 -4 -6 10 8 -8 -5 -7
right_child=-2 -3 4 9 5 6 7 -9 -10 -11 -12
leaf_value=0.0017222389252376314 -0.00277081077171412 0.0023993365547390405 -0.0023133358956053569 0.00044600314327648707 0.0011611981158449244 -0.0027894725792464757 0.00070386391541943328 0.0015824739399709201 -0.002312650418665086 -0.0012926647855137062 -0.0012817437609804697
leaf_weight=145.5 48 67 66 56 78 52.5 41 47.5 45.5 36 47.5
leaf_count=32 32 28 38 20 35 34 19 18 23 23 30
internal_value=-1.89649e-05 0.000174571 -6.76044e-05 0.00096432 -0.00071597 -0.000378065 -0.000891153 -8.9527e-06 -0.000882857 -0.000234345 -0.0020733
internal_weight=730.5 682.5 615.5 237.5 378 312 234 134 86.5 92 100
internal_count=332 300 272 75 197 159 124 60 42 43 64
is_linear=0
shrinkage=0.05


Tree=66
num_leaves=14
num_cat=0
split_feature=64 46 19 7 52 22 42 57 39 12 22 26 32
split_gain=0.164822 0.187104 0.178771 0.100224 0.142313 0.147205 0.0983768 0.073694 0.0470431 0.0394701 0.0271752 0.0157709 0.0110979
threshold=3309.0927249454858 3308.8346008304748 8.1236299674803512 158.00000000000003 34.223285118958152 36.64803032247989 3.6054696333144021 0.2373232619893367 3.3411869599414614 1.1797408292112277 36.64803032247989 83.392014104193024 0.24020203319530409
decision_type=2 2 2 2 2 2 2 2 2 2 2 2 2
left_child=1 2 6 4 5 -4 -1 -8 -2 10 12 -12 -6
right_child=8 -3 3 -5 9 -7 7 -9 -10 -11 11 -13 -14
leaf_value=-6.3704476726459387e-05 -0.0034806117958699669 0.0034799696897844911 -0.0012116378364361712 0.0018039636235369976 -0.0012875001123618512 0.0020905893532257966 0.00079774156501385529 0.002982953717634523 -0.00084000650156557447 -0.0032452895177098422 -0.0027441510781645775 -0.0013522465723786461 -0.00014146142200950314
leaf_weight=94 34.5 46 67 41.5 42 68 71 84.5 33 32.5 37.5 44.5 42.5
leaf_count=31 23 14 36 13 27 25 28 16 22 19 23 29 20
internal_value=0.000165462 0.000402377 0.000175866 -0.000513435 -0.000801375 0.000451706 0.00121327 0.0019852 -0.00218965 -0.00165146 -0.00134035 -0.00198879 -0.00071109
internal_weight=738.5 671 625 375.5 334 135 249.5 155.5 67.5 199 166.5 82 84.5
internal_count=326 281 267 192 179 61 75 44 45 118 99 52 47
is_linear=0
shrinkage=0.05


Tree=67
num_leaves=14
num_cat=0
split_feature=1 24 33 21 2 2 51 2 2 0 29 20 2
split_gain=0.117627 0.147377 0.114288 0.133553 0.132659 0.133771 0.0844199 0.0977338 0.0884486 0.0401655 0.036853 0.0403766 0.0082332
threshold=-0.95297903005573326 78.091959911703398 -3.3367432971413797 125.5349243674478 921832.63357570791 945355.08056551439 33.074090611606493 929389.48183021334 938171.89343862899 0.8542199457734333 26.626962117301598 42.083732370823945 962458.4493606576
decision_type=2 2 2 2 2 2 2 2 2 2 2 2 2
left_child=-1 -2 -3 4 -4 6 -6 -8 -9 10 11 -7 -13
right_child=1 2 3 -5 5 9 7 8 -10 -11 -12 12 -14
leaf_value=-0.0017695617233550389 0.0021709692251400256 -0.0027686414039943003 -0.002852877317927778 0.0025950468474012969 0.0020674171894238206 -0.0024938742343622905 0.0018200819265274774 -0.0025944228157585049 0.00075269631630220976 0.00057187100123290142 0.00012772054370533635 -0.0011930902227759363 -8.1793785696694006e-05
leaf_weight=79 88.5 35.5 40 51 101.5 58.5 52.5 40.5 38.5 46 45.5 37.5 30
leaf_count=36 21 24 18 20 32 37 18 27 16 21 22 20 20
internal_value=5.45517e-05 0.000271088 -2.03148e-05 0.000159862 -9.33379e-05 0.000151682 0.000984128 0.000147977 -0.000963232 -0.000740087 -0.00109198 -0.00153243 -0.000699181
internal_weight=744.5 665.5 577 541.5 490.5 450.5 233 131.5 79 217.5 171.5 126 67.5
internal_count=332 296 275 251 231 213 93 61 43 120 99 77 40
is_linear=0
shrinkage=0.05


Tree=68
num_leaves=14
num_cat=0
split_feature=13 14 30 54 52 34 60 29 8 11 12 34 31
split_gain=0.137343 0.164105 0.123346 0.117784 0.107223 0.144153 0.07887 0.0752242 0.0734818 0.0646251 0.035541 0.023848 0.00873543
threshold=0.41051150161235589 0.45268076351439396 26.196547445846708 83.551759528239458 33.951357420653402 -1.9088189198401515 0.91733434699893579 26.400135503829059 18.500000000000004 0.43088558202526489 0.074799554312592456 -2.0829590325646032 -0.60613205031570605
decision_type=2 2 2 2 2 2 2 2 2 2 2 2 2
left_child=4 -2 3 6 5 -1 11 -4 10 -10 12 -3 -6
right_child=1 2 7 -5 8 -7 -8 -9 9 -11 -12 -13 -14
leaf_value=-0.0011833704581831472 0.0027065898750796681 -0.0017600837641228468 5.3005891449346732e-05 0.00092103393198769603 -0.0017338038672907994 0.0024657180360518399 -0.0039361233453428937 0.0020640823754785771 -0.0038333430976396606 -0.00096518748905509715 0.00077533678440886442 8.1611615314614028e-05 -0.00063732086085057
leaf_weight=59 79 39 92.5 61 39 50 31.5 93.5 46.5 34 32 32 34
leaf_count=30 21 26 37 27 26 18 18 27 28 14 17 16 23
internal_value=7.7182e-05 0.000648492 0.000183285 -0.000818572 -0.000754079 0.000490523 -0.00185385 0.00106395 -0.00148541 -0.00262195 -0.000614062 -0.000930024 -0.00122311
internal_weight=723 428.5 349.5 163.5 294.5 109 102.5 186 185.5 80.5 105 71 73
internal_count=328 172 151 87 156 48 60 64 108 42 66 42 49
is_linear=0
shrinkage=0.05


Tree=69
num_leaves=14
num_cat=0
split_feature=21 23 62 14 42 25 58 30 30 30 52 25 37
split_gain=0.104903 0.195025 0.0903554 0.125805 0.143947 0.093283 0.0716345 0.0681266 0.0640671 0.0578972 0.0540882 0.0324684 0.0312537
