tree
version=v4
num_class=1
num_tree_per_iteration=1
label_index=0
max_feature_idx=86
objective=regression
feature_names=week_sin week_cos city_estimated_population city_area_m2 city_area_km2 city_pop_density n_barangays_reported city_dengue_cases_lag1 city_dengue_cases_lag2 city_dengue_cases_lag3 city_dengue_cases_lag4 city_incidence_10000_lag1 city_incidence_10000_lag2 city_incidence_10000_lag3 city_incidence_10000_lag4 target_log_incidence_city_lag1 target_log_incidence_city_lag2 target_log_incidence_city_lag3 target_log_incidence_city_lag4 city_area_weighted_rainfall_lag15 city_area_weighted_rainfall_lag18 city_area_weighted_rainfall_lag16 city_area_weighted_rainfall_lag17 city_area_weighted_rh_lag15 city_area_weighted_rh_lag16 city_area_weighted_rh_lag14 city_area_weighted_rh_lag17 city_area_weighted_temp_c_lag7 city_area_weighted_temp_c_lag6 city_area_weighted_temp_c_lag8 city_area_weighted_temp_c_lag5 city_area_weighted_u_component_of_wind_10m_lag1 city_area_weighted_u_component_of_wind_10m_lag2 city_area_weighted_u_component_of_wind_10m_lag3 city_area_weighted_u_component_of_wind_10m_lag4 city_area_weighted_v_component_of_wind_10m_lag1 city_area_weighted_v_component_of_wind_10m_lag3 city_area_weighted_v_component_of_wind_10m_lag2 city_area_weighted_v_component_of_wind_10m_lag4 city_area_weighted_wind_speed_10m_lag7 city_area_weighted_wind_speed_10m_lag6 city_area_weighted_wind_speed_10m_lag5 city_area_weighted_wind_speed_10m_lag4 city_area_weighted_pop_density_lag20 city_area_weighted_pop_density_lag19 city_area_weighted_pop_density_lag18 city_area_weighted_pop_density_lag17 city_pop_density_lag20 city_pop_density_lag19 city_pop_density_lag18 city_pop_density_lag17 city_area_weighted_rainfall_rollmean_lag1_w4 city_area_weighted_rainfall_rollmean_lag1_w8 city_area_weighted_rh_rollmean_lag1_w4 city_area_weighted_rh_rollmean_lag1_w8 city_area_weighted_temp_c_rollmean_lag1_w4 city_area_weighted_temp_c_rollmean_lag1_w8 city_area_weighted_u_component_of_wind_10m_rollmean_lag1_w4 city_area_weighted_u_component_of_wind_10m_rollmean_lag1_w8 city_area_weighted_v_component_of_wind_10m_rollmean_lag1_w4 city_area_weighted_v_component_of_wind_10m_rollmean_lag1_w8 city_area_weighted_wind_speed_10m_rollmean_lag1_w4 city_area_weighted_wind_speed_10m_rollmean_lag1_w8 city_area_weighted_pop_density_rollmean_lag1_w4 city_area_weighted_pop_density_rollmean_lag1_w8 city_area_weighted_flood_risk_index_rollmean_lag1_w4 city_area_weighted_flood_risk_index_rollmean_lag1_w8 city_area_weighted_percent_annual_crop_rollmean_lag1_w4 city_area_weighted_percent_annual_crop_rollmean_lag1_w8 city_area_weighted_percent_brush_shrubs_rollmean_lag1_w4 city_area_weighted_percent_brush_shrubs_rollmean_lag1_w8 city_area_weighted_percent_built_up_rollmean_lag1_w4 city_area_weighted_percent_built_up_rollmean_lag1_w8 city_area_weighted_percent_inland_water_rollmean_lag1_w4 city_area_weighted_percent_inland_water_rollmean_lag1_w8 city_area_weighted_percent_open_forest_rollmean_lag1_w4 city_area_weighted_percent_open_forest_rollmean_lag1_w8 city_area_weighted_percent_perennial_crop_rollmean_lag1_w4 city_area_weighted_percent_perennial_crop_rollmean_lag1_w8 city_area_weighted_percent_open_barren_rollmean_lag1_w4 city_area_weighted_percent_open_barren_rollmean_lag1_w8 city_area_weighted_percent_fishpond_rollmean_lag1_w4 city_area_weighted_percent_fishpond_rollmean_lag1_w8 city_area_weighted_percent_grassland_rollmean_lag1_w4 city_area_weighted_percent_grassland_rollmean_lag1_w8 city_area_weighted_percent_mangrove_forest_rollmean_lag1_w4 city_area_weighted_percent_mangrove_forest_rollmean_lag1_w8
feature_infos=[-1:1] [-1:1] [914211.7095180488:964143.50380609359] [290905052.4156:290905052.4156] [290.90505241559998:290.90505241559998] [3142.64637869529:3314.2893043627] [80:80] [0:214] [0:214] [0:214] [0:214] [0:2.3051543834180643] [0:2.3051543834180643] [0:2.3051543834180643] [0:2.3051543834180643] [0:1.1954831842907574] [0:1.1954831842907574] [0:1.1954831842907574] [0:1.1954831842907574] [0.0025243612881299211:403.77764092016611] [0.0025243612881299211:403.77764092016611] [0.0025243612881299211:403.77764092016611] [0.0025243612881299211:403.77764092016611] [74.166209495041301:88.154553662835738] [74.166209495041301:88.154553662835738] [74.166209495041301:88.154553662835738] [74.166209495041301:88.154553662835738] [24.337778836331829:27.857639391615468] [24.337778836331829:27.857639391615468] [24.337778836331829:27.857639391615468] [24.337778836331829:27.857639391615468] [-4.5717681780699149:4.4965446280041954] [-4.5717681780699149:4.4965446280041954] [-4.5717681780699149:4.4965446280041954] [-4.5717681780699149:4.4965446280041954] [-6.2680500182560719:5.1247667214851038] [-6.2680500182560719:5.1247667214851038] [-6.2680500182560719:5.1247667214851038] [-6.2680500182560719:5.1247667214851038] [1.39564484944224:6.8002328204854665] [1.39564484944224:6.8002328204854665] [1.39564484944224:6.8002328204854665] [1.39564484944224:6.8002328204854665] [3125.6331669833717:3314.2893043626991] [3126.4700955675198:3314.2893043626991] [3127.3084466892665:3314.2893043626991] [3128.1482241098088:3314.2893043626991] [3125.6331669833721:3314.2893043627] [3126.4700955675198:3314.2893043627] [3127.3084466892665:3314.2893043627] [3128.1482241098092:3314.2893043627] [0.066242600448727776:147.57175632940832] [0.48078482996758953:119.23124797939784] [76.04244385379063:86.610761977842287] [76.761170402338564:86.082735724126366] [24.635251946080103:27.639879393457701] [24.734571822108446:27.440794559836895] [-3.4486736035175789:3.6280013469861503] [-3.0815340340364679:3.131422920161175] [-4.48361272930451:3.4734894156434146] [-3.8559405516430854:3.0795858777581708] [1.7342058228275261:5.7925001460518359] [1.9506388693011207:5.3170040362056081] [3140.4885697881891:3314.1262969917143] [3138.7712235644044:3313.8757850504171] [0.39206069116144171:0.39206069116144171] [0.39206069116144171:0.39206069116144171] [8.8038756226411614:8.8038756226411614] [8.8038756226411614:8.8038756226411614] [25.626315570017983:25.626315570017983] [25.626315570017983:25.626315570017983] [21.033173411121368:21.033173411121368] [21.033173411121368:21.033173411121368] [1.2929350729991871:1.2929350729991871] [1.2929350729991871:1.2929350729991871] [3.9987213824765591:3.9987213824765591] [3.9987213824765591:3.9987213824765591] [38.056785261807292:38.056785261807292] [38.056785261807292:38.056785261807292] [0.095033994494272564:0.095033994494272564] [0.095033994494272564:0.095033994494272564] [0.13200358533077799:0.13200358533077799] [0.13200358533077799:0.13200358533077799] [0.92089829914606036:0.92089829914606036] [0.92089829914606036:0.92089829914606036] [0.040257799965338029:0.040257799965338029] [0.040257799965338029:0.040257799965338029]
tree_sizes=2844 3012 2994 3011 2942 3000 3022 3074 3083 3013 3010 3027 3030 3117 3038 3034 3047 3039 3083 3030 3139 3073 3069 3043 3029 3134 3138 3062 3092 3008 3090 3091 3125 3092 3129 3051 3092 3104 3050 3105 3132 3123 3166 3098 3094 3100 3149 3026 3044 3169 3063 3093 3120 3130 3067 3149 3105 3151 3173 3119 3154 3153 3102 3084 3171 3151 3107 3150 3170 3213 3128 3194 3122 3076 3180 3196 3178 3130 3176 3148 3132 3146 3169 3126 3230 3190 3182 3204 3176 3202 3250 3174 3297 3138 3186 3256 3236 3226 3212 3205 3163 3256 3284 3197 3184 3204 3161 3276 3164 3255 3284 3249 3260 3226 3241 3231 3265 3306 3275 3232 3275 3267 3222 3272 3229 3263 3246 3267 3270 3287 3247 3301 3300 3254 3354 3274 3234 3283 3263 3295 3222 3338 3280 3267 3320 3268 3202 3282 3370 3256 3253 3207 3273 3276 3286 3248 3245 3339 3320 3320 3316 3313 3349 3274 3279 3273 3331 3357 3282 3235 3275 3252 3307 3304 3254 3325 3272 3335 3268 3290 3266 3296 3269 3227 3270 3242 3288 3226 3268 3322 3292 3262 3305 3287 3327 3297 3266 3344 3236 3297 3358 3331 3291 3348 3302 3299 3322 3303 3282 3337 3332 3282 3266 3288 3306 3348 3298 3329 3306 3308 3257 3273 3248 3297 3330 3375 3299 3338 3308 3219 3305 3251 3321 3203 3261 3322 3296 3289 3313 3304 3328 3318 3334 3365 3314 3291 3317 3307 3276 3373 3306 3322 3325 3254 3258 3310 3373 3344 3321 3285 3347 3299 3280 3296 3355 3284 3334 3304 3326 3335 3278 3365 3309 3258 3268 3346 3299 3286 3317 3279 3322 3254 3225 3316 3266 3208 3274 3307 3277 3281 3267 3257 3339 3350 3248 3279 3357 3314 3339 3330 3312 3320 3361 3298 3295 3315 3340 3341 3343 3338 3334 3290 3282 3315 3342 3330 3304 3308 3355 3326 3248 3312 3277 3348 3339 3314 3285 3287 3315 3334 3304 3361 3303 3330 3375 3341 3328 3238 3318 3335 3366 3301 3289 3337 3303 3312 3270 3333 3367 3304 3307 3248 3366 3294 3311 3374 3304 3328 3328 3319 3269 3241 3313 3313 3303 3349 3369 3353 3271 3289 3301 3354 3373 3276 3321 3347 3378 3335 3326 3288 3308 3275 3331 3318 3347 3317 3360 3352 3321 3413 3291 3305 3353 3341 3305 3331 3280 3383 3348 3308

Tree=0
num_leaves=31
num_cat=0
split_feature=11 60 5 5 60 5 60 5 41 5 20 35 9 10 61 56 53 25 28 58 61 1 5 5 52 30 43 5 40 26
split_gain=34.3397 16.0557 7.13086 5.35137 3.54031 2.74197 2.58394 3.61117 1.25972 1.15816 1.1091 1.06613 0.919692 0.7738 0.5332 0.437055 0.413867 0.41379 0.383798 0.378114 0.357516 0.304248 0.271518 0.205845 0.203131 0.198718 0.179911 0.150059 0.13988 0.136052
threshold=0.20772776400975965 -2.0393823140004312 3193.3916691682093 3231.4213087515614 1.3978062458750338 3180.8701596458072 0.92989883946301011 3306.5106535805057 3.1834834102754166 3289.1987969798388 1.6961276662287725 -1.1152500177108708 126.50000000000001 76.500000000000014 4.8846964373799731 26.708129375423972 80.784256884674377 83.893094649632715 26.542079477990985 0.23048937477329126 3.4069765663147544 0.8542199457734333 3308.05924738356 3268.9561859208256 50.680222580770831 25.752680849026991 3310.4929918486882 3221.8523519539872 4.2750346779243946 82.050905102617406
decision_type=2 2 2 2 2 2 2 2 2 2 2 2 2 2 2 2 2 2 2 2 2 2 2 2 2 2 2 2 2 2
left_child=9 11 4 12 5 10 8 23 13 -1 -3 16 24 20 26 -6 -2 21 -7 -9 29 -10 25 28 -4 27 -11 -18 -8 -5
right_child=1 2 3 6 15 18 7 19 17 14 -12 -13 -14 -15 -16 -17 22 -19 -20 -21 -22 -23 -24 -25 -26 -27 -28 -29 -30 -31
leaf_value=0.56992018300539204 0.56036906231549344 0.58944447156170698 0.57526185095451587 0.5980784822149392 0.60199222741720948 0.60110722128462946 0.58824728209922961 0.57351897830748144 0.57644450909821532 0.55429990323405864 0.5714976680492978 0.5843782123257919 0.5872143781357958 0.58767177400720871 0.56967904137519865 0.60917531409062819 0.56812669077339639 0.59302169565272489 0.59325344234333877 0.56114779907661549 0.60346266923544678 0.58672271534665965 0.57635070503865216 0.58346231017566963 0.56817977956465093 0.5723424580183083 0.55841743238621 0.56233917167837433 0.59398816567607593 0.59292139817449929
leaf_weight=19.5 22 16.5 13.499999999999998 34 45 35 31.5 10.500000000000002 12.000000000000002 68 18 8.9999999999999982 8.9999999999999982 21.5 7.4999999999999991 40 24 13.999999999999998 28 14.999999999999998 24 18 8.9999999999999982 14.999999999999998 40.5 13.499999999999998 43.5 21 15.999999999999998 20.5
leaf_count=13 15 7 9 6 7 6 12 7 7 46 12 4 4 8 5 5 16 4 8 10 3 7 6 8 27 9 29 14 4 6
internal_value=0.580979 0.586354 0.590146 0.58534 0.597914 0.591412 0.588849 0.582099 0.592974 0.558625 0.580081 0.567974 0.572417 0.596076 0.556774 0.605373 0.566325 0.585924 0.597617 0.566242 0.598378 0.582611 0.568266 0.588569 0.56995 0.567022 0.555906 0.565426 0.590181 0.596139
internal_weight=714.5 576 477.5 295 182.5 97.5 232 88 144 138.5 34.5 98.5 63 100 119 85 89.5 44 63 25.5 78.5 30 67.5 62.5 54 58.5 111.5 45 47.5 54.5
internal_count=324 231 167 122 45 33 82 41 41 93 19 64 40 23 80 12 60 18 14 17 15 14 45 24 36 39 75 30 16 12
is_linear=0
shrinkage=1


Tree=1
num_leaves=31
num_cat=0
split_feature=11 58 2 52 61 56 56 7 52 2 29 2 27 11 41 38 61 8 2 2 54 41 19 34 43 55 35 56 57 14
split_gain=27.7717 14.3191 6.93117 5.21772 5.13916 4.02882 2.71996 1.57831 1.5616 1.2977 1.0645 0.703662 0.703216 0.628222 0.565762 0.576181 0.55782 0.470604 0.352721 0.341367 0.278519 0.20229 0.176151 0.153805 0.152353 0.120623 0.117432 0.108673 0.106638 0.104038
threshold=0.2033792574548334 -1.8351209175064496 928973.7709029183 43.446910398636774 3.3058023252116118 26.199842962592694 26.297376904455817 72.500000000000014 43.011265840179497 956844.54844074836 27.059166066575653 962292.19349260756 25.845213083595201 0.66509362536009664 2.640440933594197 0.49715838739399537 4.8846964373799731 98.500000000000014 962158.83840556152 955209.67514138867 82.891814717014739 3.165795616355719 28.149650470335313 -3.2362630255769105 3310.4929918486882 26.437906965199506 2.263610557972322 26.604876435178124 0.30592585904979397 0.25844653169689891
decision_type=2 2 2 2 2 2 2 2 2 2 2 2 2 2 2 2 2 2 2 2 2 2 2 2 2 2 2 2 2 2
left_child=9 4 6 14 -2 13 8 18 -3 29 22 12 19 -5 15 -4 24 -17 27 -6 -9 -10 -8 -14 -11 -12 -16 -7 -26 -1
right_child=1 2 3 5 11 7 10 20 21 16 25 -13 23 -15 26 17 -18 -19 -20 -21 -22 -23 -24 -25 28 -27 -28 -29 -30 -31
leaf_value=-0.0080149914787122686 0.011033423111405012 -0.007756995492511326 0.015577016710265866 0.018838230463174677 -0.016108488278430807 -0.013246075856307197 0.021709202660454646 0.002878606689739085 0.0081717296531706157 -0.025802072206465139 0.011355215492280754 -0.0025902515070305929 -0.015433443188667299 0.005332595723516801 0.0053694809393750303 0.010944073451192755 -0.011227424109044176 -0.0038474598030249284 -0.020679036776224773 -0.025552129227182141 -0.0083462134500344592 0.015739235281944274 0.026269421577453614 -0.0073860922207434968 -0.019177988553658511 0.016522311753240124 0.0096714427504612475 -0.0065491281946500144 -0.024639574325445928 -0.015117299755414327
leaf_weight=16.500000000000004 26.5 13.499999999999998 61.5 12.999999999999998 57 31.5 45 21.000000000000004 16.5 59.5 18.5 13.499999999999998 7.4999999999999991 25.5 45 19.000000000000004 8.9999999999999982 7.4999999999999991 16.5 11.499999999999998 7.4999999999999991 19 40 28.5 19.5 29 24.5 7.4999999999999991 16.5 7.4999999999999991
leaf_count=11 9 9 12 2 38 21 6 11 6 40 6 8 5 10 17 5 6 5 11 8 5 4 5 19 13 6 8 5 11 5
internal_value=0.000394256 0.00487129 0.00917199 0.00423858 -0.00886416 -0.00350075 0.0167827 -0.00963952 0.00671754 -0.0207192 0.020505 -0.0133327 -0.0147205 0.00989294 0.0102581 0.0129212 -0.0231272 0.00675779 -0.0145509 -0.0176939 -7.52933e-05 0.0122219 0.0238552 -0.00906262 -0.0242487 0.0145099 0.006886 -0.0119582 -0.0216812 -0.0102345
internal_weight=734.5 606 461.5 280 144.5 122.5 181.5 84 49 128.5 132.5 118 104.5 38.5 157.5 88 104.5 26.5 55.5 68.5 28.5 35.5 85 36 95.5 47.5 69.5 39 36 24
internal_count=327 241 154 112 87 65 42 53 19 86 23 78 70 12 47 22 70 10 37 46 16 10 11 24 64 12 25 26 24 16
is_linear=0
shrinkage=0.05


Tree=2
num_leaves=31
num_cat=0
split_feature=11 60 2 31 2 60 2 42 2 60 9 2 58 2 29 59 14 40 14 54 39 52 34 22 34 34 43 2 57 52
split_gain=28.6246 13.431 5.64523 4.27628 4.09941 2.45742 3.80517 1.13211 0.919764 0.897894 0.798705 0.740579 0.721429 0.632523 0.505706 0.499026 0.439907 0.428321 0.40648 0.401014 0.283239 0.236538 0.229258 0.19856 0.165174 0.161952 0.15381 0.143013 0.132588 0.124479
threshold=0.2033792574548334 -2.0393823140004312 928973.7709029183 -1.6590286954961271 940036.78519925964 0.45869085307750956 961880.65499257669 3.0806553575595674 956844.54844074836 1.9823782035412085 126.50000000000001 928148.96018355817 1.5478260210945634 962292.19349260756 27.287961061847913 -2.7544649181825269 0.74654972324811852 3.266047227595497 0.60145605406000846 81.995065745357877 2.176985533913069 57.227245576569977 -2.6201899419956303 0.46194489028380337 -2.929090332157462 -3.2362630255769105 3310.4929918486882 943388.74426462397 0.40940968045805576 58.398250903617772
decision_type=2 2 2 2 2 2 2 2 2 2 2 2 2 2 2 2 2 2 2 2 2 2 2 2 2 2 2 2 2 2
left_child=8 13 3 11 10 7 20 16 -1 12 21 24 14 19 23 -10 -6 -9 -8 -2 -7 -4 -19 -5 -3 -21 -17 -22 -28 -27
right_child=1 2 4 9 5 6 18 17 15 -11 -12 -13 -14 -15 -16 26 -18 22 -20 25 27 -23 -24 -25 -26 29 28 -29 -30 -31
leaf_value=-0.010022610291424726 -0.020390191238100937 -0.0023956793795029312 -0.0062244834808202892 0.012646000513008663 0.016322983411642223 0.011636509001255036 -0.019980410514054477 0.0093782678939575374 -0.010830108034941886 0.023049464821815493 0.005603607671542301 0.0087979435920715332 0.0054429970243397886 -0.0026575927933057148 0.0095972342633230748 -0.024503163725352117 0.0088265250969145979 0.0036302568184004881 -0.0086938290546337768 -0.016507846297639791 0.007545116206566835 -0.013231495117384291 -0.0066720600757333966 0.019119324699624796 -0.011650188929504816 -0.0087497030335821607 -0.018432512587192012 0.0026790219577147614 -0.024356760780016584 -0.014376934468746187
leaf_weight=18 20.5 7.5000000000000027 19.5 13.999999999999998 65 22 13.499999999999998 21.5 8.9999999999999982 48 8.9999999999999982 8.9999999999999982 17 13.499999999999998 21.5 69.5 28 13.500000000000002 19.5 16.5 29 31.5 8.9999999999999982 77 13.500000000000002 28.5 25.5 31.5 14.999999999999998 14.999999999999998
leaf_count=12 14 5 13 4 11 6 9 7 6 6 4 3 7 8 7 47 9 5 13 11 10 21 5 11 9 19 17 16 10 10
internal_value=0.000108971 0.00471998 0.00786412 0.0142574 0.00361897 0.00641055 0.0010384 0.0109396 -0.0205564 0.0172083 -0.00812895 -0.00320212 0.0150433 -0.0126732 0.016494 -0.0221498 0.014066 0.00433165 -0.0133111 -0.0143528 0.00677819 -0.0105523 -0.00049067 0.0181234 -0.00834501 -0.01229 -0.0230759 0.00501153 -0.0206267 -0.0106901
internal_weight=751 614 520 207.5 312.5 252.5 115.5 137 137 177.5 60 30 129.5 94 112.5 119 93 44 33 80.5 82.5 51 22.5 91 21 60 110 60.5 40.5 43.5
internal_count=335 243 181 52 129 91 54 37 92 35 38 17 29 62 22 80 20 17 22 54 32 34 10 15 14 40 74 26 27 29
is_linear=0
shrinkage=0.05


Tree=3
num_leaves=31
num_cat=0
split_feature=11 60 2 2 51 60 2 2 54 12 52 35 41 54 13 21 12 39 2 59 39 32 2 24 10 2 39 43 32 53
split_gain=21.4207 12.2995 4.70228 3.87639 2.60007 1.83218 3.39955 1.44857 1.30962 1.28855 0.987107 0.901915 0.568033 0.527983 0.463019 0.389168 0.365201 0.310398 0.27774 0.277463 0.270563 0.199912 0.181262 0.181092 0.161674 0.142446 0.128885 0.115976 0.12324 0.110297
threshold=0.2033792574548334 -2.0153340138581846 929389.48183021334 940036.78519925964 26.353517352959503 0.40255752334583139 961880.65499257669 956844.54844074836 82.621698969070152 0.25116168179190024 56.600278375360439 -1.1152500177108708 3.1834834102754166 81.995065745357877 0.3019032768669081 120.97514116331179 0.52903810792278938 3.6054696333144021 933230.64356323204 -2.6683908738673305 2.176985533913069 -0.32712274541307956 962331.14875402476 82.330328743894128 132.50000000000003 955209.67514138867 3.7841142929666023 3310.4929918486882 -1.3563926822281436 84.177631186939365
decision_type=2 2 2 2 2 2 2 2 2 2 2 2 2 2 2 2 2 2 2 2 2 2 2 2 2 2 2 2 2 2
left_child=7 11 4 18 17 9 20 -1 14 -5 -10 13 21 25 -6 26 -8 -3 -4 -9 -7 -11 -15 29 -22 -2 -14 -21 -29 -12
right_child=1 2 3 5 8 6 16 19 10 12 23 -13 15 22 -16 -17 -18 -19 -20 27 24 -23 -24 -25 -26 -27 -28 28 -30 -31
leaf_value=-0.006943123854164567 -0.016431849382140415 -0.010202274152210778 -0.0040839324498342143 -0.0074118207607950489 0.012249368647249735 0.011054683408953927 -0.020451196886244277 -0.012834359043174322 -0.0023085300569181092 0.010227208792052248 0.012886009404533789 0.0029278764966875316 0.0057955428026616575 -0.012260971864064536 0.020766577455732557 0.013925043206948502 -0.0091582518567641571 0.0024518061325781875 -0.011639785846074424 -0.0232188413392252 0.0027087155878782656 0.015534729716625621 -0.0046515646804538039 0.016028344134489694 0.0083842436053060201 -0.023680926405865214 -0.00084616360919816157 -0.013997363845507305 -0.021200861742621976 0.0071505506336688998
leaf_weight=21 16.500000000000004 10.500000000000002 18 10.499999999999998 20.5 22 10.499999999999998 8.9999999999999982 13.499999999999998 28.5 19 8.9999999999999982 24 60 72 12.999999999999998 22.5 8.9999999999999982 37.5 67 39 47 8.9999999999999982 24 18.5 11.499999999999998 10.499999999999998 7.4999999999999991 28.5 14.999999999999998
leaf_count=14 11 7 12 6 6 6 7 6 7 8 5 4 8 40 9 3 15 5 25 45 19 8 6 4 6 8 6 5 19 5
internal_value=-0.000864346 0.00321556 0.00658768 0.00274683 0.0128984 0.00543972 0.00073914 -0.0189938 0.0149507 0.00940088 0.00986864 -0.0122135 0.0108361 -0.0136183 0.018879 0.00655229 -0.0127515 -0.00436193 -0.00918924 -0.0212534 0.00633901 0.0135312 -0.0112684 0.012703 0.00453476 -0.0194091 0.00377415 -0.021989 -0.0197001 0.0103557
internal_weight=724 591 485 301.5 183.5 246 112.5 133 164 133.5 71.5 106 123 97 92.5 47.5 33 19.5 55.5 112 79.5 75.5 69 58 57.5 28 34.5 103 36 34
internal_count=335 246 177 129 48 92 53 89 36 39 21 69 33 65 15 17 22 12 37 75 31 16 46 14 25 19 14 69 24 10
is_linear=0
shrinkage=0.05


Tree=4
num_leaves=31
num_cat=0
split_feature=7 60 2 2 60 2 31 31 53 2 2 9 2 9 54 59 40 7 2 7 58 27 62 30 55 22 2 52 32 62
split_gain=19.9092 12.3261 4.80394 3.11205 2.27641 2.98273 2.20207 1.50504 1.21129 1.04414 0.818764 0.764162 0.643974 0.610555 0.582747 0.5451 0.399229 0.88415 0.36936 0.246881 0.237206 0.228525 0.213919 0.187585 0.180873 0.164412 0.141253 0.140029 0.133726 0.127393
threshold=18.500000000000004 -2.0393823140004312 928973.7709029183 940036.78519925964 0.7461143902971078 961880.65499257669 -2.020420213456505 0.24020203319530409 83.219622397322539 956844.54844074836 926125.34723596147 126.50000000000001 928148.96018355817 85.500000000000014 82.028553152098894 -2.7544649181825269 3.266047227595497 32.500000000000007 962292.19349260756 50.500000000000007 -0.21072125080142359 25.877456609025867 3.1055105036013977 25.752680849026991 26.536087930525984 36.866235266014769 937253.12732049881 60.899853664317867 -1.2122241015704507 2.8461277144272334
decision_type=2 2 2 2 2 2 2 2 2 2 2 2 2 2 2 2 2 2 2 2 2 2 2 2 2 2 2 2 2 2
left_child=9 14 6 11 7 24 12 16 13 28 -10 27 -3 22 -2 -11 25 -18 23 -7 -9 -19 29 26 -6 -5 -16 -4 -1 -8
right_child=1 2 3 4 5 19 8 20 10 15 -12 -13 -14 -15 18 -17 17 21 -20 -21 -22 -23 -24 -25 -26 -27 -28 -29 -30 -31
leaf_value=-0.011029764009570632 -0.018920962671016128 -0.0096925005937616021 -0.0060017814771050502 0.011204364871392486 0.0090463189035654059 -0.0184916458748005 0.014922230518781221 0.018175769174421156 -4.5479570205012963e-05 -0.0067333732545375828 0.013211400219888397 0.0048209237012391297 0.0080005185471640691 0.022101632257302606 -0.010206690231959026 -0.020711778561074534 -0.011590962857007982 0.010043021525655475 -0.0024184590412510767 -0.009374358211502884 0.011522485528673444 0.002707760465434856 0.018025658745318651 -0.0069142495310216242 0.0035102594126429827 0.0052299032742912713 -0.015642053093395981 -0.011272794031907642 -0.0031614694951309103 0.0094940950842322541
leaf_weight=13.500000000000002 23.5 12.000000000000002 21 30.5 25 13.500000000000002 26 37 18 7.4999999999999991 33 11.999999999999998 8.9999999999999982 48 22.5 99.5 8.9999999999999982 17.5 13.499999999999998 16.5 21 27 32 16.5 36 18.5 25.5 31.5 8.9999999999999982 18.5
leaf_count=9 16 8 14 8 8 9 5 5 9 5 7 5 3 6 15 67 6 5 8 11 5 11 5 11 16 7 17 21 6 6
internal_value=0.000142613 0.00390018 0.0070529 0.00323557 0.00574839 -0.000569086 0.0131917 0.00933025 0.0150227 -0.0176732 0.0085325 -0.00656247 -0.00210978 0.0176813 -0.0120187 -0.019732 0.0056881 0.00270175 -0.00993919 -0.0134771 0.0157668 0.00559241 0.0149077 -0.0115133 0.00577914 0.0089487 -0.0130942 -0.00916439 -0.00788245 0.0126656
internal_weight=743.5 614 512.5 316 251.5 91 196.5 160.5 175.5 129.5 51 64.5 21 124.5 101.5 107 102.5 53.5 78 30 58 44.5 76.5 64.5 61 49 48 52.5 22.5 44.5
internal_count=334 247 180 131 91 44 49 47 38 87 16 40 11 22 67 72 37 22 51 20 10 16 16 43 24 15 32 35 15 11
is_linear=0
shrinkage=0.05


Tree=5
num_leaves=31
num_cat=0
split_feature=11 60 2 52 62 31 19 2 60 62 53 58 7 7 41 2 1 21 2 61 2 2 2 10 7 18 36 43 52 10
split_gain=19.9541 10.1521 4.15887 3.40152 2.8967 2.2438 1.32873 1.12714 1.12299 0.711435 0.695719 0.648002 0.619187 0.535683 0.515833 0.488148 0.322256 0.301251 0.299343 0.295814 0.276854 0.250771 0.195089 0.18879 0.160464 0.158881 0.18817 0.134712 0.133019 0.121347
threshold=0.2033792574548334 -1.914843992749804 928973.7709029183 43.446910398636774 3.1266024939560855 -2.020420213456505 16.13854113560712 956844.54844074836 1.9823782035412085 3.9629543366216438 82.984422834421821 -1.718366142962827 168.00000000000003 70.000000000000014 2.640440933594197 928148.96018355817 0.17992617227144031 16.622184172326957 962169.12626338971 4.8846964373799731 962331.14875402476 955209.67514138867 940036.78519925964 34.500000000000007 104.50000000000001 0.53253393534994242 -1.0314015720681946 3310.4929918486882 59.431895733458155 36.500000000000007
decision_type=2 2 2 2 2 2 2 2 2 2 2 2 2 2 2 2 2 2 2 2 2 2 2 2 2 2 2 2 2 2
left_child=7 9 5 11 18 15 13 -1 10 22 23 -4 16 -6 25 -3 -12 -8 28 27 21 29 -2 -7 -19 -13 -27 -9 -5 -11
right_child=1 2 3 4 6 8 17 19 -10 20 12 14 -14 -15 -16 -17 -18 24 -20 -21 -22 -23 -24 -25 -26 26 -28 -29 -30 -31
leaf_value=-0.0074386597848406025 -0.0078758603205815649 -0.0071288876235485066 -0.005597333187858264 -0.0060689659263843147 0.014819172413452812 0.012664830002155323 0.0010522714505592982 -0.021272120552678263 0.022058658003807071 -0.016559850948828239 0.0073047988427182037 0.013856888668877737 0.014566356937090555 0.0041408449033042416 0.0059201457440194345 0.0076004928184880156 -0.0031973956596283689 -0.01263868047131432 -0.019187922113471562 -0.009520241568485896 -0.0044283138277630011 -0.020862409046718055 0.0012113485623289038 0.017555806785821915 -0.0031969303084123466 0.012815486391385397 0.005232855002395809 -0.017564362011573933 -0.011428257692278478 -0.011110565243732363
leaf_weight=25.5 10.500000000000002 15.000000000000002 7.4999999999999991 19.5 23 33.5 19.5 62 40 13.499999999999998 24 49 24 24 59 8.9999999999999982 10.499999999999998 9.0000000000000018 8.9999999999999982 7.4999999999999991 8.9999999999999982 10.499999999999998 13.499999999999998 48 8.9999999999999982 18 14.999999999999998 40.5 28.5 42
leaf_count=17 7 10 5 13 4 8 9 42 5 9 8 8 4 10 21 3 6 6 6 5 6 7 6 7 6 4 6 27 19 28
internal_value=0.000401206 0.00435682 0.00728552 0.00343775 -0.00210969 0.0127554 0.00376592 -0.0169101 0.0146702 -0.0102571 0.0125592 0.00872369 0.00839889 0.00936641 0.00948544 -0.00160537 0.00410848 -0.00325337 -0.01082 -0.0191057 -0.0126548 -0.0137766 -0.00276431 0.0155454 -0.00791781 0.0120507 0.00936884 -0.0198071 -0.00925105 -0.0124361
internal_weight=728.5 593 494 290 141.5 204 84.5 135.5 180 99 140 148.5 58.5 47 141 24 34.5 37.5 57 110 75 66 24 81.5 18 82 33 102.5 48 55.5
internal_count=322 231 168 117 73 51 35 91 38 63 33 44 18 14 39 13 14 21 38 74 50 44 13 15 12 18 10 69 32 37
is_linear=0
shrinkage=0.05


Tree=6
num_leaves=31
num_cat=0
split_feature=11 60 2 38 2 60 2 60 2 41 2 9 53 51 33 25 39 1 27 35 10 51 43 1 60 26 2 52 59 60
split_gain=19.5755 10.2874 3.91507 3.07042 2.98382 2.24551 2.08903 0.982601 1.08874 0.84417 0.837061 0.689729 0.628953 0.626428 0.584416 0.492268 0.420051 0.354713 0.309019 0.276893 0.222837 0.196078 0.196049 0.202106 0.171346 0.161124 0.143422 0.142246 0.141614 0.108644
threshold=0.2033792574548334 -2.0393823140004312 928973.7709029183 -1.0314015720681946 940036.78519925964 0.92989883946301011 961880.65499257669 1.8603922292787018 925331.20051898144 3.1834834102754166 956844.54844074836 126.50000000000001 81.595280362444186 42.862113778282286 -2.2640955905877669 83.012033833764036 3.2258072858786435 0.8542199457734333 26.897867124443611 -1.1152500177108708 79.500000000000014 72.871606277715046 3309.9943345711004 0.8542199457734333 -1.1437269442245477 81.99238715822294 955209.67514138867 57.227245576569977 -2.6305705531875749 0.8407402222188628
decision_type=2 2 2 2 2 2 2 2 2 2 2 2 2 2 2 2 2 2 2 2 2 2 2 2 2 2 2 2 2 2
left_child=10 12 3 24 11 9 25 8 13 14 -1 27 26 -5 -6 17 -16 -11 -18 28 -8 -10 -12 -24 -3 -7 -2 -4 -14 -23
right_child=1 2 4 7 5 6 20 -9 21 15 22 -13 19 -15 16 -17 18 -19 -20 -21 -22 29 23 -25 -26 -27 -28 -29 -30 -31
leaf_value=-0.0081280448163549117 -0.013643703593148128 -0.010396305436179748 -0.0051214177885817161 -0.0080310737921131959 0.018671968082586924 0.0024103238517283535 -0.015157965819040931 0.019014351523440817 0.016964982490281801 -0.0079671541672377329 -0.020117709172122619 0.004562175180763006 -0.01159673007550063 0.0080518493705706018 0.012229571367303531 0.0089548500776290892 -7.7086848517258952e-05 0.0040150976181030276 0.010455242257851821 0.00050533438722292589 -0.0064960202823082618 0.014098090755528418 -0.017487471743866247 -0.0092039886448118426 -0.001363411998110158 0.0074432449573177406 -0.020507711301679197 -0.010604485372702283 -0.0067620269576276568 0.0093078568577766429
leaf_weight=24 22.5 10.500000000000002 18 9.0000000000000018 24 34.5 16.500000000000004 69 37 10.500000000000002 68 11.999999999999998 27 18.5 60 25 15.000000000000002 14.999999999999998 12.999999999999998 8.9999999999999982 13.499999999999998 29 40.5 8.9999999999999982 10.499999999999998 29.5 11.499999999999998 34.5 34.5 20
leaf_count=16 15 7 12 6 3 16 11 9 5 7 46 5 18 6 12 7 7 6 3 4 9 5 27 6 6 10 8 23 23 6
internal_value=0.000165877 0.00394589 0.00680008 0.0122255 0.00336056 0.00577791 -0.000373094 0.0143089 0.0114483 0.00933604 -0.0166371 -0.00625262 -0.0103797 0.00278835 0.0117559 0.00396916 0.00986973 -0.000918771 0.00481292 -0.00768587 -0.0112601 0.0142175 -0.0183752 -0.0159814 -0.00587986 0.00473019 -0.0159654 -0.00872458 -0.00888458 0.0121429
internal_weight=770.5 629 524.5 203.5 321 256.5 94 182.5 113.5 162.5 141.5 64.5 104.5 27.5 112 50.5 88 25.5 28 70.5 30 86 117.5 49.5 21 64 34 52.5 61.5 49
internal_count=344 249 181 50 131 91 46 37 28 45 95 40 68 12 25 20 22 13 10 45 20 16 79 33 13 26 23 35 41 11
is_linear=0
shrinkage=0.05


Tree=7
num_leaves=31
num_cat=0
split_feature=11 59 43 31 43 0 43 62 7 43 43 54 39 1 54 41 41 27 7 23 43 0 30 30 61 43 14 35 22 12
split_gain=15.1229 8.40379 3.35906 2.8302 2.74628 1.51094 2.39379 1.15393 1.15046 1.05888 0.593881 0.581917 0.531535 0.366533 0.318311 0.310054 0.299371 0.254027 0.223763 0.209161 0.176431 0.164511 0.158087 0.145691 0.144707 0.104083 0.14579 0.0965123 0.0883512 0.0841664
threshold=0.2033792574548334 -1.9309018399379774 3185.4366870976887 -2.020420213456505 3219.2442832380034 0.91023613416931248 3307.1649520452461 3.9629543366216438 62.500000000000007 3276.8113486328571 3175.9429618147383 82.621698969070152 3.2258072858786435 -0.060268340127661524 81.917320235080936 3.4732032409926874 2.7378464010304899 26.2371001320579 140.50000000000003 83.726969031987281 3309.2863768953666 -0.060268340127661565 26.496596708899233 25.454081813926887 4.5396063121841719 3233.5861703595915 1.2060631094769143 0.14770887514273282 29.215153529517746 0.43248996670865331
decision_type=2 2 2 2 2 2 2 2 2 2 2 2 2 2 2 2 2 2 2 2 2 2 2 2 2 2 2 2 2 2
left_child=9 7 3 17 21 6 12 19 29 27 11 -5 16 -13 -9 -10 -6 -3 -12 -2 23 -4 28 -16 -11 -24 -27 -1 -14 -8
right_child=1 2 4 10 5 -7 8 14 15 24 18 13 22 -15 20 -17 -18 -19 -20 -21 -22 -23 25 -25 -26 26 -28 -29 -30 -31
leaf_value=-0.008560433932062652 0.0025977233880096011 -0.0099754793776406156 -0.009711078057686489 0.013953972716061842 0.011185202899017956 0.015873264649818683 -0.018899217579099861 -0.016866428679541537 -0.0048340288235340263 -0.01804774630493319 0.019840066134929658 0.0086725050956010831 0.0021895636261130367 -0.0030947400463951962 -0.013128164857625963 0.0053321538368860883 0.004985993407797395 0.0015013562639554342 0.014545131685598843 -0.0070438679059346525 -0.0036057369581179786 -0.0037687162351277143 0.0072793084642161499 -0.0083137961725393943 -0.010842995047569276 0.0061710099577903729 -0.0018208456181344531 -0.0022190247972806295 -0.0047283039304117369 -0.012309892972310384
leaf_weight=18.000000000000004 22.500000000000004 13.500000000000002 33 52.5 61.5 29 9.0000000000000018 19 15.000000000000002 98.5 32 25 12.000000000000002 8.9999999999999982 30 14.999999999999998 28.5 7.4999999999999991 53 7.4999999999999991 10.499999999999998 18 23 33 7.4999999999999991 12.500000000000002 10.499999999999998 8.9999999999999982 7.4999999999999991 10.499999999999998
leaf_count=12 9 9 22 10 13 5 6 13 10 66 4 7 6 5 20 5 11 4 8 5 7 12 7 22 5 4 6 6 5 7
internal_value=-3.23126e-05 0.003349 0.00634618 0.0114489 0.00289963 0.00519101 0.00367986 -0.0083339 -0.00589646 -0.0152863 0.0135704 0.0106537 0.00672827 0.00555765 -0.0110975 0.000249063 0.00922212 -0.00587661 0.0165385 0.000187326 -0.00960626 -0.00761377 0.00330161 -0.0106064 -0.017538 0.00490093 0.00252255 -0.00644663 -0.000471155 -0.0153511
internal_weight=733 600 477.5 192.5 285 234 205 122.5 49.5 133 171.5 86.5 155.5 34 92.5 30 90 21 85 30 73.5 51 65.5 63 106 46 23 27 19.5 19.5
internal_count=331 242 166 47 119 85 80 76 28 89 34 22 52 12 62 15 24 13 12 14 49 34 28 42 71 17 10 18 11 13
is_linear=0
shrinkage=0.05


Tree=8
num_leaves=31
num_cat=0
split_feature=11 60 2 2 31 60 2 14 60 2 60 9 40 53 62 55 7 7 25 60 2 52 43 1 41 31 52 52 25 33
split_gain=14.9819 8.35747 3.38453 2.11214 1.82581 1.41158 2.09967 0.847442 0.825837 0.782284 0.599454 0.552706 0.458856 0.427285 0.430406 0.402834 0.334682 0.263617 0.219739 0.217853 0.192224 0.183152 0.161681 0.174852 0.156843 0.147754 0.144613 0.110344 0.103129 0.0964654
threshold=0.2033792574548334 -2.0393823140004312 928973.7709029183 940036.78519925964 -2.020420213456505 0.45869085307750956 961880.65499257669 0.12711434721294632 1.8603922292787018 956844.54844074836 -2.0153340138581846 126.50000000000001 3.4795703851050992 80.784256884674377 3.9629543366216438 26.437906965199506 168.00000000000003 79.500000000000014 83.859184163549614 -1.1437269442245477 950955.87060959765 49.030708459620833 3309.9943345711004 0.91023613416931248 2.8083868674224184 -0.67908263635381738 88.804301360694623 57.227245576569977 81.001093754463511 -3.3455563013229841
decision_type=2 2 2 2 2 2 2 2 2 2 2 2 2 2 2 2 2 2 2 2 2 2 2 2 2 2 2 2 2 2
left_child=9 13 4 11 19 7 20 -5 15 25 -9 27 24 -2 -15 16 21 -8 -14 -3 28 -6 -11 -24 -12 -1 29 -4 -7 -16
right_child=1 2 3 5 8 6 17 10 -10 22 12 -13 18 14 26 -17 -18 -19 -20 -21 -22 -23 23 -25 -26 -27 -28 -29 -30 -31
leaf_value=-0.0093778520596749845 -0.014958611186945215 -0.0096628254486454818 -0.004141547257701556 -0.013149454361862607 -0.0040011921400825165 0.0080623157700334767 -0.01404260251766596 0.022184062004089358 0.017211032259291499 -0.018253967143539201 0.011169133444919307 0.0042391015449538827 -0.0018150619886539603 0.001100691951190432 -0.01195582460474085 0.012711446694398332 0.011813194863498211 -0.0042159476406162695 0.0063239491566322572 0.001875465512275696 0.00037632725305027434 0.0054222450563401886 -0.015755240466350167 -0.0074190276364485431 0.006722777210442084 -0.00091391483942667654 -0.015083561672104728 -0.009278339719858723 0.0039365315104886471 -0.0071176477541997178
leaf_weight=16.500000000000004 26.5 9.0000000000000018 14.999999999999998 4.4999999999999991 7.5000000000000027 34.5 19.500000000000004 7.9999999999999991 69 66.5 68 11.999999999999998 13.499999999999998 11.999999999999998 13.499999999999998 59 15.999999999999998 10.499999999999998 21.5 7.4999999999999991 18 16.5 39 7.4999999999999991 28 7.4999999999999991 8.9999999999999982 34.5 27 43.5
leaf_count=11 18 6 10 3 5 10 13 1 9 45 13 5 7 6 9 12 3 7 7 4 10 6 26 5 9 5 6 23 11 29
internal_value=-4.29592e-06 0.00338425 0.00607688 0.00292291 0.0114532 0.00494313 0.000667689 0.00820558 0.0130119 -0.0149312 0.00889693 -0.00538791 0.0080855 -0.00947338 -0.00760981 0.0100853 0.00621173 -0.0106033 0.00318462 -0.00441815 0.00492088 0.00247742 -0.0166724 -0.0144107 0.00987228 -0.00673287 -0.00919354 -0.00772174 0.006251 -0.00826353
internal_weight=740.5 603.5 499 314.5 184.5 253 109.5 143.5 168 137 139 61.5 131 104.5 78 99 40 30 35 16.5 79.5 24 113 46.5 96 24 66 49.5 61.5 57
internal_count=334 242 174 129 45 91 51 40 35 92 37 38 36 68 50 26 14 20 14 10 31 11 76 31 22 16 44 33 21 38
is_linear=0
shrinkage=0.05


Tree=9
num_leaves=31
num_cat=0
split_feature=11 62 2 58 2 38 2 2 10 7 2 56 9 7 52 41 2 22 2 10 43 1 1 35 19 26 7 55 29 2
split_gain=13.5736 6.9771 3.31543 1.94207 1.57515 1.2474 1.26803 1.04327 0.902113 0.633676 0.618995 0.505351 0.500042 0.402328 0.364618 0.355709 0.349572 0.312587 0.279205 0.208505 0.173455 0.207315 0.152261 0.14763 0.142397 0.125187 0.121201 0.0999422 0.0904517 0.0602653
threshold=0.2033792574548334 3.7815401355956637 928973.7709029183 -1.5648858871065972 939567.13312223961 0.51343108758051603 961880.65499257669 926525.69250022632 41.500000000000007 33.500000000000007 956844.54844074836 25.757276753448725 126.50000000000001 158.00000000000003 43.011265840179497 3.1834834102754166 962292.19349260756 0.82917849802664789 955209.67514138867 79.500000000000014 3309.9943345711004 0.8542199457734333 0.8542199457734333 0.14770887514273282 1.322293722441823 82.330328743894128 42.500000000000007 26.681630686798794 26.619113666687305 937711.37344917352
decision_type=2 2 2 2 2 2 2 2 2 2 2 2 2 2 2 2 2 2 2 2 2 2 2 2 2 2 2 2 2 2
left_child=10 2 7 16 12 9 24 8 17 -6 23 -11 27 -9 -10 28 18 -2 22 -8 -12 -22 29 -1 -7 -5 -24 -4 -13 -3
right_child=1 3 4 25 5 6 19 13 14 11 20 15 -14 -15 -16 -17 -18 -19 -20 -21 21 -23 26 -25 -26 -27 -28 -29 -30 -31
leaf_value=-0.0095419528132135202 0.0054939978270103105 -0.0093983699602109422 -0.0088833856440725788 0.00084336295611027511 -0.0015547636529487192 0.0080666156191574901 -0.013379259407520293 0.017111838050186633 -0.0061046852074839435 0.018210899829864503 -0.017418058996017165 0.01144592589453647 0.004752972296306065 0.010616845912054966 0.0055161531600687241 0.0035011889511775795 -0.0014772645585859816 0.012484132789430164 -0.017838074072547581 -0.0048140551305065555 -0.015053997476895651 -0.0066036384966638361 -0.012174492677052812 -0.0010815759499867759 0.0020926406961821373 0.0068337676392213722 -0.0048350820566217109 -0.003521183552220464 0.0075734671801328665 -0.012694815899196424
leaf_weight=16.500000000000004 23 27 31.5 16.5 16.5 19 13.500000000000002 64 13.500000000000002 12.999999999999998 65 38 10.499999999999998 38 13.499999999999998 33 11.999999999999998 52.5 11.499999999999998 14.999999999999998 37.5 8.9999999999999982 7.5000000000000027 7.4999999999999991 21 18.5 22.5 11.999999999999998 25 28.5
leaf_count=11 8 18 21 8 8 5 9 8 9 2 44 7 4 8 5 13 7 10 8 10 25 6 5 5 9 6 15 8 7 19
internal_value=0.000103388 0.00334847 0.006399 -0.00623737 0.00251256 0.00461489 -0.000811966 0.0111121 0.0075496 0.00757697 -0.0141822 0.00895929 -0.00504027 0.0146921 -0.000294266 0.00770647 -0.00952772 0.0103547 -0.0105237 -0.00887126 -0.0157501 -0.0134184 -0.00953984 -0.00689809 0.00493028 0.00400972 -0.00666993 -0.00740416 0.00990924 -0.0110911
internal_weight=732 596.5 452.5 144 248 194 68.5 204.5 102.5 125.5 135.5 109 54 102 27 96 109 75.5 97 28.5 111.5 46.5 85.5 24 40 35 30 43.5 63 55.5
internal_count=328 237 151 86 103 70 33 48 32 37 91 29 33 16 14 27 72 18 65 19 75 31 57 16 14 14 20 29 14 37
is_linear=0
shrinkage=0.05


Tree=10
num_leaves=31
num_cat=0
split_feature=11 60 2 2 38 60 2 31 2 2 30 13 28 20 39 40 59 11 59 28 54 8 58 25 26 23 34 58 8 58
split_gain=10.848 6.7492 2.1222 1.55133 1.4904 1.34295 1.66141 0.821221 0.674637 0.591909 0.321345 0.320548 0.306488 0.416164 0.268674 0.296724 0.249033 0.217815 0.216862 0.176392 0.171966 0.167468 0.162655 0.130861 0.123663 0.123155 0.120968 0.115979 0.127334 0.104631
threshold=0.2033792574548334 -2.0393823140004312 928973.7709029183 940036.78519925964 -1.0314015720681946 0.7461143902971078 961880.65499257669 0.24020203319530409 956844.54844074836 926525.69250022632 25.752680849026991 1.4914903461594331 27.208485342135102 4.5378365343910128 3.3265898062048991 2.3915490880342021 -2.7544649181825269 1.3103024546497144 -1.9124450085416786 26.041798935394443 81.339103534901554 79.500000000000014 -0.21072125080142359 82.17842235173373 81.99238715822294 81.250708720332213 2.2438138792093194 -2.4337946010816363 44.500000000000007 -2.157238220135524
decision_type=2 2 2 2 2 2 2 2 2 2 2 2 2 2 2 2 2 2 2 2 2 2 2 2 2 2 2 2 2 2
left_child=8 10 4 11 18 7 24 14 -1 12 20 -4 13 19 23 -16 -10 -11 -3 -6 -2 -8 -9 -5 26 -17 -7 28 -22 -12
right_child=1 2 3 5 9 6 21 22 16 17 29 -13 -14 -15 15 25 -18 -19 -20 -21 27 -23 -24 -25 -26 -27 -28 -29 -30 -31
leaf_value=-0.005635482752147843 -0.01481467034135546 0.0025869019501399064 -0.006828352571304503 0.0030473276972770693 0.011219034024647304 0.0044539964713511014 -0.013270062290959887 0.014005706761334395 -0.0067614305764436729 0.017188164591789245 -0.0061682337274154009 0.0043641209105650591 0.011942062666639686 -0.0031673758867241091 0.0077612595311526596 -0.0058079836683140864 -0.015463698482827137 0.012017027714422771 -0.0072524725769956902 0.0048473645084434087 -0.0044462323964883886 -0.0053244454608786674 0.0084962726703711935 0.0089173353742808114 0.0062588525047669041 0.0010504696663701906 -0.0014249829854816199 -0.012019549575116899 -0.010278059695011532 0.0013600390404462815
leaf_weight=25.5 17.5 10.500000000000002 43.5 13.499999999999998 21 21 18.000000000000004 37 8.9999999999999982 32 12.000000000000002 7.4999999999999991 32 10.499999999999998 14.499999999999998 8.9999999999999982 95 56 11.999999999999998 22.5 18 10.499999999999998 21 32 32.5 24 14.999999999999998 22.5 19.5 7.4999999999999991
leaf_count=17 12 5 29 5 4 8 12 5 6 4 8 3 6 6 4 5 64 9 8 8 12 7 5 8 11 11 9 15 13 4
internal_value=0.000185857 0.00305114 0.00541225 0.00275955 0.00944866 0.00439278 -0.000197896 0.00734175 -0.0129236 0.0110145 -0.00900999 -0.0051824 0.00806458 0.00576681 0.0044298 0.00179953 -0.0147106 0.0138974 -0.00266076 0.00792334 -0.0104536 -0.0103427 0.0120109 0.00717568 0.00402295 -0.000820018 0.00200442 -0.00918157 -0.00747878 -0.00327274
internal_weight=722 592.5 495.5 299 196.5 248 97 151 129.5 174 97 51 86 54 93 47.5 104 88 22.5 43.5 77.5 28.5 58 45.5 68.5 33 36 60 37.5 19.5
internal_count=323 236 172 122 50 90 47 43 87 37 64 32 24 18 33 20 70 13 13 12 52 19 10 13 28 16 17 40 25 12
is_linear=0
shrinkage=0.05


Tree=11
num_leaves=31
num_cat=0
split_feature=15 59 2 31 2 38 2 7 53 2 24 8 52 40 9 8 1 36 43 32 10 54 2 2 9 52 45 59 52 51
split_gain=11.0413 6.43752 1.98367 2.11943 1.64024 1.10073 1.33374 0.759793 0.697296 0.63948 0.393675 0.38187 0.342691 0.293053 0.251705 0.241877 0.289565 0.237879 0.197194 0.235544 0.193079 0.176094 0.125127 0.128453 0.122862 0.188735 0.116628 0.104924 0.103928 0.0922821
threshold=0.18513353210718517 -1.9840607440304763 928973.7709029183 -2.020420213456505 939567.13312223961 0.49715838739399537 961880.65499257669 26.500000000000004 82.984422834421821 956844.54844074836 80.16674856449238 126.50000000000001 97.224291893986091 3.3492171246125397 85.500000000000014 177.00000000000003 0.29696027566504685 -0.75905709839643631 3309.9943345711004 -1.8449236654071812 79.500000000000014 81.995065745357877 962331.14875402476 930227.53123000462 62.500000000000007 43.873483164072717 3308.4968492937901 1.0418013618241069 57.227245576569977 42.862113778282286
decision_type=2 2 2 2 2 2 2 2 2 2 2 2 2 2 2 2 2 2 2 2 2 2 2 2 2 2 2 2 2 2
left_child=9 10 3 17 11 7 24 -6 14 -1 -2 28 13 -9 29 16 27 -3 -11 -20 -8 -12 23 -23 -7 -26 -15 -10 -4 -5
right_child=1 2 4 8 5 6 20 12 15 18 21 -13 -14 26 -16 -17 -18 -19 19 -21 -22 22 -24 -25 25 -27 -28 -29 -30 -31
leaf_value=-0.0052013649659998279 0.00065468804289897284 -0.0090660054485003135 -0.0036440760324088239 0.012725276152292889 -0.004257518476030479 0.0072875501478419594 -0.012010320723056791 0.0093671480824119181 0.0040418679993122052 -0.015767495815570538 -0.013060787501858502 0.0043770639314537957 0.014739622530483066 7.0948843602780928e-07 0.015186547022312881 0.011231129368146261 -0.0032862262153584097 0.0018399441242218019 -0.0049317455007916412 -0.01336861550807953 -0.0039878677204251292 -0.0054963353105510274 -0.0023046906002693705 -0.010123303060730299 0.0050338156468101919 -0.0016696820873767137 0.006514097377657891 0.0091962261497974401 -0.0081097643103515884 0.0088796558403051815
leaf_weight=25.5 11.999999999999998 15.000000000000002 24 30 11.999999999999998 25.5 15.000000000000002 73.5 19.5 65 20.5 10.499999999999998 21 13.500000000000002 64 21 8.9999999999999982 7.4999999999999991 10.499999999999998 39 14.999999999999998 22.5 8.9999999999999982 45 35 14.999999999999998 13.999999999999998 20 28.5 32.5
leaf_count=17 5 10 16 5 7 7 10 16 7 44 14 4 3 6 8 3 5 4 7 26 10 15 6 30 12 9 4 5 19 8
internal_value=0.000339078 0.00316154 0.00547336 0.0091035 0.00285126 0.00473959 0.000919412 0.00774727 0.010772 -0.012362 -0.00788852 -0.00432741 0.00892807 0.00771973 0.0129825 0.00674847 0.00480752 -0.00543069 -0.0139567 -0.011579 -0.00799909 -0.00894541 -0.00784259 -0.00858098 0.00446319 0.00302277 0.00331662 0.00665167 -0.00606831 0.0107256
internal_weight=770 630 521 218.5 302.5 239.5 105.5 134 196 140 109 63 122 101 126.5 69.5 48.5 22.5 114.5 49.5 30 97 76.5 67.5 75.5 50 27.5 39.5 52.5 62.5
internal_count=342 248 178 55 123 84 48 36 41 94 70 39 29 26 21 20 17 14 77 33 20 65 51 45 28 21 10 12 35 13
is_linear=0
shrinkage=0.05


Tree=12
num_leaves=31
num_cat=0
split_feature=7 60 2 31 2 0 2 0 53 2 62 2 53 10 7 51 2 59 8 51 54 59 2 35 30 2 53 29 52 43
split_gain=10.196 5.3144 1.69916 1.64079 1.45804 0.870371 1.039 0.806307 0.649132 0.54246 0.509857 0.425981 0.372723 0.367201 0.333945 0.245768 0.238046 0.198721 0.197517 0.168985 0.153534 0.146617 0.134972 0.134763 0.110653 0.102054 0.0918491 0.0799241 0.0768535 0.0760511
threshold=18.500000000000004 -2.0393823140004312 928973.7709029183 -2.020420213456505 940036.78519925964 0.91023613416931248 961880.65499257669 0.12053668025532312 83.219622397322539 956844.54844074836 2.9422170356239454 928148.96018355817 81.972671127705837 168.00000000000003 168.00000000000003 42.862113778282286 939567.13312223961 -2.7544649181825269 50.500000000000007 54.532815563646473 80.294843735472128 1.9306240496059897 955209.67514138867 -1.1152500177108708 26.311808233893327 935442.80915255286 79.581629734408395 26.998891771075833 43.873483164072717 3310.4929918486882
decision_type=2 2 2 2 2 2 2 2 2 2 2 2 2 2 2 2 2 2 2 2 2 2 2 2 2 2 2 2 2 2
left_child=9 12 3 11 13 6 10 18 15 26 -6 -3 22 25 19 -5 -14 -11 -8 -10 -12 28 -2 -18 -17 -4 -1 -23 -22 -19
right_child=1 2 4 8 5 -7 7 -9 14 17 20 -13 16 -15 -16 24 23 29 -20 -21 21 27 -24 -25 -26 -27 -28 -29 -30 -31
leaf_value=-0.008367945409069457 -0.0093424444673237978 -0.0071845527531372161 -0.0044956791717263439 0.015305852020780246 0.0085419524117564486 0.012611127978768842 -0.013307051857312516 0.0041583998817140647 -0.0042328709953774989 -0.0060864737464321993 -0.0023921510670334104 0.0061380700104766428 -0.0076917799396647351 0.0041582106834366214 0.010214523474375408 0.0072304136838231767 -0.0039789286442100998 -0.014832328423096317 -0.0048763915247312106 0.0045104351959058221 0.0033845464481661717 0.0042298439030463882 -0.015810770573823348 0.0035144929670625265 0.011795191548087381 -0.0093497862418492634 -0.0023559317820601995 0.0092911393596575818 -0.00086385726956932833 -0.012099180030234066
leaf_weight=12.000000000000002 27 18.000000000000004 31.5 48 70.5 29 12.000000000000002 23 7.5000000000000027 8.9999999999999982 11.999999999999998 8.9999999999999982 36 10.499999999999998 24 17.5 18.000000000000004 68.5 16.5 21 30 19.5 11.499999999999998 8.9999999999999982 55 16.5 13.499999999999998 12.999999999999998 16.5 40.5
leaf_count=8 18 12 21 6 15 5 8 8 5 6 7 3 24 4 4 5 12 46 11 7 11 7 8 4 8 11 9 3 9 27
internal_value=0.000178463 0.00303335 0.00514893 0.00871995 0.00277221 0.0044846 0.00337817 -0.00280586 0.0105091 -0.0117981 0.00535016 -0.00274368 -0.00739866 -0.00431152 0.00586897 0.0125307 -0.00503007 -0.0132272 -0.00842614 0.00220957 0.0028774 0.00367784 -0.0112745 -0.00148112 0.0106933 -0.00616428 -0.00518511 0.00625436 0.00187705 -0.0138168
internal_weight=745.5 602 500.5 200 300.5 242 213 51.5 173 143.5 161.5 27 101.5 58.5 52.5 120.5 63 118 28.5 28.5 91 79 38.5 27 72.5 48 25.5 32.5 46.5 109
internal_count=332 236 170 50 120 84 79 27 35 96 52 15 66 36 16 19 40 79 19 12 37 30 26 16 13 32 17 10 20 73
is_linear=0
shrinkage=0.05


Tree=13
num_leaves=31
num_cat=0
split_feature=11 60 2 32 30 52 62 60 2 7 54 53 2 62 7 2 33 60 31 51 24 51 35 2 1 2 30 57 30 54
split_gain=8.67442 4.58739 2.08168 1.14773 1.05416 1.85487 0.763046 0.592678 0.461391 0.376184 0.333124 0.316031 0.30873 0.295518 0.272574 0.23167 0.230903 0.23208 0.224929 0.19179 0.171972 0.156049 0.155981 0.124902 0.0907544 0.0889769 0.099471 0.0710711 0.062525 0.0606912
threshold=0.2033792574548334 -2.0393823140004312 928973.7709029183 -1.6869189462821887 25.404540521349904 43.446910398636774 3.1266024939560855 1.8603922292787018 956844.54844074836 51.500000000000007 81.995065745357877 82.743350202450046 926125.34723596147 3.9629543366216438 87.500000000000014 962169.12626338971 -0.63578948377227518 0.1998995861850727 -1.97628140319721 21.327470110424734 83.691066077760311 46.297582687174462 -3.8496854317603497 951479.22542921815 -0.35460488704253562 962331.14875402476 25.752680849026991 -2.4029458101882644 26.897867124443611 82.242090335656272
decision_type=2 2 2 2 2 2 2 2 2 2 2 2 2 2 2 2 2 2 2 2 2 2 2 2 2 2 2 2 2 2
left_child=8 10 3 18 -4 16 15 11 24 -8 -2 -5 -13 -12 -11 29 19 -18 -3 -6 28 -9 -10 -19 -1 26 27 -15 -21 -7
right_child=1 2 4 7 5 6 9 21 22 14 13 12 -14 25 -16 -17 17 23 -20 20 -22 -23 -24 -25 -26 -27 -28 -29 -30 -31
leaf_value=-0.0022570337893234355 -0.012542675790332615 -0.0050397569257201562 0.011901558376848698 0.0098613868951797495 -0.0053263847529888154 -0.010245586236317952 -0.0090970312555631004 0.015891461446881295 -0.0057230542848507567 0.0082509733163393471 0.0017624334044133623 -0.00038631287140723992 0.0076435261676388415 -0.0074281766794729934 -7.0308168407207659e-05 -0.014247352878252665 0.0095470309257507328 0.0056791091466733131 0.0047867543555589189 0.0031969046820369031 -0.0035408338516329727 0.011206984482705594 -0.013185626865139506 0.00043200167516867325 -0.0087390013453033238 -0.0024587804362887428 -0.0038984596729278566 -0.011895453681548429 0.0075525044248654291 -0.0053754308164633557
leaf_weight=13.500000000000002 21 16.500000000000004 24 62.5 7.4999999999999991 7.4999999999999991 8.9999999999999982 32 7.4999999999999991 12.999999999999998 11.999999999999998 19.5 31 34.499999999999993 40.5 10.499999999999998 34 46.5 8.9999999999999982 22.5 7.4999999999999991 40 105.5 14.999999999999998 8.9999999999999982 10.499999999999998 14.999999999999998 12.000000000000005 12.999999999999998 43.5
leaf_count=9 14 10 5 12 5 5 6 4 5 3 6 9 8 23 21 7 6 14 4 9 5 6 71 7 6 7 10 8 3 29
internal_value=5.43263e-05 0.0025982 0.00457712 0.00837284 0.00185944 0.000966807 -0.00353007 0.00974356 -0.0113884 0.00036067 -0.00691008 0.00748454 0.0045429 -0.00550193 0.00195169 -0.00748407 0.00478607 0.00623202 -0.00157158 0.00205166 0.00333853 0.013289 -0.0126903 0.00439933 -0.00484982 -0.00671266 -0.00743893 -0.00858102 0.00479191 -0.00609163
internal_weight=745 609.5 504.5 210.5 294 270 124 185 135.5 62.5 105 113 50.5 84 53.5 61.5 146 95.5 25.5 50.5 43 72 113 61.5 22.5 72 61.5 46.5 35.5 51
internal_count=337 246 178 53 125 120 71 39 91 30 68 29 17 54 24 41 49 27 14 22 17 10 76 21 15 48 41 31 12 34
is_linear=0
shrinkage=0.05


Tree=14
num_leaves=31
num_cat=0
split_feature=11 60 5 31 0 52 11 5 0 53 5 62 5 62 10 51 19 35 5 60 61 53 54 59 39 5 35 56 19 60
split_gain=8.07505 4.23085 1.54309 1.29519 1.2264 1.32334 0.698298 0.553684 0.475749 0.412876 0.398798 0.338257 0.322494 0.308231 0.217986 0.198587 0.162768 0.161647 0.141408 0.14036 0.12317 0.105057 0.110798 0.104987 0.100964 0.0985436 0.0954754 0.0928109 0.0895174 0.0653515
threshold=0.2033792574548334 -2.0393823140004312 3193.3916691682093 -2.020420213456505 0.91023613416931248 43.718045250080898 0.5359401920929372 3184.976282833858 0.51639395938746258 82.984422834421821 3289.1987969798388 2.8600679640582656 3190.5563429594999 4.0082834369245868 81.500000000000014 46.297582687174462 16.13854113560712 -1.1152500177108708 3215.6292968612229 0.52390707544476434 3.5333594682500764 81.632330168818896 85.244151509081746 -2.5382234025003378 3.4844122103934638 3270.7552430883611 2.0349094071469005 26.072173408357077 4.1101628205839971 -1.3938269524849773
decision_type=2 2 2 2 2 2 2 2 2 2 2 2 2 2 2 2 2 2 2 2 2 2 2 2 2 2 2 2 2 2
left_child=10 13 3 12 5 8 18 9 19 28 -1 -8 29 17 -11 -9 -13 -2 -7 20 24 -15 -23 -12 -4 -21 -17 -18 -5 -3
right_child=1 2 4 7 -6 6 11 15 -10 14 23 16 -14 21 -16 26 27 -19 -20 25 -22 22 -24 -25 -26 -27 -28 -29 -30 -31
leaf_value=-0.0053441000317602802 -0.0047326474278061468 -0.0094432938098907432 0.0093866299641759774 0.010348603975625686 0.012606254678506118 -0.0032089290164765863 -0.0060009971416244909 0.015732744832833611 -0.0050236457648376621 0.0044886523374804751 -0.0069982363738947456 0.0041348282803795235 0.0056603780223263636 -0.011320479959249497 -0.0044966464299553387 0.0088196818716824062 0.0018492199342559881 0.0044224993636210767 -0.0099966224348335946 0.0046701500893965983 0.0032724142456666016 -0.0059875498747541797 -0.011729988597688222 -0.012647241166748927 0.0050328800693245201 -0.00032968670129776003 0.012274305522441865 -0.0040137492353096603 0.0060253993115004373 -0.0034936096053570505
leaf_weight=27 13.500000000000002 7.5000000000000027 38 40.5 26 10.499999999999998 18 24 11.999999999999998 27 8.9999999999999982 33.5 8.9999999999999982 21 8.9999999999999982 40 13.500000000000002 7.4999999999999991 28.5 36.5 19.5 42 10.499999999999998 95.5 20.5 13.499999999999998 40 13.499999999999998 17 12.000000000000002
leaf_count=18 9 5 7 7 4 7 12 3 8 9 6 12 3 14 6 7 6 3 19 12 7 28 7 64 6 7 5 9 5 8
internal_value=0.000467004 0.00291154 0.00471376 0.00779564 0.00225696 0.00121198 -0.00270059 0.00923352 0.00449574 0.00644143 -0.0107611 1.62758e-05 -0.00216858 -0.00680523 0.00224233 0.0117437 0.00180654 -0.00146295 -0.00816917 0.00538819 0.00671382 -0.00833159 -0.00713604 -0.0121607 0.00786096 0.00332019 0.010547 -0.00108226 0.00907044 -0.00578195
internal_weight=735.5 604 509.5 226 283.5 257.5 117.5 197.5 140 93.5 131.5 78.5 28.5 94.5 36 104 60.5 21 39 128 78 73.5 52.5 104.5 58.5 50 80 27 57.5 19.5
internal_count=323 235 174 58 116 112 65 42 47 27 88 39 16 61 15 15 27 12 26 39 20 49 35 70 13 19 12 15 12 13
is_linear=0
shrinkage=0.05


Tree=15
num_leaves=31
num_cat=0
split_feature=11 57 2 2 37 38 2 2 33 53 2 52 59 8 34 61 39 7 21 51 56 42 9 55 52 41 53 23 32 57
split_gain=6.26997 4.19638 1.25761 1.3411 0.938074 0.91959 0.702347 0.459334 0.401233 0.321575 0.313889 0.306558 0.25224 0.226428 0.208058 0.193139 0.175503 0.153665 0.130628 0.123769 0.117863 0.111103 0.102212 0.100023 0.0954887 0.0930834 0.0915322 0.0838689 0.107417 0.0708367
threshold=0.20772776400975965 -1.7839426942849206 931930.23322438437 940036.78519925964 -1.2850513174677645 0.49715838739399537 961880.65499257669 956844.54844074836 -2.2640955905877669 82.265808785472942 926525.69250022632 47.361696018854737 0.67876493521231451 38.500000000000007 -0.18012097135475183 4.8846964373799731 3.7622581532872812 142.00000000000003 120.97514116331179 50.963512272040241 26.493595855493027 4.4277492088291082 44.500000000000007 25.274508433465083 63.099155350500013 2.8083868674224184 79.581629734408395 77.198052938926139 0.76874855022332189 1.4152197151009394
decision_type=2 2 2 2 2 2 2 2 2 2 2 2 2 2 2 2 2 2 2 2 2 2 2 2 2 2 2 2 2 2
left_child=7 4 10 24 9 8 21 26 -5 22 12 16 -3 19 25 -9 -6 -12 -13 -11 -8 29 -2 -15 -4 -10 -1 -14 -29 -7
right_child=1 2 3 5 11 6 20 15 14 13 17 18 27 23 -16 -17 -18 -19 -20 -21 -22 -23 -24 -25 -26 -27 -28 28 -30 -31
leaf_value=-0.0067967285436612568 -0.0059682511621051365 -0.00039343704228047969 -0.0023733670498724238 0.01296546757221222 -0.0081140617529551172 0.0041148678958415992 -0.0038063128375344802 -0.012103564002662125 0.008086947817355394 -0.004034826556398044 0.012101298198103905 0.001761244684457779 0.0099140596232916191 -0.0066964704543352131 0.0013334645457299694 -0.0044450132797161741 0.00073746687266975643 0.0080571942436306384 0.0080568742293577935 -0.010979023124232438 -0.010869520902633668 0.0059104191337494144 -0.011079630255699158 -0.0015203794131853753 -0.0072013627806747403 0.0039572981966508403 -0.00079509464946265021 0.0079946153439008263 0.0029699130604664489 -0.00038391620231171452
leaf_weight=13.500000000000002 13.499999999999998 13.499999999999998 16.5 24 10.500000000000002 14.999999999999998 13.500000000000002 96.5 52 10.500000000000002 48 22.5 19 11.999999999999998 21 8.9999999999999982 11.999999999999998 46 12.999999999999998 16.5 10.499999999999998 23.5 35.5 42 27 18.5 11.999999999999998 26 18 21
leaf_count=9 9 6 11 3 7 5 9 65 11 7 6 9 3 8 9 6 7 9 3 11 7 7 24 25 18 6 8 6 7 11
internal_value=-8.2913e-05 0.00207754 0.00489641 0.00258288 -0.00411496 0.00432134 0.000323838 -0.00999463 0.0072113 -0.00647409 0.00818691 0.00117275 0.00580881 -0.00453992 0.00570201 -0.0114502 -0.00339325 0.0101223 0.00406669 -0.0082785 -0.00689647 0.00323623 -0.00967139 -0.00267062 -0.00537005 0.00700328 -0.00397243 0.00713787 0.00593906 0.00149058
internal_weight=732 601 413 242.5 188 199 83.5 131 115.5 130 170.5 58 76.5 81 91.5 105.5 22.5 94 35.5 27 24 59.5 49 54 43.5 70.5 25.5 63 44 36
internal_count=332 244 134 97 110 68 39 88 29 84 37 26 22 51 26 71 14 15 12 18 16 23 33 33 29 17 17 16 13 16
is_linear=0
shrinkage=0.05


Tree=16
num_leaves=31
num_cat=0
split_feature=11 55 56 25 7 7 7 27 53 2 2 2 55 20 61 1 42 40 43 23 54 2 12 8 37 2 1 40 28 38
split_gain=5.98129 2.92959 1.21904 1.49685 0.771228 0.428306 0.427403 0.413181 0.389423 0.32137 0.294015 0.239396 0.211259 0.210325 0.177052 0.170474 0.145779 0.142503 0.128062 0.126185 0.124441 0.10276 0.088295 0.0873442 0.0836174 0.0832008 0.0799042 0.0693124 0.0614467 0.0631549
threshold=0.2033792574548334 25.652556357512296 26.701755312415468 80.284586817689288 62.500000000000007 104.50000000000001 42.500000000000007 26.087397481927457 81.355055098821438 956844.54844074836 940036.78519925964 962292.19349260756 26.957126891657818 60.57046667816789 3.8003542461649564 -0.61559370248597534 2.9671201162615302 4.4605356575958988 3309.9943345711004 80.992337158018515 83.91435385342227 937253.12732049881 1.9459962616855193 23.500000000000004 -0.28925884511594069 962169.12626338971 -0.1799261722714405 2.7378464010304899 26.257138352237916 -0.50369860283019618
decision_type=2 2 2 2 2 2 2 2 2 2 2 2 2 2 2 2 2 2 2 2 2 2 2 2 2 2 2 2 2 2
left_child=9 11 3 6 7 12 -3 8 -5 24 15 21 19 17 26 -10 -15 22 -11 -4 -20 -2 28 -14 -1 -9 -8 -25 29 -6
right_child=1 2 5 4 13 -7 14 25 10 18 -12 -13 23 16 -16 -17 -18 -19 20 -21 -22 -23 -24 27 -26 -27 -28 -29 -30 -31
leaf_value=-0.0067562315302590508 -0.0055665484378262173 -0.00013175400905311108 0.0048603141393799053 -0.009553488521348864 0.001872852444648742 0.011639079451560974 0.010265548096762764 -0.0061904984797971942 0.0017846241891384127 -0.012199773375804608 0.0055850118671248597 -0.00044287263105312986 0.0097084600478410735 -0.0053913803564177619 0.0031834582487742106 -0.0063187021072264055 0.001268260203124512 0.0057944430173307235 -0.010030285775661469 -0.00089849841004858424 -0.0034833039001872148 -0.0093846746906638152 0.0059733581136573455 0.0074782745492073801 -0.00038070318599541983 -0.011565364400545758 0.0070801811133112229 0.0036109446875146919 0.0023717968314789081 -0.0034369655884802343
leaf_weight=12.000000000000002 31.5 20 26 10.499999999999998 10.500000000000002 40 45 36 12.499999999999998 65 20.5 13.499999999999998 24 13.499999999999998 16.5 13.500000000000002 21 34.5 37.5 14.999999999999998 8.9999999999999982 40 10.999999999999998 31 8.9999999999999982 8.9999999999999982 35 18.5 36 11.999999999999998
leaf_count=8 21 9 8 7 5 5 6 24 6 44 6 8 4 9 6 9 9 10 25 9 6 27 3 6 6 6 8 7 15 8
internal_value=-8.83932e-05 0.00204616 0.00347458 0.00186879 -0.000384568 0.00718502 0.00652058 -0.00368392 -0.000856378 -0.0096979 0.00110749 -0.00654955 0.00562902 0.00204528 0.00789931 -0.00242287 -0.00133769 0.00316751 -0.0107666 0.00275343 -0.00876313 -0.00770256 0.0018635 0.00723309 -0.00402386 -0.00726547 0.00887195 0.00603291 0.0010907 -0.000959051
internal_weight=729 596.5 511.5 357 240.5 154.5 116.5 102 57 132.5 46.5 85 114.5 138.5 96.5 26 34.5 104 111.5 41 46.5 71.5 69.5 73.5 21 45 80 49.5 58.5 22.5
internal_count=330 241 185 146 117 39 29 58 28 89 21 56 34 59 20 15 18 41 75 17 31 48 31 17 14 30 14 13 28 13
is_linear=0
shrinkage=0.05


Tree=17
num_leaves=31
num_cat=0
split_feature=11 58 43 52 56 36 56 1 51 0 43 61 43 21 41 43 7 43 54 24 28 52 0 54 36 9 55 41 31 23
split_gain=5.83654 3.13783 1.17403 1.18901 0.940628 0.759989 0.491089 0.48398 0.458947 0.290998 0.286624 0.221368 0.198956 0.198551 0.157538 0.157186 0.155419 0.148822 0.192338 0.140018 0.103713 0.0984479 0.0981179 0.0926014 0.0834748 0.079097 0.0756217 0.0530485 0.0494661 0.0455523
threshold=0.2033792574548334 -1.8351209175064496 3182.686774595812 43.446910398636774 26.06542795608134 -1.1936314476195076 26.649853383516525 0.12053668025532312 54.532815563646473 -0.61559370248597534 3309.0497546487782 2.1373671774017158 3276.8113486328571 111.7373090046509 2.640440933594197 3271.356748631234 96.500000000000014 3309.9943345711004 84.198450079261548 81.085201783446422 26.714875967121369 54.821718290459195 0.40966402954315223 81.753842768425258 0.17914639560589377 28.500000000000004 26.60193671306974 2.176985533913069 2.5774123418880199 78.42243288282215
decision_type=2 2 2 2 2 2 2 2 2 2 2 2 2 2 2 2 2 2 2 2 2 2 2 2 2 2 2 2 2 2
left_child=12 5 7 11 19 10 16 9 -9 23 15 -4 29 20 24 22 25 -14 -19 -5 -7 -8 -2 -3 -13 -6 -11 -26 -16 -1
right_child=1 2 3 4 6 13 21 8 -10 26 -12 14 17 -15 28 -17 -18 18 -20 -21 -22 -23 -24 -25 27 -27 -28 -29 -30 -31
leaf_value=-0.0020259249707063032 -0.0035987575197699096 0.012427887320518494 -0.0057391150130165951 0.0016464024543380127 -0.011906951467196147 -0.0031949271476178452 -0.0011214453372217358 -0.0050582031408945719 0.0063822908550500868 0.0024989757122415488 -0.00018002324427167577 0.0082139562131190776 -0.011743801070825899 0.0066934422518198314 0.0023389296573845461 -0.013101174002108369 -0.0016180840631326038 -0.009654113213221233 -0.0015147120872926381 0.007299080669879914 0.0038962788103769222 0.0054458651095628738 -0.0077845736510223813 0.0091068001067052123 0.0028448541558557944 -0.0064075905770319061 0.0070222946859541391 0.0065974659286439424 0.005440284982323647 -0.0067254961440057466
leaf_weight=7.5000000000000027 18 32 4.4999999999999991 19.5 7.4999999999999991 16.500000000000004 10.500000000000002 13.499999999999998 25 16.5 14.999999999999998 49 68.5 12.999999999999998 36 11.499999999999998 16.5 37.5 8.9999999999999982 25 7.4999999999999991 12.499999999999998 63 61 15.499999999999998 51 21 24 20 16.5
leaf_count=5 12 4 3 7 5 11 7 9 6 6 8 9 46 4 14 8 9 25 6 6 3 4 42 9 6 34 5 5 6 11
internal_value=-0.000158541 0.00196417 0.00398126 0.00205898 -0.00120637 -0.00446401 -0.00394377 0.00729692 0.00237069 0.00875026 -0.00659135 0.00518188 -0.00939768 0.00171677 0.00552198 -0.00763102 -0.00590384 -0.0102618 -0.00807875 0.00482206 -0.000978925 0.00244775 -0.00685439 0.0102495 0.00683523 -0.00711264 0.00503203 0.00512492 0.00344656 -0.00525688
internal_weight=744 605 460.5 291.5 142.5 144.5 98 169 38.5 130.5 107.5 149 139 37 144.5 92.5 75 115 46.5 44.5 24 23 81 93 88.5 58.5 37.5 39.5 56 24
internal_count=335 242 154 115 72 88 59 39 15 24 70 43 93 18 40 62 48 77 31 13 14 11 54 13 20 39 11 11 20 16
is_linear=0
shrinkage=0.05


Tree=18
num_leaves=31
num_cat=0
split_feature=14 60 2 38 0 19 8 59 38 28 55 51 41 53 7 61 2 35 57 13 25 14 2 36 54 34 38 51 14 34
split_gain=4.9946 2.94056 0.853655 0.858356 0.821375 0.68079 0.47054 0.387902 0.290401 0.331521 0.282551 0.24632 0.265906 0.211029 0.184921 0.145273 0.144807 0.138933 0.131456 0.102754 0.0989569 0.0922001 0.0816494 0.075486 0.0736452 0.0681754 0.060157 0.0589536 0.0541279 0.0500092
threshold=0.12711434721294632 -2.0393823140004312 928560.26477547444 -1.0314015720681946 0.91023613416931248 16.13854113560712 70.000000000000014 1.799030145796487 0.49715838739399537 26.952093981577637 26.784558032526352 34.525293087879469 2.2991646225503706 81.595280362444186 67.500000000000014 3.2105840624546507 939099.76960135193 -1.8569548467184862 -1.1631631805035478 0.12942988769842789 80.768090756697276 0.36340616186025182 955209.67514138867 0.49715838739399537 82.605297391818951 -2.7081510700363727 -0.79289168989527992 37.158053713266739 0.44035879389678595 -2.4302874606723255
decision_type=2 2 2 2 2 2 2 2 2 2 2 2 2 2 2 2 2 2 2 2 2 2 2 2 2 2 2 2 2 2
left_child=19 13 3 25 5 8 10 11 18 14 -7 -5 23 22 -10 24 21 29 26 -1 -17 -15 -2 -13 -8 -3 -4 -20 -14 -18
right_child=1 2 4 7 -6 6 15 -9 9 -11 -12 12 28 16 -16 20 17 -19 27 -21 -22 -23 -24 -25 -26 -27 -28 -29 -30 -31
leaf_value=-0.010358422751408167 -0.0070288133585736864 -0.0012235428206622597 0.0047178602715333296 -0.00079614522832411314 0.009950963992240101 -0.0057940900577483955 0.0012558633944502581 0.010694973846828496 -0.0066356947714531871 0.0050037303141185216 0.0021546864549496342 -0.0011421875229903626 0.0066569780981218492 -0.010116669819468543 0.00067916481057181963 0.0050651179850101473 -0.00081430057063698732 0.0031166499037118185 0.0086649339578368442 -0.0051500385272360985 0.0010039825836817423 -0.0047373329430367012 -0.012070834980561183 0.004280924548705419 -0.0036294724895722338 -0.007678209824694528 -0.00021663581331570945 0.0053758483518052992 0.0093998908996582031 -0.0060189452332754913
leaf_weight=96.5 21 7.5000000000000027 15.000000000000002 13.499999999999998 29 55.5 13.500000000000002 54 13.499999999999998 31.5 13.999999999999998 10.500000000000002 37 10.499999999999998 24 25 7.5000000000000027 10.499999999999998 27.5 10.499999999999998 37.5 33 12.999999999999998 16.5 18 8.9999999999999982 10.499999999999998 27 35 12.000000000000002
leaf_count=65 14 5 5 7 5 37 6 8 9 9 6 5 8 7 12 7 5 5 5 7 16 22 9 6 11 6 5 7 5 8
internal_value=0.00014266 0.001834 0.00337804 0.00613359 0.00190142 0.00115442 -0.00107343 0.00721158 0.00359908 0.00122225 -0.0041929 0.00553954 0.0064035 -0.00569947 -0.00195418 0.00123299 -0.00419275 -0.00152033 0.00564909 -0.00984732 0.00262844 -0.00603579 -0.00895665 0.00217194 -0.00153576 -0.00474427 0.00268601 0.00703548 0.00799034 -0.00401716
internal_weight=739 632 524.5 183 341.5 312.5 163.5 166.5 149 69 69.5 112.5 99 107.5 37.5 94 73.5 30 80 107 62.5 43.5 34 27 31.5 16.5 25.5 54.5 72 19.5
internal_count=332 260 190 50 140 135 83 39 52 30 43 31 24 70 21 40 47 18 22 72 23 29 23 11 17 11 10 12 13 13
is_linear=0
shrinkage=0.05


Tree=19
num_leaves=31
num_cat=0
split_feature=14 60 2 32 52 2 2 54 53 53 60 41 60 27 10 53 2 2 37 1 20 2 2 13 52 11 52 2 10 24
split_gain=4.87633 3.03766 0.924522 0.813653 0.74743 0.528539 0.477841 0.513295 0.349657 0.251868 0.249318 0.195368 0.194003 0.184471 0.180737 0.176379 0.192912 0.1606 0.130541 0.124579 0.0975293 0.0826294 0.0815484 0.0766327 0.0996326 0.0903653 0.0751676 0.0682514 0.0644224 0.0529278
threshold=0.12711434721294632 -2.0393823140004312 928973.7709029183 -1.6869189462821887 97.224291893986091 940036.78519925964 954131.83177647495 82.779049464225253 82.743350202450046 79.730322827102697 -2.7548402933585909 3.5343490862104976 2.1372803460636596 26.785930305843603 168.00000000000003 81.842886855581455 939099.76960135193 926125.34723596147 1.429916615971017 0.56806474673115548 95.741349431030912 957394.35248148954 935442.80915255286 0.60145605406000846 43.873483164072717 1.0598390867513767 51.293562768509155 930227.53123000462 36.500000000000007 81.577037941867545
decision_type=2 2 2 2 2 2 2 2 2 2 2 2 2 2 2 2 2 2 2 2 2 2 2 2 2 2 2 2 2 2
left_child=10 15 3 13 5 14 9 -8 18 -7 -1 -9 17 -3 22 27 28 26 -5 -18 23 -12 -4 -11 25 -25 -10 -2 -17 -27
right_child=1 2 4 8 -6 6 7 11 12 20 21 -13 -14 -15 -16 16 19 -19 -20 -21 -22 -23 -24 24 -26 29 -28 -29 -30 -31
leaf_value=-0.0012911128294136789 -0.0041789578480852978 -0.0035914909912066321 -0.0028996435923677316 0.0077892874330282207 0.011132269530069261 -0.0017853367763261002 -0.0083736110064718452 -0.0018078136985423044 -0.0032862274183167342 0.0055539904022088617 -0.005777321897801899 0.0044196888382704753 0.0088960813979307822 0.0054631886879603075 0.0030531397710243866 -0.009381571039557458 0.0029759163347383333 0.0056987311417127364 0.011439771081010502 -0.003499090220206059 0.0073935950174927713 -0.010463070058526256 -0.0074834043229067768 0.0017638089197377364 -0.00066924706101417547 0.0071192113416535521 0.0026129081569336082 -0.0090992031418360205 -0.0048946997461219634 0.0034243471920490267
leaf_weight=8.9999999999999982 8.9999999999999982 22.500000000000004 34.5 50 21 18 18 24 9.0000000000000018 46.5 10.499999999999998 26.5 24 7.4999999999999991 10.499999999999998 11.999999999999998 12.000000000000002 34 48 19.5 24 90.5 13.499999999999998 30 14.999999999999998 21 13.499999999999998 32.5 24 18
leaf_count=6 6 14 23 9 3 11 12 13 5 12 7 8 3 3 4 8 6 9 6 13 4 61 9 11 8 5 5 22 16 6
internal_value=0.000457181 0.00213348 0.00369956 0.00629113 0.00201363 0.00137426 0.00240912 -0.00112395 0.00757162 0.0038121 -0.00926536 0.00146008 0.00512995 -0.00132782 -0.00288899 -0.00546704 -0.00388997 0.00353018 0.00957728 -0.00103242 0.00446423 -0.00997594 -0.00418883 0.0039255 0.00302401 0.0038269 0.000253254 -0.00803216 -0.00639032 0.00541389
internal_weight=748 638 529 208.5 320.5 299.5 241 68.5 178.5 172.5 110 50.5 80.5 30 58.5 109 67.5 56.5 98 31.5 154.5 101 48 130.5 84 69 22.5 41.5 36 39
internal_count=328 254 183 54 129 126 90 33 37 57 74 21 22 17 36 71 43 19 15 19 46 68 32 42 30 22 10 28 24 11
is_linear=0
shrinkage=0.05


Tree=20
num_leaves=31
num_cat=0
split_feature=11 60 2 31 2 60 2 60 2 55 40 40 35 2 29 61 60 8 28 53 10 62 13 34 52 55 33 2 35 26
split_gain=4.66715 2.80927 0.965703 0.846635 0.759813 0.591989 0.587884 0.364237 0.282035 0.264211 0.235953 0.198474 0.178092 0.17442 0.136538 0.13291 0.131846 0.232254 0.121669 0.109778 0.106297 0.0970465 0.0911663 0.0907719 0.0711728 0.0648045 0.0626338 0.058039 0.0560995 0.0604879
threshold=0.2033792574548334 -2.0393823140004312 928973.7709029183 -2.020420213456505 940036.78519925964 0.45869085307750956 950955.87060959765 -2.0153340138581846 956844.54844074836 26.604402966668548 3.266047227595497 4.4605356575958988 -1.1152500177108708 931501.22395477246 26.195722467613649 4.8846964373799731 1.3978062458750338 188.00000000000003 26.714875967121369 80.784256884674377 72.500000000000014 2.895148323777653 0.76589950547407426 0.065498129951744227 88.804301360694623 26.389562659183031 -3.3455563013229841 955209.67514138867 0.14770887514273282 85.258852718055181
decision_type=2 2 2 2 2 2 2 2 2 2 2 2 2 2 2 2 2 2 2 2 2 2 2 2 2 2 2 2 2 2
left_child=8 12 3 14 13 7 -7 -6 28 16 23 22 19 -4 -3 -10 17 21 -11 27 -8 -5 -12 -9 26 -15 -21 -2 29 -1
right_child=1 2 4 9 5 6 20 10 15 18 11 -13 -14 25 -16 -17 -18 -19 -20 24 -22 -23 -24 -25 -26 -27 -28 -29 -30 -31
leaf_value=-0.0071253541857004129 -0.0067892782183157059 -0.0058673265079657224 0.0020737687505229755 0.0030005485336813656 0.015544474124908447 0.0036192969494574776 -0.0075077393899361288 0.0066591896665975066 -0.0094002778167751704 0.012658424178759257 -0.0056437060733636191 0.0065433578995557941 0.0010155910714751198 -0.0062080702278763059 0.0017349121471246084 -0.0025210405016938848 0.0073126837611198429 0.0084831781685352336 0.0083412474276972747 -0.007022413363059362 -0.0023527136755486333 -0.0033583869536717736 0.00077827915998308786 0.0025771954520182176 -0.008955589599079555 -0.0026372319604787563 -0.0033209073291800453 -0.011540143191814423 -0.00015145284641120171 -0.0014013464252154032
leaf_weight=12.000000000000005 18.000000000000004 13.500000000000002 13.499999999999998 18.000000000000004 7.9999999999999991 55.5 14.999999999999998 78 110 24 7.5000000000000027 12.999999999999998 10.499999999999998 24 10.499999999999998 7.4999999999999991 62 15.999999999999998 51 14.999999999999998 30 8.9999999999999982 21 16.5 8.9999999999999982 27 48 9.9999999999999982 8.9999999999999982 7.4999999999999991
leaf_count=8 12 9 6 6 1 19 10 15 74 3 5 3 5 16 5 5 11 2 8 10 19 6 8 6 6 18 32 7 6 5
internal_value=0.00016811 0.00205241 0.00361006 0.00627998 0.0018474 0.00312086 0.000175856 0.00517622 -0.00787888 0.00745615 0.00456633 0.00142361 -0.00517905 -0.00297989 -0.00254135 -0.00896118 0.00583716 0.00370966 0.00972274 -0.00582948 -0.00407106 0.000880903 -0.000911717 0.00594646 -0.00479639 -0.00431763 -0.00420222 -0.00848602 -0.00341675 -0.00492381
internal_weight=769.5 623.5 513 204 309 244.5 100.5 144 146 180 136 41.5 110.5 64.5 24 117.5 105 43 75 100 45 27 28.5 94.5 72 51 63 28 28.5 19.5
internal_count=346 248 176 50 126 86 48 38 98 36 37 16 72 40 14 79 25 14 11 67 29 12 13 21 48 34 42 19 19 13
is_linear=0
shrinkage=0.05


Tree=21
num_leaves=31
num_cat=0
split_feature=11 62 2 52 52 62 58 2 10 58 2 2 59 51 2 30 41 20 41 1 2 1 28 44 8 2 21 34 7 2
split_gain=4.24853 2.2711 0.723659 0.585939 0.510957 0.482503 0.472404 0.461316 0.346786 0.290093 0.278818 0.17935 0.132527 0.131945 0.123554 0.121068 0.111798 0.102906 0.100829 0.0953063 0.134244 0.0803992 0.0636253 0.063511 0.0596141 0.0591695 0.054975 0.0534147 0.0696715 0.0530692
threshold=0.20772776400975965 3.7815401355956637 928973.7709029183 97.224291893986091 43.446910398636774 3.1266024939560855 -1.5648858871065972 926525.69250022632 46.500000000000007 -1.718366142962827 956844.54844074836 962292.19349260756 1.6207063175516072 46.297582687174462 955209.67514138867 25.87038141575232 3.165795616355719 11.630867571883753 2.640440933594197 0.8542199457734333 963296.99962309457 -0.35460488704253562 26.306500456022128 3313.6177522108733 29.500000000000004 962165.69683012774 35.598808502963955 -3.2362630255769105 51.500000000000007 950955.87060959765
decision_type=2 2 2 2 2 2 2 2 2 2 2 2 2 2 2 2 2 2 2 2 2 2 2 2 2 2 2 2 2 2
left_child=10 2 7 4 9 16 11 8 12 -4 21 14 24 -9 27 -7 25 -17 -11 23 -21 -1 -10 -12 -2 -6 -19 -3 -29 -8
right_child=1 6 3 -5 5 15 29 13 22 18 19 -13 -14 -15 -16 17 -18 26 -20 20 -22 -23 -24 -25 -26 -27 -28 28 -30 -31
leaf_value=5.049015636797304e-05 0.0053271978701415817 -0.0084654362251361213 -0.0021501658454489629 0.010073452904110864 -0.0047520794440060856 0.00469569649361074 0.0026308381968798739 0.011603791018327078 -0.0059344478365447768 0.0054826523600654169 -0.0095360474517712235 0.00032805024111439709 0.0075510687869170621 0.0073642944905142754 -0.010688089865904589 0.0042213527612726797 -0.00014248855101565522 -6.5960112907406337e-05 0.0023210750617824183 -0.00081843436799115582 -0.0088966462140281991 -0.0064061729485789939 0.00030110690742731096 -0.0051330076116654607 0.00162740300099055 -0.0096339007218678788 -0.0051610944792628288 -0.006065041305106364 -0.0025948842423450615 -0.001441521461432179
leaf_weight=13.500000000000002 19 11.999999999999998 19.5 21 36 25 24 24 9.0000000000000018 77 91 11.999999999999998 29 78 12.999999999999998 10.999999999999998 11.999999999999998 18.000000000000004 37.5 9.0000000000000018 11.999999999999998 7.4999999999999991 7.4999999999999991 8.9999999999999982 25.5 7.4999999999999991 7.4999999999999991 40.5 22.5 11.999999999999998
leaf_count=9 5 8 12 3 24 7 9 3 6 18 61 7 5 13 9 4 7 8 14 6 8 5 4 6 10 5 5 27 15 7
internal_value=0.000203401 0.00204399 0.0037094 0.00205041 0.00137916 -0.0010351 -0.00363802 0.00605964 0.0034505 0.00348714 -0.00757372 -0.00540613 0.00492104 0.00836182 -0.00618806 0.00201515 -0.00441512 0.000179161 0.0044472 -0.00849672 -0.00543456 -0.00225546 -0.0031001 -0.00913977 0.00320709 -0.00559377 -0.00156453 -0.00540806 -0.0048257 0.00127338
internal_weight=742 600 464 272 251 117 136 192 90 134 142 100 73.5 102 88 61.5 55.5 36.5 114.5 121 21 21 16.5 100 44.5 43.5 25.5 75 63 36
internal_count=330 235 153 107 104 60 82 46 30 44 95 66 20 16 59 24 36 17 32 81 14 14 10 67 15 29 13 50 42 16
is_linear=0
shrinkage=0.05


Tree=22
num_leaves=31
num_cat=0
split_feature=14 60 5 5 5 54 5 52 56 51 53 53 60 59 40 28 0 7 35 54 36 32 5 33 5 52 60 52 5 9
split_gain=3.56728 2.14237 0.71282 0.763366 0.645142 0.469345 0.504486 0.43962 0.346334 0.224855 0.214261 0.201637 0.17272 0.147489 0.116523 0.110094 0.107347 0.101692 0.0878716 0.0702435 0.0720107 0.065691 0.0581527 0.057409 0.0555148 0.0512865 0.0471646 0.0305989 0.0291387 0.0276756
threshold=0.12711434721294632 -2.0393823140004312 3194.820695318987 3231.4213087515614 3180.8701596458072 84.607313568436268 3279.8737039924613 43.011265840179497 26.187476004276174 50.167161003914906 79.730322827102697 81.842886855581455 -2.7548402933585909 -2.2400403413466283 2.1505059506680038 26.657976729135672 -0.51639395938746191 79.500000000000014 -0.5184694858244373 82.210073278316202 2.4517273884266673 0.76874855022332189 3283.5788419952687 -0.86082045454349043 3228.2002729182991 60.899853664317867 1.3551491341517339 41.306786540456578 3291.0887746071635 70.000000000000014
decision_type=2 2 2 2 2 2 2 2 2 2 2 2 2 2 2 2 2 2 2 2 2 2 2 2 2 2 2 2 2 2
left_child=12 11 4 25 7 6 10 15 -8 -6 -5 22 -1 24 -12 -3 -11 -10 -16 20 27 -9 -2 -18 29 -4 28 -20 -14 -13
right_child=1 2 3 5 9 -7 8 21 17 16 14 13 26 -15 18 -17 23 -19 19 -21 -22 -23 -24 -25 -26 -27 -28 -29 -30 -31
leaf_value=-0.00067831295231978101 -0.0060964774202417445 -0.0053947657413248497 -0.0017966984795072139 -0.0020238050626534406 0.010220792442560196 0.010813214257359505 0.0025277667695523375 0.0067482148225490868 -0.0067792834248393778 0.0069526402696744724 0.0059148257507861245 -0.0067743662267159182 -0.0058093549311161044 0.0019021496914016706 0.00072421486334254355 0.0012149230887492498 0.0011908577413608631 -0.0015312855698478719 0.0025952609504262601 0.0069864000876744591 0.0046501525286315147 0.0024615967138247059 -0.0099005359690636403 0.0053287278664739509 -0.0024336797121577549 -0.0049580729923521484 -0.0046983456114927935 -0.0009240111624378534 -0.0090484939196849249 -0.003590411244935933
leaf_weight=7.4999999999999991 27 21.000000000000004 19.5 16.5 40 15.999999999999998 28 19.5 24 67 51.5 19.500000000000004 7.4999999999999991 11.999999999999998 30 8.9999999999999982 14.999999999999998 14.999999999999998 15.000000000000002 14.999999999999998 34.5 16.5 15.999999999999998 19 24 37.5 7.4999999999999991 10.499999999999998 93.5 10.499999999999998
leaf_count=5 18 14 13 11 5 2 9 4 16 11 11 13 5 6 12 5 5 9 5 3 10 6 11 5 16 25 5 5 63 7
internal_value=4.00631e-05 0.00152588 0.00286187 0.0013564 0.00513825 0.00252155 0.00196877 0.00105834 -0.00171485 0.00704799 0.00339538 -0.00484766 -0.00801663 -0.00311185 0.00396673 -0.00341186 0.00579144 -0.00476082 0.00301123 0.00392604 0.00316095 0.00478351 -0.00751194 0.0035032 -0.00422607 -0.00387655 -0.00852389 0.00114615 -0.00880796 -0.00565998
internal_weight=745 629 520 313 207 256 240 66 67 141 173 109 116 66 156.5 30 101 39 105 75 60 36 43 34 54 57 108.5 25.5 101 30
internal_count=335 257 186 131 55 93 91 29 34 26 57 71 78 42 46 19 21 25 35 23 20 10 29 10 36 38 73 10 68 20
is_linear=0
shrinkage=0.05


Tree=23
num_leaves=31
num_cat=0
split_feature=14 60 5 5 60 60 5 53 60 53 41 61 27 21 10 8 31 58 40 60 27 52 44 27 52 52 5 22 56 25
split_gain=3.32536 1.60597 0.656714 0.696443 0.542641 0.528968 0.427969 0.387359 0.306664 0.215819 0.168701 0.149585 0.137914 0.128854 0.111511 0.0923118 0.0852855 0.0834101 0.0778468 0.074246 0.0680728 0.0578575 0.0463133 0.0450333 0.0435783 0.0432272 0.0412975 0.0369809 0.031887 0.0310625
threshold=0.12711434721294632 -2.0393823140004312 3194.820695318987 3231.4213087515614 -1.2135970647620253 0.92989883946301011 3306.5106535805057 82.622516507534797 -2.0153340138581846 80.784256884674377 3.0221502590985154 3.8213065235798838 26.196547445846708 120.97514116331179 34.500000000000007 76.500000000000014 2.0376075568925498 0.52167196934992777 2.1505059506680038 -2.6004203595431292 26.064325597087912 55.258298640778385 3313.6177522108733 27.208485342135102 57.227245576569977 45.168949507864447 3291.0887746071635 20.181781339728406 26.764701091386446 80.284586817689288
decision_type=2 2 2 2 2 2 2 2 2 2 2 2 2 2 2 2 2 2 2 2 2 2 2 2 2 2 2 2 2 2
left_child=19 9 4 24 -3 8 21 14 -5 -2 15 -11 -9 20 -6 -10 -16 -8 -14 -1 -12 25 23 26 -4 28 -21 -13 -7 -20
right_child=1 2 3 5 7 6 17 12 10 11 13 27 18 -15 16 -17 -18 -19 29 22 -22 -23 -24 -25 -26 -27 -28 -29 -30 -31
leaf_value=-0.0027163152396678927 -0.0083265035076344265 -0.004245593597491582 -0.0017600728598877024 0.013722915947437287 0.0050668463764483472 0.0033895320155554348 -0.0023187311711134729 -0.00085526847026564864 0.0057391125855869377 0.0026950488133089885 -0.0025093954762048796 -0.0059123756488164269 0.001739750025065049 0.0056779559988241928 0.010695407912135125 0.002236578247509897 0.0072863915112129475 -0.0075178710536824333 0.0062872788558403659 -0.0052871842351224696 0.0017188092445333801 0.0046767259149679118 -0.0044239323586225511 -0.0047946827693117998 -0.0046742083405454955 -0.0015758363413624467 -0.0088551801061484883 -0.0030881448217448507 0.00047117230983880853 0.0038876565924028357
leaf_weight=7.4999999999999991 23.5 14.999999999999998 19.5 7.9999999999999991 28.5 18 13.500000000000002 16.5 76 10.499999999999998 16.5 14.999999999999998 23 12.999999999999998 32 25 43 18 30 8.9999999999999982 22.5 13.999999999999998 8.9999999999999982 8.9999999999999982 37.5 11.999999999999998 82 51 19.5 24.5
leaf_count=5 16 9 13 1 7 6 9 7 15 5 8 10 9 3 4 9 6 12 6 6 10 4 6 6 25 8 55 34 8 8
internal_value=0.000227681 0.00167224 0.00277744 0.00132104 0.00492262 0.00243395 -0.000524852 0.00561894 0.00417983 -0.00413556 0.00368084 -0.00284814 0.00329541 0.00136695 0.00772921 0.00487215 0.00874091 -0.00528967 0.0041791 -0.00752832 -7.00466e-05 0.0018388 -0.00785942 -0.00816862 -0.00367727 0.00103615 -0.0085023 -0.00373002 0.00187198 0.00520855
internal_weight=742 625.5 525.5 313 212.5 256 95 197.5 161 100 153 76.5 94 52 103.5 101 75 31.5 77.5 116.5 39 63.5 109 100 57 49.5 91 66 37.5 54.5
internal_count=330 252 187 131 56 93 47 47 46 65 45 49 30 21 17 24 10 21 23 78 18 26 73 67 38 22 61 44 14 14
is_linear=0
shrinkage=0.05


Tree=24
num_leaves=31
num_cat=0
split_feature=14 60 11 20 62 1 54 7 62 2 51 56 55 61 25 60 60 53 20 23 1 7 31 61 61 55 38 54 41 39
split_gain=2.95818 1.63631 0.510102 0.571657 0.385425 0.295266 0.368142 0.205956 0.18643 0.171527 0.172521 0.162869 0.193026 0.162567 0.155429 0.152003 0.0998482 0.0961034 0.0933153 0.0900065 0.0860723 0.0754146 0.0623234 0.0584975 0.0507814 0.0503802 0.0463791 0.0458984 0.0445498 0.0410561
threshold=0.12711434721294632 -2.0393823140004312 0.46523842900725582 9.5533618410552616 2.5551511175064321 0.17992617227144031 81.306383221228216 177.00000000000003 3.9629543366216438 927739.85388046142 34.986832341252565 27.179797216682299 26.502624020915178 2.6106109057922389 83.375898348474706 -2.7548402933585909 2.6134192262401768 81.632330168818896 0.24507843434492507 82.266234990011483 -0.46472317204376873 56.500000000000007 1.0118716384199702 4.0174773433449307 4.1821849651229526 26.272017393188239 -1.8270502539075457 82.674015028186346 3.6891195494661795 3.6054696333144021
decision_type=2 2 2 2 2 2 2 2 2 2 2 2 2 2 2 2 2 2 2 2 2 2 2 2 2 2 2 2 2 2
left_child=15 8 3 11 19 6 16 9 26 29 -11 12 -3 -5 18 -1 -6 -10 -8 -4 -16 -20 -23 -19 -25 -12 -2 -17 -15 -7
right_child=1 2 4 13 5 7 14 -9 17 10 25 -13 -14 28 20 27 -18 23 21 -21 -22 22 -24 24 -26 -27 -28 -29 -30 -31
leaf_value=-0.00094833816919061883 0.0027515321969985955 0.0040684826490355701 0.0015542736463248731 0.00071370451866338655 -0.0018635317401000948 -0.0055487791283263081 0.012754781544208527 0.0062318507848041398 -0.0073998746063028064 0.0049366564221986356 0.0012391312999630369 0.0055692112047067838 -0.0031969302714886989 -0.0040468035847879948 0.0014236605348641107 -0.0063327130220540168 0.0032336809307984683 -0.0070202850736677648 0.0092976989417240547 -0.0035974630465110146 0.0057455679401755338 0.0033483902955877376 0.0070165141931046622 -0.00085885274421536567 -0.0042313849904398989 -0.0026031904454742161 -0.002396509299675624 -0.008490382450340438 -0.0077482689704213821 -0.00053980621198813125
leaf_weight=8.9999999999999982 10.500000000000002 20.5 14.999999999999998 18 16.5 9.0000000000000018 7.9999999999999991 28 28 36.5 45.5 35.5 16.5 36 18 38.5 23 11.999999999999998 29 19.5 32 14.499999999999998 57.5 16.5 34.5 10.499999999999998 7.4999999999999991 68.5 10.499999999999998 7.4999999999999991
leaf_count=6 5 6 6 9 9 6 1 6 19 9 17 8 10 23 7 26 8 8 4 13 6 4 9 11 23 6 5 46 7 5
internal_value=0.000135574 0.0015149 0.00270977 0.000103405 0.00367483 0.00419232 0.0054246 0.00240686 -0.0040429 0.00142429 0.002262 0.00314981 0.000828501 -0.00332085 0.00649784 -0.0071891 0.00110447 -0.00496257 0.00755663 -0.00135758 0.00418968 0.0071449 0.00627779 -0.00387932 -0.00314027 0.000518696 0.000606515 -0.00771402 -0.00488262 -0.00327197
internal_weight=732 616 507 137 370 335.5 198.5 137 109 109 92.5 72.5 37 64.5 159 116 39.5 91 109 34.5 50 101 72 63 51 56 18 107 46.5 16.5
internal_count=328 250 179 63 116 97 48 49 71 43 32 24 16 39 31 78 17 61 18 19 13 17 13 42 34 23 10 72 30 11
is_linear=0
shrinkage=0.05


Tree=25
num_leaves=31
num_cat=0
split_feature=11 57 2 60 52 36 2 61 1 60 2 20 37 27 54 21 1 44 9 2 0 62 2 41 24 54 32 22 44 26
split_gain=2.45676 1.36463 0.588758 0.467269 0.367979 0.333537 0.259084 0.219352 0.17511 0.164016 0.163462 0.151008 0.121091 0.118951 0.116575 0.0820123 0.0765828 0.082753 0.0738131 0.0715494 0.0661081 0.0656714 0.0656695 0.0595548 0.0569433 0.0559476 0.0548444 0.0368416 0.0346748 0.0322876
threshold=0.20772776400975965 -1.8207208894833802 928560.26477547444 0.1998995861850727 63.099155350500013 -1.2263277745575583 952533.08888109215 3.5599692327085655 0.8542199457734333 1.8603922292787018 956844.54844074836 20.181781339728406 -1.4247277106457592 26.547077090982587 84.101625039755177 31.262242117057188 0.91023613416931248 3309.9943345711004 115.50000000000001 962292.19349260756 0.12053668025532312 3.484899167772268 955209.67514138867 2.0834039200502263 84.614545085985796 82.099864682147583 0.76874855022332189 23.04941565508177 3313.6177522108733 82.019795141185
decision_type=2 2 2 2 2 2 2 2 2 2 2 2 2 2 2 2 2 2 2 2 2 2 2 2 2 2 2 2 2 2
left_child=10 5 9 7 6 8 25 12 19 11 27 18 -4 -13 24 -10 28 -18 23 22 -14 -9 -2 -3 -7 29 -8 -1 -12 -5
right_child=1 2 3 4 -6 14 26 21 15 -11 16 13 20 -15 -16 -17 17 -19 -20 -21 -22 -23 -24 -25 -26 -27 -28 -29 -30 -31
leaf_value=-0.0036488185481478759 -0.0049875326842690505 0.0014004179022528908 0.0090871602296829224 0.0018705001335202046 -0.0048990508386244384 -0.0025677618993954223 -0.0019765228123611043 0.0019891534497340517 0.0013053194464494786 0.0073671452301953518 -0.0077334616480574095 -0.0034406601850475575 0.0053422758378178243 0.0035994367274854869 0.0045030060889465475 -0.0030601516312647923 -0.0070354605714480064 -0.00050169752600292368 0.0069342833943665033 -0.001852687681093812 0.0018428575561847537 -0.0031665507260532607 -0.0091121195451073032 0.0050125397137693456 0.0021424080555637677 -0.00086863451482107256 -0.0070656029383341472 0.00064312496532996496 -0.0041925906762480735 0.00401666523918273
leaf_weight=15.000000000000002 60 16.5 15.999999999999998 39.5 36 16.500000000000004 18.000000000000004 15.000000000000002 19.5 56 88.5 10.500000000000002 41.5 13.999999999999998 17.5 24 10.500000000000002 8.9999999999999982 32 14.999999999999998 20 10.499999999999998 11.499999999999998 37 10.499999999999998 11.999999999999998 7.4999999999999991 7.4999999999999991 7.4999999999999991 31.5
leaf_count=10 40 6 3 15 24 10 11 5 9 8 59 6 8 4 5 16 7 6 4 8 8 6 8 8 5 8 5 5 5 9
internal_value=-0.000113161 0.00129591 0.00286067 0.00131554 -0.000518679 -0.00241199 0.000934716 0.00388878 -0.00369094 0.00516442 -0.00611705 0.00404303 0.00521234 0.000582252 0.00132427 -0.00110322 -0.00687657 -0.00401988 0.00503471 -0.00499227 0.00420425 -0.000133784 -0.00565093 0.00389852 -0.000736029 0.00228899 -0.00347331 -0.00221817 -0.00745683 0.00282267
internal_weight=726 588 413.5 247.5 144.5 174.5 108.5 103 130 166 138 110 77.5 24.5 44.5 43.5 115.5 19.5 85.5 86.5 61.5 25.5 71.5 53.5 27 83 25.5 22.5 96 71
internal_count=331 239 138 102 72 101 48 30 81 36 92 28 19 10 20 25 77 13 18 56 16 11 48 14 15 32 16 15 64 24
is_linear=0
shrinkage=0.05


Tree=26
num_leaves=31
num_cat=0
split_feature=8 60 25 56 30 9 2 8 21 42 42 33 2 40 2 61 2 31 13 12 22 10 60 36 27 28 7 61 7 20
split_gain=2.32818 1.58286 0.460234 0.57461 0.604013 0.297243 0.262015 0.179311 0.171578 0.139566 0.110874 0.109525 0.106759 0.105411 0.0992418 0.0892701 0.0767083 0.0607586 0.0583633 0.0761486 0.0528677 0.0507795 0.0426096 0.0395322 0.0383972 0.0345452 0.0337689 0.0314455 0.0269973 0.0264645
threshold=18.500000000000004 -2.0393823140004312 79.958437775928857 26.649853383516525 25.379823099034308 70.000000000000014 941459.51007137948 119.50000000000001 4.1101628205839971 4.3680940229011638 3.3565121402326481 1.0000000180025095e-35 962292.19349260756 4.4277492088291082 956844.54844074836 2.5993722521756975 955209.67514138867 -2.9995590298097961 0.46523842900725582 0.36245694835201747 36.15573967106625 33.500000000000007 -2.5596384975089692 2.12672235640329 26.318788791849911 26.542079477990985 37.500000000000007 3.9074742467555228 76.500000000000014 60.57046667816789
decision_type=2 2 2 2 2 2 2 2 2 2 2 2 2 2 2 2 2 2 2 2 2 2 2 2 2 2 2 2 2 2
left_child=14 12 10 4 -4 9 7 8 -5 15 18 -12 16 20 -1 24 21 -16 19 -3 23 -2 -23 28 -6 29 -10 -8 -7 -22
right_child=1 2 3 6 5 13 27 -9 26 -11 11 -13 -14 -15 17 -17 -18 -19 -20 -21 25 22 -24 -25 -26 -27 -28 -29 -30 -31
leaf_value=-0.0031784894793397849 -0.0069936325152715048 0.0056037192543347686 0.0077784812876156399 -0.00044445885249819514 0.00064170755712049333 -0.00092862852228184551 0.00071693847576777129 0.007732907533645631 0.0069013767370155882 0.0026591491419821981 0.0040877205319702625 -0.0013951091130298598 0.00028009453866009916 0.0031358406662807935 -0.0029218508603258268 -0.0054218605762780319 -0.0083775250562306124 -0.0072232417279187063 0.0062678620111251224 0.001990084167645902 -0.0017957885025276063 -0.0051172283114538659 -0.0024175092376147703 -0.002818641650180022 -0.004042443955938022 -0.00021327518754535253 0.0040492180570521783 -0.0030214806811677086 0.0018407911280960297 -0.0058173205455144253
leaf_weight=22.5 14.999999999999998 36 21 19.5 10.500000000000002 11.999999999999998 15.000000000000002 40 17.5 7.9999999999999991 28 13.499999999999998 10.499999999999998 28 8.9999999999999982 49.5 14.499999999999998 93.5 69 24.5 9.0000000000000053 28.499999999999993 30.000000000000007 7.4999999999999991 7.4999999999999991 13.499999999999998 25.5 8.9999999999999982 33 7.4999999999999991
leaf_count=15 10 6 4 9 6 6 6 5 4 3 8 6 6 9 6 33 10 63 11 8 6 19 20 5 5 6 6 6 14 5
internal_value=2.48614e-05 0.00131225 0.00244418 0.0013628 -0.000259643 -0.00116717 0.0040177 0.00511881 0.0034458 -0.00358529 0.00455319 0.00230415 -0.00448532 0.000485023 -0.00618549 -0.00432537 -0.00505392 -0.00684556 0.00527393 0.00414035 -0.000414648 -0.00439824 -0.00373276 0.000542148 -0.00131002 -0.00208904 0.00520998 -0.000684969 0.00110228 -0.00362376
internal_weight=728 603 504.5 333.5 207 186 126.5 102.5 62.5 75.5 171 41.5 98.5 110.5 125 67.5 88 102.5 129.5 60.5 82.5 73.5 58.5 52.5 18 30 43 24 45 16.5
internal_count=326 242 177 138 102 98 36 24 19 47 39 14 65 51 84 44 59 69 25 14 42 49 39 25 11 17 10 12 20 11
is_linear=0
shrinkage=0.05


Tree=27
num_leaves=31
num_cat=0
split_feature=14 62 2 58 2 2 37 54 40 58 28 38 2 20 7 62 2 42 22 54 51 32 10 56 34 63 51 36 10 39
split_gain=2.18843 1.15918 0.434734 0.536857 0.350612 0.346441 0.261109 0.213598 0.142519 0.123022 0.115132 0.113234 0.108791 0.103582 0.0847413 0.0838359 0.0799894 0.0751942 0.0745372 0.0641668 0.057541 0.0550157 0.049746 0.0496098 0.0463693 0.0453525 0.0400609 0.0380983 0.0361205 0.0359364
threshold=0.12711434721294632 3.7133631243954288 928973.7709029183 0.79107518022114054 940036.78519925964 925331.20051898144 -1.1936314476195076 84.419063675098513 2.9422286620472211 1.4600984119419425 26.859044805013518 0.51343108758051603 962292.19349260756 1.322293722441823 126.50000000000001 4.4235373407912837 955209.67514138867 3.1834834102754166 21.34073036061892 82.674015028186346 50.167161003914906 0.76874855022332189 42.500000000000007 25.404324666540486 -0.71077210100171373 3307.4629931850582 61.444542687901979 0.44905083916669336 30.500000000000004 3.3265898062048991
decision_type=2 2 2 2 2 2 2 2 2 2 2 2 2 2 2 2 2 2 2 2 2 2 2 2 2 2 2 2 2 2
left_child=15 2 5 4 14 13 12 10 -7 25 11 17 16 -2 28 19 22 -6 -19 24 -10 -15 -3 -24 -1 -5 -13 -12 -4 -26
right_child=1 6 3 9 7 8 -8 -9 20 -11 27 26 -14 21 -16 -17 -18 18 -20 -21 -22 -23 23 -25 29 -27 -28 -29 -30 -31
leaf_value=-0.0064083113734211246 0.0034801386110484599 -0.0055345052003599052 -0.00011043051102509102 -0.0032111885918614767 0.0038248463460568631 0.0036310890546211831 0.0011886635363317919 0.008031501372655233 0.0089643355458974838 0.0011654773443297017 0.0054693957134871419 0.00011954208150402535 0.00074538431169154755 -0.0035032018950140031 0.0026142530971103245 -0.0010081276794274647 -0.0082151662396348045 0.0025522513547912243 -0.0017443244627705129 -0.0074424273779858724 0.0061197429522871979 0.0013224670219989052 -0.0045846396746734774 -0.0017923532894605562 -0.0050914719079931565 -0.0066164495366992371 -0.0048283512641986211 0.0028740160642786229 -0.003794818548668249 -0.00091187140335225391
leaf_weight=28 20 28.5 8.9999999999999982 24 44.5 39 34.5 21 32 11.999999999999998 35.5 9.0000000000000018 11.999999999999998 13.500000000000002 8.9999999999999982 7.4999999999999991 11.499999999999998 26 16.5 69 40 10.499999999999998 28.5 36 12.000000000000002 16.5 7.4999999999999991 23.5 25.5 8.9999999999999982
leaf_count=19 7 19 6 15 11 10 15 3 4 5 7 5 7 9 3 5 8 9 9 46 6 4 19 24 8 11 5 7 17 6
internal_value=-0.000142458 0.00114182 0.00245335 0.00127557 0.00232941 0.00457714 -0.00263206 0.00328616 0.00606541 -0.00328103 0.00267292 0.00166808 -0.00376352 0.000822624 -0.00170652 -0.00613407 -0.00428129 0.00238831 0.000884169 -0.00645987 0.00738401 -0.00139197 -0.00379484 -0.00302615 -0.00507627 -0.00459852 -0.0021295 0.00443564 -0.00283367 -0.00330021
internal_weight=711 585.5 434.5 279.5 227 155 151 183.5 111 52.5 162.5 103.5 116.5 44 43.5 125.5 104.5 87 42.5 118 72 24 93 64.5 49 40.5 16.5 59 34.5 21
internal_count=329 245 153 113 82 40 92 56 20 31 53 39 77 20 26 84 70 29 18 79 10 13 62 43 33 26 10 14 23 14
is_linear=0
shrinkage=0.05


Tree=28
num_leaves=31
num_cat=0
split_feature=13 60 2 2 31 0 60 2 58 2 2 2 0 53 2 12 60 53 8 26 42 21 55 2 51 23 52 56 56 50
split_gain=2.14292 1.35032 0.384056 0.354772 0.33737 0.315774 0.22369 0.180684 0.123573 0.119693 0.112833 0.100347 0.0964931 0.0942008 0.100435 0.105308 0.0849125 0.0737197 0.0903246 0.0720958 0.0717169 0.046202 0.0447909 0.0427458 0.0411574 0.0379117 0.036954 0.031891 0.0314085 0.0300261
threshold=0.21028925815727134 -2.0393823140004312 928973.7709029183 940036.78519925964 -2.020420213456505 -0.78574730703237861 -2.0153340138581846 947865.55683914886 1.4600984119419425 953596.51879837422 933230.64356323204 928148.96018355817 0.61559370248597556 82.80502755074022 926125.34723596147 1.0886994539333599 -2.7548402933585909 83.951064476287641 41.500000000000007 86.003853222881148 2.5082102917883495 14.392298033882671 26.46340069789392 924156.29310142493 33.434773054967756 79.04274419520948 49.030708459620833 26.963850669181962 24.969129488805432 3313.3297460147005
decision_type=2 2 2 2 2 2 2 2 2 2 2 2 2 2 2 2 2 2 2 2 2 2 2 2 2 2 2 2 2 2
left_child=7 17 4 10 11 8 -7 19 -5 20 -4 -3 22 26 15 -15 -9 23 -19 25 24 -10 -11 -2 -8 -1 -6 -22 -25 -18
right_child=1 2 3 5 13 6 9 16 21 12 -12 -13 -14 14 -16 -17 29 18 -20 -21 27 -23 -24 28 -26 -27 -28 -29 -30 -31
leaf_value=-0.0011455691286495746 -0.0023236393618086978 -0.0035274243024601172 0.00042623223933190403 -0.0042068936374215857 0.0069445316369334863 0.011327029019594193 0.006251214100764348 -0.00095772112409273796 -0.0026807613919178634 0.00033883860084676638 -0.0039599234926635807 0.0030359743783871336 0.0033641321398317813 0.0031146187435936281 0.0049331953368928969 -0.0039091481268405913 -0.0066689177667854527 -0.0053698667325079432 0.00023037410056632427 0.002581773026613519 0.0013096550641807192 0.0018151676003374936 -0.0037341494966919224 -0.0029483079082436034 0.0037943659519607369 -0.0055679673122035131 0.0050293809646424258 0.0042334994444480313 -0.0061964833589140764 -0.0033947405684739348
leaf_weight=10.500000000000005 11.999999999999998 16.500000000000004 25.5 21 48 7.9999999999999991 26 7.4999999999999991 7.5000000000000027 27 34.5 8.9999999999999982 25 18.500000000000004 49 7.4999999999999991 105.5 12.000000000000002 18 7.4999999999999991 33 24 8.9999999999999982 8.9999999999999982 49.5 8.9999999999999982 53 12.999999999999998 43 7.4999999999999991
leaf_count=6 8 11 14 13 7 1 4 5 5 13 23 3 6 5 9 5 71 8 11 4 13 10 5 6 12 6 9 3 29 5
internal_value=0.000116792 0.00144715 0.0024723 0.0013473 0.00416399 0.00219745 0.00314366 -0.0052813 -0.00123593 0.00278494 -0.00209581 -0.00121093 0.00097778 0.00494274 0.00360038 0.00108853 -0.00610966 -0.00405488 -0.00200972 -0.00158433 0.00369224 0.000744708 -0.000679408 -0.00501355 0.00464043 -0.00318668 0.00593955 0.00213596 -0.0056343 -0.00645161
internal_weight=746 598.5 504.5 303 201.5 243 190.5 147.5 52.5 182.5 60 25.5 61 176 75 26 120.5 94 30 27 121.5 31.5 36 64 75.5 19.5 101 46 52 113
internal_count=330 233 171 122 49 85 57 97 28 56 37 14 24 35 19 10 81 62 19 16 32 15 18 43 16 12 16 16 35 76
is_linear=0
shrinkage=0.05


Tree=29
num_leaves=31
num_cat=0
split_feature=14 60 2 0 19 2 59 8 1 28 39 51 38 42 52 8 31 57 52 0 10 19 60 31 1 23 26 54 2 25
split_gain=1.9352 1.25316 0.422217 0.371601 0.302155 0.282938 0.301787 0.212001 0.120953 0.120842 0.105491 0.101918 0.10069 0.0985575 0.0880291 0.0690653 0.0684505 0.0540703 0.05189 0.0515741 0.0609993 0.0435538 0.0661533 0.036753 0.039294 0.0351999 0.0350767 0.0396915 0.0319698 0.0316648
threshold=0.12711434721294632 -2.0393823140004312 928973.7709029183 0.91023613416931248 14.951663084977008 925331.20051898144 1.0197171812282482 70.000000000000014 -0.85421994577343285 26.859044805013518 3.6054696333144021 51.472112044061511 0.49715838739399537 3.317207395593103 43.446910398636774 57.500000000000007 -0.57278146591229351 -0.76900037936546306 38.029343137888823 0.51639395938746258 23.500000000000004 0.15969135994973918 0.80778687952866812 1.6223808351632705 0.5163939593874618 78.42243288282215 83.126461963012886 81.851038303186598 955209.67514138867 80.768090756697276
decision_type=2 2 2 2 2 2 2 2 2 2 2 2 2 2 2 2 2 2 2 2 2 2 2 2 2 2 2 2 2 2
left_child=26 13 5 4 9 6 10 8 -6 12 -3 -7 17 -2 18 -14 -16 -4 -9 -15 -21 -11 -23 24 -13 -8 -1 -28 -22 -10
right_child=1 2 3 -5 7 11 25 14 29 21 -12 23 15 19 16 -17 -18 -19 -20 20 28 22 -24 -25 -26 -27 27 -29 -30 -31
leaf_value=-0.006854747565319905 0.00013750539810368509 -0.0046345451018876497 0.0005885782150121836 0.0069073770481806532 0.0014485833193508112 0.0075495211035013195 0.0055040151026903416 0.00080371639794773542 -0.0067450431982676185 0.0061393365263938907 0.0012124022647379174 0.0029336313012896516 -0.0041443360387347639 -0.00183108625490041 0.00092878806380889366 0.00061073158424170253 -0.0035638847333999977 0.0041332105174660683 0.0040749895301732146 -0.0007441143194834392 -0.0045354382394078938 0.0044415394033210862 0.00070233111166291768 0.0059993414529438682 0.0055530208078297706 0.0025667656486963526 -0.0022843668459072001 -0.0056813338516574158 -0.0070801114663481719 -0.0032779267427233412
leaf_weight=52 16.5 18.000000000000004 19.5 26 13.999999999999998 40 25.5 27 7.4999999999999991 15.999999999999998 13.499999999999998 41 11.999999999999998 21 19.5 21 14.999999999999998 24 22 8.9999999999999982 54 34.5 18 29 22 17 10.499999999999998 47.5 15.999999999999998 54
leaf_count=35 9 12 9 4 6 5 5 11 5 3 7 10 8 14 8 10 10 5 6 6 36 7 7 4 4 5 7 32 11 36
internal_value=0.000223107 0.00125734 0.0022789 0.00117016 0.000679472 0.00405505 0.00158018 -0.000825865 -0.0027459 0.00233015 -0.00212871 0.00544248 0.000964283 -0.00344272 0.000910218 -0.00111838 -0.00102455 0.00254424 0.00227245 -0.00403345 -0.00461889 0.00385554 0.00315953 0.00452637 0.00384834 0.00432912 -0.00591178 -0.00506637 -0.00511708 -0.00370075
internal_weight=762.5 652.5 536 330 304 206 74 159 75.5 145 31.5 132 76.5 116.5 83.5 33 34.5 43.5 49 100 79 68.5 52.5 92 63 42.5 110 58 70 61.5
internal_count=337 263 187 135 131 52 29 82 47 49 19 23 32 76 35 18 18 14 17 67 53 17 14 18 14 10 74 39 47 41
