tree
version=v4
num_class=1
num_tree_per_iteration=1
label_index=0
max_feature_idx=75
objective=regression
feature_names=week_sin week_cos city_estimated_population city_area_m2 city_area_km2 city_pop_density n_barangays_reported city_dengue_cases_lag1 city_dengue_cases_lag2 city_dengue_cases_lag3 city_incidence_10000_lag1 city_incidence_10000_lag2 city_incidence_10000_lag3 target_log_incidence_city_lag1 target_log_incidence_city_lag2 target_log_incidence_city_lag3 city_area_weighted_rainfall_lag20 city_area_weighted_rainfall_lag14 city_area_weighted_rainfall_lag17 city_area_weighted_rh_lag14 city_area_weighted_rh_lag15 city_area_weighted_rh_lag13 city_area_weighted_temp_c_lag6 city_area_weighted_temp_c_lag5 city_area_weighted_temp_c_lag7 city_area_weighted_u_component_of_wind_10m_lag1 city_area_weighted_u_component_of_wind_10m_lag2 city_area_weighted_u_component_of_wind_10m_lag3 city_area_weighted_v_component_of_wind_10m_lag2 city_area_weighted_v_component_of_wind_10m_lag1 city_area_weighted_v_component_of_wind_10m_lag3 city_area_weighted_wind_speed_10m_lag6 city_area_weighted_wind_speed_10m_lag5 city_area_weighted_wind_speed_10m_lag4 city_area_weighted_pop_density_lag20 city_area_weighted_pop_density_lag19 city_area_weighted_pop_density_lag18 city_pop_density_lag20 city_pop_density_lag19 city_pop_density_lag18 city_area_weighted_rainfall_rollmean_lag1_w4 city_area_weighted_rainfall_rollmean_lag1_w8 city_area_weighted_rh_rollmean_lag1_w4 city_area_weighted_rh_rollmean_lag1_w8 city_area_weighted_temp_c_rollmean_lag1_w4 city_area_weighted_temp_c_rollmean_lag1_w8 city_area_weighted_u_component_of_wind_10m_rollmean_lag1_w4 city_area_weighted_u_component_of_wind_10m_rollmean_lag1_w8 city_area_weighted_v_component_of_wind_10m_rollmean_lag1_w4 city_area_weighted_v_component_of_wind_10m_rollmean_lag1_w8 city_area_weighted_wind_speed_10m_rollmean_lag1_w4 city_area_weighted_wind_speed_10m_rollmean_lag1_w8 city_area_weighted_pop_density_rollmean_lag1_w4 city_area_weighted_pop_density_rollmean_lag1_w8 city_area_weighted_flood_risk_index_rollmean_lag1_w4 city_area_weighted_flood_risk_index_rollmean_lag1_w8 city_area_weighted_percent_annual_crop_rollmean_lag1_w4 city_area_weighted_percent_annual_crop_rollmean_lag1_w8 city_area_weighted_percent_brush_shrubs_rollmean_lag1_w4 city_area_weighted_percent_brush_shrubs_rollmean_lag1_w8 city_area_weighted_percent_built_up_rollmean_lag1_w4 city_area_weighted_percent_built_up_rollmean_lag1_w8 city_area_weighted_percent_inland_water_rollmean_lag1_w4 city_area_weighted_percent_inland_water_rollmean_lag1_w8 city_area_weighted_percent_open_forest_rollmean_lag1_w4 city_area_weighted_percent_open_forest_rollmean_lag1_w8 city_area_weighted_percent_perennial_crop_rollmean_lag1_w4 city_area_weighted_percent_perennial_crop_rollmean_lag1_w8 city_area_weighted_percent_open_barren_rollmean_lag1_w4 city_area_weighted_percent_open_barren_rollmean_lag1_w8 city_area_weighted_percent_fishpond_rollmean_lag1_w4 city_area_weighted_percent_fishpond_rollmean_lag1_w8 city_area_weighted_percent_grassland_rollmean_lag1_w4 city_area_weighted_percent_grassland_rollmean_lag1_w8 city_area_weighted_percent_mangrove_forest_rollmean_lag1_w4 city_area_weighted_percent_mangrove_forest_rollmean_lag1_w8
feature_infos=[-1:1] [-1:1] [914211.7095180488:964143.50380609359] [290905052.4156:290905052.4156] [290.90505241559998:290.90505241559998] [3142.64637869529:3314.2893043627] [80:80] [0:214] [0:214] [0:214] [0:2.3051543834180643] [0:2.3051543834180643] [0:2.3051543834180643] [0:1.1954831842907574] [0:1.1954831842907574] [0:1.1954831842907574] [0.0025243612881299211:403.77764092016611] [0.0025243612881299211:403.77764092016611] [0.0025243612881299211:403.77764092016611] [74.166209495041301:88.154553662835738] [74.166209495041301:88.154553662835738] [74.166209495041301:88.154553662835738] [24.337778836331829:27.857639391615468] [24.337778836331829:27.857639391615468] [24.337778836331829:27.857639391615468] [-4.5717681780699149:4.4965446280041954] [-4.5717681780699149:4.4965446280041954] [-4.5717681780699149:4.4965446280041954] [-6.2680500182560719:5.1247667214851038] [-6.2680500182560719:5.1247667214851038] [-6.2680500182560719:5.1247667214851038] [1.39564484944224:6.8002328204854665] [1.39564484944224:6.8002328204854665] [1.39564484944224:6.8002328204854665] [3125.6331669833717:3314.2893043626991] [3126.4700955675198:3314.2893043626991] [3127.3084466892665:3314.2893043626991] [3125.6331669833721:3314.2893043627] [3126.4700955675198:3314.2893043627] [3127.3084466892665:3314.2893043627] [0.066242600448727776:147.57175632940832] [0.48078482996758953:119.23124797939784] [76.04244385379063:86.610761977842287] [76.761170402338564:86.082735724126366] [24.635251946080103:27.639879393457701] [24.734571822108446:27.440794559836895] [-3.4486736035175789:3.6280013469861503] [-3.0815340340364679:3.131422920161175] [-4.48361272930451:3.4734894156434146] [-3.8559405516430854:3.0795858777581708] [1.7342058228275261:5.7925001460518359] [1.9506388693011207:5.3170040362056081] [3140.4885697881891:3314.1262969917143] [3138.7712235644044:3313.8757850504171] [0.39206069116144171:0.39206069116144171] [0.39206069116144171:0.39206069116144171] [8.8038756226411614:8.8038756226411614] [8.8038756226411614:8.8038756226411614] [25.626315570017983:25.626315570017983] [25.626315570017983:25.626315570017983] [21.033173411121368:21.033173411121368] [21.033173411121368:21.033173411121368] [1.2929350729991871:1.2929350729991871] [1.2929350729991871:1.2929350729991871] [3.9987213824765591:3.9987213824765591] [3.9987213824765591:3.9987213824765591] [38.056785261807292:38.056785261807292] [38.056785261807292:38.056785261807292] [0.095033994494272564:0.095033994494272564] [0.095033994494272564:0.095033994494272564] [0.13200358533077799:0.13200358533077799] [0.13200358533077799:0.13200358533077799] [0.92089829914606036:0.92089829914606036] [0.92089829914606036:0.92089829914606036] [0.040257799965338029:0.040257799965338029] [0.040257799965338029:0.040257799965338029]
tree_sizes=2846 2999 3050 3066 3025 3056 3033 2997 3032 3050 3042 3034 3066 3006 3022 3067 3039 3049 3080 3041 3061 3098 3069 3062 3076 3100 2978 3047 3128 3128 3132 3096 3134 3155 3080 3117 3095 3079 3073 3030 3088 3097 3114 3115 3093 3137 3084 3181 3083 3186 3105 3104 3118 3165 3180 3170 3069 3107 3060 3099 3129 3065 3159 3189 3156 3163 3203 3137 3136 3235 3205 3163 3205 3179 3197 3210 3174 3201 3235 3208 3175 3189 3183 3209 3204 3185 3161 3231 3209 3172 3237 3198 3192 3220 3282 3166 3229 3225 3231 3164 3150 3243 3213 3210 3247 3222 3239 3276 3240 3241 3251 3182 3138 3224 3286 3312 3302 3242 3287 3268 3276 3249 3331 3299 3323 3273 3298 3267 3272 3302 3282 3296 3296 3288 3300 3274 3259 3264 3264 3284 3220 3311 3350 3290 3298 3307 3325 3263 3334 3255 3331 3313 3266 3336 3324 3332 3349 3306 3290 3305 3313 3241 3289 3232 3323 3257 3260 3301 3253 3334 3243 3335 3344 3306 3293 3241 3346 3364 3283 3321 3313 3270 3305 3332 3233 3352 3269 3301 3321 3288 3298 3311 3275 3297 3353 3293 3236 3306 3332 3298 3317 3324 3303 3303 3278 3246 3341 3323 3268 3269 3311 3284 3282 3322 3286 3366 3253 3314 3309 3241 3371 3374 3321 3334 3321 3322 3317 3309 3307 3315 3324 3271 3268 3314 3383 3349 3281 3296 3305 3304 3284 3316 3373 3314 3297 3347 3298 3313 3326 3278 3340 3331 3291 3303 3288 3340 3303 3291 3344 3242 3328 3348 3298 3345 3302 3259 3343 3312 3312 3246 3384 3357 3288 3273 3300 3297 3284 3306 3315 3313 3346 3373 3349 3339 3316 3364 3306 3336 3270 3278 3312 3301 3323 3334 3277 3332 3262 3293 3284 3284 3316 3377 3320 3294 3331 3376 3383 3329 3279 3287 3331 3306 3273 3329 3326 3382 3290 3277 3325 3410 3314 3268 3322 3357 3285 3362 3316 3296 3289 3287 3345 3305 3326 3288 3298 3312 3341 3315 3337 3260 3319 3308 3268 3324 3329 3313 3307 3318 3277 3285 3317 3342 3296 3273 3345 3308 3263 3339 3325 3243 3336 3337 3347 3309 3353 3362 3313 3347 3354 3269 3271 3295 3303 3310 3376 3323 3308 3354 3364 3297 3316 3399 3359 3312 3385 3305 3328 3323 3286 3301 3300 3369 3299 3338 3334 3279 3345 3256 3349 3288 3309 3313 3313 3316 3327 3265 3284 3363 3388 3317 3322 3306 3278 3364 3359 3335 3342 3341 3363 3297 3370 3340 3301 3303 3332 3327 3319 3303 3323 3293 3343 3342 3367 3324 3277 3337 3333 3313 3326 3293 3337 3353 3311 3294 3301 3345 3309 3355 3340 3344 3306 3412 3320 3308 3294 3356 3299 3339 3342 3295 3389 3289 3323 3296 3322 3317 3310 3339 3307 3363 3296 3404 3286 3295 3351 3281 3360 3342 3394 3380 3377 3365 3341 3294 3324 3267 3312 3382 3401 3350 3290 3344 3281 3331 3360 3406 3246 3385 3253 3286

Tree=0
num_leaves=31
num_cat=0
split_feature=14 49 2 2 49 2 2 9 33 2 41 2 9 44 50 45 18 45 31 2 22 23 31 2 2 28 34 23 2 44
split_gain=30.124 17.0586 7.47511 5.58864 3.29353 3.65794 2.7088 2.41677 1.98223 1.92724 1.21884 1.21834 0.961052 0.791257 0.628634 0.572205 0.558234 0.480401 0.377392 0.371423 0.287011 0.392906 0.232051 0.221523 0.216985 0.187382 0.147011 0.107247 0.0856314 0.089592
threshold=0.14576669860083588 -2.0393823140004312 928835.69071090664 939879.97999360645 0.45869085307750956 961690.59030832688 926392.00140437984 42.500000000000007 3.1834834102754166 956661.81976651249 45.639960319329603 962292.19349260756 177.00000000000003 26.604402966668548 4.8846964373799731 25.815362567784579 95.741349431030912 26.493595855493027 3.0221502590985154 955029.36524073815 27.208485342135102 26.041049709250405 3.2393378694194976 933085.16036982159 950781.94788297673 2.4517273884266673 3310.4929918486882 26.374353044996841 937100.88328590931 25.626799366528815
decision_type=2 2 2 2 2 2 2 2 2 2 2 2 2 2 2 2 2 2 2 2 2 2 2 2 2 2 2 2 2 2
left_child=9 11 6 12 8 24 7 20 16 -1 -9 15 23 -8 26 19 18 -7 -5 28 21 -3 -10 -4 25 -6 -11 -24 -2 -30
right_child=1 2 3 4 5 17 13 10 22 14 -12 -13 -14 -15 -16 -17 -18 -19 -20 -21 -22 -23 27 -25 -26 -27 -28 -29 29 -31
leaf_value=0.57712765681305978 0.56753679208930452 0.60057067349198257 0.57518514509362473 0.59743456302062792 0.58598408647458045 0.57230992079028342 0.59790407742890983 0.57143229576921584 0.58743906765821363 0.55474384260035281 0.59237500312900671 0.58053567408407947 0.58928732755756497 0.60819834379331394 0.57115352833495658 0.5759415381138635 0.60227841474320343 0.55916186007833601 0.58952179897230517 0.55521764634029191 0.60209944007770344 0.59050365901892077 0.57555016866633746 0.56834774575181357 0.583557946616857 0.59245750139587872 0.55855963407304376 0.58364583788291735 0.56238595707746031 0.56757831146792692
leaf_weight=13.499999999999998 30 18 16.5 42 18 16.500000000000004 28 16.500000000000004 18 67 11.999999999999998 16.5 7.4999999999999991 56 7.4999999999999991 11.999999999999998 37 11.999999999999998 23.5 9.9999999999999982 24 21 9.0000000000000018 42 18 29.5 40.5 7.4999999999999991 27 11.999999999999998
leaf_count=8 20 3 11 9 8 11 6 11 6 45 4 9 3 7 5 7 5 8 8 7 4 8 6 28 10 9 27 4 18 8
internal_value=0.58116 0.586012 0.590102 0.585268 0.588934 0.581727 0.598284 0.592332 0.59388 0.559256 0.58025 0.568035 0.572437 0.604767 0.557158 0.565769 0.597369 0.566774 0.594596 0.564223 0.597797 0.59515 0.583513 0.570276 0.588233 0.590004 0.556181 0.57923 0.565528 0.563984
internal_weight=708.5 580 472.5 297 231 94 175.5 91.5 137 128.5 28.5 107.5 66 84 115 91 102.5 28.5 65.5 79 63 39 34.5 58.5 65.5 47.5 107.5 16.5 69 39
internal_count=323 238 169 126 84 46 43 30 38 85 15 69 42 13 77 60 22 19 17 53 15 11 16 39 27 17 72 10 46 26
is_linear=0
shrinkage=1


Tree=1
num_leaves=31
num_cat=0
split_feature=7 28 5 41 51 47 5 5 9 49 42 30 5 41 48 5 44 9 40 23 31 46 28 5 5 21 1 34 29 46
split_gain=24.6728 15.1231 7.4893 5.15097 2.47618 2.24947 2.20507 1.87595 2.20325 1.38155 1.46379 1.17294 1.11231 0.99615 0.545432 0.540879 0.44577 0.35737 0.342097 0.723747 0.335089 0.334918 0.334449 0.288572 0.200444 0.19755 0.19165 0.182948 0.143735 0.110154
threshold=18.500000000000004 -1.6113696548364915 3192.9170119188252 54.720345525498352 3.0354868854928894 -1.8928373758068815 3288.5706584421318 3184.5167133119944 41.500000000000007 0.1998995861850727 81.963594013609836 -1.8690801167241855 3307.9253368134491 45.639960319329603 -2.6683908738673305 3282.9590181071881 26.523157096164599 34.500000000000007 37.378436671764369 26.897867124443611 4.3574937891362415 -1.0094425004988785 0.70154529328484794 3270.15464781018 3308.8346008304748 82.794007655027272 0.91023613416931248 3310.4929918486882 1.3623769289375705 0.31521228259010009
decision_type=2 2 2 2 2 2 2 2 2 2 2 2 2 2 2 2 2 2 2 2 2 2 2 2 2 2 2 2 2 2
left_child=6 5 7 9 24 12 21 8 17 11 23 -4 15 -10 -8 26 -9 22 19 -13 -6 -1 -3 28 -5 -7 -2 -16 -11 -29
right_child=1 2 3 4 20 25 14 16 13 10 -12 18 -14 -15 27 -17 -18 -19 -20 -21 -22 -23 -24 -25 -26 -27 -28 29 -30 -31
leaf_value=-0.010082484120761768 -0.015571506954729558 0.0072072396427392965 -0.0017601801841347305 -0.013733815712233387 0.0049191586411835853 0.0039658155706193713 -0.012764700731107345 0.016043416758378348 -0.0093780372788508717 0.01359770389703604 -0.0067347224728733892 0.0033137203918562996 -0.00025818058186107213 0.0099495677898327525 -0.025825506345085476 -0.025773323618847394 0.023344002685685091 0.020560827520158559 0.017437423682875104 0.016164425441196988 -0.0069589805603027348 0.0024935053785641991 0.016582745428268725 0.00044266595117126899 -0.022719052235285444 -0.0043399405266557429 -0.0098657309626921635 -0.018514934513303969 0.0075268694498122502 -0.024170837257847643
leaf_weight=18.000000000000004 60 14.999999999999998 13.499999999999998 36 28.5 22.5 11.999999999999998 30 15.000000000000002 12.999999999999998 25.5 18 13.499999999999998 11.999999999999998 57.5 11.499999999999998 69 27 40.5 28 7.4999999999999991 7.4999999999999991 26 11.999999999999998 7.4999999999999991 10.499999999999998 19.5 18 39 16.5
leaf_count=12 40 6 7 24 12 9 8 6 10 3 17 8 7 4 39 8 9 4 7 5 5 4 5 6 5 6 13 12 14 11
internal_value=0.000234321 0.00450303 0.00882712 0.00342674 -0.00725543 -0.0100574 -0.01956 0.0163153 0.0112961 0.00790817 0.00339547 0.011947 -0.0136512 -0.000787991 -0.0227907 -0.0156381 0.0211317 0.0160942 0.0140863 0.0111359 0.00244455 -0.00638366 0.0131527 0.00743172 -0.015283 0.00132307 -0.014172 -0.0240984 0.00904458 -0.0212199
internal_weight=730 600.5 463 269 79.5 137.5 129.5 194 95 189.5 89.5 100 104.5 27 104 91 99 68 86.5 46 36 25.5 41 64 43.5 33 79.5 92 52 34.5
internal_count=326 240 157 113 46 83 86 44 29 67 40 27 68 14 70 61 15 15 20 13 17 16 11 23 29 15 53 62 17 23
is_linear=0
shrinkage=0.05


Tree=2
num_leaves=31
num_cat=0
split_feature=7 48 2 30 2 49 2 2 49 7 51 7 2 18 2 7 50 9 0 9 20 24 26 2 36 2 0 1 34 20
split_gain=25.6538 12.1552 5.74324 3.80782 3.80688 3.05988 3.81437 2.25426 1.58027 1.31809 1.12843 0.832686 0.800293 1.0436 0.767199 0.620829 0.590504 0.395201 0.381136 0.381069 0.380701 0.377732 0.361416 0.255147 0.215689 0.190249 0.181669 0.153754 0.127865 0.108844
threshold=18.500000000000004 -1.9840607440304763 928835.69071090664 -1.0314015720681946 939879.97999360645 0.40255752334583139 961690.59030832688 956661.81976651249 1.7797867354236481 32.500000000000007 3.9480801801945318 76.500000000000014 925199.68964952091 1.8188527514214077 962331.14875402476 100.50000000000001 4.8846964373799731 79.500000000000014 -0.51639395938746191 115.50000000000001 82.729979455239672 27.144690199991988 -0.67908263635381738 955029.36524073815 3308.8346008304748 950781.94788297673 0.06026834012766185 -0.1799261722714405 3310.4929918486882 81.825036303743971
decision_type=2 2 2 2 2 2 2 2 2 2 2 2 2 2 2 2 2 2 2 2 2 2 2 2 2 2 2 2 2 2
left_child=7 10 3 19 15 9 25 22 12 -6 20 24 13 -5 23 26 28 -8 -13 -3 -2 -14 -1 29 -11 27 -4 -7 -9 -12
right_child=1 2 4 8 5 6 17 16 -10 11 14 18 21 -15 -16 -17 -18 -19 -20 -21 -22 -23 -24 -25 -26 -27 -28 -29 -30 -31
leaf_value=-0.010428403255840142 0.0048914743587374675 -0.012232526143391924 -0.012445710966552514 0.013342844420357753 -0.0024127808213233949 0.0082566505413345787 -0.019217993732955723 -0.024644201406290835 0.022614942646738311 0.014556342079525903 -0.0095840489698780923 0.012811521950520969 0.018276679515838622 -0.005491540580987931 -0.0021095808595418932 0.0038277017780476148 -0.010078302253451613 -0.0082290901864568392 0.0030379390432721098 0.0021345339218775431 -0.0081452439938272756 0.010969173429267747 0.0018431071968128283 -0.023903411626815797 0.020350992679595947 0.0017387158769581999 -0.0058546204368273421 0.0011930778208706116 -0.020986079879932937 -0.015523208553592363
leaf_weight=18.000000000000004 12.000000000000002 12.000000000000002 34.5 19.000000000000004 14.999999999999998 53.5 18 71 67 42 8.9999999999999982 19 48 11.999999999999998 11.999999999999998 8.9999999999999982 8.9999999999999982 14.999999999999998 21 7.4999999999999991 10.499999999999998 28 8.9999999999999982 8.4999999999999982 26 21 14.999999999999998 8.9999999999999982 36 54
leaf_count=12 5 8 23 5 7 18 12 48 9 8 6 5 7 7 7 4 6 10 8 4 7 8 5 6 4 11 10 5 24 36
internal_value=-0.000326878 0.00422596 0.00753783 0.0142452 0.00318252 0.00597552 0.000168423 -0.0193501 0.0165933 0.0114757 -0.0111305 0.0134047 0.0128227 0.00605211 -0.0138084 -0.00825209 -0.0223788 -0.014223 0.00768039 -0.00670673 -0.00119233 0.0155844 -0.0063379 -0.0157719 0.0167719 0.00585607 -0.0104484 0.0072395 -0.0234134 -0.0146748
internal_weight=740.5 597.5 491.5 193.5 298 239.5 116.5 143 174 123 106 108 107 31 83.5 58.5 116 33 40 19.5 22.5 76 27 71.5 68 83.5 49.5 62.5 107 63
internal_count=335 240 173 48 125 88 56 95 36 32 67 25 27 12 55 37 78 22 13 12 12 15 17 48 12 34 33 23 72 42
is_linear=0
shrinkage=0.05


Tree=3
num_leaves=31
num_cat=0
split_feature=7 49 21 45 7 0 2 29 0 23 28 2 13 28 2 24 16 50 2 2 24 41 24 50 44 23 21 29 49 16
split_gain=20.6946 10.7386 4.1453 2.72257 3.40195 2.22818 1.93825 1.22122 1.13969 1.00523 0.80846 0.725452 0.716356 0.644622 0.628651 0.620852 0.562172 0.517121 0.492339 0.425795 0.424628 0.35485 0.426498 0.417277 0.352685 0.552672 0.323361 0.262084 0.248237 0.16838
threshold=18.500000000000004 -2.0393823140004312 79.226710587404753 26.649853383516525 62.500000000000007 0.98182534576205316 956661.81976651249 -1.2083327212289665 0.91023613416931248 26.819784324536418 2.4517273884266673 927603.97306276066 1.0804466788054901 0.93536322778947023 962331.14875402476 25.935558363298206 8.5582732546484817 4.8846964373799731 940351.15984073735 955029.36524073815 25.744500030644286 47.703442356963997 27.12595146150808 2.7034692687942097 26.262972801738847 26.714875967121369 83.329616876968217 0.44411508109272735 -1.6368727999688646 3.3614390774320557
decision_type=2 2 2 2 2 2 2 2 2 2 2 2 2 2 2 2 2 2 2 2 2 2 2 2 2 2 2 2 2 2
left_child=6 7 21 4 5 10 27 14 12 18 15 -11 16 -13 19 26 29 -8 -5 -2 -18 23 -23 -3 28 -26 -4 -1 -22 -6
right_child=1 2 3 9 8 -7 17 -9 -10 11 -12 13 -14 -15 -16 -17 20 -19 -20 -21 24 22 -24 -25 25 -27 -28 -29 -30 -31
leaf_value=-0.0091080708222256758 -0.013444926440715791 0.014363615653094124 -0.0087587579375221596 -0.0087109679480393692 0.0050680622684233104 0.015404602885246277 -0.022060334527097044 0.0024930949840280747 0.019343284918711737 0.01811764468497868 0.005530801229178906 0.012896866148168391 0.012199268625541167 -0.0021608173315014159 -0.0011070582394798597 -0.013746638390186586 0.0097322578457268803 -0.009574386787911256 0.0064760400372481835 -0.023326916419542754 -0.0060455176482597994 0.018364683698330605 0.0093225357725339793 0.0053993559664204009 -0.0080924314274280172 0.0054265159331927347 0.0048345343768596656 0.0020167654442290466 0.0039191633115212123 0.012676795858603257
leaf_weight=18.000000000000004 67.5 34 10.500000000000002 7.5000000000000027 16.500000000000004 9.9999999999999982 105.5 13.499999999999998 12.999999999999998 39.5 7.9999999999999991 22 22 10.499999999999998 8.9999999999999982 57 10.999999999999998 8.9999999999999982 18.5 12.999999999999998 7.4999999999999991 56 17 21 27 10.499999999999998 7.4999999999999991 7.4999999999999991 37.5 12.999999999999998
leaf_count=12 45 7 7 5 7 2 71 6 2 7 3 5 5 6 5 38 3 6 8 9 5 9 5 8 18 4 3 4 16 3
internal_value=-0.00104884 0.00311584 0.00627731 0.00345451 0.000695056 -0.00689219 -0.0183025 -0.0115251 0.00516097 0.0105221 -0.00957855 0.0135651 0.00388945 0.00803208 -0.0136396 -0.0111902 0.00240314 -0.0210789 0.00209517 -0.0150408 0.000504437 0.0139739 0.016259 0.0109409 -0.000725939 -0.00430713 -0.00309489 -0.00583606 0.00225838 0.00842106
internal_weight=720 580 477 349 251 93 140 103 158 98 83 72 145 32.5 89.5 75 123 114.5 26 80.5 93.5 128 73 55 82.5 37.5 18 25.5 45 29.5
internal_count=334 241 176 147 116 53 93 65 63 31 51 18 61 11 59 48 56 77 13 54 46 29 14 15 43 22 10 16 21 10
is_linear=0
shrinkage=0.05


Tree=4
num_leaves=31
num_cat=0
split_feature=10 49 5 5 49 1 5 5 5 5 33 5 9 20 48 26 5 5 49 31 7 17 9 22 5 27 5 5 8 25
split_gain=20.0464 11.8086 4.93074 3.28539 2.67788 2.50516 2.13433 1.54612 1.41082 1.10765 1.1041 0.820207 0.792836 0.573645 0.555791 0.473202 0.412509 0.324763 0.32391 0.317329 0.317107 0.310894 0.273465 0.212294 0.132735 0.136346 0.125925 0.117263 0.103638 0.0966828
threshold=0.21371660570041248 -2.0393823140004312 3192.9170119188252 3232.5019865839581 0.45869085307750956 -0.2393156642875576 3305.857297158293 3188.6829237243501 3288.5706584421318 3184.5167133119944 3.0806553575595674 3307.9253368134491 168.00000000000003 85.456718975800555 -2.6683908738673305 -2.2727953917657344 3250.8422251423603 3230.8822833742051 1.4065700064921021 3.2605463727645518 26.500000000000004 19.802766738037679 79.500000000000014 26.303565725558823 3240.7190872379865 2.8589614200457878 3207.5247666608907 3284.8212552336181 39.500000000000007 -1.9011180188205847
decision_type=2 2 2 2 2 2 2 2 2 2 2 2 2 2 2 2 2 2 2 2 2 2 2 2 2 2 2 2 2 2
left_child=8 11 5 12 10 9 24 23 29 18 15 16 26 19 -10 -5 17 -2 20 -12 -3 -17 -8 -7 -6 -26 -4 -18 -22 -1
right_child=1 2 3 4 6 7 22 -9 14 -11 13 -13 -14 -15 -16 21 27 -19 -20 -21 28 -23 -24 -25 25 -27 -28 -29 -30 -31
leaf_value=-0.011229671206739211 -0.012518772002189392 0.015565830137994556 -0.0057604547420685949 0.019387498497962952 0.0071168715174755332 -0.0099250043431917817 -0.017731067317503468 0.011642734706401826 -0.0095551042196651299 0.022237257872309006 0.0050866586466630304 -0.00021973177790641786 0.0056153855419584682 0.013198142097546503 -0.02093998433938667 0.013941345418371807 -0.016141889616847038 -0.002142244577407837 0.01663925824938594 -0.0041792674498124559 0.0039106207865255843 0.0069924957681236398 -0.0076671132886851276 -1.1158362030982972e-05 0.0039113914889712187 -0.0030667842598631982 -0.011002077649037045 -0.022975923208629387 0.0099492667118708297 -0.0048826646085621582
leaf_weight=9.0000000000000018 46.5 18 16.5 24 23 13.500000000000002 13.500000000000002 28 11.999999999999998 56 21 13.499999999999998 10.499999999999998 12.999999999999998 100.5 41 24 8.9999999999999982 37 16.5 13.500000000000002 26.5 13.499999999999998 8.9999999999999982 31.5 8.9999999999999982 37.5 8.4999999999999982 14.999999999999998 18
leaf_count=6 31 3 11 3 8 9 9 7 8 7 7 7 4 3 67 8 16 5 6 10 6 9 9 5 14 6 25 6 5 12
internal_value=-0.000220741 0.00381884 0.00705227 0.00302825 0.00579808 0.0133424 -0.000923532 0.00380017 -0.0172623 0.0167968 0.0100819 -0.0116953 -0.00695603 0.00414728 -0.0197256 0.0133573 -0.0134557 -0.0108361 0.0131481 0.00100965 0.0103703 0.0112133 -0.0126991 -0.00595947 0.0040834 0.00236069 -0.00940047 -0.0179293 0.00708886 -0.00699833
internal_weight=728 588.5 487 297 232.5 190 90.5 50.5 139.5 139.5 142 101.5 64.5 50.5 112.5 91.5 88 55.5 83.5 37.5 46.5 67.5 27 22.5 63.5 40.5 54 32.5 28.5 27
internal_count=332 239 174 126 86 48 46 21 93 27 40 65 40 20 75 20 58 36 20 17 14 17 18 14 28 20 36 22 11 18
is_linear=0
shrinkage=0.05


Tree=5
num_leaves=31
num_cat=0
split_feature=12 49 5 5 5 30 49 5 49 9 5 5 41 33 5 45 19 24 5 21 18 5 49 41 5 5 1 8 31 27
split_gain=17.6426 9.84344 4.43024 2.86251 2.75817 2.08541 1.85106 1.59273 0.768794 0.71742 0.705659 0.640429 0.925381 0.610854 0.562917 0.444275 0.42151 0.315703 0.311154 0.232883 0.230458 0.213196 0.19583 0.170754 0.163861 0.157489 0.15351 0.111676 0.108236 0.0990347
threshold=0.12711434721294632 -2.0153340138581846 3192.9170119188252 3230.8822833742051 3308.8346008304748 -1.0314015720681946 0.40255752334583139 3305.857297158293 1.7797867354236481 168.00000000000003 3307.9253368134491 3179.0668429775142 45.639960319329603 3.2179050820901183 3290.4578545027516 26.003797562719448 83.012033833764036 27.144690199991988 3282.9590181071881 78.573626336605983 95.741349431030912 3177.7230672488504 -2.2826702998708037 45.849895005084981 3207.5247666608907 3273.7718841194733 -0.40966402954315212 74.500000000000014 2.3233810950842675 -3.4537225022808067
decision_type=2 2 2 2 2 2 2 2 2 2 2 2 2 2 2 2 2 2 2 2 2 2 2 2 2 2 2 2 2 2
left_child=14 10 5 9 6 21 13 19 11 24 15 12 -7 20 -1 18 27 -13 29 -8 25 -3 -16 -21 -4 -5 -9 -15 -19 -2
right_child=1 2 3 4 -6 8 7 26 -10 -11 -12 17 -14 16 22 -17 -18 28 -20 23 -22 -23 -24 -25 -26 -27 -28 -29 -30 -31
leaf_value=-0.0073558867997711615 -0.016663763210887011 -0.007373921495551862 -0.0051702563101664566 0.012441204270211663 -0.016913760315488885 -0.006794182778823943 0.010235944603170668 -0.007612908323547646 0.018154720673638006 0.0053346164968042153 -0.00067166684816280997 0.016161670638065711 0.010893863558769227 -0.0042967120309670747 -0.012494479699267282 -0.0018787929995192423 0.010730577770032381 0.0068022480110327401 -0.020673922277413881 0.0048232132206774423 0.016080861667106892 0.0028063031120432753 -0.02022797010880149 -0.0015263387581702168 -0.010821084221204123 0.0070292552374303348 -0.016251375112268662 0.0030616714195771653 0.012363246225175404 -0.011368415699348794
leaf_weight=10.499999999999998 10.499999999999991 12.000000000000002 19.5 41 13.499999999999998 10.499999999999998 13.999999999999998 12.000000000000002 62 10.499999999999998 14.999999999999998 51 25 7.5000000000000027 8.9999999999999982 8.9999999999999982 19 14.999999999999998 12.999999999999998 36 29 8.9999999999999982 90.5 14.999999999999998 37.5 20 8.9999999999999982 16.5 21 55.500000000000007
leaf_count=7 7 8 13 9 9 7 4 8 9 4 8 8 7 5 6 5 5 5 9 14 4 4 61 9 25 7 6 7 5 37
internal_value=6.12154e-05 0.00339244 0.00626303 0.00238895 0.00502057 0.0119186 0.00637269 0.000656123 0.0136179 -0.00667551 -0.0106957 0.0113218 0.00566219 0.0100691 -0.0183665 -0.0124044 0.00516682 0.0136311 -0.0136035 0.00452375 0.0124113 -0.00301097 -0.0195285 0.0029557 -0.00888791 0.0106668 -0.0113151 0.000762177 0.0100462 -0.0122109
internal_weight=718.5 608.5 505.5 300 232.5 205.5 219 86 184.5 67.5 103 122.5 35.5 133 110 88 43 87 79 65 90 21 99.5 51 57 61 21 24 36 66
internal_count=322 248 182 129 87 53 78 41 41 42 66 32 14 37 74 58 17 18 53 27 20 12 67 23 38 16 14 12 10 44
is_linear=0
shrinkage=0.05


Tree=6
num_leaves=31
num_cat=0
split_feature=7 51 2 49 29 45 2 2 49 0 51 2 16 51 2 46 2 2 26 34 1 18 32 24 43 45 31 41 2 2
split_gain=17.4505 10.2109 3.6677 3.38618 2.33478 1.71179 1.54886 1.32599 1.20893 0.845062 0.947073 0.818986 0.818428 0.517608 0.479973 0.382111 0.367251 0.337252 0.285605 0.277568 0.326799 0.250011 0.22643 0.222983 0.189062 0.155511 0.136715 0.103708 0.100745 0.0972878
threshold=18.500000000000004 3.7815401355956637 928835.69071090664 0.45869085307750956 -1.1152500177108708 26.746097201387467 939879.97999360645 956661.81976651249 1.7797867354236481 0.91023613416931248 2.890571519817462 925199.68964952091 1.6772702041761536 3.1233482985343994 962331.14875402476 -1.9341670191959159 929667.84895722091 955029.36524073815 -0.24097911768358712 3309.9943345711004 0.8542199457734333 64.397484290870793 4.2592214292487478 27.184298932970592 82.229175615009325 25.580282474877162 4.0821790626719467 66.639369057092125 936192.70880646515 927603.97306276066
decision_type=2 2 2 2 2 2 2 2 2 2 2 2 2 2 2 2 2 2 2 2 2 2 2 2 2 2 2 2 2 2
left_child=7 2 8 6 14 13 16 18 11 10 -8 12 -2 24 17 21 -4 25 -1 -9 -21 -12 -6 29 -5 -3 -14 -26 -18 -13
right_child=1 4 3 5 22 -7 9 19 -10 -11 15 23 26 -15 -16 -17 28 -19 -20 20 -22 -23 -24 -25 27 -27 -28 -29 -30 -31
leaf_value=-0.0088815955928078383 0.010618028925223785 -0.013010098975078732 0.0044342500395032408 -0.016298721109827361 -0.0021719095762819051 0.0067361204637860772 0.012136218076994439 -0.020233148662713321 0.018287911193986092 0.016768496844076341 -0.0068505135054389614 0.01633491166706743 -0.0073267589367571303 0.0013689039895931881 -0.00018221288919448853 0.0060279429613888926 -0.0039494519915293756 -0.019752443066010109 0.0032876949260632199 -0.017234154284736257 -0.0067008561144272496 0.0041736826300621038 0.0058926138494695933 0.0086354198902845389 -0.0063135046563628644 -0.0089016048237681392 0.0010713224195771746 -0.011334133831163247 -0.011177061200141907 0.012273606285452843
leaf_weight=13.500000000000002 22 51 11.999999999999998 11.999999999999998 13.499999999999998 24.5 59.5 68.5 62 31 12.000000000000002 29 10.500000000000002 10.499999999999998 8.9999999999999982 45.5 13.500000000000002 12.999999999999998 7.4999999999999991 40.5 8.9999999999999982 8.9999999999999982 24.5 25 18 42 8.9999999999999982 24 7.4999999999999991 30
leaf_count=9 6 34 5 8 8 9 12 46 9 5 8 4 7 5 5 16 9 9 4 27 6 3 9 7 12 28 5 16 5 6
internal_value=-0.000100875 0.00349151 0.00716773 0.00353327 -0.00771736 -0.00451504 0.00730327 -0.0161116 0.0125758 0.00937297 0.00755344 0.00975389 0.00400741 -0.00878874 -0.0112679 0.00345306 -0.00254347 -0.0122091 -0.00453542 -0.0181717 -0.015319 -0.00212586 0.00302759 0.0125929 -0.0107638 -0.0111547 -0.00345072 -0.00918244 -0.00653074 0.0142698
internal_weight=758.5 619.5 466.5 279 153 89 190 139 187.5 157 126 125.5 41.5 64.5 115 66.5 33 106 21 118 49.5 21 38 84 54 93 19.5 42 21 59
internal_count=342 250 157 113 93 50 63 92 44 44 39 35 18 41 76 27 19 71 13 79 33 11 17 17 36 62 12 28 14 10
is_linear=0
shrinkage=0.05


Tree=7
num_leaves=31
num_cat=0
split_feature=7 49 16 23 21 2 45 7 2 2 41 23 8 40 47 2 42 24 34 1 19 2 33 16 22 33 25 23 25 41
split_gain=14.7642 10.3933 3.68263 2.03278 1.93044 1.76216 1.37628 1.4778 1.33304 1.02436 0.599688 0.479365 0.462793 0.461493 0.505902 0.423519 0.394911 0.392626 0.345441 0.334145 0.266966 0.251442 0.248802 0.211773 0.199272 0.19524 0.174381 0.153649 0.101365 0.0901996
threshold=18.500000000000004 -2.0393823140004312 5.5387582909018427 25.395006314376012 79.995828742565308 933085.16036982159 26.708129375423972 62.500000000000007 956661.81976651249 926392.00140437984 57.900955249720511 26.196547445846708 40.500000000000007 86.455149168591745 2.6780015813406322 962292.19349260756 81.963594013609836 25.935558363298206 3309.9943345711004 0.8542199457734333 82.019795141185 955029.36524073815 3.1299791850964156 0.34970998165105432 26.201095932620131 2.3653221696445121 0.56651133260465592 26.542079477990985 2.1190250827455568 71.48981385734136
decision_type=2 2 2 2 2 2 2 2 2 2 2 2 2 2 2 2 2 2 2 2 2 2 2 2 2 2 2 2 2 2
left_child=8 15 5 -4 11 9 7 17 16 12 20 -5 -3 14 26 21 -1 24 -10 -20 25 29 -8 -11 -6 -7 -9 -13 -19 -2
right_child=1 2 3 4 6 10 22 13 18 23 -12 27 -14 -15 -16 -17 -18 28 19 -21 -22 -23 -24 -25 -26 -27 -28 -29 -30 -31
leaf_value=-0.0081429552700784461 -0.01044891561071078 0.012863752629075732 0.01562711925342165 0.002198508665675209 -0.0070169256689647814 0.01255614697933197 0.010028683325206792 -0.001265453387839863 -0.019279908028341109 0.015880383188660082 -0.0053677405541141835 0.013392729528488651 0.0040812595614365173 0.0072834334791974827 0.0088318626989017848 -0.0010168013887272942 0.0055130287011464435 -0.0098920499523862809 -0.016038610744807457 -0.0064043966121971607 0.00094051229664021067 -0.018823418823572306 0.001997234798424567 0.021128691434860233 0.0028252575132581923 0.0055250912140577266 -0.0078587191317368438 0.0079291082918643962 -0.015778875516520609 -0.014972402872862639
leaf_weight=18.000000000000004 60 52.5 29 21 12.000000000000002 20 27 39 62 37 11.999999999999998 31 21 23.5 10.999999999999998 8.9999999999999982 7.4999999999999991 39 36 11.999999999999998 13.499999999999998 12.999999999999998 14.999999999999998 40 8.9999999999999982 19.5 13.499999999999998 22 8.9999999999999982 13.499999999999998
leaf_count=12 40 11 5 9 8 4 7 22 42 5 7 5 9 7 3 5 4 26 24 8 7 9 7 5 4 7 9 6 6 9
internal_value=0.000507257 0.00381372 0.00661552 0.00304317 0.0017015 0.0116052 -0.000873621 -0.0030366 -0.0144267 0.0145766 0.00472533 0.00859167 0.0103545 0.00129731 -0.00091803 -0.0113395 -0.00412649 -0.0085011 -0.0168145 -0.0136301 0.00701055 -0.0124135 0.00716031 0.0186068 -0.00279885 0.00908512 -0.00296086 0.0111248 -0.0109958 -0.0112798
internal_weight=747.5 612 516.5 301 272 215.5 198 156 135.5 150.5 65 74 73.5 87 63.5 95.5 25.5 69 110 48 53 86.5 42 77 21 39.5 52.5 53 48 73.5
internal_count=332 242 179 124 119 55 99 85 90 30 25 20 20 41 34 63 16 44 74 32 18 58 14 10 12 11 31 11 32 49
is_linear=0
shrinkage=0.05


Tree=8
num_leaves=31
num_cat=0
split_feature=7 49 5 5 49 5 30 33 5 5 8 45 21 18 23 7 34 25 46 49 44 32 7 29 7 43 49 5 25 25
split_gain=14.3775 7.39667 2.56993 2.31018 1.66275 1.90391 1.48446 0.955216 0.895612 0.78979 0.605112 0.602054 0.572691 0.331922 0.293273 0.260954 0.256898 0.299243 0.235551 0.20764 0.188662 0.186672 0.170893 0.156967 0.154649 0.148092 0.128983 0.102425 0.100251 0.0877015
threshold=18.500000000000004 -2.0393823140004312 3192.9170119188252 3230.8822833742051 0.40255752334583139 3305.857297158293 -1.0314015720681946 3.0806553575595674 3288.5706584421318 3184.5167133119944 126.50000000000001 26.20853442622732 85.337771903815664 95.741349431030912 25.36205145425318 50.500000000000007 3309.9943345711004 -1.6918728195214048 -2.4953262761592714 1.4065700064921021 26.482982963560584 2.2878642537950165 26.500000000000004 -0.88438440293493514 137.50000000000003 82.017815466956421 -0.9947432196949676 3268.3583182482757 -2.1718318422655676 0.56651133260465592
decision_type=2 2 2 2 2 2 2 2 2 2 2 2 2 2 2 2 2 2 2 2 2 2 2 2 2 2 2 2 2 2
left_child=8 12 6 10 7 23 24 13 -1 11 20 -8 25 21 -14 -7 -10 -18 -9 22 -4 -5 -13 -6 -3 -2 -23 -25 -20 -11
right_child=1 2 3 4 5 15 9 18 16 29 -12 19 14 -15 -16 -17 17 -19 28 -21 -22 26 -24 27 -26 -27 -28 -29 -30 -31
leaf_value=-0.0057858893958230816 -0.015820799513560971 -0.0063421592892458026 -0.010771188437938692 0.012030955510480064 -0.0019080049875709747 -0.016711247818810594 -0.0013123622095143354 -0.0039637259074619844 -0.018373876700506494 0.012675921991467477 0.0042325106061374155 0.012348366342484951 -0.0088557526469230635 0.01511251346485035 0.0015663130967705338 -0.0069343676074193079 -0.0072852602435482874 -0.016065894391225733 0.0075763802134221616 0.013765491201327399 -0.0044538103282833709 0.010193856519002179 0.0059496802277863026 0.0060135011882090778 0.0028103430072466532 -0.010693682374225723 0.0036578999728792243 0.0013902634771754191 0.0021891658313763444 0.016260854571552599
leaf_weight=24 20.5 12.000000000000002 30 28 8.9999999999999982 10.500000000000002 13.499999999999998 10.499999999999998 68 24 11.999999999999998 15.999999999999998 13.500000000000002 37 13.499999999999998 19.5 13.499999999999998 34.5 15.499999999999995 26 19.5 13.000000000000002 30 59.5 7.4999999999999991 45 18 14.999999999999998 19.500000000000004 59
leaf_count=16 14 8 20 5 5 7 7 7 46 4 5 3 9 5 6 13 9 23 5 4 13 3 11 21 3 30 7 8 7 8
internal_value=-0.000156753 0.0032251 0.00560819 0.00285781 0.00495566 0.00044755 0.0102385 0.0085717 -0.0145779 0.0117499 -0.00584057 0.00837719 -0.00977243 0.0113999 -0.00364472 -0.0103563 -0.016397 -0.0135963 0.00260447 0.010194 -0.00828252 0.00907168 0.00817531 0.00432916 -0.00282197 -0.0122984 0.00639878 0.00508265 0.00457493 0.0152242
internal_weight=737 597 504.5 316.5 255 113.5 188 141.5 140 168.5 61.5 85.5 92.5 96 27 30 116 48 45.5 72 49.5 59 46 83.5 19.5 65.5 31 74.5 35 83
internal_count=332 238 179 131 93 54 48 39 94 37 38 25 59 20 15 20 78 32 19 18 33 15 14 34 11 44 10 29 12 12
is_linear=0
shrinkage=0.05


Tree=9
num_leaves=31
num_cat=0
split_feature=7 51 49 21 0 0 7 2 19 25 7 41 40 2 26 50 44 50 22 32 2 16 23 42 1 34 21 2 42 41
split_gain=11.7111 7.2671 2.88848 2.26693 1.40505 1.38963 1.68117 1.07284 0.822803 0.509677 0.425894 0.420655 0.378704 0.336185 0.319455 0.30018 0.290705 0.290303 0.276253 0.237251 0.214433 0.211965 0.184266 0.179841 0.1403 0.138733 0.128094 0.10586 0.105524 0.120381
threshold=18.500000000000004 3.7815401355956637 1.7797867354236481 79.226710587404753 -0.1799261722714405 0.06026834012766185 70.000000000000014 956661.81976651249 79.719622194640735 -2.6288427905153822 177.00000000000003 57.16485619614668 29.303412216366276 962292.19349260756 -0.67908263635381738 2.1655241014946847 27.136147759440657 4.8846964373799731 25.787357056472672 2.3653221696445121 955029.36524073815 78.924255264314965 26.440344197870122 83.951064476287641 -0.1799261722714405 3310.4929918486882 83.494270317949145 962167.57397501438 80.692176850361733 55.874685012700333
decision_type=2 2 2 2 2 2 2 2 2 2 2 2 2 2 2 2 2 2 2 2 2 2 2 2 2 2 2 2 2 2
left_child=7 2 3 11 -3 6 8 14 -5 -7 18 16 -4 20 -1 -11 19 25 -8 -2 28 26 23 -20 -24 -9 -17 -10 -6 -30
right_child=1 4 12 5 13 9 10 17 27 15 -12 -13 -14 -15 -16 21 -18 -19 22 -21 -22 -23 24 -25 -26 -27 -28 -29 29 -31
leaf_value=-0.0075724820502930199 0.007149486462859545 0.0027401193788503869 0.022367760539054871 0.0039129009686543472 -0.013179426474703682 -0.0014418991113250906 0.0089343126524578445 -0.017431060151946277 -0.0088002860736382266 -0.0044064015150070196 0.0094044574282386093 0.013742498519285671 0.01354051770799157 -0.0012401597130866279 0.0047097639739513402 0.012253514415508994 0.011151206779938479 -0.006699250390132268 -0.0050895262154794872 -0.00289008476667934 -0.016915335878729822 0.0048676113211648898 -0.0028907019231054522 0.0033582749517841477 0.0041879427456666561 -0.013627851923306783 0.0072869469970464704 -0.015201695362726848 -0.0072254881273866416 -0.011580660237985499
leaf_weight=18.000000000000004 17.000000000000004 28.5 15.999999999999998 13.999999999999998 18 16.5 10.999999999999998 66.5 46.5 4.4999999999999991 22 53 50.5 10.499999999999998 7.4999999999999991 37 26 8.9999999999999982 21.000000000000004 8.9999999999999982 11.999999999999998 23.5 8.9999999999999982 8.9999999999999982 31.5 37.5 20 7.4999999999999991 42 25.5
leaf_count=12 5 13 2 5 12 9 3 45 31 3 5 9 9 6 4 6 5 6 14 5 8 9 5 4 12 25 6 5 28 17
internal_value=-0.000158503 0.00295601 0.0060548 0.00436423 -0.00713494 0.00196288 -0.000781467 -0.0132237 -0.0068889 0.00659988 0.00323115 0.0106078 0.0156644 -0.00974086 -0.00396006 0.00816093 0.00741273 -0.0153142 0.00156473 0.00367425 -0.0106563 0.00886345 0.00041487 -0.00255519 0.00261491 -0.0160597 0.0105109 -0.00968937 -0.00977786 -0.00887078
internal_weight=719.5 581 444.5 378 136.5 273 171.5 138.5 68 101.5 103.5 105 66.5 108 25.5 85 52 113 81.5 26 97.5 80.5 70.5 30 40.5 104 57 54 85.5 67.5
internal_count=328 236 152 141 84 117 84 92 41 33 43 24 11 71 16 24 15 76 38 10 65 21 35 18 17 70 12 36 57 45
is_linear=0
shrinkage=0.05


Tree=10
num_leaves=31
num_cat=0
split_feature=12 49 16 23 21 2 18 29 2 46 7 29 19 43 48 43 43 28 11 33 20 33 44 2 2 27 24 16 1 22
split_gain=11.4282 7.37163 2.95242 1.64983 1.66772 1.39773 0.769561 0.747622 0.669626 0.667534 0.546933 0.543615 0.436637 0.374892 0.373513 0.349048 0.341531 0.291879 0.261656 0.256469 0.211615 0.191234 0.284183 0.19071 0.189866 0.180543 0.167091 0.163621 0.131398 0.103378
threshold=0.12711434721294632 -2.0393823140004312 5.5387582909018427 25.395006314376012 82.019795141185 933085.16036982159 198.63936483047539 -1.2083327212289665 926392.00140437984 -1.5463134992710834 65.000000000000014 1.3157720526585723 82.019795141185 81.913265043853741 -2.7544649181825269 82.891814717014739 82.69468826545625 1.1653924569246619 0.76589950547407426 3.5535310768078294 79.874997409875235 2.4259244168533396 27.016214320025657 957210.8146354456 962331.14875402476 -0.18012097135475183 25.859453746990962 0.34970998165105432 -1.7225262015363449e-16 27.003279054029509
decision_type=2 2 2 2 2 2 2 2 2 2 2 2 2 2 2 2 2 2 2 2 2 2 2 2 2 2 2 2 2 2
left_child=14 7 5 -4 9 8 10 13 16 20 26 19 29 -2 -1 -13 -3 25 -14 21 -5 22 -11 -16 28 -12 -6 -10 -15 -7
right_child=1 2 3 4 6 12 -8 -9 27 11 17 15 18 24 23 -17 -18 -19 -20 -21 -22 -23 -24 -25 -26 -27 -28 -29 -30 -31
leaf_value=-0.0035772147774696355 -0.014984529142109855 0.011732140235733568 0.014834706829144404 0.0028773313595188981 -0.0020924955961250124 0.0039949422633206401 0.0098213640126315043 0.002077782223156343 0.013792421447264181 0.0025315228396573584 -0.0017793816038303907 0.0036773917087841602 -0.0072931393271400795 -0.0028132175405820212 -0.0074925605083505306 -0.0088885390758514406 0.0045139482163864637 -0.0070832554112981866 0.0032308248458085237 0.0034982142403073937 -0.0055636965839022945 0.012133015571413814 0.010638827773240898 -0.015789431695780044 -0.0012159786187112332 0.004666824177617118 -0.0091444108163982272 0.018405643105506898 -0.0098882829646269477 0.009603068374452137
leaf_weight=7.4999999999999991 26.5 57 26 13.500000000000002 10.499999999999998 13.499999999999998 10.999999999999998 14.999999999999998 37 18.5 22.5 21.000000000000004 10.500000000000002 7.4999999999999991 7.4999999999999991 7.4999999999999991 23 13.499999999999998 13.499999999999998 23 16.5 37 26 90.5 8.9999999999999982 21 42 40 52.5 21
leaf_count=5 18 11 4 6 6 5 2 7 5 7 13 9 7 5 5 5 9 9 6 9 11 6 5 61 5 7 28 5 35 5
internal_value=0.000908416 0.0034384 0.00590896 0.0027802 0.00167467 0.0104025 -0.00278555 -0.00829956 0.0128605 0.00497195 -0.00405199 0.00649161 0.00380572 -0.00992951 -0.0143314 0.000370568 0.00965691 -0.000660644 -0.00137341 0.00816099 -0.00176523 0.00947686 0.00726838 -0.0151545 -0.00798808 0.00133258 -0.00773403 0.0161889 -0.0090039 0.00740858
internal_weight=741 635.5 525 309.5 283.5 215.5 120.5 110.5 157 163 109.5 133 58.5 95.5 105.5 28.5 80 57 24 104.5 30 81.5 44.5 98 69 43.5 52.5 77 60 34.5
internal_count=321 250 180 127 123 53 65 70 30 58 63 41 23 63 71 14 20 29 13 27 17 18 12 66 45 20 34 10 40 10
is_linear=0
shrinkage=0.05


Tree=11
num_leaves=31
num_cat=0
split_feature=7 49 2 2 30 49 2 2 49 26 2 16 8 43 51 21 24 47 37 12 17 35 43 50 42 12 42 2 32 41
split_gain=10.8035 6.03604 2.23737 2.22228 1.78174 1.5871 1.31716 0.955907 0.805498 0.717833 0.49537 0.493551 0.428638 0.395646 0.395333 0.324675 0.243511 0.242984 0.227141 0.221796 0.200757 0.200211 0.228765 0.194584 0.178681 0.173205 0.130027 0.100191 0.106782 0.0780219
threshold=18.500000000000004 -2.0393823140004312 928835.69071090664 939879.97999360645 -1.0314015720681946 0.40255752334583139 961690.59030832688 956661.81976651249 1.7797867354236481 -2.6288427905153822 925199.68964952091 35.90079494732624 168.00000000000003 82.017815466956421 3.9629543366216438 83.329616876968217 27.059166066575653 -0.035908243500130076 3308.8346008304748 1.238889847126893 49.472561005418932 3309.9943345711004 84.292340919385865 3.4069765663147544 81.816267370207058 1.0886994539333599 82.337902057996956 950781.94788297673 4.2750346779243946 71.113529737278057
decision_type=2 2 2 2 2 2 2 2 2 2 2 2 2 2 2 2 2 2 2 2 2 2 2 2 2 2 2 2 2 2
left_child=7 13 4 12 25 9 27 24 10 -5 11 26 -4 -2 -15 18 -12 -8 23 -10 -17 -9 -23 -11 -1 -3 -6 28 -7 -16
right_child=1 2 3 5 8 6 17 21 19 15 16 -13 -14 14 29 20 -18 -19 -20 -21 -22 22 -24 -25 -26 -27 -28 -29 -30 -31
leaf_value=-0.0066462928259914556 -0.013584761226430854 -0.0077567588227490563 -0.0068822511966062485 -0.0034678550747533642 0.0089385271072387681 0.002753545696798124 -0.003988497133832424 -0.015678949470703418 0.012151124446015609 0.010628349951335363 0.012700373810880326 -0.0078938277562459313 0.0048593804240226746 0.0028504632757089679 -0.0065159289031806915 0.0076887006822385267 0.0074129101728383261 -0.013534117837746938 0.015207270213535854 0.017485361695289612 -0.00092609247991016933 -0.012919849711350906 -0.0033846917748451238 0.0048625382418568076 0.0016973151781019711 0.00073846134667595231 0.0020054575055837632 0.00071900589835076107 0.0073062016054036769 -0.010410916432738304
leaf_weight=16.500000000000004 23.5 12.000000000000002 57 11.999999999999998 19.000000000000004 28.5 12.000000000000002 65 38 70 51 7.4999999999999991 8.9999999999999982 10.499999999999998 45 19.000000000000004 38 14.999999999999998 21 40 10.499999999999998 39 7.4999999999999991 18.5 10.499999999999998 11.999999999999998 10.499999999999998 21 23.5 18
leaf_count=11 16 8 38 7 5 12 8 44 6 13 7 5 3 5 30 5 10 10 3 5 5 26 5 6 6 6 5 11 7 12
internal_value=0.000822241 0.0035545 0.00559985 0.00288292 0.00937734 0.00502964 0.000143972 -0.0118428 0.0108934 0.00826517 0.00842139 0.00355907 -0.00528112 -0.00793737 -0.00613175 0.0092781 0.0104428 -0.00929162 0.0105324 0.0148866 0.00462242 -0.0138869 -0.0113819 0.00942307 -0.00340156 -0.00350915 0.00647082 0.00363385 0.004811 -0.00762878
internal_weight=780.5 642 545 317 228 251 100 138.5 204 151 126 37 66 97 73.5 139 89 27 109.5 78 29.5 111.5 46.5 88.5 27 24 29.5 73 52 63
internal_count=340 248 185 128 57 87 48 92 43 39 32 15 41 63 47 32 17 18 22 11 10 75 31 19 17 14 10 30 19 42
is_linear=0
shrinkage=0.05


Tree=12
num_leaves=31
num_cat=0
split_feature=7 49 5 16 5 47 49 7 5 49 48 51 5 29 45 5 5 7 51 20 42 49 5 17 48 44 18 18 43 51
split_gain=9.52054 4.98505 1.9962 1.66224 1.44186 0.955895 0.902644 0.989416 0.731351 0.514617 0.505927 0.482452 0.418461 0.41325 0.348941 0.331289 0.306309 0.28548 0.256388 0.230524 0.251003 0.226015 0.193449 0.175281 0.151221 0.100421 0.0969769 0.0965074 0.0907385 0.0825119
threshold=12.500000000000002 -2.0393823140004312 3308.8346008304748 7.7439602188914831 3307.8080879886779 -1.8351209175064496 0.45869085307750956 112.00000000000001 3195.7775956020723 1.7797867354236481 1.9363357680130997 3.2016932445567123 3268.3583182482757 -1.2083327212289665 26.318475878974425 3288.5706584421318 3308.05924738356 177.00000000000003 2.5644336449392218 82.005270240158197 82.517377194969001 1.2403908287783456 3282.9590181071881 23.777593042180779 -2.7544649181825269 26.006564062440862 34.89446498671014 1.0807232705837631 85.361083714516425 4.2346172637099562
decision_type=2 2 2 2 2 2 2 2 2 2 2 2 2 2 2 2 2 2 2 2 2 2 2 2 2 2 2 2 2 2
left_child=15 13 3 8 5 -5 11 10 9 14 -8 18 19 16 -3 -1 22 21 -7 -10 -21 -9 28 -13 -17 -25 -20 -16 29 -2
right_child=1 2 -4 4 -6 6 7 17 12 -11 -12 23 -14 -15 27 24 -18 -19 26 20 -22 -23 -24 25 -26 -27 -28 -29 -30 -31
leaf_value=-0.0053346824866754043 -0.0062164894086711199 -0.0014591984036895966 -0.013304048776626588 -0.0073747894416252777 0.012938067124735926 0.0019584936966352603 -0.0075835164355975331 -0.0053710811336835206 0.0086014217281916057 0.013838729373554685 0.0034115119906211345 0.0037663269098158238 -0.0038890599505975844 0.0030750823491770361 0.0072584314436158724 -0.0068105823795000719 -0.00064192489177609491 0.011016549055392927 0.0063071489334106451 0.0055385031499141863 -0.0050847785671552029 0.0046514394051498835 -0.01505853645503521 0.00086721299421263921 -0.014177036042116127 -0.0063303336087200375 0.010191127591662937 0.011184719924269053 -0.013423026005427045 -0.0098472913836731638
leaf_weight=13.499999999999998 40.5 8.9999999999999982 14.999999999999998 27 31 17 46.5 7.5000000000000027 41.5 67 13.499999999999998 27 11.999999999999998 8.9999999999999982 34 7.4999999999999991 11.999999999999998 12.999999999999998 25 21.500000000000004 7.4999999999999991 22.5 11.999999999999998 10.500000000000002 98 8.9999999999999982 45 29 7.4999999999999991 25.5
leaf_count=9 27 5 10 18 5 7 31 5 10 9 5 9 8 4 11 5 7 2 8 7 5 8 8 5 66 6 8 5 5 17
internal_value=0.000272998 0.00269642 0.00467655 0.00519924 0.0027381 0.0015381 0.00255564 -0.000961055 0.0084715 0.0106849 -0.00510964 0.00526889 0.00474221 -0.0071763 0.00775015 -0.0127096 -0.00812258 0.00482766 0.00746637 0.00621136 0.0027911 0.00214581 -0.0091725 0.0011575 -0.0136534 -0.00245473 0.00880399 0.00906577 -0.00821152 -0.0076193
internal_weight=756.5 637.5 531 516 294.5 263.5 236.5 103 221.5 139 60 133.5 82.5 106.5 72 119 97.5 43 87 70.5 29 30 85.5 46.5 105.5 19.5 70 63 73.5 66
internal_count=335 255 187 177 117 112 94 51 60 30 36 43 30 68 21 80 64 15 23 22 12 13 57 20 71 11 16 16 49 44
is_linear=0
shrinkage=0.05


Tree=13
num_leaves=31
num_cat=0
split_feature=7 51 49 21 0 2 45 20 2 9 2 33 43 8 51 8 48 28 27 20 43 20 43 49 49 27 2 25 44 31
split_gain=8.34958 4.04757 2.26496 1.50087 1.14031 1.02016 0.968868 0.810495 0.678256 0.38929 0.345408 0.334882 0.325161 0.401108 0.301777 0.229659 0.200671 0.1913 0.178141 0.149588 0.146986 0.129753 0.127514 0.166431 0.114099 0.0764786 0.0676712 0.0672399 0.061128 0.0555287
threshold=18.500000000000004 3.7815401355956637 1.7797867354236481 79.944537446385525 0.46472317204376884 962157.12389148865 26.430953134829341 83.10026885882813 956661.81976651249 115.50000000000001 962292.19349260756 3.1299791850964156 82.916396245057555 158.00000000000003 2.9702423104713325 88.500000000000014 -2.6683908738673305 -0.28925884511594069 -2.7290836428708887 81.306302933363554 81.375611145835691 79.590735380949226 83.328658582567144 0.22867648736866422 0.70376581979694464 0.92044930670145841 936645.66333282168 -2.9995590298097961 25.609020317402322 3.1299791850964156
decision_type=2 2 2 2 2 2 2 2 2 2 2 2 2 2 2 2 2 2 2 2 2 2 2 2 2 2 2 2 2 2
left_child=8 2 3 14 5 7 10 12 17 -4 20 -6 24 21 22 -7 -10 -1 -13 -16 -3 -14 23 -2 -5 -26 -22 -18 -28 -9
right_child=1 6 9 4 11 15 -8 29 16 -11 -12 18 13 -15 19 -17 27 -19 -20 -21 26 -23 -24 -25 25 -27 28 -29 -30 -31
leaf_value=-0.0064732395236690825 0.0097757929428057243 -0.012378886938095093 0.0088988201233009111 0.0090748834113279983 0.0096115725287901511 -0.012020364138815139 0.003174884002982525 -0.007699713798669669 -0.0065767254059513405 0.01591915637254715 0.00030678125374295097 -0.0017650730631969596 0.0008721831720322371 0.0051695512712229882 0.0057624100297689442 -0.0034551279153674842 -0.0088450016578038547 0.0033068409313758216 0.0053143359004304965 -0.001349205772082011 -0.005996902984963067 -0.0056453730622749963 0.012221496800581615 0.0045272973082635714 0.00059928206582775408 0.0060266256332397461 -0.01049919992685318 -0.013759801880374473 -0.0060802622232586151 -0.0037585853436736
leaf_weight=15.000000000000002 44 17.5 39 18 35 22.5 28.5 19.5 11.999999999999998 40 13.499999999999998 13.499999999999998 11.999999999999998 24.5 25 11.999999999999998 7.4999999999999991 7.4999999999999991 26 10.499999999999998 43.5 21 24 23 10.500000000000002 17 22.5 96.5 11.999999999999998 16.5
leaf_count=10 8 12 9 4 8 15 12 13 8 5 7 7 5 7 8 8 5 4 9 5 29 14 3 8 6 5 15 65 8 11
internal_value=-0.000108047 0.00248148 0.00475991 0.00313699 0.000876326 -0.00134536 -0.0050332 0.000564743 -0.011158 0.0124534 -0.00717935 0.00605033 0.00282195 0.000322911 0.00756895 -0.00904115 -0.012699 -0.00321321 0.00289479 0.00365897 -0.0082376 -0.00327535 0.00909427 0.00797407 0.00598007 0.00395437 -0.00730847 -0.0134054 -0.00896218 -0.00589336
internal_weight=729.5 591 453.5 374.5 248 173.5 137.5 139 138.5 79 109 74.5 103 57.5 126.5 34.5 116 22.5 39.5 35.5 95.5 33 91 67 45.5 27.5 78 104 34.5 36
internal_count=333 241 158 144 112 88 83 65 92 14 71 24 41 26 32 23 78 14 16 13 64 19 19 16 15 11 52 70 23 24
is_linear=0
shrinkage=0.05


Tree=14
num_leaves=31
num_cat=0
split_feature=7 48 2 2 30 49 2 2 2 45 51 32 42 42 48 9 8 49 24 49 43 22 44 25 34 25 41 41 17 21
split_gain=7.21085 5.15402 1.76237 1.43 1.41015 1.02666 0.971388 0.528608 0.507746 0.39174 0.389468 0.288185 0.264522 0.213694 0.210062 0.202565 0.189844 0.181891 0.174749 0.160136 0.151032 0.113756 0.107429 0.105224 0.0960667 0.100119 0.0924142 0.0883372 0.198994 0.0718769
threshold=18.500000000000004 -1.9574514924966391 928835.69071090664 939879.97999360645 -1.0314015720681946 0.40255752334583139 961690.59030832688 926392.00140437984 956661.81976651249 26.23137204961116 3.9157862346848256 3.2393378694194976 81.497736486308028 81.816267370207058 -2.7544649181825269 57.500000000000007 126.50000000000001 -1.337297430090969 25.998880509930927 1.4065700064921021 82.017815466956421 27.400166759482328 26.523157096164599 -1.0656130436440516 3310.4929918486882 -1.6918728195214048 85.547157506053324 38.316214778292746 5.5387582909018427 81.834827129397354
decision_type=2 2 2 2 2 2 2 2 2 2 2 2 2 2 2 2 2 2 2 2 2 2 2 2 2 2 2 2 2 2
left_child=8 10 4 16 17 11 27 9 13 -6 29 23 -9 -1 -10 -8 -4 -3 -13 21 -12 -11 -14 -5 -16 -26 -22 -7 -29 -2
right_child=1 2 3 5 7 6 15 12 14 19 20 18 22 -15 24 -17 -18 -19 -20 -21 26 -23 -24 -25 25 -27 -28 28 -30 -31
leaf_value=-0.0076783879487602779 0.0025577536379430615 -0.0089244114501135664 -0.0058948651969937295 0.0065504802423611026 -8.6498034722877281e-05 0.0049307962561525951 -0.013248337592397415 0.017966927587985994 -0.0035099930067857103 0.0040758230461506173 -0.011878602100270134 0.0069260326100558768 0.0085459476709365857 0.0018322666397406944 -0.013547848723828793 -0.0041934619719783467 0.0020185604950206147 0.00076231710198852764 0.00017461392821537124 0.010973929657655604 -0.0064486153250516848 0.0091148675907225842 0.01220042817905301 0.010305697443308654 -0.0057099324133661061 -0.011659347040183617 -0.012312632203102112 0.0050713363732840565 -0.0024812672117894346 -0.0038510287056366605
leaf_weight=13.500000000000002 10.500000000000002 10.500000000000002 48 28.5 16.5 41 10.500000000000002 15.999999999999998 7.4999999999999991 24 21 20.5 30 10.499999999999998 56 14.999999999999998 8.9999999999999982 8.9999999999999982 18 34 64.5 21 61 54 8.9999999999999982 33 7.4999999999999991 18.5 16.5 7.4999999999999991
leaf_count=9 5 7 32 8 8 13 7 2 5 9 14 6 6 6 38 10 4 5 7 5 43 4 8 9 6 22 5 6 11 5
internal_value=0.000637989 0.00290442 0.00506225 0.00242064 0.00838806 0.00423081 0.000522483 0.00962466 -0.0100816 0.00692061 -0.00684466 0.00734151 0.0120381 -0.00351748 -0.0115749 -0.00792194 -0.00464538 -0.00445361 0.00376953 0.00838412 -0.00814765 0.00642738 0.0109957 0.00900844 -0.0121921 -0.0103845 -0.00705945 0.00335581 0.00151082 -0.000112572
internal_weight=742 612.5 501.5 279.5 222 222.5 101.5 202.5 129.5 95.5 111 121 107 24 105.5 25.5 57 19.5 38.5 79 93 45 91 82.5 98 42 72 76 35 18
internal_count=325 239 167 113 54 77 47 42 86 26 72 30 16 15 71 17 36 12 13 18 62 13 14 17 66 28 48 30 17 10
is_linear=0
shrinkage=0.05


Tree=15
num_leaves=31
num_cat=0
split_feature=7 51 5 5 45 0 5 16 5 40 0 5 5 51 8 48 26 5 8 19 44 48 41 41 16 21 33 17 40 51
split_gain=6.38543 3.55753 2.00445 1.18135 1.08609 0.801885 1.08768 0.708959 0.68323 0.639325 0.546107 0.361237 0.344444 0.303473 0.298118 0.157679 0.152951 0.148338 0.13869 0.123118 0.122367 0.109557 0.0982926 0.0901261 0.0895705 0.0862259 0.0799518 0.0752287 0.0700639 0.0649392
threshold=18.500000000000004 3.7815401355956637 3192.9170119188252 3230.8822833742051 26.430953134829341 0.91023613416931248 3305.857297158293 5.5387582909018427 3288.5706584421318 73.087688629281203 -0.12053668025532321 3307.9253368134491 3185.8979265071971 2.9702423104713325 140.50000000000003 -2.6683908738673305 -0.67908263635381738 3282.9590181071881 55.500000000000007 77.278899579883813 26.437906965199506 -1.4479480581017352 71.48981385734136 45.849895005084981 35.90079494732624 82.729979455239672 3.4732032409926874 16.622184172326957 36.809975505681926 2.7047533392832741
decision_type=2 2 2 2 2 2 2 2 2 2 2 2 2 2 2 2 2 2 2 2 2 2 2 2 2 2 2 2 2 2
left_child=8 2 7 14 11 6 13 12 16 24 18 17 19 29 -4 -10 -1 22 -8 -2 -21 28 27 -6 -9 -23 -12 -3 -15 -5
right_child=1 4 3 5 23 -7 10 9 15 -11 26 -13 -14 21 -16 -17 -18 -19 -20 20 -22 25 -24 -25 -26 -27 -28 -29 -30 -31
leaf_value=-0.0046486481837928291 0.010701819024980068 -0.0090164971848328904 -0.0057118654710107616 0.0056136768252130539 0.0049578717694832731 0.012915225681804476 -0.012782591953873632 -0.0003599214522788921 -0.0050012125737137272 0.0074156699956140736 -0.002399298648039499 0.00047682736534625291 0.013737557952602706 0.0068851910969790278 0.0035172463677424406 -0.01192108301609909 0.0040963739653428399 -0.013198604272759479 -0.0053949741853608034 0.0036724378303107292 0.0086366466805338857 -0.0012297416892316608 -0.010090517501036327 -0.0012637056224048138 -0.0069584967361556163 0.0036643006652593612 0.0039233529567718507 -0.0050696440222155722 0.0018951838215192159 0.0087223047597540758
leaf_weight=15.000000000000002 40 16.5 52.5 31.5 26 21 12.000000000000002 12.000000000000002 8.9999999999999982 44 7.5000000000000027 14.999999999999998 48 17.000000000000004 10.499999999999998 96.5 7.4999999999999991 11.499999999999998 13.499999999999998 18 40 22.5 21 7.4999999999999991 8.9999999999999982 14.999999999999998 14.999999999999998 45 11.999999999999998 36
leaf_count=10 6 11 35 9 8 3 8 6 6 10 5 8 6 5 4 65 4 8 9 7 8 12 14 5 6 5 5 30 5 7
internal_value=0.000522816 0.00262342 0.00469438 0.00180763 -0.00430885 0.0036639 0.00259644 0.0083336 -0.00964377 0.00398991 -0.00386183 -0.00672879 0.0102674 0.00490985 -0.00417368 -0.0113308 -0.00173364 -0.00787863 -0.0088715 0.00856778 0.00709603 0.00251257 -0.00713706 0.00356498 -0.00318788 0.000727875 0.0018158 -0.00612856 0.00482036 0.00727161
internal_weight=747.5 619.5 477 266 142.5 203 182 211 128 65 48 109 146 134 63 105.5 22.5 94 25.5 98 58 66.5 82.5 33.5 21 37.5 22.5 61.5 29 67.5
internal_count=330 245 161 112 84 73 70 49 85 22 27 71 27 43 39 71 14 63 17 21 15 27 55 13 12 17 10 41 10 16
is_linear=0
shrinkage=0.05


Tree=16
num_leaves=31
num_cat=0
split_feature=10 48 2 2 2 16 40 49 2 40 2 42 7 0 2 7 2 48 0 28 0 22 2 41 19 19 44 50 32 25
split_gain=6.04865 3.23421 1.69329 1.22345 1.26851 0.94868 0.843797 0.768762 0.610798 0.415153 0.355784 0.322931 0.277556 0.180021 0.159818 0.197975 0.153598 0.132651 0.132444 0.125244 0.116011 0.104719 0.0959776 0.091447 0.147928 0.0814424 0.150115 0.0648291 0.0641167 0.0572731
threshold=0.1250506716509989 -1.9574514924966391 928835.69071090664 939879.97999360645 962556.70298914018 8.5582732546484817 73.087688629281203 0.40255752334583139 961690.59030832688 10.256170735277101 926793.80330132751 80.847017022048661 76.500000000000014 -0.51639395938746191 938944.48968868202 83.500000000000014 937100.88328590931 -2.6683908738673305 0.95297903005573359 0.32842577824274582 -0.88545602565320969 27.456276782226507 933085.16036982159 38.316214778292746 79.719622194640735 77.278899579883813 26.476358399014675 4.1195801776397012 2.5082102917883495 -0.63578948377227518
decision_type=2 2 2 2 2 2 2 2 2 2 2 2 2 2 2 2 2 2 2 2 2 2 2 2 2 2 2 2 2 2
left_child=17 11 5 22 7 10 19 9 23 -5 25 -2 18 -14 16 27 -13 -1 29 -7 -10 -19 -4 -9 -25 -3 -27 -16 -6 -11
right_child=1 2 3 4 28 6 -8 8 20 12 -12 14 13 -15 15 -17 -18 21 -20 -21 -22 -23 -24 24 -26 26 -28 -29 -30 -31
leaf_value=-0.0052230965168703174 -0.010798879094580388 0.0096567653119564063 -0.0020904295612126588 -0.0033890142682052797 -0.014280530611673992 -0.0069351695943623767 0.0074366082296226967 0.0046803696027823858 -0.0097424900780121466 0.0052637115444826047 0.012827039190701077 -0.0041879560670181034 0.0073460360890940622 0.00091672552128632873 0.0026859984360635275 -0.0080683222247494597 -0.010248488783836366 -0.011606955651749564 0.011488239811016964 0.00075527057051658639 -0.0029858316398329206 -0.005458864023288091 -0.0062830801139800597 0.0047119422485270811 -0.0018321032994068585 0.0033801892213523388 0.0088226593773940518 -0.00224461048686256 -0.0077426076432069134 0.008319525874179343
leaf_weight=10.499999999999998 23.5 32 21 10.499999999999998 7.4999999999999982 18.000000000000004 33 35 12.000000000000002 23 56 34.5 19 25.5 15.000000000000002 8.9999999999999982 14.999999999999998 90.5 26 7.4999999999999991 13.499999999999998 7.4999999999999991 39 15.499999999999998 19.5 22.5 29 11.999999999999998 7.5 46
leaf_count=7 16 5 13 7 5 12 7 11 8 7 7 22 5 10 8 6 10 61 4 3 9 5 26 5 13 9 5 8 5 8
internal_value=0.000336464 0.00222128 0.00386711 0.00162126 0.00310385 0.00750243 0.00215794 0.0039663 0.000459722 0.00619883 0.00974367 -0.00560776 0.00692049 0.00366182 -0.00418096 -0.00164612 -0.00602448 -0.0105642 0.00844692 -0.00467328 -0.00616544 -0.0111364 -0.00481565 0.00287317 0.00106597 0.00767578 0.00644488 0.000494617 -0.0110116 0.00730092
internal_weight=736 627.5 518.5 320.5 260.5 198 58.5 245.5 95.5 150 139.5 109 139.5 44.5 85.5 36 49.5 108.5 95 25.5 25.5 98 60 70 35 83.5 51.5 27 15 69
internal_count=327 254 184 136 97 48 22 87 46 41 26 70 34 15 54 22 32 73 19 15 17 66 39 29 18 19 14 16 10 15
is_linear=0
shrinkage=0.05


Tree=17
num_leaves=31
num_cat=0
split_feature=12 48 16 21 43 2 43 49 51 17 2 48 7 8 40 43 23 2 2 44 19 0 45 2 23 19 20 2 20 31
split_gain=5.75305 3.23974 1.24385 0.691783 0.719616 0.953923 0.694361 0.591647 0.433034 0.368102 0.350426 0.274861 0.251342 0.241646 0.230018 0.202207 0.190048 0.180377 0.160747 0.156506 0.142671 0.137156 0.119617 0.100975 0.0977169 0.0893267 0.0888962 0.0787433 0.0786051 0.0679393
threshold=0.12711434721294632 -1.9840607440304763 1.2093812863141322 83.42481171962298 84.198450079261548 961690.59030832688 82.916396245057555 -1.3938269524849773 3.9480801801945318 14.870505041352706 933522.35621840123 -2.7544649181825269 70.000000000000014 119.50000000000001 49.899813768487427 81.44115600236357 25.859453746990962 962331.14875402476 944203.52789658739 26.345920114508264 80.992337158018515 0.95297903005573359 27.130784155392142 957210.8146354456 26.542079477990985 78.242467907425493 83.744268036595813 955029.36524073815 82.729979455239672 4.2592214292487478
decision_type=2 2 2 2 2 2 2 2 2 2 2 2 2 2 2 2 2 2 2 2 2 2 2 2 2 2 2 2 2 2
left_child=11 8 10 4 5 6 7 -4 28 -5 13 -1 16 25 15 22 -11 27 24 -16 -12 -6 29 -13 -8 -3 -14 -10 -2 -9
right_child=1 2 3 9 21 -7 18 14 17 12 20 23 26 -15 19 -17 -18 -19 -20 -21 -22 -23 -24 -25 -26 -27 -28 -29 -30 -31
leaf_value=-0.0017280755875011284 0.0028496638250847649 0.0094179546603789712 -0.0047117449343204503 0.0035258733058491582 0.0066844116648038234 -0.0074840673969851605 -0.0061702358799102979 0.001182086963672191 -0.0074324169398649878 0.00046124165981180137 0.0065304888706458246 -0.0052314420168598497 0.0022959681176063086 0.012514813393354416 0.0049504488573542654 0.0082047707548266961 -0.0077773514366339131 -0.0010735346802643367 0.0019676065382858115 -0.0028311232725779217 7.3658907786011692e-06 0.011952979933647884 0.0080240523442625996 -0.011247703006219625 -0.00063638327022393548 0.0052732942052758662 -0.0041831352623800441 -0.0120801499911717 -0.0029185240910876366 0.0051278992742300042
leaf_weight=8.9999999999999982 13.500000000000002 26 14.999999999999998 26 30 22.5 19.5 24 69 8.9999999999999982 19 7.4999999999999991 18.000000000000004 40 14.000000000000002 76 31.5 10.499999999999998 18 11.999999999999998 14.999999999999998 21 15.999999999999998 99.5 13.499999999999998 26 7.4999999999999991 10.499999999999998 10.499999999999998 20
leaf_count=6 6 4 9 10 7 15 13 12 46 5 5 5 8 5 5 14 21 6 6 6 8 3 3 67 7 9 5 7 7 6
internal_value=0.000116982 0.0019915 0.00366648 0.00228204 0.00344011 0.00233791 0.00330719 0.00478832 -0.00564144 -0.00151314 0.00799012 -0.0101201 -0.0034982 0.0095931 0.00566795 0.00649173 -0.00594655 -0.00723278 -0.00183321 0.00135895 0.00365264 0.00885382 0.00432188 -0.010826 -0.00390639 0.00734562 0.000390349 -0.00804627 0.000326082 0.00297564
internal_weight=749.5 633.5 519.5 393.5 301.5 250.5 228 177 114 92 126 116 66 92 162 136 40.5 90 51 26 34 51 60 107 33 52 25.5 79.5 24 44
internal_count=336 258 186 155 106 96 81 55 72 49 31 78 39 18 46 35 26 59 26 11 13 10 21 72 20 13 13 53 13 18
is_linear=0
shrinkage=0.05


Tree=18
num_leaves=31
num_cat=0
split_feature=12 51 2 2 47 30 0 48 2 0 2 42 42 45 44 2 11 22 12 1 9 44 47 19 22 9 16 32 2 46
split_gain=5.00342 2.89349 1.03229 1.15119 0.837315 0.831907 0.50756 0.496493 0.813434 0.357621 0.367063 0.284494 0.259126 0.205611 0.193825 0.149673 0.131765 0.123083 0.120168 0.0810364 0.0763219 0.0746449 0.0716017 0.0658791 0.0657751 0.0511964 0.0508373 0.0502861 0.0472341 0.0469242
threshold=0.12711434721294632 3.7815401355956637 929250.6663411262 939879.97999360645 -1.8351209175064496 1.0657870733506554 -0.51639395938746191 1.0503290734136683 925199.68964952091 0.95297903005573359 953418.61470445606 80.847017022048661 81.588240005419166 26.260439556566009 26.523157096164599 962292.19349260756 0.12463008836108688 26.437613949515121 0.42059426689566287 -1.7225262015363449e-16 33.500000000000007 26.269968324467392 0.16416736030603871 82.019795141185 27.400166759482328 29.500000000000004 11.008591511882019 4.7776159235822586 955029.36524073815 -0.92183527143396171
decision_type=2 2 2 2 2 2 2 2 2 2 2 2 2 2 2 2 2 2 2 2 2 2 2 2 2 2 2 2 2 2
left_child=16 2 7 25 12 9 -7 8 17 10 11 -5 28 29 18 19 -1 -2 -9 -14 -21 -13 24 -8 -10 -4 -27 -6 -3 -12
right_child=1 4 3 5 27 6 23 14 22 -11 13 21 15 -15 -16 -17 -18 -19 -20 20 -22 -23 -24 -25 -26 26 -28 -29 -30 -31
leaf_value=-0.010450433887899879 -0.0058857011411226146 -0.0082224436104297634 -0.0013144506975853196 -0.0022481471654914676 0.0016139453010899679 -0.0083130674347991051 0.0042557950221723114 0.0088278807061059131 0.0039118284073013532 0.010397208768587846 0.00019647737758027187 0.0035708806401974452 -0.00061841007322072984 -0.0055441790726035835 0.011162353679537773 2.155126538127661e-05 -0.0048849865018079676 0.00055184484355979494 0.0043403363428436799 -0.0092143451174100232 -0.0050783292486749855 0.0071079260778504532 0.0088237057681436887 -0.0011224410807092985 0.007674126610869453 -0.002878384338691831 -0.0065456741208594947 0.0057870868000794544 -0.01196459703720533 0.0043279417923518587
leaf_weight=93.5 16.500000000000004 24 8.9999999999999982 10.499999999999998 21 21 15.500000000000002 35 26 26 13.499999999999998 18.5 7.4999999999999991 11.999999999999998 48 14.999999999999998 11.999999999999998 13.499999999999998 26 14.999999999999998 43.5 77 27 8.9999999999999982 21 13.499999999999998 31.5 10.999999999999998 12.999999999999998 14.000000000000002
leaf_count=63 11 16 6 7 9 14 5 6 8 4 6 7 5 8 6 8 8 7 8 10 29 17 4 5 4 9 21 4 9 4
internal_value=0.000264741 0.00194245 0.00382288 0.00177571 -0.0041251 0.00340136 -0.00260905 0.0064275 0.00395615 0.00499596 0.00403079 0.00556383 -0.00607047 -8.3203e-05 0.00878548 -0.00448688 -0.0098174 -0.00298881 0.00691516 -0.00551152 -0.00613885 0.00642274 0.00677168 0.00228012 0.00559286 -0.00475698 -0.00544549 0.00304846 -0.00953725 0.00229977
internal_weight=739.5 634 484 271 150 217 45.5 213 104 171.5 145.5 106 118 39.5 109 81 105.5 30 61 66 58.5 95.5 74 24.5 47 54 45 32 37 27.5
internal_count=328 257 167 113 90 77 24 54 34 53 49 31 77 18 20 52 71 18 14 44 39 24 16 10 12 36 30 13 25 10
is_linear=0
shrinkage=0.05


Tree=19
num_leaves=31
num_cat=0
split_feature=7 49 2 49 30 41 2 2 46 33 29 16 41 23 26 43 24 2 10 19 26 9 17 41 44 8 31 20 47 17
split_gain=4.98764 2.78197 1.23894 1.00609 0.781914 0.565707 0.46281 0.428248 0.362187 0.358141 0.242313 0.220305 0.18851 0.193538 0.170797 0.155363 0.138362 0.137054 0.128451 0.121327 0.11639 0.113082 0.112294 0.0895556 0.0866495 0.0863193 0.0757916 0.0710047 0.0669644 0.0594389
threshold=18.500000000000004 -2.0393823140004312 928835.69071090664 0.40255752334583139 -1.0314015720681946 57.900955249720511 939879.97999360645 956661.81976651249 2.5526615043157999 3.0806553575595674 -1.2083327212289665 14.671997339394268 45.48663720651296 27.184298932970592 -2.071056463320307 82.112766412783529 27.059166066575653 929667.84895722091 0.44387529389249558 82.874516925447026 -0.24097911768358712 115.50000000000001 19.802766738037679 71.113529737278057 26.681630686798794 109.50000000000001 3.2605463727645518 82.441785483877709 0.86258013185758975 81.791334553773154
decision_type=2 2 2 2 2 2 2 2 2 2 2 2 2 2 2 2 2 2 2 2 2 2 2 2 2 2 2 2 2 2
left_child=7 10 4 6 21 11 17 20 12 14 15 24 13 -6 -8 -2 -14 -4 -7 -13 -1 -3 -16 25 27 -17 -11 -5 -20 -9
right_child=1 2 3 5 8 18 9 29 -10 26 -12 19 16 -15 22 23 -18 -19 28 -21 -22 -23 -24 -25 -26 -27 -28 -29 -30 -31
leaf_value=-0.0047197959917143744 -0.0096184030771255501 -0.0070584805475340925 0.0028691681294731094 0.0063851491401070055 4.3239665997994916e-05 -0.009825673699378968 0.010192316873320218 -0.010480254123869695 0.013303726663192114 0.0032799558069270388 0.0017485879893813815 -0.00049674517940729863 0.0085559010257323584 0.0066820550296041699 0.0070960366604279502 -0.0025788514416806565 0.0046803490677059202 -0.0039223042101814197 -0.0056620585256152677 -0.007304112571809027 0.002609479775031408 0.00057930714628171356 0.0030558606504269368 -0.0079099199734628204 6.471527222957877e-05 -0.0080772694614198483 -0.00094073815271258356 0.0017833198917408786 -0.00055895085550016833 -0.0078359357696973688
leaf_weight=19.500000000000004 25 9.0000000000000018 12.000000000000002 19 18.5 14.999999999999998 29 76 24 26 10.499999999999998 24 105 27 49 34.5 29.5 19.5 22.500000000000004 8.9999999999999982 7.4999999999999991 10.499999999999998 26.5 18 18 8.9999999999999982 18 14.999999999999998 8.9999999999999982 29.5
leaf_count=13 17 6 5 5 8 10 4 51 3 8 5 13 17 6 9 23 9 13 15 6 4 5 9 12 9 6 10 7 5 20
internal_value=0.000517395 0.00236657 0.0037791 0.00174098 0.00661969 -0.00158356 0.00416974 -0.00830283 0.00753404 0.00533743 -0.00542417 0.000842042 0.00676475 0.00398276 0.00693075 -0.00629485 0.00770587 -0.00133508 -0.00601746 -0.0023533 -0.00268389 -0.00294583 0.00567796 -0.00494381 0.00286986 -0.00371646 0.00155331 0.00435493 -0.00420403 -0.00974085
internal_weight=764.5 632 535 311.5 223.5 131.5 180 132.5 204 148.5 97 85 180 45.5 104.5 86.5 134.5 31.5 46.5 33 27 19.5 75.5 61.5 52 43.5 44 34 31.5 105.5
internal_count=333 245 182 128 54 70 58 88 43 40 63 40 40 14 22 58 26 18 30 19 17 11 18 41 21 29 18 12 20 71
is_linear=0
shrinkage=0.05


Tree=20
num_leaves=31
num_cat=0
split_feature=7 46 2 49 28 43 2 49 47 33 2 42 41 47 49 34 16 41 2 29 1 31 42 9 8 41 0 8 25 24
split_gain=4.37756 2.27657 1.1709 0.98446 0.723565 0.65602 0.491929 0.396416 0.325594 0.254035 0.246481 0.2204 0.199095 0.197446 0.14335 0.117095 0.109912 0.106619 0.103914 0.088416 0.0881757 0.0875307 0.0806938 0.0721857 0.069589 0.0680397 0.0665117 0.0626282 0.0612701 0.0559159
threshold=19.500000000000004 -1.7839426942849206 931786.98273031309 0.1998995861850727 -1.1113881798914762 81.966655197315745 962158.25481731759 1.6860113513831629 1.1447874678523158 3.0089135784697851 956661.81976651249 82.46076490500154 80.230369488298194 -2.6995799788995272 1.0839467063517672 3309.9943345711004 16.345855405724389 71.48981385734136 939879.97999360645 0.32842577824274582 0.56806474673115548 2.1680769987036066 81.681637291643213 49.500000000000007 33.500000000000007 45.849895005084981 0.78574730703237894 62.500000000000007 -0.63578948377227518 26.074648311244111
decision_type=2 2 2 2 2 2 2 2 2 2 2 2 2 2 2 2 2 2 2 2 2 2 2 2 2 2 2 2 2 2
left_child=10 4 7 9 11 6 21 8 17 28 -1 23 18 -6 -10 -12 -15 -3 29 -17 -20 -5 -9 26 -7 -23 -2 -11 -4 -13
right_child=1 2 3 5 13 24 -8 22 14 27 15 12 -14 16 -16 19 -18 -19 20 -21 -22 25 -24 -25 -26 -27 -28 -29 -30 -31
leaf_value=-0.0031581693297872944 -0.0021211757406014095 0.0040721511985692708 0.0048716917097794288 0.0057340554554354065 0.0055733380839228632 -0.0093445210655530297 -0.0092733574410279584 0.011840827949345113 -0.0059809303283691381 -0.002584462618041369 -0.010169164814966188 -0.0052432139891953698 -0.0081932401160399113 0.0026911035800973571 0.0026405327384256654 -0.0052090728426711606 -0.0035276354228456815 0.0079851940274238593 0.0040919313650755644 -0.0098082205337105387 -0.0016735568978927203 0.0029248877055943014 0.0084722128883004191 -0.0087478574485548074 -0.0041957274057148469 -0.0010753526455826231 -0.0075702793275316555 0.0028001932979181965 0.0075788960122225579 -0.0011187209989185687
leaf_weight=22.5 10.500000000000002 27 33 22 24 7.4999999999999991 8.9999999999999982 32 7.5000000000000027 9.0000000000000018 69.5 21 14.999999999999998 13.500000000000002 13.499999999999998 28.5 14.999999999999998 49 10.500000000000002 16.5 18 50 40 31 52.5 13.499999999999998 11.999999999999998 13.499999999999998 57 13.499999999999998
leaf_count=15 7 8 9 6 6 5 6 4 5 5 47 14 10 5 5 19 10 9 4 11 10 18 6 21 35 8 8 5 10 8
internal_value=0.000146193 0.00193351 0.00390177 0.00184031 -0.00273039 -0.000750443 0.00184567 0.00715863 0.0050723 0.00539827 -0.00794241 -0.00471153 -0.00301625 0.00223191 -0.000438561 -0.00888254 -0.000581917 0.00659503 -0.00178363 -0.00689543 0.00045057 0.0030161 0.00996938 -0.00718316 -0.00483933 0.00207444 -0.00502736 0.000646331 0.00658625 -0.00362928
internal_weight=757 620 436 267 184 154.5 94.5 169 97 112.5 137 131.5 78 52.5 21 114.5 28.5 76 63 45 28.5 85.5 72 53.5 60 63.5 22.5 22.5 90 34.5
internal_count=339 247 144 107 103 78 38 37 27 29 92 82 46 21 10 77 15 17 36 30 14 32 10 36 40 26 15 10 19 22
is_linear=0
shrinkage=0.05


Tree=21
num_leaves=31
num_cat=0
split_feature=7 48 2 2 2 48 2 0 2 51 2 51 40 51 42 2 48 2 46 8 40 7 30 23 0 2 29 44 36 1
split_gain=4.09706 2.00107 1.12624 0.584991 0.458863 0.376564 0.339429 0.946934 0.2894 0.265403 0.23118 0.214217 0.172079 0.161308 0.17111 0.133463 0.124173 0.12232 0.120967 0.101092 0.0938924 0.0922072 0.0768685 0.0726174 0.0685649 0.0574268 0.055596 0.0536592 0.0531502 0.0525765
threshold=18.500000000000004 -1.9840607440304763 928835.69071090664 939879.97999360645 926392.00140437984 -0.63437600324070575 953953.12717621692 -0.1799261722714405 956661.81976651249 3.9480801801945318 962258.08521709184 2.9702423104713325 40.164489037886646 3.3035040134709663 83.204054861695212 962331.14875402476 -2.6683908738673305 947696.36608638649 -1.3939060927333509 126.50000000000001 40.913264176684372 37.500000000000007 1.5906465839924471 25.822481206609247 0.78574730703237894 937558.37226791249 -1.2083327212289665 26.292565970523473 3313.6177522108733 0.17992617227144031
decision_type=2 2 2 2 2 2 2 2 2 2 2 2 2 2 2 2 2 2 2 2 2 2 2 2 2 2 2 2 2 2
left_child=8 9 4 19 5 24 11 21 18 26 -9 22 -6 14 -7 23 -10 20 -1 29 -13 -8 -5 25 -3 -11 -2 -23 -18 -4
right_child=1 2 3 6 12 13 7 10 16 15 -12 17 -14 -15 -16 -17 28 -19 -20 -21 -22 27 -24 -25 -26 -27 -28 -29 -30 -31
leaf_value=-0.0069717231413556451 -0.0012133912364434862 -0.00020540103885448633 -0.0030842487813171112 0.0071407768875360496 0.013299265503883363 0.0053521086320732587 -0.011292704774273764 0.00084005850093329655 -0.0031882734481422678 -0.0049972584205014367 0.0077533059793969865 0.0050489271879196173 0.0076361851138343293 0.0077083801903894966 -0.00088396941622098299 -0.00029544855157534282 -0.0091617698070562276 -0.00014543922051139501 0.00036060869693756105 0.0015747001187668905 0.0005228245292197575 -0.0018513668576876315 0.0032995307364979305 -0.0032076819450594487 -0.0066784829894701641 -0.008247724465735547 0.0041557364910840989 -0.0070310973127683009 -0.0048056010901927947 -0.0066543784240881603
leaf_weight=9.0000000000000018 13.500000000000002 9.0000000000000018 33 44 15.999999999999998 33 9.0000000000000018 25.5 10.499999999999998 21 23 37.5 83 35 16.5 10.499999999999998 105.5 34.5 14.999999999999998 8.9999999999999982 16.5 7.5000000000000027 18.5 14.999999999999998 7.4999999999999991 38.5 7.4999999999999991 14.999999999999998 7.4999999999999991 14.999999999999998
leaf_count=6 8 5 22 8 2 9 6 11 7 14 4 11 13 5 8 6 71 17 9 4 8 5 6 10 5 26 3 10 5 10
internal_value=4.54038e-05 0.00189746 0.00325 0.00124832 0.00613241 0.00376129 0.00236771 -0.000265482 -0.00741303 -0.00432934 0.00411851 0.00376278 0.00855143 0.00511038 0.00327342 -0.00557291 -0.00838936 0.00218016 -0.00238902 -0.00328813 0.00366595 -0.00701543 0.00600377 -0.00631671 -0.00314771 -0.0071005 0.000704154 -0.00530452 -0.00887264 -0.00419991
internal_weight=741.5 594 488 288 200 101 231 80 147.5 106 48.5 151 99 84.5 49.5 85 123.5 88.5 24 57 54 31.5 62.5 74.5 16.5 59.5 21 22.5 113 48
internal_count=334 236 169 122 47 32 86 36 98 67 15 50 15 22 17 56 83 36 15 36 19 21 14 50 10 40 11 15 76 32
is_linear=0
shrinkage=0.05


Tree=22
num_leaves=31
num_cat=0
split_feature=7 49 16 41 2 2 7 41 2 45 41 40 0 18 2 34 2 1 17 7 23 8 2 33 41 9 46 24 41 0
split_gain=3.33843 1.96603 0.8488 0.501754 0.468871 0.433078 0.471109 0.391889 0.225651 0.216872 0.213011 0.18357 0.16785 0.145983 0.163178 0.145272 0.125847 0.117002 0.112596 0.109965 0.100271 0.102244 0.0752954 0.0718251 0.0652375 0.064924 0.0560109 0.0475069 0.0460786 0.0413798
threshold=18.500000000000004 -2.0393823140004312 5.5387582909018427 92.998474370063647 933085.16036982159 939879.97999360645 177.00000000000003 55.111885702252835 956661.81976651249 26.23137204961116 66.639369057092125 49.064886859440584 0.51639395938746258 95.741349431030912 944695.49735721631 3309.9943345711004 962331.14875402476 0.8542199457734333 30.434954539323893 119.50000000000001 27.184298932970592 168.00000000000003 945686.42789988394 2.3653221696445121 59.244926618662667 57.500000000000007 -0.83767374241689552 25.798252950490141 29.939861863922264 -0.61559370248597534
decision_type=2 2 2 2 2 2 2 2 2 2 2 2 2 2 2 2 2 2 2 2 2 2 2 2 2 2 2 2 2 2
left_child=8 16 4 5 9 6 20 11 27 -3 23 13 25 14 -7 -10 22 -17 -13 29 21 -4 24 -6 28 -9 -16 -1 -2 -11
right_child=1 2 3 -5 10 7 -8 12 15 19 -12 18 -14 -15 26 17 -18 -19 -20 -21 -22 -23 -24 -25 -26 -27 -28 -29 -30 -31
leaf_value=-0.0056533020672698796 -0.005089432073550091 -0.00023379076479209792 -0.004710736607580826 0.0074669967591762549 0.0054628293718332836 0.005342582667089371 0.0052703822129651122 -0.009682514270146679 -0.0093863756360864289 0.0074481319636106498 -0.0044426258298612782 0.0024452729095869202 0.0018252113390536534 0.0070689456445760419 -0.0014807814142356317 -0.0070978592046433038 0.0002206651493906975 -0.0010993010719262419 -0.0036710571083757612 0.0096701242029666908 0.0015770002371735044 0.00059310002695946466 -0.0076186251084683302 0.0018229970990708382 -0.0064204868899347886 -0.0035915820016747431 0.0022220560640562326 -0.00077954949811100962 -0.0011505662308384976 0.0049395116642117504
leaf_weight=7.5000000000000027 13.500000000000002 8.9999999999999982 67.5 30 23 41.5 19 7.5000000000000062 66.5 48 10.499999999999998 17.000000000000004 10.499999999999998 30.5 14.999999999999998 36 10.499999999999998 10.499999999999998 13.499999999999998 48 8.9999999999999982 10.499999999999998 29.5 33 24 10.499999999999998 32 14.999999999999998 16.5 25
leaf_count=5 9 4 45 6 6 11 4 5 45 7 6 6 4 5 9 24 6 7 9 6 3 4 20 14 16 7 11 10 11 7
internal_value=0.000116621 0.00170662 0.0029302 0.00131736 0.00550746 0.000667753 -0.00186242 0.00217449 -0.00697677 0.00725431 0.00209258 0.00319883 -0.0031988 0.00408583 0.00305775 -0.00788725 -0.00493847 -0.00574335 -0.000261955 0.00781127 -0.00342016 -0.00399676 -0.00558722 0.00331793 -0.00447747 -0.00612947 0.0010403 -0.00240413 -0.00292306 0.00658902
internal_weight=740 604.5 510.5 314 196.5 284 106 178 135.5 130 66.5 149.5 28.5 119 88.5 113 94 46.5 30.5 121 87 78 83.5 56 54 18 47 22.5 30 73
internal_count=332 241 179 129 50 123 56 67 91 24 26 51 16 36 31 76 62 31 15 20 52 49 56 20 36 12 20 15 20 14
is_linear=0
shrinkage=0.05


Tree=23
num_leaves=31
num_cat=0
split_feature=15 49 16 0 19 8 0 47 8 23 29 20 48 7 32 2 48 41 2 46 43 15 22 18 16 33 46 45 8 0
split_gain=2.93032 1.93935 0.823052 0.530116 0.477083 0.282085 0.439145 0.289619 0.235918 0.234438 0.220583 0.191079 0.180378 0.171158 0.137906 0.122915 0.110499 0.110958 0.100839 0.094759 0.081665 0.0781915 0.0742397 0.0734723 0.0697431 0.068352 0.0626644 0.0619592 0.059102 0.0860525
threshold=0.11966055289956204 -2.0393823140004312 1.2093812863141322 0.95297903005573359 82.198063680545616 70.000000000000014 0.06026834012766185 -1.8351209175064496 104.50000000000001 26.196547445846708 -1.1152500177108708 82.567289392403964 -2.7544649181825269 168.00000000000003 1.928012961638961 962331.14875402476 0.86747172873396583 45.849895005084981 955029.36524073815 -0.83767374241689552 82.621698969070152 0.90472127514312917 26.372563185692325 0.77664150689342459 30.012758904942 3.4732032409926874 -1.0955641013305337 25.681992045938976 81.500000000000014 0.12053668025532312
decision_type=2 2 2 2 2 2 2 2 2 2 2 2 2 2 2 2 2 2 2 2 2 2 2 2 2 2 2 2 2 2
left_child=12 10 8 4 9 6 -6 -8 23 13 15 21 -1 22 -11 18 19 -18 27 -16 26 -7 -4 -3 -13 -25 -14 -2 29 -21
right_child=1 2 3 -5 5 11 7 -9 -10 14 -12 24 20 -15 16 -17 17 -19 -20 28 -22 -23 -24 25 -26 -27 -28 -29 -30 -31
leaf_value=-0.00048846372713645301 -0.0057262000528862699 0.0059057916055864365 -0.0033718881756067279 0.0086021578082671538 -0.0060765753309893356 0.0012372087886823077 -0.0050559843942109082 0.0038343711511084908 0.0086290319273171351 0.0066353470832109449 0.0017198595735761855 0.00016336720436811443 -0.0076399591416120537 0.0049892822812710493 0.0008030735318445497 -0.00032093526727597544 0.0027358543425281012 -0.0037316979929095228 -0.0095276881908548296 0.0010406470660007361 -0.0090002249598503115 0.0054356312498133235 0.00068984933818380038 0.00010337072735031445 -0.0056592521568139403 0.0048014570493251085 -0.0035521095742781957 -0.0022665183447922272 0.0070787571725391216 0.005772643892661385
leaf_weight=8.9999999999999982 60 33.5 22.5 26 46.5 21 13.499999999999998 28.5 60.5 35 13.499999999999998 12.000000000000002 25 13.999999999999998 18 11.999999999999998 18.000000000000004 10.499999999999998 14.499999999999998 16.5 62.5 23.5 22.5 15.000000000000002 8.9999999999999982 15.999999999999998 14.999999999999998 16.5 21 23
leaf_count=6 40 8 15 4 31 10 9 9 9 7 6 6 17 4 8 7 7 6 10 6 42 6 10 7 6 4 10 11 3 4
internal_value=0.00018944 0.00152649 0.0028656 0.00171055 0.00120581 -0.000888254 -0.00272923 0.000976757 0.00638619 0.00281022 -0.00428974 0.00159917 -0.00727525 0.000161086 0.00391092 -0.0050774 0.00301975 0.000353072 -0.00570463 0.00398791 -0.00787117 0.00345435 -0.00134102 0.00428245 -0.00233204 0.00252819 -0.00610702 -0.00497999 0.00493546 0.00379599
internal_weight=734 622.5 506 381 355 154 88.5 42 125 201 116.5 65.5 111.5 59 142 103 107 28.5 91 78.5 102.5 44.5 45 64.5 21 31 40 76.5 60.5 39.5
internal_count=328 253 179 151 147 77 49 18 28 70 74 28 75 29 41 68 34 13 61 21 69 16 25 19 12 11 27 51 13 10
is_linear=0
shrinkage=0.05


Tree=24
num_leaves=31
num_cat=0
split_feature=10 49 16 23 46 49 5 8 40 5 5 5 33 21 16 8 49 34 5 19 44 29 26 5 9 22 50 45 5 9
split_gain=2.99241 1.65597 0.659146 0.511594 0.464757 0.377611 0.363443 0.331855 0.252527 0.238268 0.203201 0.184463 0.12841 0.121768 0.159578 0.115134 0.112585 0.102991 0.113123 0.0986965 0.114002 0.0939069 0.0867883 0.0818259 0.0751706 0.070345 0.0660565 0.0559907 0.0547982 0.0490828
threshold=0.19727720495050224 -2.0393823140004312 8.5582732546484817 25.395006314376012 -1.6279013007760019 0.91733434699893579 3195.7775956020723 72.500000000000014 40.426087952306609 3288.5706584421318 3185.8979265071971 3307.9253368134491 2.8709090578491741 83.329616876968217 20.181781339728406 74.500000000000014 1.0000000180025095e-35 3309.9943345711004 3309.0497546487786 77.278899579883813 26.437906965199506 1.3157720526585723 -0.24097911768358712 3250.8422251423603 33.500000000000007 27.12595146150808 3.5151545675479925 26.477640907541875 3229.2704557054217 57.500000000000007
decision_type=2 2 2 2 2 2 2 2 2 2 2 2 2 2 2 2 2 2 2 2 2 2 2 2 2 2 2 2 2 2
left_child=9 11 6 -4 15 13 10 -7 21 22 19 23 27 14 -6 -5 -15 -11 -19 -3 -21 -8 28 24 -2 29 -16 -9 -1 -10
right_child=1 2 3 4 5 7 8 12 25 17 -12 -13 -14 16 26 -17 -18 18 -20 20 -22 -23 -24 -25 -26 -27 -28 -29 -30 -31
leaf_value=-0.0061368788636866033 -0.0070751103538054015 0.0072781019285321248 0.0077321066424764443 -0.0053392703786040796 -0.0011101051268202287 -0.0053739938754261592 0.0064870419983680434 -0.0038313443617274353 -0.0065843249360720254 -0.0085067866479649253 0.0095586089789867421 0.001567551858412723 0.0035339224055923263 0.0027091938498857854 0.0052525904643053786 -0.00022391578267243778 -0.0037731120806364787 -0.00041932762315910721 -0.0066614865710337952 0.0010990596731149016 0.0056484250351786615 0.0018266101443284268 0.0025965402275323866 -0.0070990293256698121 -0.0027462423922350772 0.0014342602031926315 0.0017904668171523199 0.0016757695252696673 -0.00054105568366746111 -0.0011075526527646515
leaf_weight=10.500000000000005 13.499999999999998 40 29 33 13.499999999999998 28.5 26 12.000000000000002 7.5000000000000062 68 40 11.999999999999998 29 18.500000000000004 83.5 16.5 10.499999999999998 8.9999999999999982 37.5 21 40 18.5 7.4999999999999991 31 39 11.999999999999998 16.5 7.4999999999999991 7.4999999999999991 8.9999999999999982
leaf_count=7 9 6 5 22 6 19 5 7 5 46 5 6 11 6 18 8 7 6 25 9 8 6 4 21 26 5 6 3 5 6
internal_value=0.000296683 0.00181536 0.00294279 0.00142251 0.000742292 0.00172923 0.00505982 -0.00109199 0.00219611 -0.0062933 0.00654245 -0.00422908 0.00142425 0.00325368 0.00399249 -0.00363415 0.000362152 -0.00726674 -0.00545333 0.00534793 0.00408225 0.00454956 -0.0019224 -0.00506212 -0.00385938 -0.00147857 0.00468134 -0.00171322 -0.00380529 -0.00359699
internal_weight=747.5 607.5 512 298 269 219.5 214 77 73 140 141 95.5 48.5 142.5 113.5 49.5 29 114.5 46.5 101 61 44.5 25.5 83.5 52.5 28.5 100 19.5 18 16.5
internal_count=328 235 173 118 113 83 55 40 27 93 28 62 21 43 30 30 13 77 31 23 17 11 16 56 35 16 24 10 12 11
is_linear=0
shrinkage=0.05


Tree=25
num_leaves=31
num_cat=0
split_feature=7 1 2 21 43 2 2 2 9 7 7 25 0 19 0 9 43 26 12 42 1 34 25 46 31 41 2 40 19 23
split_gain=2.60757 1.09495 0.800063 0.489988 0.400539 0.312342 0.29832 0.296869 0.26519 0.215907 0.190075 0.173503 0.151089 0.144754 0.135037 0.116796 0.102861 0.0628165 0.0626547 0.0743037 0.0540572 0.0513939 0.100011 0.0447976 0.0441694 0.0531501 0.0438462 0.0372498 0.0540062 0.0358205
threshold=12.500000000000002 -1.7225262015363449e-16 931358.71542249026 82.184472405508615 84.198450079261548 950781.94788297673 938944.48968868202 962292.19349260756 81.500000000000014 168.00000000000003 57.500000000000007 -2.020420213456505 0.91023613416931248 82.233598753684717 0.78574730703237894 145.50000000000003 82.916396245057555 -0.94926382792551089 0.36340616186025182 82.46076490500154 0.91023613416931248 3310.188648689214 -1.6918728195214048 -0.1561158213300759 2.7277960996252437 38.316214778292746 956661.81976651249 56.444445990433131 78.396059771423083 26.306500456022128
decision_type=2 2 2 2 2 2 2 2 2 2 2 2 2 2 2 2 2 2 2 2 2 2 2 2 2 2 2 2 2 2
left_child=21 2 8 9 5 6 -4 15 11 13 -7 -2 -9 16 24 18 23 -12 -5 -20 29 26 -23 -3 -8 -26 -1 -13 -29 -15
right_child=1 3 4 7 -6 10 14 12 -10 -11 17 27 -14 20 -16 -17 -18 -19 19 -21 -22 22 -24 -25 25 -27 -28 28 -30 -31
leaf_value=-0.0043383585377818066 -0.0019312266615175067 0.0049009341001510637 -0.0026053867772191999 -0.0066567503743701524 0.0068022629670929499 -0.0079884683575343202 0.0047062920363143438 -0.0024952193954959506 0.0081669307417339739 0.0060675977983257988 0.0016589430057340198 0.005837933978308802 0.0049266763962805271 -0.0059614044569787491 -0.0024586197521005359 0.0001339245525499185 -0.0013511392474174499 -0.0026043985553163415 -0.0057753431486586735 -0.0025628737316259909 0.00066963169309828023 -0.00096387616499019459 -0.0068145164288580425 0.00094573494224321243 0.0033292166952942981 -0.00063429212286358796 -0.0078082014174356952 0.0019584043836221097 0.0058557411655783655 -0.0014371492465337118
leaf_weight=10.499999999999998 10.499999999999998 22.499999999999996 31.5 27 28.5 13.499999999999998 43 12.000000000000002 72 22 13.499999999999998 46 15.999999999999998 10.500000000000005 10.499999999999998 14.999999999999998 14.999999999999998 24 30 45 8.9999999999999982 10.499999999999998 24 10.500000000000002 43.5 10.499999999999998 68.5 20 15.999999999999998 7.4999999999999991
leaf_count=7 6 6 21 18 6 9 10 8 9 4 6 9 4 7 7 7 7 16 20 29 4 7 16 5 14 5 46 7 4 4
internal_value=0.00032805 0.00159416 0.00325771 -0.00103865 0.00127486 0.000445748 0.00167371 -0.00287882 0.00589147 0.00171211 -0.00290106 0.00412029 0.00174586 0.0004345 0.00292759 -0.00398558 0.00208196 -0.0010696 -0.00459139 -0.00384786 -0.00249432 -0.00664391 -0.00503389 0.00364246 0.00351063 0.00255853 -0.00734702 0.00489518 0.00369055 -0.0040763
internal_weight=738.5 625 383 242 218.5 190 139 145 164.5 97 51 92.5 28 75 107.5 117 48 37.5 102 75 27 113.5 34.5 33 97 54 79 82 36 18
internal_count=328 252 129 123 94 88 57 86 35 37 31 26 12 33 36 74 18 22 67 49 15 76 23 11 29 19 53 20 11 11
is_linear=0
shrinkage=0.05


Tree=26
num_leaves=31
num_cat=0
split_feature=15 51 47 47 21 0 17 50 48 30 50 42 7 23 23 45 43 51 23 51 51 33 43 27 51 41 50 1 17 50
split_gain=2.43565 1.40355 0.475029 0.466596 0.515805 0.249979 0.272252 0.189297 0.247833 0.157918 0.115721 0.11418 0.100705 0.0875281 0.0833238 0.0786578 0.0763077 0.0747382 0.0744231 0.0984558 0.0681453 0.0646443 0.0631352 0.0682482 0.0584759 0.0578347 0.0494702 0.0428442 0.0418003 0.0347448
threshold=0.11966055289956204 3.7815401355956637 -1.8351209175064496 1.6693607172334557 79.944537446385525 0.98182534576205316 15.7028356113795 2.9882073245042218 0.6414792187435262 3.1183510819330453 4.8846964373799731 81.776583909861699 57.500000000000007 25.998880509930927 26.196547445846708 26.722044864679969 81.913265043853741 3.1233482985343994 26.897867124443611 3.0234772100285077 2.7936067719081197 3.5924398339588843 82.621698969070152 -0.71077210100171373 2.8726250067432804 45.849895005084981 3.1669796738570697 -1.7225262015363449e-16 125.5349243674478 2.5910119401274287
decision_type=2 2 2 2 2 2 2 2 2 2 2 2 2 2 2 2 2 2 2 2 2 2 2 2 2 2 2 2 2 2
left_child=10 3 16 4 11 6 18 8 24 15 22 17 -9 -13 -15 -5 -3 -2 19 -6 -10 -14 23 -1 -8 -4 29 -18 -29 -16
right_child=1 2 25 9 5 -7 7 12 20 -11 -12 13 21 14 26 -17 27 -19 -20 -21 -22 -23 -24 -25 -26 -27 -28 28 -30 -31
leaf_value=-0.0073420495703452968 0.003116261019992332 -0.0070782381743192679 0.002926282475477663 0.0016583255912748078 -0.0015137898247866404 0.006386638515525395 0.0056191120296716695 -0.005090813360191764 -0.0038445467362180352 0.0091781487688422213 -0.00054547797267635672 0.0074863527108121808 -0.0035230087850129967 0.0016340426371797272 0.0046490230074484051 0.0064579558999914872 -0.00031108438968658453 -0.0022265691051466599 0.0040160540255564673 0.0028787554829166487 0.00077014815760776409 0.00072932107708393007 -0.0079207824102339851 -0.0031228234163588951 0.001637827977538109 -0.001404527286511092 0.0027474674924805359 -0.0038203500620112188 -0.00746869155102306 0.0069674332080216245
leaf_weight=20.5 24 25 29 15.499999999999998 21 18 17.5 31.5 24 32 7.4999999999999991 27 16.5 23 36.5 19 7.4999999999999991 8.9999999999999982 39.5 32.5 11.999999999999998 19.5 65.5 18 19.5 10.499999999999998 18.5 61.5 8.9999999999999982 29
leaf_count=14 7 17 10 7 12 3 4 21 16 4 5 4 10 8 9 3 5 5 9 11 6 9 44 12 8 7 5 41 6 5
internal_value=0.00026592 0.00147592 -0.00288663 0.0027577 0.00213949 0.000709105 0.000271436 -0.00111761 0.000647189 0.00664821 -0.00654372 0.00429364 -0.0030262 0.00494244 0.00430052 0.0043016 -0.00467436 0.00165913 0.00236994 0.00115458 -0.00230632 -0.00121966 -0.00697629 -0.00536942 0.00352087 0.00177505 0.00503063 -0.00390388 -0.0042861 0.00567549
internal_weight=739 627.5 142.5 485 418.5 251.5 233.5 140.5 73 66.5 111.5 167 67.5 134 107 34.5 103 33 93 53.5 36 36 104 38.5 37 39.5 84 78 70.5 65.5
internal_count=327 252 86 166 152 109 106 74 34 14 75 43 40 31 27 10 69 12 32 23 22 19 70 26 12 17 19 52 47 14
is_linear=0
shrinkage=0.05


Tree=27
num_leaves=31
num_cat=0
split_feature=12 49 5 5 49 5 1 5 33 9 21 50 41 10 50 29 44 43 27 45 44 0 44 7 7 9 17 27 45 9
split_gain=2.08208 1.09343 0.720595 0.423753 0.408895 0.392518 0.363934 0.24263 0.194844 0.170187 0.127014 0.095727 0.0830899 0.0813536 0.0711043 0.0709731 0.0676291 0.0655749 0.0620109 0.0615384 0.0521557 0.0651773 0.0471337 0.0460261 0.0415825 0.0340079 0.0332984 0.0277365 0.0266383 0.0264985
threshold=0.12711434721294632 -2.0153340138581846 3194.3435104508158 3230.8822833742051 0.1998995861850727 3307.4610286139273 0.12053668025532312 3188.6829237243501 3.0806553575595674 81.500000000000014 85.456718975800555 4.8846964373799731 38.316214778292746 0.33696923210468249 2.6335515188583001 -2.9979955056742544 26.262972801738847 82.674015028186346 -1.0815009910899216 25.766951664965998 27.136147759440657 -0.2393156642875576 26.482982963560584 4.5000000000000009 70.000000000000014 70.000000000000014 5.9660211782589263 -2.8493639821124783 25.306835625965871 31.500000000000004
decision_type=2 2 2 2 2 2 2 2 2 2 2 2 2 2 2 2 2 2 2 2 2 2 2 2 2 2 2 2 2 2
left_child=11 10 6 22 8 12 9 -8 25 16 19 17 -6 -10 -7 -12 -3 18 -1 28 21 -18 29 -20 -15 -5 -14 -21 -2 -4
right_child=1 2 3 4 5 14 7 -9 13 -11 15 -13 26 24 -16 -17 20 -19 23 27 -22 -23 -24 -25 -26 -27 -28 -29 -30 -31
leaf_value=-0.006660283029079438 -0.0038513908162713054 0.0067060578953136094 -0.0068792150252395216 0.0054468860993600963 0.0025702664331394309 -0.0025721062595645589 -0.0037665996842810678 0.0034124737934154627 -0.0029494567818584899 0.0077331348787993198 -0.0031971856589532556 -0.00051820400609964669 0.0013238168826016283 0.0038419194945267274 -0.0071510426509074675 0.0018000152955452602 0.0037144521189232667 -0.0073985179711598906 -0.0058117697222365254 0.00039517304549614572 0.0055205283420426514 -0.00064559864501158401 -0.0014649448605875174 -0.0011956682877132187 0.00071292725495166256 0.0032107511981132823 -0.0020237491394464787 -0.003585958072826976 -0.0060809898316054739 -0.0036978719416462507
leaf_weight=25 21 22 8.9999999999999982 61.5 47 14.999999999999998 18 34 10.499999999999998 64 13.500000000000002 7.4999999999999991 12.000000000000002 17.5 19.5 14.999999999999998 30 64 9.0000000000000018 7.5000000000000027 21 11.999999999999998 19.5 13.499999999999998 27 23.5 19.5 10.499999999999998 37 24
leaf_count=17 14 4 6 11 15 10 12 9 7 8 9 5 5 5 13 8 8 43 6 5 4 6 13 9 11 7 13 7 25 16
internal_value=6.45803e-05 0.00124303 0.00220378 0.000674041 0.00152232 -0.000715059 0.00452884 0.00092741 0.00332821 0.00578571 -0.00341365 -0.0059861 0.00123854 0.00100933 -0.0051602 -0.00056708 0.00431942 -0.0063539 -0.00494641 -0.00448111 0.00348599 0.00246872 -0.00341387 -0.00304211 0.00194343 0.00482866 -0.000748486 -0.00192715 -0.00527372 -0.00456551
internal_weight=730 611 506.5 305.5 253 113 201 52 140 149 104.5 119 78.5 55 34.5 28.5 85 111.5 47.5 76 63 42 52.5 22.5 44.5 85 31.5 18 58 33
internal_count=331 251 183 132 97 56 51 21 41 30 68 80 33 23 23 17 22 75 32 51 18 14 35 15 16 18 18 12 39 22
is_linear=0
shrinkage=0.05


Tree=28
num_leaves=31
num_cat=0
split_feature=12 51 21 46 30 0 23 31 17 40 21 42 51 45 44 2 22 7 21 51 17 26 43 32 46 25 42 20 20 7
split_gain=1.93526 1.09766 0.337214 0.379489 0.324409 0.260731 0.280196 0.226576 0.166097 0.111808 0.108267 0.106656 0.0948907 0.081928 0.0721511 0.0703808 0.0702255 0.0643632 0.10073 0.0607873 0.0600862 0.060538 0.0535698 0.0494595 0.0487173 0.0468816 0.0467356 0.0443584 0.0416185 0.0384402
threshold=0.12711434721294632 3.7815401355956637 83.540062847005117 2.5526615043157999 -0.84699227948123379 0.95297903005573359 26.714875967121369 2.9012518020756004 36.64803032247989 25.537891332121603 83.329616876968217 80.847017022048661 2.4561593475211096 26.373042358523502 26.815834947297297 962292.19349260756 26.235489243987697 168.00000000000003 80.754434768057379 4.0922417111778762 13.681682421442046 1.0118716384199702 82.621698969070152 4.5381784462914556 -1.3426625889102957 -1.9011180188205847 82.350641125542168 79.874997409875235 82.25299521997691 4.5000000000000009
decision_type=2 2 2 2 2 2 2 2 2 2 2 2 2 2 2 2 2 2 2 2 2 2 2 2 2 2 2 2 2 2
left_child=22 2 3 5 11 6 7 9 14 -2 27 -3 -8 16 26 19 -10 18 -11 25 -14 -22 24 -6 -1 -13 -4 -9 -20 -26
right_child=1 4 8 -5 23 -7 12 10 13 17 -12 15 20 -15 -16 -17 -18 -19 28 -21 21 -23 -24 -25 29 -27 -28 -29 -30 -31
leaf_value=-0.0068176517712658855 -0.0052245192229747779 -0.0067895981520414359 0.004285184012071507 0.0091110686461130779 -7.2342911735177041e-05 0.0079750356220063719 0.0013106907214053343 -0.00020682538831324289 -0.0033457486560412985 0.0039436703416663157 0.0027707272171974186 -0.0030638449243269861 0.005175456230991457 -0.0052585091027948592 -0.0022408220916986465 0.00022870775450159003 0.0022534167837528958 0.0057118950411677366 0.0012505421940332802 -0.004830277583221354 0.00087082759978679512 0.0052757357175533589 -0.0067566656304763693 0.0035981954405865362 -0.0055081109205881744 0.0014650312811136247 0.00098404288657155691 -0.0032994719611031962 -0.0028599812519840072 -0.0015636035799980166
leaf_weight=14.499999999999998 4.4999999999999991 25 18.5 24 22.5 21 30.5 16.5 12.000000000000002 35.5 12.499999999999998 24.000000000000004 81.5 18 10.499999999999998 13.499999999999998 10.499999999999998 15.999999999999998 19.500000000000004 46.5 19.5 12.999999999999998 77.5 15.499999999999998 10.500000000000002 7.4999999999999991 25.5 39 8.9999999999999982 14.999999999999998
leaf_count=10 3 17 5 3 12 3 11 7 8 8 4 16 16 12 6 7 4 3 8 31 9 2 52 5 7 5 12 25 6 10
internal_value=-0.000128628 0.00103565 0.00231636 0.00304839 -0.0025868 0.00259083 0.00221013 0.000715201 -0.000318957 0.00244409 -0.0014332 -0.00389532 0.00378783 -0.00274423 0.00148331 -0.00310453 -0.000732805 0.00287545 0.00216634 -0.00368144 0.00445057 0.00263279 -0.00598967 0.00142485 -0.00450363 -0.00198554 0.00237202 -0.00238004 -4.75178e-05 -0.00318781
internal_weight=709 591.5 437 342 154.5 318 297 152.5 95 84.5 68 116.5 144.5 40.5 54.5 91.5 22.5 80 64 78 114 32.5 117.5 38 40 31.5 44 55.5 28.5 25.5
internal_count=327 248 155 108 93 105 102 64 47 28 36 76 38 24 23 59 12 25 22 52 27 11 79 17 27 21 17 32 14 17
is_linear=0
shrinkage=0.05


Tree=29
num_leaves=31
num_cat=0
split_feature=13 51 49 17 25 24 2 13 31 14 2 22 20 44 31 20 43 2 50 40 51 23 41 44 19 42 32 36 17 27
split_gain=1.75502 0.989162 0.378374 0.427641 0.284569 0.232879 0.180369 0.149477 0.13878 0.123505 0.123221 0.117979 0.101737 0.0895852 0.0859784 0.0842516 0.0808075 0.0731249 0.067162 0.0661139 0.0741685 0.0690908 0.0813444 0.0651728 0.0617026 0.0563528 0.0529918 0.0468131 0.0461178 0.0411115
threshold=0.18772269152497018 3.7815401355956637 1.6860113513831629 13.681682421442046 -0.24097911768358712 25.744500030644286 956661.81976651249 0.43147894702996775 3.6644855202575535 0.12497255747618048 962292.19349260756 25.371798440271288 84.067829126422964 26.262972801738847 4.4605356575958988 76.646515127138841 81.966655197315745 955029.36524073815 4.8846964373799731 1.3892755111333637 2.5351611615381846 26.374353044996841 54.720345525498352 26.60193671306974 81.324255863401461 81.816267370207058 2.770906617809286 3313.6177522108733 53.589641317535147 -3.4537225022808067
decision_type=2 2 2 2 2 2 2 2 2 2 2 2 2 2 2 2 2 2 2 2 2 2 2 2 2 2 2 2 2 2
left_child=6 2 3 9 10 14 25 23 -4 -2 17 -11 13 26 -5 -13 -15 29 27 -17 24 22 -22 -7 -21 -1 -9 -8 -6 -3
right_child=1 4 8 5 28 7 18 12 -10 11 -12 15 -14 16 -16 19 -18 -19 -20 20 21 -23 -24 -25 -26 -27 -28 -29 -30 -31
leaf_value=-0.0033978748050602992 -0.010869260629018149 -0.0058539784090085468 0.0068276941144595985 0.00098059720870467934 0.00025591990076160681 -0.0049622139738251768 -0.0064007795570844121 0.0037681584028487511 0.0022321907459231824 0.0094755947589874271 0.00067236412316560744 0.0058412161552243765 -0.0039546367884786045 0.0013314312474953162 0.0059986077641185969 -0.0045397616922855377 -0.0031293462754951582 -0.0074718175777073572 -0.0012191052859028182 0.0020494856152006168 -0.0017233059140077485 0.0042504808391751235 0.0034838827326893807 -0.00066587559326931282 -0.0032021035254001617 0.00095804050840713351 0.00068961693432883944 -0.0023043685096005599 0.0040012503266334534 -0.0030635904806496747
leaf_weight=16.500000000000004 1.4999999999999989 16.5 57.5 15.499999999999998 24 25.5 99.5 23.5 23 7.9999999999999991 14.999999999999998 27 13.499999999999998 18.5 19 2.9999999999999991 22.5 14.499999999999998 7.4999999999999991 22.000000000000004 11.999999999999998 86.5 20 13.499999999999998 7.4999999999999991 13.499999999999998 34.5 7.4999999999999991 12.499999999999998 66
leaf_count=11 1 11 9 7 12 17 67 6 7 1 8 5 9 7 4 2 15 10 5 6 7 18 6 8 5 8 14 5 4 44
internal_value=5.99304e-05 0.00124681 0.00240548 0.00173536 -0.00229553 3.66888e-05 -0.00488882 -0.000807582 0.00551469 0.00342044 -0.00354503 0.00353568 0.00011713 0.000672371 0.00374414 0.00326871 -0.00111656 -0.00419721 -0.00579304 0.00280873 0.00295769 0.00351616 0.00153119 -0.00347502 0.000714336 -0.00143771 0.00193696 -0.00611365 0.00153857 -0.00362167
internal_weight=747 602.5 454 373.5 148.5 186 144.5 151.5 80.5 187.5 112 186 112.5 99 34.5 178 41 97 114.5 151 148 118.5 32 39 29.5 30 58 107 36.5 82.5
internal_count=339 243 154 138 89 87 96 76 16 51 73 50 51 42 11 49 22 65 77 44 42 31 13 25 11 19 20 72 16 55
is_linear=0
shrinkage=0.05


Tree=30
num_leaves=31
num_cat=0
